solver_type L2R_LR
nr_class 7
label 0 1 2 5 6 3 4
nr_feature 10595
bias -1
w
0.8796875584025451 -0.8797160057083152 -0.8797158491132812 -0.8797263638056757 -0.879715405899123 -0.8797144995821153 -0.879708513431417 
0.3982375848499059 -0.4009036528095938 -0.4009058705070073 -0.400429180243159 -0.4010318048453786 -0.4009274851992342 -0.4009692657188408 
0.3982375848499059 -0.4009036528095938 -0.4009058705070073 -0.400429180243159 -0.4010318048453786 -0.4009274851992342 -0.4009692657188408 
1.633668123655222 -1.63350883920028 -1.633509080790575 -1.633502156457867 -1.633511435871265 -1.633509129948808 -1.633452816911961 
0 -0.6748364129420749 -0.6748364485529879 0 -0.6748536974518662 -0.6748360121717822 -0.6748656704693183 
3.36999965047589 -3.368366114465951 -3.368325248268356 -3.367783331192656 -3.367277577273222 -3.368129717617915 -3.366774275275636 
-0.3982375848499059 0.4009036528095938 -0.4009058705070073 -0.400429180243159 -0.4010318048453786 -0.4009274851992342 -0.4009692657188408 
-0.3982375848499059 -0.4009036528095938 0.4009058705070073 -0.400429180243159 -0.4010318048453786 -0.4009274851992342 -0.4009692657188408 
-3.329868549262803 -3.328239597931164 -3.32820242487798 1.709730851705677 -1.709453938582702 -3.327993739921636 -3.326609340695606 
-3.338060635949335 -3.336427295556165 -3.336389261464625 -3.335793155198038 3.11620731425502 -3.336182510308421 -3.116336586459286 
3.205367922570475 -3.203928731885542 -3.203906062216347 -3.203232643164327 -3.203030842002529 -3.203701466441573 -3.202437099102135 
2.810270810982454 -4.553095768429764 -4.552956831949974 -2.811056438889009 -4.553276264952778 -4.553361886807817 -4.553556964442555 
2.011356991512547 -2.009704127187952 -2.009708559720133 -2.009432417822707 -2.009654051532572 -2.00968241481939 -2.009025201733267 
1.04253670345109 -1.042597383586463 -1.042597450859529 -1.042590432609568 -1.042596163046292 -1.042597874754713 -1.042602429272126 
3.608816800078585 -3.608833642133591 -3.608884212976393 -3.609089691913101 -3.609662864898408 -3.609075549425927 -3.609814013679819 
1.920701872412812 -1.919336780420684 -1.91934012752274 -1.919156995240632 -1.91931661371063 -1.919324996530974 -1.918822681209434 
0.3982375848499059 -0.4009036528095938 -0.4009058705070073 -0.400429180243159 -0.4010318048453786 -0.4009274851992342 -0.4009692657188408 
5.410767002437894 -5.403859441072686 -5.405119148840557 -5.407818184378976 -5.405616696355871 -5.404241274446322 -5.40577514946923 
0.3982375848499059 -0.4009036528095938 -0.4009058705070073 -0.400429180243159 -0.4010318048453786 -0.4009274851992342 -0.4009692657188408 
5.555062783168145 -6.276627606101998 -6.276797066962233 -6.273054768737151 -5.827285767155137 -6.271872686981019 -5.923759472281644 
3.686097022783999 -5.405409831569325 -5.405847944682545 -5.415501294530099 -3.758378788311671 -5.407410995738469 -5.134800885113863 
5.360317756879195 -6.136913321135132 -6.136624189503547 -6.004098525780614 -5.593892906255899 -6.010353736275353 -6.004870478254574 
0.8796875584025451 -0.8797160057083152 -0.8797158491132812 -0.8797263638056757 -0.879715405899123 -0.8797144995821153 -0.879708513431417 
2.919153685361105 -4.607884911206557 -4.440005101669376 -4.609556220484759 -3.259197933262126 -4.608227113298055 -3.838709710657981 
0.3982375848499059 -0.4009036528095938 -0.4009058705070073 -0.400429180243159 -0.4010318048453786 -0.4009274851992342 -0.4009692657188408 
4.427849413854919 -4.426735657059636 -4.42651288047436 -4.428769573605122 -4.426792594680466 -4.427073598941111 -4.427274482742365 
3.58589162882271 -3.585590708199358 -3.585618440469628 -3.585743740865909 -3.585983700310801 -3.585743487315892 -3.586041205147693 
1.177218898729532 -1.17751130867539 -1.177511361802994 -1.177482657654743 -1.177506473039881 -1.177512009976732 -1.177554156654608 
2.233336478477952 -2.231391925965387 -2.231397672729776 -2.230904969577039 -2.23122732632748 -2.231335960148825 -2.230399109644817 
3.773499085826637 -3.773281481965255 -3.773276257938296 -3.773313258009295 -3.77326503638365 -3.773251022200902 -3.773312122156947 
1.04253670345109 -1.042597383586463 -1.042597450859529 -1.042590432609568 -1.042596163046292 -1.042597874754713 -1.042602429272126 
4.24782616723834 -4.246635331307541 -4.246444753842618 -4.24820082426344 -4.246303191373859 -4.246820366242804 -4.24673926024404 
0.8796875584025451 -0.8797160057083152 -0.8797158491132812 -0.8797263638056757 -0.879715405899123 -0.8797144995821153 -0.879708513431417 
3.738942918384787 -5.300793819801114 -5.15082127988027 -5.299389080590456 -5.150904973391573 -5.300339502513527 -3.823265928469704 
5.318686076027262 -5.312536338622142 -5.312586874011405 -5.311242867374345 -5.311426100665192 -5.31210796648343 -5.31192852175711 
0.6740333142993197 -0.6748364129420749 -0.6748364485529879 -0.6747429263279269 -0.6748536974518662 -0.6748360121717822 -0.6748656704693183 
5.313387147427976 -5.306240345837298 -5.30628339905772 -5.304990450093056 -5.30514845479392 -5.305823930884111 -5.305653287130501 
0.6740333142993197 -0.6748364129420749 -0.6748364485529879 -0.6747429263279269 -0.6748536974518662 -0.6748360121717822 -0.6748656704693183 
2.29522927836414 -2.293307544228139 -2.293313144262322 -2.292777431191405 -2.293106407405821 -2.2932411401231 -2.292265034984196 
4.137900861527579 -4.136598643665697 -4.136407502470503 -4.137992022317089 -4.136020536743097 -4.136708761376146 -4.136430576239064 
5.316406640702032 -5.309385403928683 -5.309430381879638 -5.308129686630652 -5.308173718083207 -5.308967222787104 -5.308796448542553 
0.3982375848499059 -0.4009036528095938 -0.4009058705070073 -0.400429180243159 -0.4010318048453786 -0.4009274851992342 -0.4009692657188408 
4.745365204828934 -5.347906602566625 -5.347947928870395 -5.346381764751201 -4.743186559228774 -5.347386557047773 -5.347146008778399 
-0.3982375848499059 0.4009036528095938 -0.4009058705070073 -0.400429180243159 -0.4010318048453786 -0.4009274851992342 -0.4009692657188408 
-0.3982375848499059 -0.4009036528095938 0.4009058705070073 -0.400429180243159 -0.4010318048453786 -0.4009274851992342 -0.4009692657188408 
4.826623926069799 -4.826008723313712 -4.826173794446503 -4.823752098466437 -4.825106384803452 -4.825443910631868 -4.824992805658837 
3.385491083035746 -3.383868940591691 -3.383827127704443 -3.383317006414529 -3.382789494113275 -3.383639373108202 -3.38230871352199 
0.3982375848499059 -0.4009036528095938 -0.4009058705070073 -0.400429180243159 -0.4010318048453786 -0.4009274851992342 -0.4009692657188408 
3.261100811005369 -3.259556945967721 -3.259527869593267 -3.258861430946919 -3.258559142176815 -3.259315126787429 -3.25796942038976 
0.6740333142993197 -0.6748364129420749 -0.6748364485529879 -0.6747429263279269 -0.6748536974518662 -0.6748360121717822 -0.6748656704693183 
0.3982375848499059 -0.4009036528095938 -0.4009058705070073 -0.400429180243159 -0.4010318048453786 -0.4009274851992342 -0.4009692657188408 
2.804141459086782 -2.80303356162882 -2.803031426400517 -2.802493463359314 -2.8026241362391 -2.802908927937842 -2.802073766891041 
0.8796875584025451 -0.8797160057083152 -0.8797158491132812 -0.8797263638056757 -0.879715405899123 -0.8797144995821153 -0.879708513431417 
0.6740333142993197 -0.6748364129420749 -0.6748364485529879 -0.6747429263279269 -0.6748536974518662 -0.6748360121717822 -0.6748656704693183 
4.140971600116977 -4.139686908694957 -4.139496597081052 -4.141079384801318 -4.139118598857871 -4.139798714242144 -4.139527039019145 
1.700086379518111 -1.699650593167507 -1.699651359306818 -1.699624920189045 -1.699655184767679 -1.699650199820804 -1.699510699935122 
2.832349603092634 -5.539538467738413 -5.394184466011797 -5.54081627476962 -3.065851934956169 -5.539352415003874 -4.280556721553491 
0.3982375848499059 -0.4009036528095938 -0.4009058705070073 -0.400429180243159 -0.4010318048453786 -0.4009274851992342 -0.4009692657188408 
0.8796875584025451 -0.8797160057083152 -0.8797158491132812 -0.8797263638056757 -0.879715405899123 -0.8797144995821153 -0.879708513431417 
-1.433118990782152 -2.231391925965387 -2.231397672729776 -1.224701306045828 -1.926112600264625 0.5287158908321455 -2.230399109644817 
-0.4031211468914299 -1.292548615945852 -1.292548477267311 -1.292519325094075 -0.8264117695273898 -1.292548762445356 0 
-0.6740333142993197 -0.6748364129420749 -0.6748364485529879 -0.6747429263279269 -0.6748536974518662 0.6748360121717822 -0.6748656704693183 
-0.6740333142993197 -0.6748364129420749 -0.6748364485529879 -0.6747429263279269 -0.6748536974518662 -0.6748360121717822 0.6748656704693183 
2.738801683681825 -2.737618028899594 -2.737617224537047 -2.737068922168052 -2.737232180631655 -2.73749968957316 -2.736645747274969 
3.165971234900769 -3.164611053941449 -3.164592359465903 -3.163929289784629 -3.163788670285781 -3.164396989460995 -3.163202605847729 
3.103077430490343 -3.101835629808837 -3.101822117190347 -3.1011901510305 -3.101128529073442 -3.101643875680165 -3.100563997777565 
1.292104880009173 -1.292548615945852 -1.292548477267311 -1.292519325094075 -1.292540130478129 -1.292548762445356 -1.292623323842507 
1.39232645409461 -1.392772510170087 -1.3927722010197 -1.392755539862103 -1.392763623314132 -1.392772378195495 -1.392855190549165 
3.716480620484787 -3.717319301426813 -3.717405574075266 -3.717518192507234 -3.718896246109189 -3.717579332252414 -3.719151085469182 
3.261100811005369 -3.259556945967721 -3.259527869593267 -3.258861430946919 -3.258559142176815 -3.259315126787429 -3.25796942038976 
2.092569415559976 -2.090738771616744 -2.090743971937726 -2.090382002222989 -2.090652216787769 -2.090705760499739 -2.089924774716723 
1.633668123655222 -1.63350883920028 -1.633509080790575 -1.633502156457867 -1.633511435871265 -1.633509129948808 -1.633452816911961 
0.3982375848499059 -0.4009036528095938 -0.4009058705070073 -0.400429180243159 -0.4010318048453786 -0.4009274851992342 -0.4009692657188408 
0.6740333142993197 -0.6748364129420749 -0.6748364485529879 -0.6747429263279269 -0.6748536974518662 -0.6748360121717822 -0.6748656704693183 
0.3982375848499059 -0.4009036528095938 -0.4009058705070073 -0.400429180243159 -0.4010318048453786 -0.4009274851992342 -0.4009692657188408 
3.393121869809211 -3.391508554954175 -3.391466413183359 -3.390973254714127 -3.390436549169038 -3.3912831039893 -3.389967847103076 
0.3982375848499059 -0.4009036528095938 -0.4009058705070073 -0.400429180243159 -0.4010318048453786 -0.4009274851992342 -0.4009692657188408 
2.629636921971234 -2.628269523213474 -2.628270796947731 -2.627696025001589 -2.627916185357204 -2.628160293122185 -2.627249090816597 
0.6740333142993197 -0.6748364129420749 -0.6748364485529879 -0.6747429263279269 -0.6748536974518662 -0.6748360121717822 -0.6748656704693183 
2.233336478477952 -2.231391925965387 -2.231397672729776 -2.230904969577039 -2.23122732632748 -2.231335960148825 -2.230399109644817 
1.920701872412812 -1.919336780420684 -1.91934012752274 -1.919156995240632 -1.91931661371063 -1.919324996530974 -1.918822681209434 
1.871097559161501 -1.869922551834283 -1.869925265258231 -1.869788088222954 -1.869913546358367 -1.869914856618651 -1.869499832383017 
2.130211120425319 -2.128325985046716 -2.128331441463554 -2.127931217759179 -2.12821997080103 -2.12828713469206 -2.127456217973804 
2.925061094083612 -3.154478055199626 -3.154460295116403 -3.15380132320871 -3.153674995092624 -2.924594611052617 -3.153091856672054 
1.818133667090677 -1.817179658783513 -1.817181707181186 -1.817087590335094 -1.817178651061572 -1.817175282946845 -1.816851877192793 
0.6740333142993197 -0.6748364129420749 -0.6748364485529879 -0.6747429263279269 -0.6748536974518662 -0.6748360121717822 -0.6748656704693183 
0.3982375848499059 -0.4009036528095938 -0.4009058705070073 -0.400429180243159 -0.4010318048453786 -0.4009274851992342 -0.4009692657188408 
0.3982375848499059 -0.4009036528095938 -0.4009058705070073 -0.400429180243159 -0.4010318048453786 -0.4009274851992342 -0.4009692657188408 
1.177218898729532 -1.17751130867539 -1.177511361802994 -1.177482657654743 -1.177506473039881 -1.177512009976732 -1.177554156654608 
0.6740333142993197 -0.6748364129420749 -0.6748364485529879 -0.6747429263279269 -0.6748536974518662 -0.6748360121717822 -0.6748656704693183 
0.3982375848499059 -0.4009036528095938 -0.4009058705070073 -0.400429180243159 -0.4010318048453786 -0.4009274851992342 -0.4009692657188408 
0.8796875584025451 -0.8797160057083152 -0.8797158491132812 -0.8797263638056757 -0.879715405899123 -0.8797144995821153 -0.879708513431417 
3.580042808044927 -3.579665552167747 -3.579687776836813 -3.579792115431563 -3.579956747028709 -3.57979639967938 -3.579991181934024 
1.39232645409461 -1.392772510170087 -1.3927722010197 -1.392755539862103 -1.392763623314132 -1.392772378195495 -1.392855190549165 
0.6740333142993197 -0.6748364129420749 -0.6748364485529879 -0.6747429263279269 -0.6748536974518662 -0.6748360121717822 -0.6748656704693183 
0.3982375848499059 -0.4009036528095938 -0.4009058705070073 -0.400429180243159 -0.4010318048453786 -0.4009274851992342 -0.4009692657188408 
1.761327711541218 -1.760622541712519 -1.760623926847273 -1.760567593337849 -1.760626071011935 -1.760620613015441 -1.76039035737834 
3.6719307441242 -4.459079248397762 -4.458883693096771 -4.460896788638019 -3.671799777541989 -4.459396025005175 -4.45959692236673 
1.04253670345109 -1.042597383586463 -1.042597450859529 -1.042590432609568 -1.042596163046292 -1.042597874754713 -1.042602429272126 
1.761327711541218 -1.760622541712519 -1.760623926847273 -1.760567593337849 -1.760626071011935 -1.760620613015441 -1.76039035737834 
0.3982375848499059 -0.4009036528095938 -0.4009058705070073 -0.400429180243159 -0.4010318048453786 -0.4009274851992342 -0.4009692657188408 
3.092110509607671 -3.090887293534997 -3.090874540769855 -3.090248886647639 -3.090198827775326 -3.090699341240976 -3.089638487331618 
0.3982375848499059 -0.4009036528095938 -0.4009058705070073 -0.400429180243159 -0.4010318048453786 -0.4009274851992342 -0.4009692657188408 
0.6740333142993197 -0.6748364129420749 -0.6748364485529879 -0.6747429263279269 -0.6748536974518662 -0.6748360121717822 -0.6748656704693183 
0.6740333142993197 -0.6748364129420749 -0.6748364485529879 -0.6747429263279269 -0.6748536974518662 -0.6748360121717822 -0.6748656704693183 
-0.3982375848499059 0.4009036528095938 -0.4009058705070073 -0.400429180243159 -0.4010318048453786 -0.4009274851992342 -0.4009692657188408 
-0.6740333142993197 0 0 -0.6747429263279269 -0.6748536974518662 -0.6748360121717822 -0.6748656704693183 
0.8796875584025451 -0.8797160057083152 -0.8797158491132812 -0.8797263638056757 -0.879715405899123 -0.8797144995821153 -0.879708513431417 
0.8796875584025451 -0.8797160057083152 -0.8797158491132812 -0.8797263638056757 -0.879715405899123 -0.8797144995821153 -0.879708513431417 
3.840660070153048 -3.838703929226591 -3.838552305530412 -3.839294390686858 -3.837471885121009 -3.838562869091909 -3.837643751402828 
1.292104880009173 -1.292548615945852 -1.292548477267311 -1.292519325094075 -1.292540130478129 -1.292548762445356 -1.292623323842507 
2.40604265383545 -2.404249527900942 -2.404254263653683 -2.403670878302646 -2.403986498558062 -2.404165683034687 -2.403166010125282 
1.292104880009173 -1.292548615945852 -1.292548477267311 -1.292519325094075 -1.292540130478129 -1.292548762445356 -1.292623323842507 
0.3982375848499059 -0.4009036528095938 -0.4009058705070073 -0.400429180243159 -0.4010318048453786 -0.4009274851992342 -0.4009692657188408 
2.986215006684559 -2.985123284193159 -2.98511606173208 -2.984547708092746 -2.984583255812188 -2.984967338118995 -2.984056095847252 
1.761327711541218 -1.760622541712519 -1.760623926847273 -1.760567593337849 -1.760626071011935 -1.760620613015441 -1.76039035737834 
0.3982375848499059 -0.4009036528095938 -0.4009058705070073 -0.400429180243159 -0.4010318048453786 -0.4009274851992342 -0.4009692657188408 
0.8796875584025451 -0.8797160057083152 -0.8797158491132812 -0.8797263638056757 -0.879715405899123 -0.8797144995821153 -0.879708513431417 
0.6740333142993197 -0.6748364129420749 -0.6748364485529879 -0.6747429263279269 -0.6748536974518662 -0.6748360121717822 -0.6748656704693183 
1.292104880009173 -1.292548615945852 -1.292548477267311 -1.292519325094075 -1.292540130478129 -1.292548762445356 -1.292623323842507 
4.225785335723416 -4.224640408383603 -4.2244546218622 -4.22613509559659 -4.224271471056949 -4.224806745020881 -4.224688968329306 
1.177218898729532 -1.17751130867539 -1.177511361802994 -1.177482657654743 -1.177506473039881 -1.177512009976732 -1.177554156654608 
1.700086379518111 -1.699650593167507 -1.699651359306818 -1.699624920189045 -1.699655184767679 -1.699650199820804 -1.699510699935122 
4.112744585094523 -4.670935796027767 -4.670733895054306 -4.672931214891242 -4.112851472120798 -4.67134845003722 -4.6717360609275 
3.135126635822531 -3.13382658905746 -3.133810615601815 -3.133161306452735 -3.133062234168177 -3.133623478401542 -3.132485877777002 
1.39232645409461 -1.392772510170087 -1.3927722010197 -1.392755539862103 -1.392763623314132 -1.392772378195495 -1.392855190549165 
1.177218898729532 -1.17751130867539 -1.177511361802994 -1.177482657654743 -1.177506473039881 -1.177512009976732 -1.177554156654608 
0.8796875584025451 -0.8797160057083152 -0.8797158491132812 -0.8797263638056757 -0.879715405899123 -0.8797144995821153 -0.879708513431417 
-1.561127920319622 -1.561230524159093 -1.561230388059621 -1.561230898540131 -1.561229060031401 1.561230843368209 -1.561243815652044 
0.9507965666196865 -1.392772510170087 -1.3927722010197 -1.392755539862103 -0.950907920194813 -1.392772378195495 -1.392855190549165 
1.04253670345109 -1.042597383586463 -1.042597450859529 -1.042590432609568 -1.042596163046292 -1.042597874754713 -1.042602429272126 
0.6740333142993197 -0.6748364129420749 -0.6748364485529879 -0.6747429263279269 -0.6748536974518662 -0.6748360121717822 -0.6748656704693183 
-0.3982375848499059 0.4009036528095938 -0.4009058705070073 -0.400429180243159 -0.4010318048453786 -0.4009274851992342 -0.4009692657188408 
-0.6740333142993197 0 0 -0.6747429263279269 -0.6748536974518662 -0.6748360121717822 -0.6748656704693183 
4.488899586183215 -4.488209172062894 -4.488040303780316 -4.489803030621835 -4.48833409151163 -4.488498866681071 -4.488690024125836 
0.6740333142993197 -0.6748364129420749 -0.6748364485529879 -0.6747429263279269 -0.6748536974518662 -0.6748360121717822 -0.6748656704693183 
2.166120640026366 -2.164200123614835 -2.164205753279902 -2.163770906847512 -2.16407439685874 -2.164155448097434 -2.163282217444663 
0.3982375848499059 -0.4009036528095938 -0.4009058705070073 -0.400429180243159 -0.4010318048453786 -0.4009274851992342 -0.4009692657188408 
0.6740333142993197 -0.6748364129420749 -0.6748364485529879 -0.6747429263279269 -0.6748536974518662 -0.6748360121717822 -0.6748656704693183 
2.379769845401862 -2.377937769976827 -2.377942776454791 -2.37736714718111 -2.377688663836222 -2.377857830758293 -2.376858541954594 
0.3982375848499059 -0.4009036528095938 -0.4009058705070073 -0.400429180243159 -0.4010318048453786 -0.4009274851992342 -0.4009692657188408 
1.39232645409461 -1.392772510170087 -1.3927722010197 -1.392755539862103 -1.392763623314132 -1.392772378195495 -1.392855190549165 
2.379769845401862 -2.377937769976827 -2.377942776454791 -2.37736714718111 -2.377688663836222 -2.377857830758293 -2.376858541954594 
2.503167450453531 -2.501548601918178 -2.501552040948646 -2.500958140524512 -2.501239999965196 -2.501451990203754 -2.500474850663701 
0.3982375848499059 -0.4009036528095938 -0.4009058705070073 -0.400429180243159 -0.4010318048453786 -0.4009274851992342 -0.4009692657188408 
1.481232699492421 -1.481550803826986 -1.481550479860221 -1.48154653837168 -1.481544831827386 -1.4815508380905 -1.481612244728376 
0.3982375848499059 -0.4009036528095938 -0.4009058705070073 -0.400429180243159 -0.4010318048453786 -0.4009274851992342 -0.4009692657188408 
0.3982375848499059 -0.4009036528095938 -0.4009058705070073 -0.400429180243159 -0.4010318048453786 -0.4009274851992342 -0.4009692657188408 
1.700086379518111 -1.699650593167507 -1.699651359306818 -1.699624920189045 -1.699655184767679 -1.699650199820804 -1.699510699935122 
0.6740333142993197 -0.6748364129420749 -0.6748364485529879 -0.6747429263279269 -0.6748536974518662 -0.6748360121717822 -0.6748656704693183 
2.947651148236474 -2.946582215236981 -2.946576383562414 -2.94602298693949 -2.94608147772003 -2.946435282683913 -2.945559379051731 
0.3982375848499059 -0.4009036528095938 -0.4009058705070073 -0.400429180243159 -0.4010318048453786 -0.4009274851992342 -0.4009692657188408 
0.3982375848499059 -0.4009036528095938 -0.4009058705070073 -0.400429180243159 -0.4010318048453786 -0.4009274851992342 -0.4009692657188408 
-0.3982375848499059 0.4009036528095938 -0.4009058705070073 -0.400429180243159 -0.4010318048453786 -0.4009274851992342 -0.4009692657188408 
-0.6740333142993197 -0.6748364129420749 0.6748364485529879 -0.6747429263279269 -0.6748536974518662 -0.6748360121717822 -0.6748656704693183 
0.3982375848499059 -0.4009036528095938 -0.4009058705070073 -0.400429180243159 -0.4010318048453786 -0.4009274851992342 -0.4009692657188408 
2.667698804239135 -2.666401682794945 -2.666402247483084 -2.66583691189615 -2.666037078075051 -2.666289263960476 -2.665399963804314 
0.6740333142993197 -0.6748364129420749 -0.6748364485529879 -0.6747429263279269 -0.6748536974518662 -0.6748360121717822 -0.6748656704693183 
0.3982375848499059 -0.4009036528095938 -0.4009058705070073 -0.400429180243159 -0.4010318048453786 -0.4009274851992342 -0.4009692657188408 
1.481232699492421 -1.481550803826986 -1.481550479860221 -1.48154653837168 -1.481544831827386 -1.4815508380905 -1.481612244728376 
1.633668123655222 -1.63350883920028 -1.633509080790575 -1.633502156457867 -1.633511435871265 -1.633509129948808 -1.633452816911961 
2.053019364442327 -2.051265178275432 -2.051270037179836 -2.050949616314889 -2.05119742442986 -2.051237919337238 -2.050514795239208 
0.3982375848499059 -0.4009036528095938 -0.4009058705070073 -0.400429180243159 -0.4010318048453786 -0.4009274851992342 -0.4009692657188408 
2.379769845401862 -2.377937769976827 -2.377942776454791 -2.37736714718111 -2.377688663836222 -2.377857830758293 -2.376858541954594 
1.761327711541218 -1.760622541712519 -1.760623926847273 -1.760567593337849 -1.760626071011935 -1.760620613015441 -1.76039035737834 
3.046719602621444 -3.045564228476791 -3.045554213983424 -3.044954888588288 -3.044946683254637 -3.045391187731364 -3.044402989148278 
3.023049225152551 -3.021922651154648 -3.021913832198571 -3.021327494147692 -3.021337795610397 -3.021756715562134 -3.020801609328887 
0.8796875584025451 -0.8797160057083152 -0.8797158491132812 -0.8797263638056757 -0.879715405899123 -0.8797144995821153 -0.879708513431417 
0.3982375848499059 -0.4009036528095938 -0.4009058705070073 -0.400429180243159 -0.4010318048453786 -0.4009274851992342 -0.4009692657188408 
0.8796875584025451 -0.8797160057083152 -0.8797158491132812 -0.8797263638056757 -0.879715405899123 -0.8797144995821153 -0.879708513431417 
0.6740333142993197 -0.6748364129420749 -0.6748364485529879 -0.6747429263279269 -0.6748536974518662 -0.6748360121717822 -0.6748656704693183 
0.3982375848499059 -0.4009036528095938 -0.4009058705070073 -0.400429180243159 -0.4010318048453786 -0.4009274851992342 -0.4009692657188408 
3.721754933225533 -3.72253519607926 -3.722616619981377 -3.722698814766397 -3.72399716289488 -3.722767388028247 -3.72422929418884 
1.39232645409461 -1.392772510170087 -1.3927722010197 -1.392755539862103 -1.392763623314132 -1.392772378195495 -1.392855190549165 
1.177218898729532 -1.17751130867539 -1.177511361802994 -1.177482657654743 -1.177506473039881 -1.177512009976732 -1.177554156654608 
1.04253670345109 -1.042597383586463 -1.042597450859529 -1.042590432609568 -1.042596163046292 -1.042597874754713 -1.042602429272126 
2.986215006684559 -2.985123284193159 -2.98511606173208 -2.984547708092746 -2.984583255812188 -2.984967338118995 -2.984056095847252 
0.8796875584025451 -0.8797160057083152 -0.8797158491132812 -0.8797263638056757 -0.879715405899123 -0.8797144995821153 -0.879708513431417 
3.492579142512859 -3.491342057956333 -3.491310594466615 -3.491105505400742 -3.490625721774505 -3.491230824965569 -3.490373075271 
3.854316149568766 -3.851953619714964 -3.851776128733971 -3.852696618739517 -3.850603283848832 -3.851813540264732 -3.850829999876566 
1.177218898729532 -1.17751130867539 -1.177511361802994 -1.177482657654743 -1.177506473039881 -1.177512009976732 -1.177554156654608 
0.3982375848499059 -0.4009036528095938 -0.4009058705070073 -0.400429180243159 -0.4010318048453786 -0.4009274851992342 -0.4009692657188408 
0 -0.6748364129420749 -0.6748364485529879 -0.6747429263279269 -0.6748536974518662 0 -0.6748656704693183 
3.145537634556944 -3.144217635349133 -3.144200782659296 -3.143546415210585 -3.14343394001831 -3.144010807038821 -3.142854051940007 
3.113899993138012 -3.112639133767145 -3.112624830901047 -3.111986779352524 -3.111913135771371 -3.112443575912892 -3.111344505283093 
0.6740333142993197 -0.6748364129420749 -0.6748364485529879 -0.6747429263279269 -0.6748536974518662 -0.6748360121717822 -0.6748656704693183 
0.6740333142993197 -0.6748364129420749 -0.6748364485529879 -0.6747429263279269 -0.6748536974518662 -0.6748360121717822 -0.6748656704693183 
0.8796875584025451 -0.8797160057083152 -0.8797158491132812 -0.8797263638056757 -0.879715405899123 -0.8797144995821153 -0.879708513431417 
-0.3982375848499059 0.4009036528095938 -0.4009058705070073 -0.400429180243159 -0.4010318048453786 -0.4009274851992342 -0.4009692657188408 
-0.6740333142993197 0 0 -0.6747429263279269 -0.6748536974518662 -0.6748360121717822 -0.6748656704693183 
0.3982375848499059 -0.4009036528095938 -0.4009058705070073 -0.400429180243159 -0.4010318048453786 -0.4009274851992342 -0.4009692657188408 
0.3982375848499059 -0.4009036528095938 -0.4009058705070073 -0.400429180243159 -0.4010318048453786 -0.4009274851992342 -0.4009692657188408 
0.3982375848499059 -0.4009036528095938 -0.4009058705070073 -0.400429180243159 -0.4010318048453786 -0.4009274851992342 -0.4009692657188408 
3.831417148055615 -3.829734174476556 -3.829601005792342 -3.830224346650681 -3.828601662128647 -3.829595757237672 -3.828739066576621 
2.352588824093392 -2.350721505216247 -2.350726750222411 -2.350161471777157 -2.350487374011905 -2.350645775927662 -2.349650196299076 
0.3982375848499059 -0.4009036528095938 -0.4009058705070073 -0.400429180243159 -0.4010318048453786 -0.4009274851992342 -0.4009692657188408 
0.3982375848499059 -0.4009036528095938 -0.4009058705070073 -0.400429180243159 -0.4010318048453786 -0.4009274851992342 -0.4009692657188408 
2.648894005732534 -2.647562808241827 -2.647563725439955 -2.64699365817239 -2.647203712994813 -2.647451947203847 -2.646551933744122 
1.04253670345109 -1.042597383586463 -1.042597450859529 -1.042590432609568 -1.042596163046292 -1.042597874754713 -1.042602429272126 
0.6740333142993197 -0.6748364129420749 -0.6748364485529879 -0.6747429263279269 -0.6748536974518662 -0.6748360121717822 -0.6748656704693183 
0.6740333142993197 -0.6748364129420749 -0.6748364485529879 -0.6747429263279269 -0.6748536974518662 -0.6748360121717822 -0.6748656704693183 
0.6740333142993197 -0.6748364129420749 -0.6748364485529879 -0.6747429263279269 -0.6748536974518662 -0.6748360121717822 -0.6748656704693183 
0.3982375848499059 -0.4009036528095938 -0.4009058705070073 -0.400429180243159 -0.4010318048453786 -0.4009274851992342 -0.4009692657188408 
-0.6740333142993197 -0.6748364129420749 -0.6748364485529879 0.6747429263279269 -0.6748536974518662 -0.6748360121717822 -0.6748656704693183 
0.3982375848499059 -0.4009036528095938 -0.4009058705070073 -0.400429180243159 -0.4010318048453786 -0.4009274851992342 -0.4009692657188408 
1.920701872412812 -1.919336780420684 -1.91934012752274 -1.919156995240632 -1.91931661371063 -1.919324996530974 -1.918822681209434 
3.556144145771493 -3.555478409519622 -3.555480417285704 -3.555498754395452 -3.555401135636929 -3.555526451181439 -3.555346413817182 
0.8796875584025451 -0.8797160057083152 -0.8797158491132812 -0.8797263638056757 -0.879715405899123 -0.8797144995821153 -0.879708513431417 
-0.3982375848499059 -0.4009036528095938 -0.4009058705070073 -0.400429180243159 -0.4010318048453786 0.4009274851992342 -0.4009692657188408 
0.3982375848499059 -0.4009036528095938 -0.4009058705070073 -0.400429180243159 -0.4010318048453786 -0.4009274851992342 -0.4009692657188408 
0.3982375848499059 -0.4009036528095938 -0.4009058705070073 -0.400429180243159 -0.4010318048453786 -0.4009274851992342 -0.4009692657188408 
1.04253670345109 -1.042597383586463 -1.042597450859529 -1.042590432609568 -1.042596163046292 -1.042597874754713 -1.042602429272126 
-0.3982375848499059 0.4009036528095938 -0.4009058705070073 -0.400429180243159 -0.4010318048453786 -0.4009274851992342 -0.4009692657188408 
0.8796875584025451 -0.8797160057083152 -0.8797158491132812 -0.8797263638056757 -0.879715405899123 -0.8797144995821153 -0.879708513431417 
0.6740333142993197 -0.6748364129420749 -0.6748364485529879 -0.6747429263279269 -0.6748536974518662 -0.6748360121717822 -0.6748656704693183 
0.3982375848499059 -0.4009036528095938 -0.4009058705070073 -0.400429180243159 -0.4010318048453786 -0.4009274851992342 -0.4009692657188408 
0.6740333142993197 -0.6748364129420749 -0.6748364485529879 -0.6747429263279269 -0.6748536974518662 -0.6748360121717822 -0.6748656704693183 
2.686072722759725 -2.684807452851031 -2.684807669302694 -2.684246973946397 -2.68443750007353 -2.684693527562402 -2.68381431442013 
1.04253670345109 -1.042597383586463 -1.042597450859529 -1.042590432609568 -1.042596163046292 -1.042597874754713 -1.042602429272126 
2.166120640026366 -2.164200123614835 -2.164205753279902 -2.163770906847512 -2.16407439685874 -2.164155448097434 -2.163282217444663 
1.292104880009173 -1.292548615945852 -1.292548477267311 -1.292519325094075 -1.292540130478129 -1.292548762445356 -1.292623323842507 
0.3982375848499059 -0.4009036528095938 -0.4009058705070073 -0.400429180243159 -0.4010318048453786 -0.4009274851992342 -0.4009692657188408 
-0.3982375848499059 -0.4009036528095938 -0.4009058705070073 0.400429180243159 -0.4010318048453786 -0.4009274851992342 -0.4009692657188408 
-0.2865475353080535 -0.8797160057083152 -0.8797158491132812 -0.8797263638056757 0.2865475293685509 -0.8797144995821153 -0.879708513431417 
0.1337332110243914 -1.699650593167507 -1.699651359306818 -0.1334931073596022 -1.699655184767679 -1.699650199820804 -1.699510699935122 
1.96734439745645 -1.965820467997157 -1.965824393459308 -1.965594411553634 -1.965786434756578 -1.965803962415797 -1.96522054258899 
-0.3982375848499059 -0.4009036528095938 -0.4009058705070073 -0.400429180243159 -0.4010318048453786 0.4009274851992342 -0.4009692657188408 
1.561127920319622 -1.561230524159093 -1.561230388059621 -1.561230898540131 -1.561229060031401 -1.561230843368209 -1.561243815652044 
0.3982375848499059 -0.4009036528095938 -0.4009058705070073 -0.400429180243159 -0.4010318048453786 -0.4009274851992342 -0.4009692657188408 
1.39232645409461 -1.392772510170087 -1.3927722010197 -1.392755539862103 -1.392763623314132 -1.392772378195495 -1.392855190549165 
0.3982375848499059 -0.4009036528095938 -0.4009058705070073 -0.400429180243159 -0.4010318048453786 -0.4009274851992342 -0.4009692657188408 
0.3982375848499059 -0.4009036528095938 -0.4009058705070073 -0.400429180243159 -0.4010318048453786 -0.4009274851992342 -0.4009692657188408 
0.6740333142993197 -0.6748364129420749 -0.6748364485529879 -0.6747429263279269 -0.6748536974518662 -0.6748360121717822 -0.6748656704693183 
0.3982375848499059 -0.4009036528095938 -0.4009058705070073 -0.400429180243159 -0.4010318048453786 -0.4009274851992342 -0.4009692657188408 
0.3982375848499059 -0.4009036528095938 -0.4009058705070073 -0.400429180243159 -0.4010318048453786 -0.4009274851992342 -0.4009692657188408 
2.130211120425319 -2.128325985046716 -2.128331441463554 -2.127931217759179 -2.12821997080103 -2.12828713469206 -2.127456217973804 
2.880717486460366 -3.112639133767145 -3.112624830901047 -3.111986779352524 -2.879966160876866 -3.112443575912892 -3.111344505283093 
1.04253670345109 -1.042597383586463 -1.042597450859529 -1.042590432609568 -1.042596163046292 -1.042597874754713 -1.042602429272126 
0.8796875584025451 -0.8797160057083152 -0.8797158491132812 -0.8797263638056757 -0.879715405899123 -0.8797144995821153 -0.879708513431417 
0.6740333142993197 -0.6748364129420749 -0.6748364485529879 -0.6747429263279269 -0.6748536974518662 -0.6748360121717822 -0.6748656704693183 
4.234115959465434 -4.232956540139801 -4.232769241178489 -4.234475681498136 -4.232601843511682 -4.233129639731222 -4.233025681942175 
2.166120640026366 -2.164200123614835 -2.164205753279902 -2.163770906847512 -2.16407439685874 -2.164155448097434 -2.163282217444663 
-0.3982375848499059 0.4009036528095938 -0.4009058705070073 -0.400429180243159 -0.4010318048453786 -0.4009274851992342 -0.4009692657188408 
-0.3982375848499059 -0.4009036528095938 0.4009058705070073 -0.400429180243159 -0.4010318048453786 -0.4009274851992342 -0.4009692657188408 
2.011356991512547 -2.009704127187952 -2.009708559720133 -2.009432417822707 -2.009654051532572 -2.00968241481939 -2.009025201733267 
0.3982375848499059 -0.4009036528095938 -0.4009058705070073 -0.400429180243159 -0.4010318048453786 -0.4009274851992342 -0.4009692657188408 
1.96734439745645 -1.965820467997157 -1.965824393459308 -1.965594411553634 -1.965786434756578 -1.965803962415797 -1.96522054258899 
1.292104880009173 -1.292548615945852 -1.292548477267311 -1.292519325094075 -1.292540130478129 -1.292548762445356 -1.292623323842507 
1.177218898729532 -1.17751130867539 -1.177511361802994 -1.177482657654743 -1.177506473039881 -1.177512009976732 -1.177554156654608 
0.3982375848499059 -0.4009036528095938 -0.4009058705070073 -0.400429180243159 -0.4010318048453786 -0.4009274851992342 -0.4009692657188408 
1.177218898729532 -1.17751130867539 -1.177511361802994 -1.177482657654743 -1.177506473039881 -1.177512009976732 -1.177554156654608 
2.166120640026366 -2.164200123614835 -2.164205753279902 -2.163770906847512 -2.16407439685874 -2.164155448097434 -2.163282217444663 
0.3982375848499059 -0.4009036528095938 -0.4009058705070073 -0.400429180243159 -0.4010318048453786 -0.4009274851992342 -0.4009692657188408 
0.8796875584025451 -0.8797160057083152 -0.8797158491132812 -0.8797263638056757 -0.879715405899123 -0.8797144995821153 -0.879708513431417 
0.3982375848499059 -0.4009036528095938 -0.4009058705070073 -0.400429180243159 -0.4010318048453786 -0.4009274851992342 -0.4009692657188408 
2.166120640026366 -2.164200123614835 -2.164205753279902 -2.163770906847512 -2.16407439685874 -2.164155448097434 -2.163282217444663 
2.130211120425319 -2.128325985046716 -2.128331441463554 -2.127931217759179 -2.12821997080103 -2.12828713469206 -2.127456217973804 
2.200451115981467 -2.198511625107278 -2.198517349631276 -2.198051669571857 -2.198366275855808 -2.198461222112399 -2.197552853248645 
2.011356991512547 -2.009704127187952 -2.009708559720133 -2.009432417822707 -2.009654051532572 -2.00968241481939 -2.009025201733267 
-2.161784615942191 -2.818590139094703 -2.818587669335921 -2.818050882873122 -2.81817397455782 2.161792539245182 -2.817630254137133 
-2.089767736434273 -2.377937769976827 -2.377942776454791 -2.37736714718111 -1.425643456691801 -2.377857830758293 1.24753854094632 
1.700086379518111 -1.699650593167507 -1.699651359306818 -1.699624920189045 -1.699655184767679 -1.699650199820804 -1.699510699935122 
2.092569415559976 -2.090738771616744 -2.090743971937726 -2.090382002222989 -2.090652216787769 -2.090705760499739 -2.089924774716723 
2.456097333629734 -2.454389240635803 -2.454393361023167 -2.453801148991479 -2.454101478295465 -2.454298468551829 -2.45330610203555 
3.321590560623175 -3.31996757636441 -3.31993131191278 -3.319313219194512 -3.318892757773389 -3.319721029135838 -3.318336118017754 
1.481232699492421 -1.481550803826986 -1.481550479860221 -1.48154653837168 -1.481544831827386 -1.4815508380905 -1.481612244728376 
0.826082049638439 -1.292548615945852 -1.292548477267311 -0.8264182967093371 -1.292540130478129 -1.292548762445356 -1.292623323842507 
1.321073633795739 -1.699650593167507 -1.699651359306818 -1.699624920189045 -1.319759833622498 -1.699650199820804 -1.699510699935122 
0.6740333142993197 -0.6748364129420749 -0.6748364485529879 -0.6747429263279269 -0.6748536974518662 -0.6748360121717822 -0.6748656704693183 
1.177218898729532 -1.17751130867539 -1.177511361802994 -1.177482657654743 -1.177506473039881 -1.177512009976732 -1.177554156654608 
0.8796875584025451 -0.8797160057083152 -0.8797158491132812 -0.8797263638056757 -0.879715405899123 -0.8797144995821153 -0.879708513431417 
0.3982375848499059 -0.4009036528095938 -0.4009058705070073 -0.400429180243159 -0.4010318048453786 -0.4009274851992342 -0.4009692657188408 
-2.979647563741664 -3.383868940591691 -3.383827127704443 -1.714732799810822 -2.815987631871064 1.395987065419828 -3.38230871352199 
0.3982375848499059 -0.4009036528095938 -0.4009058705070073 -0.400429180243159 -0.4010318048453786 -0.4009274851992342 -0.4009692657188408 
-0.3982375848499059 -0.4009036528095938 -0.4009058705070073 -0.400429180243159 -0.4010318048453786 0.4009274851992342 -0.4009692657188408 
-1.700086379518111 -1.699650593167507 -1.699651359306818 -1.699624920189045 -1.699655184767679 1.699650199820804 -1.699510699935122 
3.195695579505284 -3.194275752936784 -3.194254108799442 -3.193582280002856 -3.193396329930354 -3.194051585763606 -3.192803830527882 
-2.907183217923945 -2.906122771098301 -2.906118165171657 2.905575522773277 -2.905655581545045 -2.905983763073313 -2.905133202378852 
3.205367922570475 -3.203928731885542 -3.203906062216347 -3.203232643164327 -3.203030842002529 -3.203701466441573 -3.202437099102135 
1.481232699492421 -1.481550803826986 -1.481550479860221 -1.48154653837168 -1.481544831827386 -1.4815508380905 -1.481612244728376 
2.686072722759725 -2.684807452851031 -2.684807669302694 -2.684246973946397 -2.68443750007353 -2.684693527562402 -2.68381431442013 
3.046719602621444 -3.045564228476791 -3.045554213983424 -3.044954888588288 -3.044946683254637 -3.045391187731364 -3.044402989148278 
0.3982375848499059 -0.4009036528095938 -0.4009058705070073 -0.400429180243159 -0.4010318048453786 -0.4009274851992342 -0.4009692657188408 
0.3982375848499059 -0.4009036528095938 -0.4009058705070073 -0.400429180243159 -0.4010318048453786 -0.4009274851992342 -0.4009692657188408 
0.3982375848499059 -0.4009036528095938 -0.4009058705070073 -0.400429180243159 -0.4010318048453786 -0.4009274851992342 -0.4009692657188408 
2.166120640026366 -2.164200123614835 -2.164205753279902 -2.163770906847512 -2.16407439685874 -2.164155448097434 -2.163282217444663 
1.700086379518111 -1.699650593167507 -1.699651359306818 -1.699624920189045 -1.699655184767679 -1.699650199820804 -1.699510699935122 
2.264894501700531 -2.262956541419411 -2.262962244368065 -2.262446248304907 -2.262773288354779 -2.262895229179457 -2.261935992454854 
1.177218898729532 -1.17751130867539 -1.177511361802994 -1.177482657654743 -1.177506473039881 -1.177512009976732 -1.177554156654608 
3.872106685380487 -3.869257793569593 -3.869049761799877 -3.870199025842767 -3.867800706986119 -3.869126509885513 -3.868101052604944 
0.6740333142993197 -0.6748364129420749 -0.6748364485529879 -0.6747429263279269 -0.6748536974518662 -0.6748360121717822 -0.6748656704693183 
0.6740333142993197 -0.6748364129420749 -0.6748364485529879 -0.6747429263279269 -0.6748536974518662 -0.6748360121717822 -0.6748656704693183 
2.456097333629734 -2.454389240635803 -2.454393361023167 -2.453801148991479 -2.454101478295465 -2.454298468551829 -2.45330610203555 
2.130211120425319 -2.128325985046716 -2.128331441463554 -2.127931217759179 -2.12821997080103 -2.12828713469206 -2.127456217973804 
2.589671900987172 -2.588226289854463 -2.588228286104039 -2.587644733166229 -2.58788556613473 -2.588120632244504 -2.587186331375807 
1.04253670345109 -1.042597383586463 -1.042597450859529 -1.042590432609568 -1.042596163046292 -1.042597874754713 -1.042602429272126 
-1.292104880009173 -1.292548615945852 -1.292548477267311 -1.292519325094075 -1.292540130478129 1.292548762445356 -1.292623323842507 
1.920701872412812 -1.919336780420684 -1.91934012752274 -1.919156995240632 -1.91931661371063 -1.919324996530974 -1.918822681209434 
0.8796875584025451 -0.8797160057083152 -0.8797158491132812 -0.8797263638056757 -0.879715405899123 -0.8797144995821153 -0.879708513431417 
0.3982375848499059 -0.4009036528095938 -0.4009058705070073 -0.400429180243159 -0.4010318048453786 -0.4009274851992342 -0.4009692657188408 
0.3982375848499059 -0.4009036528095938 -0.4009058705070073 -0.400429180243159 -0.4010318048453786 -0.4009274851992342 -0.4009692657188408 
1.04253670345109 -1.042597383586463 -1.042597450859529 -1.042590432609568 -1.042596163046292 -1.042597874754713 -1.042602429272126 
-0.3982375848499059 -0.4009036528095938 -0.4009058705070073 -0.400429180243159 -0.4010318048453786 0.4009274851992342 -0.4009692657188408 
-0.6740333142993197 -0.6748364129420749 -0.6748364485529879 -0.6747429263279269 -0.6748536974518662 0.6748360121717822 -0.6748656704693183 
1.292104880009173 -1.292548615945852 -1.292548477267311 -1.292519325094075 -1.292540130478129 -1.292548762445356 -1.292623323842507 
2.200451115981467 -2.198511625107278 -2.198517349631276 -2.198051669571857 -2.198366275855808 -2.198461222112399 -2.197552853248645 
2.738801683681825 -2.737618028899594 -2.737617224537047 -2.737068922168052 -2.737232180631655 -2.73749968957316 -2.736645747274969 
2.834936411656144 -2.833852604711055 -2.833849796938279 -2.833313575791116 -2.83342925945418 -2.833724393155453 -2.832891261153265 
0.8796875584025451 -0.8797160057083152 -0.8797158491132812 -0.8797263638056757 -0.879715405899123 -0.8797144995821153 -0.879708513431417 
1.04253670345109 -1.042597383586463 -1.042597450859529 -1.042590432609568 -1.042596163046292 -1.042597874754713 -1.042602429272126 
2.264894501700531 -2.262956541419411 -2.262962244368065 -2.262446248304907 -2.262773288354779 -2.262895229179457 -2.261935992454854 
1.39232645409461 -1.392772510170087 -1.3927722010197 -1.392755539862103 -1.392763623314132 -1.392772378195495 -1.392855190549165 
0.6740333142993197 -0.6748364129420749 -0.6748364485529879 -0.6747429263279269 -0.6748536974518662 -0.6748360121717822 -0.6748656704693183 
0.3982375848499059 -0.4009036528095938 -0.4009058705070073 -0.400429180243159 -0.4010318048453786 -0.4009274851992342 -0.4009692657188408 
-0.3982375848499059 -0.4009036528095938 -0.4009058705070073 0.400429180243159 -0.4010318048453786 -0.4009274851992342 -0.4009692657188408 
1.292104880009173 -1.292548615945852 -1.292548477267311 -1.292519325094075 -1.292540130478129 -1.292548762445356 -1.292623323842507 
1.481232699492421 -1.481550803826986 -1.481550479860221 -1.48154653837168 -1.481544831827386 -1.4815508380905 -1.481612244728376 
-0.6740333142993197 -0.6748364129420749 -0.6748364485529879 -0.6747429263279269 -0.6748536974518662 0.6748360121717822 -0.6748656704693183 
0.3982375848499059 -0.4009036528095938 -0.4009058705070073 -0.400429180243159 -0.4010318048453786 -0.4009274851992342 -0.4009692657188408 
-0.6740333142993197 -0.6748364129420749 -0.6748364485529879 -0.6747429263279269 -0.6748536974518662 0.6748360121717822 -0.6748656704693183 
2.011356991512547 -2.009704127187952 -2.009708559720133 -2.009432417822707 -2.009654051532572 -2.00968241481939 -2.009025201733267 
1.818133667090677 -1.817179658783513 -1.817181707181186 -1.817087590335094 -1.817178651061572 -1.817175282946845 -1.816851877192793 
0.3982375848499059 -0.4009036528095938 -0.4009058705070073 -0.400429180243159 -0.4010318048453786 -0.4009274851992342 -0.4009692657188408 
0.6740333142993197 -0.6748364129420749 -0.6748364485529879 -0.6747429263279269 -0.6748536974518662 -0.6748360121717822 -0.6748656704693183 
1.177218898729532 -1.17751130867539 -1.177511361802994 -1.177482657654743 -1.177506473039881 -1.177512009976732 -1.177554156654608 
0.6740333142993197 -0.6748364129420749 -0.6748364485529879 -0.6747429263279269 -0.6748536974518662 -0.6748360121717822 -0.6748656704693183 
-0.3982375848499059 -0.4009036528095938 -0.4009058705070073 -0.400429180243159 -0.4010318048453786 0.4009274851992342 -0.4009692657188408 
0.6740333142993197 -0.6748364129420749 -0.6748364485529879 -0.6747429263279269 -0.6748536974518662 -0.6748360121717822 -0.6748656704693183 
1.633668123655222 -1.63350883920028 -1.633509080790575 -1.633502156457867 -1.633511435871265 -1.633509129948808 -1.633452816911961 
1.761327711541218 -1.760622541712519 -1.760623926847273 -1.760567593337849 -1.760626071011935 -1.760620613015441 -1.76039035737834 
0.3982375848499059 -0.4009036528095938 -0.4009058705070073 -0.400429180243159 -0.4010318048453786 -0.4009274851992342 -0.4009692657188408 
1.39232645409461 -1.392772510170087 -1.3927722010197 -1.392755539862103 -1.392763623314132 -1.392772378195495 -1.392855190549165 
1.633668123655222 -1.63350883920028 -1.633509080790575 -1.633502156457867 -1.633511435871265 -1.633509129948808 -1.633452816911961 
1.292104880009173 -1.292548615945852 -1.292548477267311 -1.292519325094075 -1.292540130478129 -1.292548762445356 -1.292623323842507 
1.920701872412812 -1.919336780420684 -1.91934012752274 -1.919156995240632 -1.91931661371063 -1.919324996530974 -1.918822681209434 
0.6740333142993197 -0.6748364129420749 -0.6748364485529879 -0.6747429263279269 -0.6748536974518662 -0.6748360121717822 -0.6748656704693183 
0.8796875584025451 -0.8797160057083152 -0.8797158491132812 -0.8797263638056757 -0.879715405899123 -0.8797144995821153 -0.879708513431417 
0.6740333142993197 -0.6748364129420749 -0.6748364485529879 -0.6747429263279269 -0.6748536974518662 -0.6748360121717822 -0.6748656704693183 
1.177218898729532 -1.17751130867539 -1.177511361802994 -1.177482657654743 -1.177506473039881 -1.177512009976732 -1.177554156654608 
0.3982375848499059 -0.4009036528095938 -0.4009058705070073 -0.400429180243159 -0.4010318048453786 -0.4009274851992342 -0.4009692657188408 
0.3982375848499059 -0.4009036528095938 -0.4009058705070073 -0.400429180243159 -0.4010318048453786 -0.4009274851992342 -0.4009692657188408 
-2.132901608234604 1.932493187660255 -2.361623106409811 -2.627696025001589 -2.627916185357204 -2.628160293122185 -2.627249090816597 
0.6740333142993197 -0.6748364129420749 -0.6748364485529879 -0.6747429263279269 -0.6748536974518662 -0.6748360121717822 -0.6748656704693183 
-0.3562816925335603 -1.817179658783513 -1.817181707181186 -1.14297882857877 -1.456867947611558 -0.3559702199403691 -1.816851877192793 
0.3982375848499059 -0.4009036528095938 -0.4009058705070073 -0.400429180243159 -0.4010318048453786 -0.4009274851992342 -0.4009692657188408 
0.3982375848499059 -0.4009036528095938 -0.4009058705070073 -0.400429180243159 -0.4010318048453786 -0.4009274851992342 -0.4009692657188408 
0.3982375848499059 -0.4009036528095938 -0.4009058705070073 -0.400429180243159 -0.4010318048453786 -0.4009274851992342 -0.4009692657188408 
-1.292104880009173 0.4032230069922196 -0.4032228067260279 -1.292519325094075 -1.292540130478129 -1.292548762445356 -1.292623323842507 
-0.8796875584025451 -0.8797160057083152 0.8797158491132812 -0.8797263638056757 -0.879715405899123 -0.8797144995821153 -0.879708513431417 
-0.8796875584025451 -0.8797160057083152 0.8797158491132812 -0.8797263638056757 -0.879715405899123 -0.8797144995821153 -0.879708513431417 
2.568912243266075 -2.567425004282305 -2.567427364276971 -2.56684004704629 -2.567091317189679 -2.567321335110433 -2.56637553321815 
1.700086379518111 -1.699650593167507 -1.699651359306818 -1.699624920189045 -1.699655184767679 -1.699650199820804 -1.699510699935122 
2.503167450453531 -2.501548601918178 -2.501552040948646 -2.500958140524512 -2.501239999965196 -2.501451990203754 -2.500474850663701 
1.292104880009173 -1.292548615945852 -1.292548477267311 -1.292519325094075 -1.292540130478129 -1.292548762445356 -1.292623323842507 
0.6740333142993197 -0.6748364129420749 -0.6748364485529879 -0.6747429263279269 -0.6748536974518662 -0.6748360121717822 -0.6748656704693183 
1.177218898729532 -1.17751130867539 -1.177511361802994 -1.177482657654743 -1.177506473039881 -1.177512009976732 -1.177554156654608 
2.011356991512547 -2.009704127187952 -2.009708559720133 -2.009432417822707 -2.009654051532572 -2.00968241481939 -2.009025201733267 
0.6740333142993197 -0.6748364129420749 -0.6748364485529879 -0.6747429263279269 -0.6748536974518662 -0.6748360121717822 -0.6748656704693183 
0.3982375848499059 -0.4009036528095938 -0.4009058705070073 -0.400429180243159 -0.4010318048453786 -0.4009274851992342 -0.4009692657188408 
2.629636921971234 -2.628269523213474 -2.628270796947731 -2.627696025001589 -2.627916185357204 -2.628160293122185 -2.627249090816597 
2.29522927836414 -2.293307544228139 -2.293313144262322 -2.292777431191405 -2.293106407405821 -2.2932411401231 -2.292265034984196 
2.52569295541671 -2.524118743238714 -2.524121827035463 -2.523529132375187 -2.523801032418896 -2.524019573796771 -2.523052071598037 
0.3982375848499059 -0.4009036528095938 -0.4009058705070073 -0.400429180243159 -0.4010318048453786 -0.4009274851992342 -0.4009692657188408 
0.6740333142993197 -0.6748364129420749 -0.6748364485529879 -0.6747429263279269 -0.6748536974518662 -0.6748360121717822 -0.6748656704693183 
1.292104880009173 -1.292548615945852 -1.292548477267311 -1.292519325094075 -1.292540130478129 -1.292548762445356 -1.292623323842507 
0.3982375848499059 -0.4009036528095938 -0.4009058705070073 -0.400429180243159 -0.4010318048453786 -0.4009274851992342 -0.4009692657188408 
3.393121869809211 -3.391508554954175 -3.391466413183359 -3.390973254714127 -3.390436549169038 -3.3912831039893 -3.389967847103076 
-2.503167450453531 -2.22392952879479 -2.223921167444164 -2.223462783663202 -1.985213266146524 1.26482667278387 -2.223044826213998 
0.3982375848499059 -0.4009036528095938 -0.4009058705070073 -0.400429180243159 -0.4010318048453786 -0.4009274851992342 -0.4009692657188408 
0.3982375848499059 -0.4009036528095938 -0.4009058705070073 -0.400429180243159 -0.4010318048453786 -0.4009274851992342 -0.4009692657188408 
0.6740333142993197 -0.6748364129420749 -0.6748364485529879 -0.6747429263279269 -0.6748536974518662 -0.6748360121717822 -0.6748656704693183 
0.6740333142993197 -0.6748364129420749 -0.6748364485529879 -0.6747429263279269 -0.6748536974518662 -0.6748360121717822 -0.6748656704693183 
0.3982375848499059 -0.4009036528095938 -0.4009058705070073 -0.400429180243159 -0.4010318048453786 -0.4009274851992342 -0.4009692657188408 
1.920701872412812 -1.919336780420684 -1.91934012752274 -1.919156995240632 -1.91931661371063 -1.919324996530974 -1.918822681209434 
0.3982375848499059 -0.4009036528095938 -0.4009058705070073 -0.400429180243159 -0.4010318048453786 -0.4009274851992342 -0.4009692657188408 
1.920701872412812 -1.919336780420684 -1.91934012752274 -1.919156995240632 -1.91931661371063 -1.919324996530974 -1.918822681209434 
1.177218898729532 -1.17751130867539 -1.177511361802994 -1.177482657654743 -1.177506473039881 -1.177512009976732 -1.177554156654608 
3.113899993138012 -3.112639133767145 -3.112624830901047 -3.111986779352524 -3.111913135771371 -3.112443575912892 -3.111344505283093 
0.3982375848499059 -0.4009036528095938 -0.4009058705070073 -0.400429180243159 -0.4010318048453786 -0.4009274851992342 -0.4009692657188408 
1.633668123655222 -1.63350883920028 -1.633509080790575 -1.633502156457867 -1.633511435871265 -1.633509129948808 -1.633452816911961 
2.738801683681825 -2.737618028899594 -2.737617224537047 -2.737068922168052 -2.737232180631655 -2.73749968957316 -2.736645747274969 
0.4680315271800653 -1.561230524159093 -1.561230388059621 -1.155421400578146 -1.561229060031401 -1.15549551688036 -1.155266393364731 
1.288666127434045 -2.702799962182809 -2.702799834626042 -1.413609679927006 -2.702424739051439 -2.442094397511913 -2.701814676645406 
1.818133667090677 -1.817179658783513 -1.817181707181186 -1.817087590335094 -1.817178651061572 -1.817175282946845 -1.816851877192793 
0.6740333142993197 -0.6748364129420749 -0.6748364485529879 -0.6747429263279269 -0.6748536974518662 -0.6748360121717822 -0.6748656704693183 
-1.840350970029851 -2.377937769976827 -2.377942776454791 -2.087981409761063 -1.839443794140426 0 -0.6436727701817333 
3.930493966297168 -3.926919338315846 -3.92665091562477 -3.928358358957456 -3.925425505647815 -3.926852635923626 -3.92591452326349 
0.3982375848499059 -0.4009036528095938 -0.4009058705070073 -0.400429180243159 -0.4010318048453786 -0.4009274851992342 -0.4009692657188408 
2.456097333629734 -2.454389240635803 -2.454393361023167 -2.453801148991479 -2.454101478295465 -2.454298468551829 -2.45330610203555 
0.8796875584025451 -0.8797160057083152 -0.8797158491132812 -0.8797263638056757 -0.879715405899123 -0.8797144995821153 -0.879708513431417 
0.3982375848499059 -0.4009036528095938 -0.4009058705070073 -0.400429180243159 -0.4010318048453786 -0.4009274851992342 -0.4009692657188408 
0.6740333142993197 -0.6748364129420749 -0.6748364485529879 -0.6747429263279269 -0.6748536974518662 -0.6748360121717822 -0.6748656704693183 
0.8796875584025451 -0.8797160057083152 -0.8797158491132812 -0.8797263638056757 -0.879715405899123 -0.8797144995821153 -0.879708513431417 
1.04253670345109 -1.042597383586463 -1.042597450859529 -1.042590432609568 -1.042596163046292 -1.042597874754713 -1.042602429272126 
1.700086379518111 -1.699650593167507 -1.699651359306818 -1.699624920189045 -1.699655184767679 -1.699650199820804 -1.699510699935122 
1.818133667090677 -1.817179658783513 -1.817181707181186 -1.817087590335094 -1.817178651061572 -1.817175282946845 -1.816851877192793 
2.721606222692003 -2.720397722412076 -2.720397254765672 -2.7198451608981 -2.720017226286696 -2.720280856011434 -2.719419428014294 
0.8796875584025451 -0.8797160057083152 -0.8797158491132812 -0.8797263638056757 -0.879715405899123 -0.8797144995821153 -0.879708513431417 
0.6740333142993197 -0.6748364129420749 -0.6748364485529879 -0.6747429263279269 -0.6748536974518662 -0.6748360121717822 -0.6748656704693183 
0.3982375848499059 -0.4009036528095938 -0.4009058705070073 -0.400429180243159 -0.4010318048453786 -0.4009274851992342 -0.4009692657188408 
2.379769845401862 -2.377937769976827 -2.377942776454791 -2.37736714718111 -2.377688663836222 -2.377857830758293 -2.376858541954594 
-2.547596447556774 -2.546066234428173 -2.546068957663134 2.272004197899173 -2.271965899451743 -2.545964720134899 -2.545007762114574 
1.292104880009173 -1.292548615945852 -1.292548477267311 -1.292519325094075 -1.292540130478129 -1.292548762445356 -1.292623323842507 
2.011356991512547 -2.009704127187952 -2.009708559720133 -2.009432417822707 -2.009654051532572 -2.00968241481939 -2.009025201733267 
1.292104880009173 -1.292548615945852 -1.292548477267311 -1.292519325094075 -1.292540130478129 -1.292548762445356 -1.292623323842507 
1.481232699492421 -1.481550803826986 -1.481550479860221 -1.48154653837168 -1.481544831827386 -1.4815508380905 -1.481612244728376 
1.292104880009173 -1.292548615945852 -1.292548477267311 -1.292519325094075 -1.292540130478129 -1.292548762445356 -1.292623323842507 
0.3982375848499059 -0.4009036528095938 -0.4009058705070073 -0.400429180243159 -0.4010318048453786 -0.4009274851992342 -0.4009692657188408 
1.761327711541218 -1.760622541712519 -1.760623926847273 -1.760567593337849 -1.760626071011935 -1.760620613015441 -1.76039035737834 
1.481232699492421 -1.481550803826986 -1.481550479860221 -1.48154653837168 -1.481544831827386 -1.4815508380905 -1.481612244728376 
3.422906988792322 -3.421351425604312 -3.421309125582539 -3.420890044026679 -3.42033028203754 -3.421147403398941 -3.419914922556269 
1.177218898729532 -1.17751130867539 -1.177511361802994 -1.177482657654743 -1.177506473039881 -1.177512009976732 -1.177554156654608 
0.3982375848499059 -0.4009036528095938 -0.4009058705070073 -0.400429180243159 -0.4010318048453786 -0.4009274851992342 -0.4009692657188408 
2.52569295541671 -2.524118743238714 -2.524121827035463 -2.523529132375187 -2.523801032418896 -2.524019573796771 -2.523052071598037 
1.96734439745645 -1.965820467997157 -1.965824393459308 -1.965594411553634 -1.965786434756578 -1.965803962415797 -1.96522054258899 
0.3982375848499059 -0.4009036528095938 -0.4009058705070073 -0.400429180243159 -0.4010318048453786 -0.4009274851992342 -0.4009692657188408 
2.479982531084072 -2.478318872277589 -2.478322658062718 -2.477728838041787 -2.47802023040282 -2.478225052967962 -2.477239507081487 
1.04253670345109 -1.042597383586463 -1.042597450859529 -1.042590432609568 -1.042596163046292 -1.042597874754713 -1.042602429272126 
-2.352588824093392 -2.350721505216247 -2.350726750222411 -0.3250472331252995 0.3250471409148233 -2.350645775927662 -2.349650196299076 
-1.700086379518111 -0.9872174374644241 -1.699651359306818 -0.9868013095981517 -1.319759833622498 0.1335581969299563 -1.699510699935122 
-0.3982375848499059 -0.4009036528095938 -0.4009058705070073 -0.400429180243159 -0.4010318048453786 0.4009274851992342 -0.4009692657188408 
1.700086379518111 -1.699650593167507 -1.699651359306818 -1.699624920189045 -1.699655184767679 -1.699650199820804 -1.699510699935122 
0.3982375848499059 -0.4009036528095938 -0.4009058705070073 -0.400429180243159 -0.4010318048453786 -0.4009274851992342 -0.4009692657188408 
1.04253670345109 -1.042597383586463 -1.042597450859529 -1.042590432609568 -1.042596163046292 -1.042597874754713 -1.042602429272126 
1.177218898729532 -1.17751130867539 -1.177511361802994 -1.177482657654743 -1.177506473039881 -1.177512009976732 -1.177554156654608 
-0.182228243031079 -1.392772510170087 -1.3927722010197 -0.9509117315244501 -0.9509079201948129 -0.554224037026412 -1.392855190549165 
3.165971234900769 -3.164611053941449 -3.164592359465903 -3.163929289784629 -3.163788670285781 -3.164396989460995 -3.163202605847729 
0.3982375848499059 -0.4009036528095938 -0.4009058705070073 -0.400429180243159 -0.4010318048453786 -0.4009274851992342 -0.4009692657188408 
0.3982375848499059 -0.4009036528095938 -0.4009058705070073 -0.400429180243159 -0.4010318048453786 -0.4009274851992342 -0.4009692657188408 
0.3982375848499059 -0.4009036528095938 -0.4009058705070073 -0.400429180243159 -0.4010318048453786 -0.4009274851992342 -0.4009692657188408 
1.96734439745645 -1.965820467997157 -1.965824393459308 -1.965594411553634 -1.965786434756578 -1.965803962415797 -1.96522054258899 
1.96734439745645 -1.965820467997157 -1.965824393459308 -1.965594411553634 -1.965786434756578 -1.965803962415797 -1.96522054258899 
0.3982375848499059 -0.4009036528095938 -0.4009058705070073 -0.400429180243159 -0.4010318048453786 -0.4009274851992342 -0.4009692657188408 
0.3982375848499059 -0.4009036528095938 -0.4009058705070073 -0.400429180243159 -0.4010318048453786 -0.4009274851992342 -0.4009692657188408 
0.8796875584025451 -0.8797160057083152 -0.8797158491132812 -0.8797263638056757 -0.879715405899123 -0.8797144995821153 -0.879708513431417 
2.849907164802512 -2.848832117264504 -2.848828966453457 -2.848292689988758 -2.848401106884211 -2.848701971687342 -2.847867925084725 
0 -0.6748364129420749 -0.6748364485529879 -0.6747429263279269 0 -0.6748360121717822 -0.6748656704693183 
1.700086379518111 -1.699650593167507 -1.699651359306818 -1.699624920189045 -1.699655184767679 -1.699650199820804 -1.699510699935122 
1.96734439745645 -1.965820467997157 -1.965824393459308 -1.965594411553634 -1.965786434756578 -1.965803962415797 -1.96522054258899 
-1.177218898729532 -1.17751130867539 -1.177511361802994 -1.177482657654743 -1.177506473039881 1.177512009976732 -1.177554156654608 
0.6740333142993197 -0.6748364129420749 -0.6748364485529879 -0.6747429263279269 -0.6748536974518662 -0.6748360121717822 -0.6748656704693183 
1.561127920319622 -1.561230524159093 -1.561230388059621 -1.561230898540131 -1.561229060031401 -1.561230843368209 -1.561243815652044 
0.3982375848499059 -0.4009036528095938 -0.4009058705070073 -0.400429180243159 -0.4010318048453786 -0.4009274851992342 -0.4009692657188408 
2.609904506417035 -2.608498913173209 -2.608500546899393 -2.607921230327735 -2.608151669216169 -2.60839140980626 -2.60746871412081 
0.8796875584025451 -0.8797160057083152 -0.8797158491132812 -0.8797263638056757 -0.879715405899123 -0.8797144995821153 -0.879708513431417 
1.561127920319622 -1.561230524159093 -1.561230388059621 -1.561230898540131 -1.561229060031401 -1.561230843368209 -1.561243815652044 
2.092569415559976 -2.090738771616744 -2.090743971937726 -2.090382002222989 -2.090652216787769 -2.090705760499739 -2.089924774716723 
1.481232699492421 -1.481550803826986 -1.481550479860221 -1.48154653837168 -1.481544831827386 -1.4815508380905 -1.481612244728376 
0.3982375848499059 -0.4009036528095938 -0.4009058705070073 -0.400429180243159 -0.4010318048453786 -0.4009274851992342 -0.4009692657188408 
2.324433240747288 -2.322535577830779 -2.322541022906534 -2.321988962600143 -2.322317453141232 -2.322464362695678 -2.321476330754955 
0.8796875584025451 -0.8797160057083152 -0.8797158491132812 -0.8797263638056757 -0.879715405899123 -0.8797144995821153 -0.879708513431417 
0.6740333142993197 -0.6748364129420749 -0.6748364485529879 -0.6747429263279269 -0.6748536974518662 -0.6748360121717822 -0.6748656704693183 
0.6740333142993197 -0.6748364129420749 -0.6748364485529879 -0.6747429263279269 -0.6748536974518662 -0.6748360121717822 -0.6748656704693183 
0.3982375848499059 -0.4009036528095938 -0.4009058705070073 -0.400429180243159 -0.4010318048453786 -0.4009274851992342 -0.4009692657188408 
1.481232699492421 -1.481550803826986 -1.481550479860221 -1.48154653837168 -1.481544831827386 -1.4815508380905 -1.481612244728376 
2.704035676122932 -2.702799962182809 -2.702799834626042 -2.702243583569913 -2.702424739051439 -2.702684560949725 -2.701814676645406 
2.264894501700531 -2.262956541419411 -2.262962244368065 -2.262446248304907 -2.262773288354779 -2.262895229179457 -2.261935992454854 
2.130211120425319 -2.128325985046716 -2.128331441463554 -2.127931217759179 -2.12821997080103 -2.12828713469206 -2.127456217973804 
0.3982375848499059 -0.4009036528095938 -0.4009058705070073 -0.400429180243159 -0.4010318048453786 -0.4009274851992342 -0.4009692657188408 
2.200451115981467 -2.198511625107278 -2.198517349631276 -2.198051669571857 -2.198366275855808 -2.198461222112399 -2.197552853248645 
1.04253670345109 -1.042597383586463 -1.042597450859529 -1.042590432609568 -1.042596163046292 -1.042597874754713 -1.042602429272126 
3.525073142141093 -3.524092171004177 -3.524074244665341 -3.523981692292283 -3.523646955028606 -3.524051606026098 -3.523488889003913 
-1.633668123655222 1.241691104666276 -1.633509080790575 -1.241539142896761 -1.633511435871265 -1.633509129948808 -1.633452816911961 
0.6740333142993197 -0.6748364129420749 -0.6748364485529879 -0.6747429263279269 -0.6748536974518662 -0.6748360121717822 -0.6748656704693183 
0.3982375848499059 -0.4009036528095938 -0.4009058705070073 -0.400429180243159 -0.4010318048453786 -0.4009274851992342 -0.4009692657188408 
2.686072722759725 -2.684807452851031 -2.684807669302694 -2.684246973946397 -2.68443750007353 -2.684693527562402 -2.68381431442013 
0.3982375848499059 -0.4009036528095938 -0.4009058705070073 -0.400429180243159 -0.4010318048453786 -0.4009274851992342 -0.4009692657188408 
0.3982375848499059 -0.4009036528095938 -0.4009058705070073 -0.400429180243159 -0.4010318048453786 -0.4009274851992342 -0.4009692657188408 
-0.6740333142993197 0.6748364129420749 -0.6748364485529879 -0.6747429263279269 -0.6748536974518662 -0.6748360121717822 -0.6748656704693183 
-0.6740333142993197 0 0 -0.6747429263279269 -0.6748536974518662 -0.6748360121717822 -0.6748656704693183 
1.04253670345109 -1.042597383586463 -1.042597450859529 -1.042590432609568 -1.042596163046292 -1.042597874754713 -1.042602429272126 
0.3982375848499059 -0.4009036528095938 -0.4009058705070073 -0.400429180243159 -0.4010318048453786 -0.4009274851992342 -0.4009692657188408 
0.3982375848499059 -0.4009036528095938 -0.4009058705070073 -0.400429180243159 -0.4010318048453786 -0.4009274851992342 -0.4009692657188408 
0.8796875584025451 -0.8797160057083152 -0.8797158491132812 -0.8797263638056757 -0.879715405899123 -0.8797144995821153 -0.879708513431417 
0.3982375848499059 -0.4009036528095938 -0.4009058705070073 -0.400429180243159 -0.4010318048453786 -0.4009274851992342 -0.4009692657188408 
0.6740333142993197 -0.6748364129420749 -0.6748364485529879 -0.6747429263279269 -0.6748536974518662 -0.6748360121717822 -0.6748656704693183 
1.700086379518111 -1.699650593167507 -1.699651359306818 -1.699624920189045 -1.699655184767679 -1.699650199820804 -1.699510699935122 
3.233713485532317 -3.232218974286529 -3.232193136250316 -3.231519484146417 -3.231268345464886 -3.231983464501578 -3.230674009396389 
1.761327711541218 -1.760622541712519 -1.760623926847273 -1.760567593337849 -1.760626071011935 -1.760620613015441 -1.76039035737834 
0.3982375848499059 -0.4009036528095938 -0.4009058705070073 -0.400429180243159 -0.4010318048453786 -0.4009274851992342 -0.4009692657188408 
2.8646076071035 -2.863539207803329 -2.863535707324943 -2.86299875296898 -2.863100010264872 -2.863407020993767 -2.86257076573193 
0.3982375848499059 -0.4009036528095938 -0.4009058705070073 -0.400429180243159 -0.4010318048453786 -0.4009274851992342 -0.4009692657188408 
0.6740333142993197 -0.6748364129420749 -0.6748364485529879 -0.6747429263279269 -0.6748536974518662 -0.6748360121717822 -0.6748656704693183 
0.3982375848499059 -0.4009036528095938 -0.4009058705070073 -0.400429180243159 -0.4010318048453786 -0.4009274851992342 -0.4009692657188408 
1.633668123655222 -1.63350883920028 -1.633509080790575 -1.633502156457867 -1.633511435871265 -1.633509129948808 -1.633452816911961 
0.6740333142993197 -0.6748364129420749 -0.6748364485529879 -0.6747429263279269 -0.6748536974518662 -0.6748360121717822 -0.6748656704693183 
0.6740333142993197 -0.6748364129420749 -0.6748364485529879 -0.6747429263279269 -0.6748536974518662 -0.6748360121717822 -0.6748656704693183 
0.8796875584025451 -0.8797160057083152 -0.8797158491132812 -0.8797263638056757 -0.879715405899123 -0.8797144995821153 -0.879708513431417 
0.3982375848499059 -0.4009036528095938 -0.4009058705070073 -0.400429180243159 -0.4010318048453786 -0.4009274851992342 -0.4009692657188408 
0.3982375848499059 -0.4009036528095938 -0.4009058705070073 -0.400429180243159 -0.4010318048453786 -0.4009274851992342 -0.4009692657188408 
2.934382799460237 -2.933318392658559 -2.933312985748343 -2.932763690787787 -2.932829474946314 -2.93317422542871 -2.93230794115528 
0.3982375848499059 -0.4009036528095938 -0.4009058705070073 -0.400429180243159 -0.4010318048453786 -0.4009274851992342 -0.4009692657188408 
0.6740333142993197 -0.6748364129420749 -0.6748364485529879 -0.6747429263279269 -0.6748536974518662 -0.6748360121717822 -0.6748656704693183 
2.264894501700531 -2.262956541419411 -2.262962244368065 -2.262446248304907 -2.262773288354779 -2.262895229179457 -2.261935992454854 
1.96734439745645 -1.965820467997157 -1.965824393459308 -1.965594411553634 -1.965786434756578 -1.965803962415797 -1.96522054258899 
1.920701872412812 -1.919336780420684 -1.91934012752274 -1.919156995240632 -1.91931661371063 -1.919324996530974 -1.918822681209434 
1.818133667090677 -1.817179658783513 -1.817181707181186 -1.817087590335094 -1.817178651061572 -1.817175282946845 -1.816851877192793 
1.700086379518111 -1.699650593167507 -1.699651359306818 -1.699624920189045 -1.699655184767679 -1.699650199820804 -1.699510699935122 
3.234033168261224 -3.877762387852503 -3.877541109477697 -3.878796515109008 -3.234661925868664 -3.877637998228546 -3.876606912074623 
3.233713485532317 -3.232218974286529 -3.232193136250316 -3.231519484146417 -3.231268345464886 -3.231983464501578 -3.230674009396389 
0.3982375848499059 -0.4009036528095938 -0.4009058705070073 -0.400429180243159 -0.4010318048453786 -0.4009274851992342 -0.4009692657188408 
1.04253670345109 -1.042597383586463 -1.042597450859529 -1.042590432609568 -1.042596163046292 -1.042597874754713 -1.042602429272126 
1.871097559161501 -1.869922551834283 -1.869925265258231 -1.869788088222954 -1.869913546358367 -1.869914856618651 -1.869499832383017 
1.04253670345109 -1.042597383586463 -1.042597450859529 -1.042590432609568 -1.042596163046292 -1.042597874754713 -1.042602429272126 
0.3982375848499059 -0.4009036528095938 -0.4009058705070073 -0.400429180243159 -0.4010318048453786 -0.4009274851992342 -0.4009692657188408 
1.920701872412812 -1.919336780420684 -1.91934012752274 -1.919156995240632 -1.91931661371063 -1.919324996530974 -1.918822681209434 
0.6740333142993197 -0.6748364129420749 -0.6748364485529879 -0.6747429263279269 -0.6748536974518662 -0.6748360121717822 -0.6748656704693183 
2.721606222692003 -2.720397722412076 -2.720397254765672 -2.7198451608981 -2.720017226286696 -2.720280856011434 -2.719419428014294 
2.609904506417035 -2.608498913173209 -2.608500546899393 -2.607921230327735 -2.608151669216169 -2.60839140980626 -2.60746871412081 
0.8796875584025451 -0.8797160057083152 -0.8797158491132812 -0.8797263638056757 -0.879715405899123 -0.8797144995821153 -0.879708513431417 
0.6740333142993197 -0.6748364129420749 -0.6748364485529879 -0.6747429263279269 -0.6748536974518662 -0.6748360121717822 -0.6748656704693183 
0.3982375848499059 -0.4009036528095938 -0.4009058705070073 -0.400429180243159 -0.4010318048453786 -0.4009274851992342 -0.4009692657188408 
0.3982375848499059 -0.4009036528095938 -0.4009058705070073 -0.400429180243159 -0.4010318048453786 -0.4009274851992342 -0.4009692657188408 
1.871097559161501 -1.869922551834283 -1.869925265258231 -1.869788088222954 -1.869913546358367 -1.869914856618651 -1.869499832383017 
2.379769845401862 -2.377937769976827 -2.377942776454791 -2.37736714718111 -2.377688663836222 -2.377857830758293 -2.376858541954594 
0.6740333142993197 -0.6748364129420749 -0.6748364485529879 -0.6747429263279269 -0.6748536974518662 -0.6748360121717822 -0.6748656704693183 
0.3982375848499059 -0.4009036528095938 -0.4009058705070073 -0.400429180243159 -0.4010318048453786 -0.4009274851992342 -0.4009692657188408 
-0.3982375848499059 -0.4009036528095938 0.4009058705070073 -0.400429180243159 -0.4010318048453786 -0.4009274851992342 -0.4009692657188408 
-0.8796875584025451 -0.8797160057083152 0.8797158491132812 -0.8797263638056757 -0.879715405899123 -0.8797144995821153 -0.879708513431417 
0.6740333142993197 -0.6748364129420749 -0.6748364485529879 -0.6747429263279269 -0.6748536974518662 -0.6748360121717822 -0.6748656704693183 
-1.321073633795739 -1.699650593167507 -1.699651359306818 -0.9868013095981517 -1.699655184767679 0.6857927123147991 -1.699510699935122 
-2.461585924335889 -2.720397722412076 -2.720397254765672 0.7847746104122011 -2.044196949130035 -2.720280856011434 -1.198296233989872 
0.3982375848499059 -0.4009036528095938 -0.4009058705070073 -0.400429180243159 -0.4010318048453786 -0.4009274851992342 -0.4009692657188408 
-1.51975414717739 1.212322833268498 -1.517945329081823 -1.869788088222954 -1.869913546358367 -1.869914856618651 -1.869499832383017 
0.3982375848499059 -0.4009036528095938 -0.4009058705070073 -0.400429180243159 -0.4010318048453786 -0.4009274851992342 -0.4009692657188408 
0.3982375848499059 -0.4009036528095938 -0.4009058705070073 -0.400429180243159 -0.4010318048453786 -0.4009274851992342 -0.4009692657188408 
0.3982375848499059 -0.4009036528095938 -0.4009058705070073 -0.400429180243159 -0.4010318048453786 -0.4009274851992342 -0.4009692657188408 
0.6740333142993197 -0.6748364129420749 -0.6748364485529879 -0.6747429263279269 -0.6748536974518662 -0.6748360121717822 -0.6748656704693183 
0.3982375848499059 -0.4009036528095938 -0.4009058705070073 -0.400429180243159 -0.4010318048453786 -0.4009274851992342 -0.4009692657188408 
-1.481232699492421 0.6836809790801345 -0.6836822167096457 -1.48154653837168 -1.481544831827386 -1.4815508380905 -1.481612244728376 
-0.6740333142993197 -0.6748364129420749 0.6748364485529879 -0.6747429263279269 -0.6748536974518662 -0.6748360121717822 -0.6748656704693183 
-2.675475331610067 -2.919834442418205 -2.919829443533884 -2.675079189496687 -2.465155203640133 2.118266702869797 -2.918835093244168 
1.561127920319622 -1.561230524159093 -1.561230388059621 -1.561230898540131 -1.561229060031401 -1.561230843368209 -1.561243815652044 
1.177218898729532 -1.17751130867539 -1.177511361802994 -1.177482657654743 -1.177506473039881 -1.177512009976732 -1.177554156654608 
0.3982375848499059 -0.4009036528095938 -0.4009058705070073 -0.400429180243159 -0.4010318048453786 -0.4009274851992342 -0.4009692657188408 
0.8796875584025451 -0.8797160057083152 -0.8797158491132812 -0.8797263638056757 -0.879715405899123 -0.8797144995821153 -0.879708513431417 
1.177218898729532 -1.17751130867539 -1.177511361802994 -1.177482657654743 -1.177506473039881 -1.177512009976732 -1.177554156654608 
0.3982375848499059 -0.4009036528095938 -0.4009058705070073 -0.400429180243159 -0.4010318048453786 -0.4009274851992342 -0.4009692657188408 
1.04253670345109 -1.042597383586463 -1.042597450859529 -1.042590432609568 -1.042596163046292 -1.042597874754713 -1.042602429272126 
1.481232699492421 -1.481550803826986 -1.481550479860221 -1.48154653837168 -1.481544831827386 -1.4815508380905 -1.481612244728376 
1.04253670345109 -1.042597383586463 -1.042597450859529 -1.042590432609568 -1.042596163046292 -1.042597874754713 -1.042602429272126 
1.39232645409461 -1.392772510170087 -1.3927722010197 -1.392755539862103 -1.392763623314132 -1.392772378195495 -1.392855190549165 
1.39232645409461 -1.392772510170087 -1.3927722010197 -1.392755539862103 -1.392763623314132 -1.392772378195495 -1.392855190549165 
1.292104880009173 -1.292548615945852 -1.292548477267311 -1.292519325094075 -1.292540130478129 -1.292548762445356 -1.292623323842507 
-1.700086379518111 0.9872174374644237 -1.699651359306818 -1.699624920189045 -1.699655184767679 -1.699650199820804 -0.9864284081672003 
-1.177218898729532 0.2227316799925278 -0.2227315288264721 -1.177482657654743 -1.177506473039881 -1.177512009976732 -1.177554156654608 
-1.818133667090677 0.6020577182777697 -0.6020514377986 -1.817087590335094 -1.817178651061572 -1.817175282946845 -1.816851877192793 
1.04253670345109 -1.042597383586463 -1.042597450859529 -1.042590432609568 -1.042596163046292 -1.042597874754713 -1.042602429272126 
1.920701872412812 -1.919336780420684 -1.91934012752274 -1.919156995240632 -1.91931661371063 -1.919324996530974 -1.918822681209434 
2.431467096462596 -2.429715594093385 -2.429720032720542 -2.429131210588539 -2.429439688099522 -2.429628141895237 -2.428630926812233 
1.292104880009173 -1.292548615945852 -1.292548477267311 -1.292519325094075 -1.292540130478129 -1.292548762445356 -1.292623323842507 
0.8796875584025451 -0.8797160057083152 -0.8797158491132812 -0.8797263638056757 -0.879715405899123 -0.8797144995821153 -0.879708513431417 
0.3982375848499059 -0.4009036528095938 -0.4009058705070073 -0.400429180243159 -0.4010318048453786 -0.4009274851992342 -0.4009692657188408 
0.6740333142993197 -0.6748364129420749 -0.6748364485529879 -0.6747429263279269 -0.6748536974518662 -0.6748360121717822 -0.6748656704693183 
1.177218898729532 -1.17751130867539 -1.177511361802994 -1.177482657654743 -1.177506473039881 -1.177512009976732 -1.177554156654608 
0.3982375848499059 -0.4009036528095938 -0.4009058705070073 -0.400429180243159 -0.4010318048453786 -0.4009274851992342 -0.4009692657188408 
1.177218898729532 -1.17751130867539 -1.177511361802994 -1.177482657654743 -1.177506473039881 -1.177512009976732 -1.177554156654608 
1.04253670345109 -1.042597383586463 -1.042597450859529 -1.042590432609568 -1.042596163046292 -1.042597874754713 -1.042602429272126 
-0.8796875584025451 -0.8797160057083152 -0.8797158491132812 -0.8797263638056757 -0.879715405899123 0.8797144995821153 -0.879708513431417 
-0.4031211468914299 -1.292548615945852 -1.292548477267311 -1.292519325094075 -0.8264117695273898 -1.292548762445356 0 
0.8796875584025451 -0.8797160057083152 -0.8797158491132812 -0.8797263638056757 -0.879715405899123 -0.8797144995821153 -0.879708513431417 
0.3982375848499059 -0.4009036528095938 -0.4009058705070073 -0.400429180243159 -0.4010318048453786 -0.4009274851992342 -0.4009692657188408 
2.092569415559976 -2.090738771616744 -2.090743971937726 -2.090382002222989 -2.090652216787769 -2.090705760499739 -2.089924774716723 
1.39232645409461 -1.392772510170087 -1.3927722010197 -1.392755539862103 -1.392763623314132 -1.392772378195495 -1.392855190549165 
2.479982531084072 -2.478318872277589 -2.478322658062718 -2.477728838041787 -2.47802023040282 -2.478225052967962 -2.477239507081487 
1.177218898729532 -1.17751130867539 -1.177511361802994 -1.177482657654743 -1.177506473039881 -1.177512009976732 -1.177554156654608 
1.481232699492421 -1.481550803826986 -1.481550479860221 -1.48154653837168 -1.481544831827386 -1.4815508380905 -1.481612244728376 
1.177218898729532 -1.17751130867539 -1.177511361802994 -1.177482657654743 -1.177506473039881 -1.177512009976732 -1.177554156654608 
1.633668123655222 -1.63350883920028 -1.633509080790575 -1.633502156457867 -1.633511435871265 -1.633509129948808 -1.633452816911961 
0.6740333142993197 -0.6748364129420749 -0.6748364485529879 -0.6747429263279269 -0.6748536974518662 -0.6748360121717822 -0.6748656704693183 
1.39232645409461 -1.392772510170087 -1.3927722010197 -1.392755539862103 -1.392763623314132 -1.392772378195495 -1.392855190549165 
1.39232645409461 -1.392772510170087 -1.3927722010197 -1.392755539862103 -1.392763623314132 -1.392772378195495 -1.392855190549165 
1.700086379518111 -1.699650593167507 -1.699651359306818 -1.699624920189045 -1.699655184767679 -1.699650199820804 -1.699510699935122 
-0.6740333142993197 0.6748364129420749 -0.6748364485529879 -0.6747429263279269 -0.6748536974518662 -0.6748360121717822 -0.6748656704693183 
-1.292104880009173 -1.292548615945852 1.292548477267311 -1.292519325094075 -1.292540130478129 -1.292548762445356 -1.292623323842507 
-1.177218898729532 -0.222731679992528 0.2227315288264721 -1.177482657654743 -1.177506473039881 -1.177512009976732 -1.177554156654608 
-0.8796875584025451 -0.8797160057083152 -0.8797158491132812 0.8797263638056757 -0.879715405899123 -0.8797144995821153 -0.879708513431417 
-1.156096685033136 -1.561230524159093 -1.561230388059621 -1.561230898540131 1.155490825471796 -1.561230843368209 -1.561243815652044 
-1.930526493863085 -2.454389240635803 -2.454393361023167 -2.453801148991479 1.929845515161156 -2.454298468551829 -2.45330610203555 
-1.292104880009173 -1.292548615945852 -1.292548477267311 -1.292519325094075 1.292540130478129 -1.292548762445356 -1.292623323842507 
-2.106950938446766 -3.222897838415683 -3.222873068860613 -2.997175606502441 -2.996523488774349 1.902781967183174 -3.221369583248177 
-2.36219426759264 -2.628269523213474 -2.36162310640981 -2.627696025001589 -2.132620373852355 -2.628160293122185 1.754033444311232 
-1.804539835842682 -2.524118743238714 -2.524121827035463 -1.619473818955944 -2.248064483542552 -2.011814742986563 0.7688382714098343 
-1.04253670345109 1.042597383586463 -1.042597450859529 -1.042590432609568 -1.042596163046292 -1.042597874754713 -1.042602429272126 
-1.481232699492421 0.335463533757472 -0.3354644577332288 -1.48154653837168 -1.481544831827386 -1.4815508380905 -1.481612244728376 
-0.2006024991944706 -1.965820467997157 -1.965824393459308 -1.627190567064412 -1.334784647210087 -1.074591525985868 -1.073821501753093 
-1.177218898729532 -1.17751130867539 -1.177511361802994 -1.177482657654743 -0.6806155947139908 -0.6806229391648985 0.2227598963491582 
1.292104880009173 -1.292548615945852 -1.292548477267311 -1.292519325094075 -1.292540130478129 -1.292548762445356 -1.292623323842507 
1.561127920319622 -1.561230524159093 -1.561230388059621 -1.561230898540131 -1.561229060031401 -1.561230843368209 -1.561243815652044 
1.481232699492421 -1.481550803826986 -1.481550479860221 -1.48154653837168 -1.481544831827386 -1.4815508380905 -1.481612244728376 
1.871097559161501 -1.869922551834283 -1.869925265258231 -1.869788088222954 -1.869913546358367 -1.869914856618651 -1.869499832383017 
1.481232699492421 -1.481550803826986 -1.481550479860221 -1.48154653837168 -1.481544831827386 -1.4815508380905 -1.481612244728376 
-2.946384951503785 2.16103692917787 -2.286635128438537 -3.173933448217417 -3.173778114335893 -3.174402163390895 -3.173189489069053 
1.292104880009173 -1.292548615945852 -1.292548477267311 -1.292519325094075 -1.292540130478129 -1.292548762445356 -1.292623323842507 
1.481232699492421 -1.481550803826986 -1.481550479860221 -1.48154653837168 -1.481544831827386 -1.4815508380905 -1.481612244728376 
0.3982375848499059 -0.4009036528095938 -0.4009058705070073 -0.400429180243159 -0.4010318048453786 -0.4009274851992342 -0.4009692657188408 
1.481232699492421 -1.481550803826986 -1.481550479860221 -1.48154653837168 -1.481544831827386 -1.4815508380905 -1.481612244728376 
-1.04253670345109 1.042597383586463 -1.042597450859529 -1.042590432609568 -1.042596163046292 -1.042597874754713 -1.042602429272126 
-0.8796875584025451 -0.2865477395903847 0.2865477399094624 -0.8797263638056757 -0.879715405899123 -0.8797144995821153 -0.879708513431417 
-0.1337332110243913 -1.699650593167507 -1.699651359306818 -0.1334931073596022 -1.319759833622498 -1.699650199820804 -1.699510699935122 
-2.401674169287824 -2.863539207803329 -2.863535707324943 -1.305135484450794 1.112560636253785 -2.863407020993767 -2.86257076573193 
1.39232645409461 -1.392772510170087 -1.3927722010197 -1.392755539862103 -1.392763623314132 -1.392772378195495 -1.392855190549165 
1.39232645409461 -1.392772510170087 -1.3927722010197 -1.392755539862103 -1.392763623314132 -1.392772378195495 -1.392855190549165 
3.537666847895299 -3.536805328921641 -3.536794603238792 -3.536746751611084 -3.53649504147384 -3.536798046746773 -3.536377224774592 
1.818133667090677 -1.817179658783513 -1.817181707181186 -1.817087590335094 -1.817178651061572 -1.817175282946845 -1.816851877192793 
3.831417148055615 -3.829734174476556 -3.829601005792342 -3.830224346650681 -3.828601662128647 -3.829595757237672 -3.828739066576621 
1.292104880009173 -1.292548615945852 -1.292548477267311 -1.292519325094075 -1.292540130478129 -1.292548762445356 -1.292623323842507 
-1.739535521788353 -2.293307544228139 -2.293313144262322 1.738537335728488 -2.293106407405821 -2.2932411401231 -2.292265034984196 
2.503167450453531 -2.501548601918178 -2.501552040948646 -2.500958140524512 -2.501239999965196 -2.501451990203754 -2.500474850663701 
0.3982375848499059 -0.4009036528095938 -0.4009058705070073 -0.400429180243159 -0.4010318048453786 -0.4009274851992342 -0.4009692657188408 
2.200451115981467 -2.198511625107278 -2.198517349631276 -2.198051669571857 -2.198366275855808 -2.198461222112399 -2.197552853248645 
1.871097559161501 -1.869922551834283 -1.869925265258231 -1.869788088222954 -1.869913546358367 -1.869914856618651 -1.869499832383017 
1.700086379518111 -1.699650593167507 -1.699651359306818 -1.699624920189045 -1.699655184767679 -1.699650199820804 -1.699510699935122 
1.292104880009173 -1.292548615945852 -1.292548477267311 -1.292519325094075 -1.292540130478129 -1.292548762445356 -1.292623323842507 
1.04253670345109 -1.042597383586463 -1.042597450859529 -1.042590432609568 -1.042596163046292 -1.042597874754713 -1.042602429272126 
1.920701872412812 -1.919336780420684 -1.91934012752274 -1.919156995240632 -1.91931661371063 -1.919324996530974 -1.918822681209434 
0.8796875584025451 -0.8797160057083152 -0.8797158491132812 -0.8797263638056757 -0.879715405899123 -0.8797144995821153 -0.879708513431417 
1.04253670345109 -1.042597383586463 -1.042597450859529 -1.042590432609568 -1.042596163046292 -1.042597874754713 -1.042602429272126 
3.518691314469101 -3.517654150993406 -3.517633014323644 -3.517517993724472 -3.51714735638443 -3.51759803442501 -3.516969693211468 
0.3982375848499059 -0.4009036528095938 -0.4009058705070073 -0.400429180243159 -0.4010318048453786 -0.4009274851992342 -0.4009692657188408 
0.6740333142993197 -0.6748364129420749 -0.6748364485529879 -0.6747429263279269 -0.6748536974518662 -0.6748360121717822 -0.6748656704693183 
-0.6802614371686058 -1.17751130867539 -0.2227315288264721 -1.177482657654743 -0.2227292318520242 -1.177512009976732 -1.177554156654608 
0.3982375848499059 -0.4009036528095938 -0.4009058705070073 -0.400429180243159 -0.4010318048453786 -0.4009274851992342 -0.4009692657188408 
2.479982531084072 -2.478318872277589 -2.478322658062718 -2.477728838041787 -2.47802023040282 -2.478225052967962 -2.477239507081487 
2.40604265383545 -2.404249527900942 -2.404254263653683 -2.403670878302646 -2.403986498558062 -2.404165683034687 -2.403166010125282 
2.352588824093392 -2.350721505216247 -2.350726750222411 -2.350161471777157 -2.350487374011905 -2.350645775927662 -2.349650196299076 
1.871097559161501 -1.869922551834283 -1.869925265258231 -1.869788088222954 -1.869913546358367 -1.869914856618651 -1.869499832383017 
-1.292104880009173 -1.292548615945852 -1.292548477267311 1.292519325094075 -1.292540130478129 -1.292548762445356 -1.292623323842507 
-0.2865475353080535 -0.8797160057083152 -0.8797158491132812 -0.2865488890455646 -0.2865475293685509 -0.8797144995821153 -0.879708513431417 
-1.292104880009173 -1.292548615945852 -1.292548477267311 -1.292519325094075 0.8264117695273899 -1.292548762445356 -0.826490152631564 
1.481232699492421 -1.481550803826986 -1.481550479860221 -1.48154653837168 -1.481544831827386 -1.4815508380905 -1.481612244728376 
0.3982375848499059 -0.4009036528095938 -0.4009058705070073 -0.400429180243159 -0.4010318048453786 -0.4009274851992342 -0.4009692657188408 
1.04253670345109 -1.042597383586463 -1.042597450859529 -1.042590432609568 -1.042596163046292 -1.042597874754713 -1.042602429272126 
0.3982375848499059 -0.4009036528095938 -0.4009058705070073 -0.400429180243159 -0.4010318048453786 -0.4009274851992342 -0.4009692657188408 
1.818133667090677 -1.817179658783513 -1.817181707181186 -1.817087590335094 -1.817178651061572 -1.817175282946845 -1.816851877192793 
1.04253670345109 -1.042597383586463 -1.042597450859529 -1.042590432609568 -1.042596163046292 -1.042597874754713 -1.042602429272126 
1.39232645409461 -1.392772510170087 -1.3927722010197 -1.392755539862103 -1.392763623314132 -1.392772378195495 -1.392855190549165 
0.8796875584025451 -0.8797160057083152 -0.8797158491132812 -0.8797263638056757 -0.879715405899123 -0.8797144995821153 -0.879708513431417 
2.479982531084072 -2.478318872277589 -2.478322658062718 -2.477728838041787 -2.47802023040282 -2.478225052967962 -2.477239507081487 
0.3982375848499059 -0.4009036528095938 -0.4009058705070073 -0.400429180243159 -0.4010318048453786 -0.4009274851992342 -0.4009692657188408 
0.8796875584025451 -0.8797160057083152 -0.8797158491132812 -0.8797263638056757 -0.879715405899123 -0.8797144995821153 -0.879708513431417 
2.738801683681825 -2.737618028899594 -2.737617224537047 -2.737068922168052 -2.737232180631655 -2.73749968957316 -2.736645747274969 
1.871097559161501 -1.869922551834283 -1.869925265258231 -1.869788088222954 -1.869913546358367 -1.869914856618651 -1.869499832383017 
1.177218898729532 -1.17751130867539 -1.177511361802994 -1.177482657654743 -1.177506473039881 -1.177512009976732 -1.177554156654608 
-2.130211120425319 -2.128325985046716 -2.128331441463554 1.810791374426694 -1.811093156234018 -2.12828713469206 -2.127456217973804 
1.633668123655222 -1.63350883920028 -1.633509080790575 -1.633502156457867 -1.633511435871265 -1.633509129948808 -1.633452816911961 
0.6740333142993197 -0.6748364129420749 -0.6748364485529879 -0.6747429263279269 -0.6748536974518662 -0.6748360121717822 -0.6748656704693183 
1.04253670345109 -1.042597383586463 -1.042597450859529 -1.042590432609568 -1.042596163046292 -1.042597874754713 -1.042602429272126 
1.39232645409461 -1.392772510170087 -1.3927722010197 -1.392755539862103 -1.392763623314132 -1.392772378195495 -1.392855190549165 
1.818133667090677 -1.817179658783513 -1.817181707181186 -1.817087590335094 -1.817178651061572 -1.817175282946845 -1.816851877192793 
1.818133667090677 -1.817179658783513 -1.817181707181186 -1.817087590335094 -1.817178651061572 -1.817175282946845 -1.816851877192793 
1.481232699492421 -1.481550803826986 -1.481550479860221 -1.48154653837168 -1.481544831827386 -1.4815508380905 -1.481612244728376 
1.761327711541218 -1.760622541712519 -1.760623926847273 -1.760567593337849 -1.760626071011935 -1.760620613015441 -1.76039035737834 
2.29522927836414 -2.293307544228139 -2.293313144262322 -2.292777431191405 -2.293106407405821 -2.2932411401231 -2.292265034984196 
1.761327711541218 -1.760622541712519 -1.760623926847273 -1.760567593337849 -1.760626071011935 -1.760620613015441 -1.76039035737834 
1.292104880009173 -1.292548615945852 -1.292548477267311 -1.292519325094075 -1.292540130478129 -1.292548762445356 -1.292623323842507 
3.113899993138012 -3.112639133767145 -3.112624830901047 -3.111986779352524 -3.111913135771371 -3.112443575912892 -3.111344505283093 
1.633668123655222 -1.63350883920028 -1.633509080790575 -1.633502156457867 -1.633511435871265 -1.633509129948808 -1.633452816911961 
0.6740333142993197 -0.6748364129420749 -0.6748364485529879 -0.6747429263279269 -0.6748536974518662 -0.6748360121717822 -0.6748656704693183 
1.292104880009173 -1.292548615945852 -1.292548477267311 -1.292519325094075 -1.292540130478129 -1.292548762445356 -1.292623323842507 
0.3982375848499059 -0.4009036528095938 -0.4009058705070073 -0.400429180243159 -0.4010318048453786 -0.4009274851992342 -0.4009692657188408 
1.177218898729532 -1.17751130867539 -1.177511361802994 -1.177482657654743 -1.177506473039881 -1.177512009976732 -1.177554156654608 
2.431467096462596 -2.429715594093385 -2.429720032720542 -2.429131210588539 -2.429439688099522 -2.429628141895237 -2.428630926812233 
-0.8796875584025451 -0.8797160057083152 -0.8797158491132812 0.8797263638056757 -0.879715405899123 -0.8797144995821153 -0.879708513431417 
0.6740333142993197 -0.6748364129420749 -0.6748364485529879 -0.6747429263279269 -0.6748536974518662 -0.6748360121717822 -0.6748656704693183 
0.8796875584025451 -0.8797160057083152 -0.8797158491132812 -0.8797263638056757 -0.879715405899123 -0.8797144995821153 -0.879708513431417 
1.04253670345109 -1.042597383586463 -1.042597450859529 -1.042590432609568 -1.042596163046292 -1.042597874754713 -1.042602429272126 
0.3982375848499059 -0.4009036528095938 -0.4009058705070073 -0.400429180243159 -0.4010318048453786 -0.4009274851992342 -0.4009692657188408 
1.96734439745645 -1.965820467997157 -1.965824393459308 -1.965594411553634 -1.965786434756578 -1.965803962415797 -1.96522054258899 
2.011356991512547 -2.009704127187952 -2.009708559720133 -2.009432417822707 -2.009654051532572 -2.00968241481939 -2.009025201733267 
0.6740333142993197 -0.6748364129420749 -0.6748364485529879 -0.6747429263279269 -0.6748536974518662 -0.6748360121717822 -0.6748656704693183 
0.3982375848499059 -0.4009036528095938 -0.4009058705070073 -0.400429180243159 -0.4010318048453786 -0.4009274851992342 -0.4009692657188408 
-2.092569415559976 1.769285814780049 -2.090743971937726 -2.090382002222989 -2.090652216787769 -1.769169336765246 -2.089924774716723 
1.336706447137279 -1.965820467997157 -1.335296922391267 -1.965594411553634 -1.965786434756578 -1.965803962415797 -1.96522054258899 
-1.481232699492421 0 0 -1.48154653837168 -1.481544831827386 -1.4815508380905 -1.481612244728376 
1.177218898729532 -1.17751130867539 -1.177511361802994 -1.177482657654743 -1.177506473039881 -1.177512009976732 -1.177554156654608 
0.6740333142993197 -0.6748364129420749 -0.6748364485529879 -0.6747429263279269 -0.6748536974518662 -0.6748360121717822 -0.6748656704693183 
1.39232645409461 -1.392772510170087 -1.3927722010197 -1.392755539862103 -1.392763623314132 -1.392772378195495 -1.392855190549165 
1.633668123655222 -1.63350883920028 -1.633509080790575 -1.633502156457867 -1.633511435871265 -1.633509129948808 -1.633452816911961 
1.04253670345109 -1.042597383586463 -1.042597450859529 -1.042590432609568 -1.042596163046292 -1.042597874754713 -1.042602429272126 
1.96734439745645 -1.965820467997157 -1.965824393459308 -1.965594411553634 -1.965786434756578 -1.965803962415797 -1.96522054258899 
0.3982375848499059 -0.4009036528095938 -0.4009058705070073 -0.400429180243159 -0.4010318048453786 -0.4009274851992342 -0.4009692657188408 
0.3982375848499059 -0.4009036528095938 -0.4009058705070073 -0.400429180243159 -0.4010318048453786 -0.4009274851992342 -0.4009692657188408 
0.6740333142993197 -0.6748364129420749 -0.6748364485529879 -0.6747429263279269 -0.6748536974518662 -0.6748360121717822 -0.6748656704693183 
-1.920701872412812 1.919336780420684 -1.91934012752274 -1.919156995240632 -1.91931661371063 -1.919324996530974 -1.918822681209434 
-1.177218898729532 0.2227316799925278 -0.2227315288264721 -1.177482657654743 -1.177506473039881 -1.177512009976732 -1.177554156654608 
1.292104880009173 -1.292548615945852 -1.292548477267311 -1.292519325094075 -1.292540130478129 -1.292548762445356 -1.292623323842507 
0.6740333142993197 -0.6748364129420749 -0.6748364485529879 -0.6747429263279269 -0.6748536974518662 -0.6748360121717822 -0.6748656704693183 
1.39232645409461 -1.392772510170087 -1.3927722010197 -1.392755539862103 -1.392763623314132 -1.392772378195495 -1.392855190549165 
0.8796875584025451 -0.8797160057083152 -0.8797158491132812 -0.8797263638056757 -0.879715405899123 -0.8797144995821153 -0.879708513431417 
1.481232699492421 -1.481550803826986 -1.481550479860221 -1.48154653837168 -1.481544831827386 -1.4815508380905 -1.481612244728376 
0.3982375848499059 -0.4009036528095938 -0.4009058705070073 -0.400429180243159 -0.4010318048453786 -0.4009274851992342 -0.4009692657188408 
0.3982375848499059 -0.4009036528095938 -0.4009058705070073 -0.400429180243159 -0.4010318048453786 -0.4009274851992342 -0.4009692657188408 
0.3982375848499059 -0.4009036528095938 -0.4009058705070073 -0.400429180243159 -0.4010318048453786 -0.4009274851992342 -0.4009692657188408 
0.8796875584025451 -0.8797160057083152 -0.8797158491132812 -0.8797263638056757 -0.879715405899123 -0.8797144995821153 -0.879708513431417 
1.761327711541218 -1.760622541712519 -1.760623926847273 -1.760567593337849 -1.760626071011935 -1.760620613015441 -1.76039035737834 
0.3982375848499059 -0.4009036528095938 -0.4009058705070073 -0.400429180243159 -0.4010318048453786 -0.4009274851992342 -0.4009692657188408 
1.561127920319622 -1.561230524159093 -1.561230388059621 -1.561230898540131 -1.561229060031401 -1.561230843368209 -1.561243815652044 
1.04253670345109 -1.042597383586463 -1.042597450859529 -1.042590432609568 -1.042596163046292 -1.042597874754713 -1.042602429272126 
1.39232645409461 -1.392772510170087 -1.3927722010197 -1.392755539862103 -1.392763623314132 -1.392772378195495 -1.392855190549165 
1.177218898729532 -1.17751130867539 -1.177511361802994 -1.177482657654743 -1.177506473039881 -1.177512009976732 -1.177554156654608 
0.3982375848499059 -0.4009036528095938 -0.4009058705070073 -0.400429180243159 -0.4010318048453786 -0.4009274851992342 -0.4009692657188408 
1.39232645409461 -1.392772510170087 -1.3927722010197 -1.392755539862103 -1.392763623314132 -1.392772378195495 -1.392855190549165 
1.292104880009173 -1.292548615945852 -1.292548477267311 -1.292519325094075 -1.292540130478129 -1.292548762445356 -1.292623323842507 
1.39232645409461 -1.392772510170087 -1.3927722010197 -1.392755539862103 -1.392763623314132 -1.392772378195495 -1.392855190549165 
2.130211120425319 -2.128325985046716 -2.128331441463554 -2.127931217759179 -2.12821997080103 -2.12828713469206 -2.127456217973804 
1.700086379518111 -1.699650593167507 -1.699651359306818 -1.699624920189045 -1.699655184767679 -1.699650199820804 -1.699510699935122 
1.04253670345109 -1.042597383586463 -1.042597450859529 -1.042590432609568 -1.042596163046292 -1.042597874754713 -1.042602429272126 
0.6740333142993197 -0.6748364129420749 -0.6748364485529879 -0.6747429263279269 -0.6748536974518662 -0.6748360121717822 -0.6748656704693183 
0.3982375848499059 -0.4009036528095938 -0.4009058705070073 -0.400429180243159 -0.4010318048453786 -0.4009274851992342 -0.4009692657188408 
1.700086379518111 -1.699650593167507 -1.699651359306818 -1.699624920189045 -1.699655184767679 -1.699650199820804 -1.699510699935122 
0.8796875584025451 -0.8797160057083152 -0.8797158491132812 -0.8797263638056757 -0.879715405899123 -0.8797144995821153 -0.879708513431417 
3.058304228618757 -3.057133043557107 -3.057122388911438 -3.056516437915223 -3.056498402217719 -3.05695634522184 -3.055950669669977 
1.761327711541218 -1.760622541712519 -1.760623926847273 -1.760567593337849 -1.760626071011935 -1.760620613015441 -1.76039035737834 
0.3982375848499059 -0.4009036528095938 -0.4009058705070073 -0.400429180243159 -0.4010318048453786 -0.4009274851992342 -0.4009692657188408 
-2.028896179958057 2.027559993456695 -2.322541022906534 -2.321988962600143 -2.322317453141232 -2.322464362695678 -2.321476330754955 
-1.561127920319622 -1.15549822587054 0.796801869358991 -1.561230898540131 -1.561229060031401 -1.15549551688036 -1.561243815652044 
-0.3982375848499059 -0.4009036528095938 0.4009058705070073 -0.400429180243159 -0.4010318048453786 -0.4009274851992342 -0.4009692657188408 
-0.6740333142993197 0.6748364129420749 -0.6748364485529879 -0.6747429263279269 -0.6748536974518662 -0.6748360121717822 -0.6748656704693183 
-1.292104880009173 -0.8264176411603986 0.8264172141281187 -1.292519325094075 -1.292540130478129 -1.292548762445356 -1.292623323842507 
-0.3982375848499059 -0.4009036528095938 0.4009058705070073 -0.400429180243159 -0.4010318048453786 -0.4009274851992342 -0.4009692657188408 
-0.6740333142993197 0.6748364129420749 -0.6748364485529879 -0.6747429263279269 -0.6748536974518662 -0.6748360121717822 -0.6748656704693183 
-0.3982375848499059 -0.4009036528095938 0.4009058705070073 -0.400429180243159 -0.4010318048453786 -0.4009274851992342 -0.4009692657188408 
-2.200451115981467 2.198511625107278 -2.198517349631276 -2.198051669571857 -2.198366275855808 -2.198461222112399 -2.197552853248645 
-0.3982375848499059 -0.4009036528095938 0.4009058705070073 -0.400429180243159 -0.4010318048453786 -0.4009274851992342 -0.4009692657188408 
-0.8796875584025451 0.8797160057083152 -0.8797158491132812 -0.8797263638056757 -0.879715405899123 -0.8797144995821153 -0.879708513431417 
-1.633668123655222 -0.2872780231438121 0.2872786007788702 -1.633502156457867 -1.633511435871265 -1.633509129948808 -1.633452816911961 
1.292104880009173 -1.292548615945852 -1.292548477267311 -1.292519325094075 -1.292540130478129 -1.292548762445356 -1.292623323842507 
1.177218898729532 -1.17751130867539 -1.177511361802994 -1.177482657654743 -1.177506473039881 -1.177512009976732 -1.177554156654608 
1.292104880009173 -1.292548615945852 -1.292548477267311 -1.292519325094075 -1.292540130478129 -1.292548762445356 -1.292623323842507 
0.3982375848499059 -0.4009036528095938 -0.4009058705070073 -0.400429180243159 -0.4010318048453786 -0.4009274851992342 -0.4009692657188408 
0.6740333142993197 -0.6748364129420749 -0.6748364485529879 -0.6747429263279269 -0.6748536974518662 -0.6748360121717822 -0.6748656704693183 
0.6740333142993197 -0.6748364129420749 -0.6748364485529879 -0.6747429263279269 -0.6748536974518662 -0.6748360121717822 -0.6748656704693183 
1.177218898729532 -1.17751130867539 -1.177511361802994 -1.177482657654743 -1.177506473039881 -1.177512009976732 -1.177554156654608 
1.292104880009173 -1.292548615945852 -1.292548477267311 -1.292519325094075 -1.292540130478129 -1.292548762445356 -1.292623323842507 
0.3982375848499059 -0.4009036528095938 -0.4009058705070073 -0.400429180243159 -0.4010318048453786 -0.4009274851992342 -0.4009692657188408 
0.3982375848499059 -0.4009036528095938 -0.4009058705070073 -0.400429180243159 -0.4010318048453786 -0.4009274851992342 -0.4009692657188408 
0.3982375848499059 -0.4009036528095938 -0.4009058705070073 -0.400429180243159 -0.4010318048453786 -0.4009274851992342 -0.4009692657188408 
0.6740333142993197 -0.6748364129420749 -0.6748364485529879 -0.6747429263279269 -0.6748536974518662 -0.6748360121717822 -0.6748656704693183 
0.6740333142993197 -0.6748364129420749 -0.6748364485529879 -0.6747429263279269 -0.6748536974518662 -0.6748360121717822 -0.6748656704693183 
1.292104880009173 -1.292548615945852 -1.292548477267311 -1.292519325094075 -1.292540130478129 -1.292548762445356 -1.292623323842507 
0.6740333142993197 -0.6748364129420749 -0.6748364485529879 -0.6747429263279269 -0.6748536974518662 -0.6748360121717822 -0.6748656704693183 
