solver_type L2R_LR
nr_class 7
label 0 1 2 5 6 3 4
nr_feature 10598
bias -1
w
0.8796875584023705 -0.8797160057083192 -0.8797158491132828 -0.8797263638056961 -0.8797154058993537 -0.8797144995821214 -0.8797085134313913 
0.3982375848488046 -0.4009036528095504 -0.4009058705072172 -0.4004291802431629 -0.4010318048495054 -0.4009274851995749 -0.4009692657187059 
0.3982375848488046 -0.4009036528095504 -0.4009058705072172 -0.4004291802431629 -0.4010318048495054 -0.4009274851995749 -0.4009692657187059 
1.633668123655216 -1.633508839200249 -1.63350908079067 -1.633502156457872 -1.633511435870917 -1.633509129948822 -1.633452816911927 
0 -0.6748364129421024 -0.6748364485529498 0 -0.6748536974535272 -0.674836012171854 -0.6748656704692575 
0 0 0 0 0 0 0 
0 0 0 0 0 0 0 
0 0 0 0 0 0 0 
3.369999650476316 -3.368366114467102 -3.368325248264776 -3.367783331192358 -3.36727757724549 -3.368129717615444 -3.366774275274755 
-0.3982375848488046 0.4009036528095504 -0.4009058705072172 -0.4004291802431629 -0.4010318048495054 -0.4009274851995749 -0.4009692657187059 
-0.3982375848488046 -0.4009036528095504 0.4009058705072172 -0.4004291802431629 -0.4010318048495054 -0.4009274851995749 -0.4009692657187059 
-3.329868549263243 -3.328239597932275 -3.328202424874518 1.709730851705652 -1.709453938570963 -3.327993739919254 -3.326609340694713 
-3.338060635949772 -3.336427295557285 -3.336389261461137 -3.335793155197744 3.116207314246069 -3.336182510306011 -3.116336586458996 
3.205367922570879 -3.203928731886364 -3.203906062213762 -3.203232643164093 -3.203030841980213 -3.20370146643974 -3.202437099101332 
2.810270810982529 -4.553095768429152 -4.552956831952716 -2.811056438888766 -4.553276264956976 -4.553361886807048 -4.553556964442514 
2.011356991512546 -2.00970412718764 -2.009708559721087 -2.009432417822687 -2.00965405152677 -2.009682414819402 -2.009025201732875 
1.042536703451173 -1.042597383586468 -1.042597450859508 -1.042590432609564 -1.042596163046199 -1.042597874754712 -1.042602429272129 
3.608816800078346 -3.608833642132477 -3.608884212979451 -3.609089691913281 -3.609662864906322 -3.609075549427683 -3.609814013680335 
1.92070187241278 -1.919336780420421 -1.919340127523551 -1.919156995240626 -1.919316613706439 -1.919324996531012 -1.918822681209133 
0.3982375848488046 -0.4009036528095504 -0.4009058705072172 -0.4004291802431629 -0.4010318048495054 -0.4009274851995749 -0.4009692657187059 
5.410767002441439 -5.403859441082499 -5.405119148797875 -5.40781818437849 -5.405616696370102 -5.404241274446608 -5.405775149468401 
0.3982375848488046 -0.4009036528095504 -0.4009058705072172 -0.4004291802431629 -0.4010318048495054 -0.4009274851995749 -0.4009692657187059 
5.555062783150448 -6.276627606094017 -6.276797066987194 -6.273054768738615 -5.827285767064986 -6.271872686997382 -5.923759472282571 
3.68609702278022 -5.405409831564389 -5.405847944689429 -5.415501294530142 -3.758378788308986 -5.407410995746787 -5.134800885114218 
5.360317756883535 -6.136913321115285 -6.136624189561296 -6.004098525779148 -5.59389290621013 -6.010353736264998 -6.004870478250369 
0.8796875584023705 -0.8797160057083192 -0.8797158491132828 -0.8797263638056961 -0.8797154058993537 -0.8797144995821214 -0.8797085134313913 
2.919153685361068 -4.607884911205658 -4.440005101675261 -4.609556220484675 -3.259197933622681 -4.608227113297341 -3.838709710657972 
0.3982375848488046 -0.4009036528095504 -0.4009058705072172 -0.4004291802431629 -0.4010318048495054 -0.4009274851995749 -0.4009692657187059 
4.427849413853538 -4.426735657059105 -4.42651288047722 -4.428769573604916 -4.426792594681711 -4.427073598939509 -4.427274482742241 
3.585891628822588 -3.585590708198851 -3.585618440470842 -3.585743740865995 -3.585983700311112 -3.585743487316595 -3.58604120514788 
1.177218898729705 -1.177511308675422 -1.177511361802881 -1.177482657654727 -1.177506473039964 -1.177512009976723 -1.17755415665464 
2.233336478478054 -2.231391925965076 -2.2313976727307 -2.230904969576977 -2.231227326318075 -2.231335960148678 -2.23039910964426 
3.773499085826605 -3.773281481965057 -3.773276257939132 -3.773313258009232 -3.773265036378438 -3.773251022201131 -3.773312122157003 
1.042536703451173 -1.042597383586468 -1.042597450859508 -1.042590432609564 -1.042596163046199 -1.042597874754712 -1.042602429272129 
4.247826167237412 -4.246635331307655 -4.246444753843124 -4.248200824263203 -4.246303191367629 -4.246820366240611 -4.24673926024377 
0.8796875584023705 -0.8797160057083192 -0.8797158491132828 -0.8797263638056961 -0.8797154058993537 -0.8797144995821214 -0.8797085134313913 
3.738942918385195 -5.300793819800908 -5.15082127987565 -5.299389080590599 -5.150904973551049 -5.300339502513183 -3.823265928469676 
5.318686076033298 -5.312536338621916 -5.312586874013907 -5.311242867374462 -5.311426100763707 -5.31210796648314 -5.31192852175645 
0.6740333142986702 -0.6748364129421024 -0.6748364485529498 -0.6747429263279637 -0.6748536974535272 -0.674836012171854 -0.6748656704692575 
5.313387147435666 -5.306240345837125 -5.306283399060095 -5.304990450093181 -5.30514845489038 -5.305823930883824 -5.305653287129819 
0.6740333142986702 -0.6748364129421024 -0.6748364485529498 -0.6747429263279637 -0.6748536974535272 -0.674836012171854 -0.6748656704692575 
2.295229278364272 -2.29330754422786 -2.293313144263141 -2.292777431191332 -2.293106407395686 -2.293241140122893 -2.292265034983615 
4.137900861526843 -4.136598643666165 -4.136407502469861 -4.137992022316774 -4.136020536731646 -4.136708761373422 -4.136430576238692 
5.316406640709495 -5.309385403928451 -5.309430381882104 -5.308129686630795 -5.308173718212452 -5.308967222786784 -5.308796448541855 
0.3982375848488046 -0.4009036528095504 -0.4009058705072172 -0.4004291802431629 -0.4010318048495054 -0.4009274851995749 -0.4009692657187059 
4.745365204831939 -5.347906602566711 -5.347947928872617 -5.346381764751341 -4.743186559241436 -5.34738655704724 -5.347146008777731 
-0.3982375848488046 0.4009036528095504 -0.4009058705072172 -0.4004291802431629 -0.4010318048495054 -0.4009274851995749 -0.4009692657187059 
-0.3982375848488046 -0.4009036528095504 0.4009058705072172 -0.4004291802431629 -0.4010318048495054 -0.4009274851995749 -0.4009692657187059 
4.826623926072577 -4.826008723313373 -4.826173794448763 -4.823752098466834 -4.825106384842647 -4.825443910632663 -4.824992805658781 
3.385491083036153 -3.383868940592842 -3.383827127700845 -3.383317006414227 -3.382789494085627 -3.38363937310573 -3.382308713521118 
0.3982375848488046 -0.4009036528095504 -0.4009058705072172 -0.4004291802431629 -0.4010318048495054 -0.4009274851995749 -0.4009692657187059 
3.261100811005797 -3.259556945968687 -3.259527869590249 -3.258861430946645 -3.258559142151903 -3.259315126785323 -3.257969420388902 
0.6740333142986702 -0.6748364129421024 -0.6748364485529498 -0.6747429263279637 -0.6748536974535272 -0.674836012171854 -0.6748656704692575 
0.3982375848488046 -0.4009036528095504 -0.4009058705072172 -0.4004291802431629 -0.4010318048495054 -0.4009274851995749 -0.4009692657187059 
2.804141459087004 -2.803033561628976 -2.803031426399996 -2.802493463359199 -2.802624136227815 -2.802908927937187 -2.80207376689053 
0.8796875584023705 -0.8797160057083192 -0.8797158491132828 -0.8797263638056961 -0.8797154058993537 -0.8797144995821214 -0.8797085134313913 
0.6740333142986702 -0.6748364129421024 -0.6748364485529498 -0.6747429263279637 -0.6748536974535272 -0.674836012171854 -0.6748656704692575 
4.140971600116238 -4.13968690869544 -4.139496597080436 -4.141079384801021 -4.139118598846654 -4.13979871423945 -4.139527039018772 
1.700086379518081 -1.699650593167424 -1.699651359307077 -1.699624920189052 -1.699655184766703 -1.699650199820832 -1.699510699935038 
2.832349603111697 -5.539538467749352 -5.394184466020115 -5.540816274769167 -3.065851934955952 -5.539352415002768 -4.280556721556649 
0.3982375848488046 -0.4009036528095504 -0.4009058705072172 -0.4004291802431629 -0.4010318048495054 -0.4009274851995749 -0.4009692657187059 
0.8796875584023705 -0.8797160057083192 -0.8797158491132828 -0.8797263638056961 -0.8797154058993537 -0.8797144995821214 -0.8797085134313913 
-1.433118990782247 -2.231391925965076 -2.2313976727307 -1.224701306045791 -1.926112600249825 0.5287158908321691 -2.23039910964426 
-0.4031211468914465 -1.29254861594591 -1.292548477267119 -1.292519325094056 -0.8264117695278951 -1.29254876244534 0 
-0.6740333142986702 -0.6748364129421024 -0.6748364485529498 -0.6747429263279637 -0.6748536974535272 0.674836012171854 -0.6748656704692575 
-0.6740333142986702 -0.6748364129421024 -0.6748364485529498 -0.6747429263279637 -0.6748536974535272 -0.674836012171854 0.6748656704692575 
2.738801683682042 -2.737618028899691 -2.737617224536702 -2.737068922167945 -2.737232180620507 -2.737499689572564 -2.736645747274449 
3.165971234901147 -3.164611053942163 -3.164592359463629 -3.163929289784405 -3.16378867026536 -3.164396989459363 -3.163202605846973 
3.103077430490679 -3.101835629809406 -3.101822117188537 -3.10119015103031 -3.101128529055846 -3.101643875678815 -3.100563997776881 
1.292104880009344 -1.29254861594591 -1.292548477267119 -1.292519325094056 -1.292540130478477 -1.29254876244534 -1.292623323842559 
1.392326454094739 -1.392772510170152 -1.392772201019489 -1.392755539862089 -1.392763623314617 -1.392772378195476 -1.392855190549219 
3.716480620484443 -3.717319301424182 -3.717405574083454 -3.717518192507562 -3.718896246129464 -3.71757933225657 -3.719151085470413 
3.261100811005797 -3.259556945968687 -3.259527869590249 -3.258861430946645 -3.258559142151903 -3.259315126785323 -3.257969420388902 
2.09256941556001 -2.090738771616413 -2.090743971938737 -2.090382002222954 -2.090652216780531 -2.090705760499707 -2.089924774716259 
1.633668123655216 -1.633508839200249 -1.63350908079067 -1.633502156457872 -1.633511435870917 -1.633509129948822 -1.633452816911927 
0.3982375848488046 -0.4009036528095504 -0.4009058705072172 -0.4004291802431629 -0.4010318048495054 -0.4009274851995749 -0.4009692657187059 
0.6740333142986702 -0.6748364129421024 -0.6748364485529498 -0.6747429263279637 -0.6748536974535272 -0.674836012171854 -0.6748656704692575 
0.3982375848488046 -0.4009036528095504 -0.4009058705072172 -0.4004291802431629 -0.4010318048495054 -0.4009274851995749 -0.4009692657187059 
3.393121869809614 -3.391508554955323 -3.391466413179765 -3.390973254713836 -3.390436549141503 -3.391283103986828 -3.389967847102209 
0.3982375848488046 -0.4009036528095504 -0.4009058705072172 -0.4004291802431629 -0.4010318048495054 -0.4009274851995749 -0.4009692657187059 
2.629636921971442 -2.628269523213476 -2.628270796947674 -2.627696025001483 -2.627916185345954 -2.62816029312167 -2.627249090816046 
0.6740333142986702 -0.6748364129421024 -0.6748364485529498 -0.6747429263279637 -0.6748536974535272 -0.674836012171854 -0.6748656704692575 
2.233336478478054 -2.231391925965076 -2.2313976727307 -2.230904969576977 -2.231227326318075 -2.231335960148678 -2.23039910964426 
1.92070187241278 -1.919336780420421 -1.919340127523551 -1.919156995240626 -1.919316613706439 -1.919324996531012 -1.918822681209133 
1.871097559161459 -1.869922551834058 -1.869925265258933 -1.869788088222953 -1.869913546355017 -1.869914856618696 -1.869499832382769 
2.130211120425372 -2.128325985046382 -2.128331441464563 -2.127931217759138 -2.128219970793159 -2.128287134692 -2.12745621797331 
2.925061094083681 -3.154478055200314 -3.154460295114207 -3.15380132320849 -3.153674995072685 -2.924594611051462 -3.153091856671301 
1.818133667090631 -1.81717965878333 -1.817181707181757 -1.817087590335098 -1.817178651059057 -1.81717528294689 -1.816851877192597 
0.6740333142986702 -0.6748364129421024 -0.6748364485529498 -0.6747429263279637 -0.6748536974535272 -0.674836012171854 -0.6748656704692575 
0.3982375848488046 -0.4009036528095504 -0.4009058705072172 -0.4004291802431629 -0.4010318048495054 -0.4009274851995749 -0.4009692657187059 
0.3982375848488046 -0.4009036528095504 -0.4009058705072172 -0.4004291802431629 -0.4010318048495054 -0.4009274851995749 -0.4009692657187059 
1.177218898729705 -1.177511308675422 -1.177511361802881 -1.177482657654727 -1.177506473039964 -1.177512009976723 -1.17755415665464 
0.6740333142986702 -0.6748364129421024 -0.6748364485529498 -0.6747429263279637 -0.6748536974535272 -0.674836012171854 -0.6748656704692575 
0.3982375848488046 -0.4009036528095504 -0.4009058705072172 -0.4004291802431629 -0.4010318048495054 -0.4009274851995749 -0.4009692657187059 
0.8796875584023705 -0.8797160057083192 -0.8797158491132828 -0.8797263638056961 -0.8797154058993537 -0.8797144995821214 -0.8797085134313913 
3.580042808044834 -3.579665552167387 -3.579687776837627 -3.579792115431629 -3.579956747027188 -3.579796399679842 -3.579991181934133 
1.392326454094739 -1.392772510170152 -1.392772201019489 -1.392755539862089 -1.392763623314617 -1.392772378195476 -1.392855190549219 
0.6740333142986702 -0.6748364129421024 -0.6748364485529498 -0.6747429263279637 -0.6748536974535272 -0.674836012171854 -0.6748656704692575 
0.3982375848488046 -0.4009036528095504 -0.4009058705072172 -0.4004291802431629 -0.4010318048495054 -0.4009274851995749 -0.4009692657187059 
1.761327711541175 -1.760622541712384 -1.760623926847694 -1.760567593337855 -1.760626071010224 -1.760620613015479 -1.7603903573782 
3.671930744124241 -4.459079248397209 -4.458883693099577 -4.460896788637848 -3.671799777541287 -4.459396025003848 -4.459596922366621 
1.042536703451173 -1.042597383586468 -1.042597450859508 -1.042590432609564 -1.042596163046199 -1.042597874754712 -1.042602429272129 
1.761327711541175 -1.760622541712384 -1.760623926847694 -1.760567593337855 -1.760626071010224 -1.760620613015479 -1.7603903573782 
0.3982375848488046 -0.4009036528095504 -0.4009058705072172 -0.4004291802431629 -0.4010318048495054 -0.4009274851995749 -0.4009692657187059 
3.092110509608 -3.090887293535541 -3.090874540768122 -3.090248886647452 -3.090198827758181 -3.090699341239665 -3.08963848733095 
0.3982375848488046 -0.4009036528095504 -0.4009058705072172 -0.4004291802431629 -0.4010318048495054 -0.4009274851995749 -0.4009692657187059 
0.6740333142986702 -0.6748364129421024 -0.6748364485529498 -0.6747429263279637 -0.6748536974535272 -0.674836012171854 -0.6748656704692575 
0.6740333142986702 -0.6748364129421024 -0.6748364485529498 -0.6747429263279637 -0.6748536974535272 -0.674836012171854 -0.6748656704692575 
-0.3982375848488046 0.4009036528095504 -0.4009058705072172 -0.4004291802431629 -0.4010318048495054 -0.4009274851995749 -0.4009692657187059 
-0.6740333142986702 0 0 -0.6747429263279637 -0.6748536974535272 -0.674836012171854 -0.6748656704692575 
0.8796875584023705 -0.8797160057083192 -0.8797158491132828 -0.8797263638056961 -0.8797154058993537 -0.8797144995821214 -0.8797085134313913 
0.8796875584023705 -0.8797160057083192 -0.8797158491132828 -0.8797263638056961 -0.8797154058993537 -0.8797144995821214 -0.8797085134313913 
3.840660070152794 -3.83870392922791 -3.838552305526935 -3.839294390686437 -3.837471885093583 -3.83856286908839 -3.837643751402129 
1.292104880009344 -1.29254861594591 -1.292548477267119 -1.292519325094056 -1.292540130478477 -1.29254876244534 -1.292623323842559 
2.406042653835621 -2.404249527900746 -2.404254263654245 -2.403670878302556 -2.403986498547054 -2.404165683034367 -2.403166010124685 
1.292104880009344 -1.29254861594591 -1.292548477267119 -1.292519325094056 -1.292540130478477 -1.29254876244534 -1.292623323842559 
0.3982375848488046 -0.4009036528095504 -0.4009058705072172 -0.4004291802431629 -0.4010318048495054 -0.4009274851995749 -0.4009692657187059 
2.986215006684829 -2.985123284193509 -2.985116061730937 -2.9845477080926 -2.98458325579849 -2.984967338118038 -2.984056095846683 
1.761327711541175 -1.760622541712384 -1.760623926847694 -1.760567593337855 -1.760626071010224 -1.760620613015479 -1.7603903573782 
0.3982375848488046 -0.4009036528095504 -0.4009058705072172 -0.4004291802431629 -0.4010318048495054 -0.4009274851995749 -0.4009692657187059 
0.8796875584023705 -0.8797160057083192 -0.8797158491132828 -0.8797263638056961 -0.8797154058993537 -0.8797144995821214 -0.8797085134313913 
0.6740333142986702 -0.6748364129421024 -0.6748364485529498 -0.6747429263279637 -0.6748536974535272 -0.674836012171854 -0.6748656704692575 
1.292104880009344 -1.29254861594591 -1.292548477267119 -1.292519325094056 -1.292540130478477 -1.29254876244534 -1.292623323842559 
4.225785335722588 -4.224640408383801 -4.224454621862468 -4.226135095596334 -4.224271471049966 -4.224806745018627 -4.224688968329023 
1.177218898729705 -1.177511308675422 -1.177511361802881 -1.177482657654727 -1.177506473039964 -1.177512009976723 -1.17755415665464 
1.700086379518081 -1.699650593167424 -1.699651359307077 -1.699624920189052 -1.699655184766703 -1.699650199820832 -1.699510699935038 
4.112744585094428 -4.67093579602658 -4.67073389505928 -4.672931214891129 -4.112851472117034 -4.671348450036641 -4.671736060927492 
3.135126635822885 -3.133826589058104 -3.13381061559978 -3.13316130645253 -3.133062234149194 -3.133623478400053 -3.132485877776284 
1.392326454094739 -1.392772510170152 -1.392772201019489 -1.392755539862089 -1.392763623314617 -1.392772378195476 -1.392855190549219 
1.177218898729705 -1.177511308675422 -1.177511361802881 -1.177482657654727 -1.177506473039964 -1.177512009976723 -1.17755415665464 
0.8796875584023705 -0.8797160057083192 -0.8797158491132828 -0.8797263638056961 -0.8797154058993537 -0.8797144995821214 -0.8797085134313913 
-1.561127920319651 -1.561230524159109 -1.561230388059571 -1.56123089854013 -1.56122906003153 1.561230843368209 -1.561243815652052 
0.9507965666197117 -1.392772510170152 -1.392772201019489 -1.392755539862089 -0.9509079201949934 -1.392772378195476 -1.392855190549219 
1.042536703451173 -1.042597383586468 -1.042597450859508 -1.042590432609564 -1.042596163046199 -1.042597874754712 -1.042602429272129 
0.6740333142986702 -0.6748364129421024 -0.6748364485529498 -0.6747429263279637 -0.6748536974535272 -0.674836012171854 -0.6748656704692575 
-0.3982375848488046 0.4009036528095504 -0.4009058705072172 -0.4004291802431629 -0.4010318048495054 -0.4009274851995749 -0.4009692657187059 
-0.6740333142986702 0 0 -0.6747429263279637 -0.6748536974535272 -0.674836012171854 -0.6748656704692575 
4.488899586182288 -4.488209172062318 -4.488040303783002 -4.489803030621716 -4.488334091514741 -4.488498866679979 -4.488690024125761 
0.6740333142986702 -0.6748364129421024 -0.6748364485529498 -0.6747429263279637 -0.6748536974535272 -0.674836012171854 -0.6748656704692575 
2.166120640026435 -2.164200123614506 -2.164205753280896 -2.163770906847462 -2.164074396850296 -2.164155448097347 -2.163282217444143 
0.3982375848488046 -0.4009036528095504 -0.4009058705072172 -0.4004291802431629 -0.4010318048495054 -0.4009274851995749 -0.4009692657187059 
0.6740333142986702 -0.6748364129421024 -0.6748364485529498 -0.6747429263279637 -0.6748536974535272 -0.674836012171854 -0.6748656704692575 
2.379769845402024 -2.377937769976608 -2.377942776455422 -2.377367147181023 -2.377688663825369 -2.377857830758002 -2.376858541953998 
0.3982375848488046 -0.4009036528095504 -0.4009058705072172 -0.4004291802431629 -0.4010318048495054 -0.4009274851995749 -0.4009692657187059 
1.392326454094739 -1.392772510170152 -1.392772201019489 -1.392755539862089 -1.392763623314617 -1.392772378195476 -1.392855190549219 
2.379769845402024 -2.377937769976608 -2.377942776455422 -2.377367147181023 -2.377688663825369 -2.377857830758002 -2.376858541953998 
2.503167450453727 -2.501548601918065 -2.501552040948943 -2.500958140524414 -2.501239999953882 -2.501451990203342 -2.500474850663115 
0.3982375848488046 -0.4009036528095504 -0.4009058705072172 -0.4004291802431629 -0.4010318048495054 -0.4009274851995749 -0.4009692657187059 
1.481232699492498 -1.481550803827035 -1.481550479860061 -1.481546538371673 -1.481544831827802 -1.481550838090487 -1.481612244728415 
0.3982375848488046 -0.4009036528095504 -0.4009058705072172 -0.4004291802431629 -0.4010318048495054 -0.4009274851995749 -0.4009692657187059 
0.3982375848488046 -0.4009036528095504 -0.4009058705072172 -0.4004291802431629 -0.4010318048495054 -0.4009274851995749 -0.4009692657187059 
1.700086379518081 -1.699650593167424 -1.699651359307077 -1.699624920189052 -1.699655184766703 -1.699650199820832 -1.699510699935038 
0.6740333142986702 -0.6748364129421024 -0.6748364485529498 -0.6747429263279637 -0.6748536974535272 -0.674836012171854 -0.6748656704692575 
2.947651148236729 -2.946582215237281 -2.946576383561437 -2.946022986939354 -2.946081477707174 -2.946435282683044 -2.945559379051188 
0.3982375848488046 -0.4009036528095504 -0.4009058705072172 -0.4004291802431629 -0.4010318048495054 -0.4009274851995749 -0.4009692657187059 
0.3982375848488046 -0.4009036528095504 -0.4009058705072172 -0.4004291802431629 -0.4010318048495054 -0.4009274851995749 -0.4009692657187059 
-0.3982375848488046 0.4009036528095504 -0.4009058705072172 -0.4004291802431629 -0.4010318048495054 -0.4009274851995749 -0.4009692657187059 
-0.6740333142986702 -0.6748364129421024 0.6748364485529498 -0.6747429263279637 -0.6748536974535272 -0.674836012171854 -0.6748656704692575 
0.3982375848488046 -0.4009036528095504 -0.4009058705072172 -0.4004291802431629 -0.4010318048495054 -0.4009274851995749 -0.4009692657187059 
2.667698804239344 -2.666401682794978 -2.666402247482924 -2.665836911896043 -2.66603707806386 -2.666289263959929 -2.665399963803773 
0.6740333142986702 -0.6748364129421024 -0.6748364485529498 -0.6747429263279637 -0.6748536974535272 -0.674836012171854 -0.6748656704692575 
0.3982375848488046 -0.4009036528095504 -0.4009058705072172 -0.4004291802431629 -0.4010318048495054 -0.4009274851995749 -0.4009692657187059 
1.481232699492498 -1.481550803827035 -1.481550479860061 -1.481546538371673 -1.481544831827802 -1.481550838090487 -1.481612244728415 
1.633668123655216 -1.633508839200249 -1.63350908079067 -1.633502156457872 -1.633511435870917 -1.633509129948822 -1.633452816911927 
2.053019364442343 -2.051265178275107 -2.051270037180827 -2.050949616314862 -2.051197424423314 -2.051237919337228 -2.050514795238779 
0.3982375848488046 -0.4009036528095504 -0.4009058705072172 -0.4004291802431629 -0.4010318048495054 -0.4009274851995749 -0.4009692657187059 
2.379769845402024 -2.377937769976608 -2.377942776455422 -2.377367147181023 -2.377688663825369 -2.377857830758002 -2.376858541953998 
1.761327711541175 -1.760622541712384 -1.760623926847694 -1.760567593337855 -1.760626071010224 -1.760620613015479 -1.7603903573782 
3.046719602621744 -3.045564228477244 -3.045554213981973 -3.044954888588125 -3.044946683239169 -3.045391187730226 -3.044402989147661 
3.023049225152841 -3.021922651155059 -3.021913832197249 -3.021327494147538 -3.021337795595688 -3.021756715561068 -3.020801609328285 
0.8796875584023705 -0.8797160057083192 -0.8797158491132828 -0.8797263638056961 -0.8797154058993537 -0.8797144995821214 -0.8797085134313913 
0.3982375848488046 -0.4009036528095504 -0.4009058705072172 -0.4004291802431629 -0.4010318048495054 -0.4009274851995749 -0.4009692657187059 
0.8796875584023705 -0.8797160057083192 -0.8797158491132828 -0.8797263638056961 -0.8797154058993537 -0.8797144995821214 -0.8797085134313913 
0.6740333142986702 -0.6748364129421024 -0.6748364485529498 -0.6747429263279637 -0.6748536974535272 -0.674836012171854 -0.6748656704692575 
0.3982375848488046 -0.4009036528095504 -0.4009058705072172 -0.4004291802431629 -0.4010318048495054 -0.4009274851995749 -0.4009692657187059 
3.7217549332252 -3.722535196076789 -3.722616619989077 -3.722698814766689 -3.723997162913459 -3.722767388032164 -3.724229294189994 
1.392326454094739 -1.392772510170152 -1.392772201019489 -1.392755539862089 -1.392763623314617 -1.392772378195476 -1.392855190549219 
1.177218898729705 -1.177511308675422 -1.177511361802881 -1.177482657654727 -1.177506473039964 -1.177512009976723 -1.17755415665464 
1.042536703451173 -1.042597383586468 -1.042597450859508 -1.042590432609564 -1.042596163046199 -1.042597874754712 -1.042602429272129 
2.986215006684829 -2.985123284193509 -2.985116061730937 -2.9845477080926 -2.98458325579849 -2.984967338118038 -2.984056095846683 
0.8796875584023705 -0.8797160057083192 -0.8797158491132828 -0.8797263638056961 -0.8797154058993537 -0.8797144995821214 -0.8797085134313913 
3.492579142513102 -3.491342057957178 -3.491310594463919 -3.491105505400545 -3.490625721753854 -3.491230824963749 -3.490373075270397 
3.8543161495683 -3.851953619716358 -3.851776128730347 -3.852696618739042 -3.850603283819003 -3.851813540260784 -3.850829999875808 
1.177218898729705 -1.177511308675422 -1.177511361802881 -1.177482657654727 -1.177506473039964 -1.177512009976723 -1.17755415665464 
0.3982375848488046 -0.4009036528095504 -0.4009058705072172 -0.4004291802431629 -0.4010318048495054 -0.4009274851995749 -0.4009692657187059 
0 -0.6748364129421024 -0.6748364485529498 -0.6747429263279637 -0.6748536974535272 0 -0.6748656704692575 
3.145537634557309 -3.144217635349797 -3.144200782657178 -3.143546415210378 -3.143433939998846 -3.144010807037282 -3.142854051939275 
3.113899993138351 -3.112639133767736 -3.112624830899163 -3.111986779352329 -3.111913135753324 -3.112443575911495 -3.111344505282402 
0.6740333142986702 -0.6748364129421024 -0.6748364485529498 -0.6747429263279637 -0.6748536974535272 -0.674836012171854 -0.6748656704692575 
0.6740333142986702 -0.6748364129421024 -0.6748364485529498 -0.6747429263279637 -0.6748536974535272 -0.674836012171854 -0.6748656704692575 
0.8796875584023705 -0.8797160057083192 -0.8797158491132828 -0.8797263638056961 -0.8797154058993537 -0.8797144995821214 -0.8797085134313913 
-0.3982375848488046 0.4009036528095504 -0.4009058705072172 -0.4004291802431629 -0.4010318048495054 -0.4009274851995749 -0.4009692657187059 
-0.6740333142986702 0 0 -0.6747429263279637 -0.6748536974535272 -0.674836012171854 -0.6748656704692575 
0.3982375848488046 -0.4009036528095504 -0.4009058705072172 -0.4004291802431629 -0.4010318048495054 -0.4009274851995749 -0.4009692657187059 
0.3982375848488046 -0.4009036528095504 -0.4009058705072172 -0.4004291802431629 -0.4010318048495054 -0.4009274851995749 -0.4009692657187059 
0.3982375848488046 -0.4009036528095504 -0.4009058705072172 -0.4004291802431629 -0.4010318048495054 -0.4009274851995749 -0.4009692657187059 
3.831417148055491 -3.8297341744778 -3.82960100578904 -3.830224346650308 -3.828601662103196 -3.829595757234501 -3.828739066575959 
2.352588824093545 -2.350721505216011 -2.350726750223107 -2.350161471777075 -2.350487374001245 -2.350645775927397 -2.349650196298481 
0.3982375848488046 -0.4009036528095504 -0.4009058705072172 -0.4004291802431629 -0.4010318048495054 -0.4009274851995749 -0.4009692657187059 
0.3982375848488046 -0.4009036528095504 -0.4009058705072172 -0.4004291802431629 -0.4010318048495054 -0.4009274851995749 -0.4009692657187059 
2.648894005732744 -2.647562808241849 -2.647563725439844 -2.646993658172282 -2.647203712983592 -2.647451947203317 -2.646551933743579 
1.042536703451173 -1.042597383586468 -1.042597450859508 -1.042590432609564 -1.042596163046199 -1.042597874754712 -1.042602429272129 
0.6740333142986702 -0.6748364129421024 -0.6748364485529498 -0.6747429263279637 -0.6748536974535272 -0.674836012171854 -0.6748656704692575 
0.6740333142986702 -0.6748364129421024 -0.6748364485529498 -0.6747429263279637 -0.6748536974535272 -0.674836012171854 -0.6748656704692575 
0.6740333142986702 -0.6748364129421024 -0.6748364485529498 -0.6747429263279637 -0.6748536974535272 -0.674836012171854 -0.6748656704692575 
0.3982375848488046 -0.4009036528095504 -0.4009058705072172 -0.4004291802431629 -0.4010318048495054 -0.4009274851995749 -0.4009692657187059 
-0.6740333142986702 -0.6748364129421024 -0.6748364485529498 0.6747429263279637 -0.6748536974535272 -0.674836012171854 -0.6748656704692575 
0.3982375848488046 -0.4009036528095504 -0.4009058705072172 -0.4004291802431629 -0.4010318048495054 -0.4009274851995749 -0.4009692657187059 
1.92070187241278 -1.919336780420421 -1.919340127523551 -1.919156995240626 -1.919316613706439 -1.919324996531012 -1.918822681209133 
3.55614414577152 -3.555478409519734 -3.55548041728512 -3.555498754395417 -3.55540113562862 -3.555526451181047 -3.555346413817039 
0.8796875584023705 -0.8797160057083192 -0.8797158491132828 -0.8797263638056961 -0.8797154058993537 -0.8797144995821214 -0.8797085134313913 
-0.3982375848488046 -0.4009036528095504 -0.4009058705072172 -0.4004291802431629 -0.4010318048495054 0.4009274851995749 -0.4009692657187059 
0.3982375848488046 -0.4009036528095504 -0.4009058705072172 -0.4004291802431629 -0.4010318048495054 -0.4009274851995749 -0.4009692657187059 
0.3982375848488046 -0.4009036528095504 -0.4009058705072172 -0.4004291802431629 -0.4010318048495054 -0.4009274851995749 -0.4009692657187059 
1.042536703451173 -1.042597383586468 -1.042597450859508 -1.042590432609564 -1.042596163046199 -1.042597874754712 -1.042602429272129 
-0.3982375848488046 0.4009036528095504 -0.4009058705072172 -0.4004291802431629 -0.4010318048495054 -0.4009274851995749 -0.4009692657187059 
0.8796875584023705 -0.8797160057083192 -0.8797158491132828 -0.8797263638056961 -0.8797154058993537 -0.8797144995821214 -0.8797085134313913 
0.6740333142986702 -0.6748364129421024 -0.6748364485529498 -0.6747429263279637 -0.6748536974535272 -0.674836012171854 -0.6748656704692575 
0.3982375848488046 -0.4009036528095504 -0.4009058705072172 -0.4004291802431629 -0.4010318048495054 -0.4009274851995749 -0.4009692657187059 
0.6740333142986702 -0.6748364129421024 -0.6748364485529498 -0.6747429263279637 -0.6748536974535272 -0.674836012171854 -0.6748656704692575 
2.686072722759939 -2.684807452851083 -2.684807669302487 -2.684246973946289 -2.684437500062362 -2.684693527561846 -2.683814314419594 
1.042536703451173 -1.042597383586468 -1.042597450859508 -1.042590432609564 -1.042596163046199 -1.042597874754712 -1.042602429272129 
2.166120640026435 -2.164200123614506 -2.164205753280896 -2.163770906847462 -2.164074396850296 -2.164155448097347 -2.163282217444143 
1.292104880009344 -1.29254861594591 -1.292548477267119 -1.292519325094056 -1.292540130478477 -1.29254876244534 -1.292623323842559 
0.3982375848488046 -0.4009036528095504 -0.4009058705072172 -0.4004291802431629 -0.4010318048495054 -0.4009274851995749 -0.4009692657187059 
-0.3982375848488046 -0.4009036528095504 -0.4009058705072172 0.4004291802431629 -0.4010318048495054 -0.4009274851995749 -0.4009692657187059 
-0.2865475353080579 -0.8797160057083192 -0.8797158491132828 -0.8797263638056961 0.2865475293685329 -0.8797144995821214 -0.8797085134313913 
0.1337332110244266 -1.699650593167424 -1.699651359307077 -0.1334931073595825 -1.699655184766703 -1.699650199820832 -1.699510699935038 
1.967344397456431 -1.965820467996867 -1.9658243934602 -1.965594411553621 -1.965786434751564 -1.965803962415825 -1.965220542588641 
-0.3982375848488046 -0.4009036528095504 -0.4009058705072172 -0.4004291802431629 -0.4010318048495054 0.4009274851995749 -0.4009692657187059 
1.561127920319651 -1.561230524159109 -1.561230388059571 -1.56123089854013 -1.56122906003153 -1.561230843368209 -1.561243815652052 
0.3982375848488046 -0.4009036528095504 -0.4009058705072172 -0.4004291802431629 -0.4010318048495054 -0.4009274851995749 -0.4009692657187059 
1.392326454094739 -1.392772510170152 -1.392772201019489 -1.392755539862089 -1.392763623314617 -1.392772378195476 -1.392855190549219 
0.3982375848488046 -0.4009036528095504 -0.4009058705072172 -0.4004291802431629 -0.4010318048495054 -0.4009274851995749 -0.4009692657187059 
0.3982375848488046 -0.4009036528095504 -0.4009058705072172 -0.4004291802431629 -0.4010318048495054 -0.4009274851995749 -0.4009692657187059 
0.6740333142986702 -0.6748364129421024 -0.6748364485529498 -0.6747429263279637 -0.6748536974535272 -0.674836012171854 -0.6748656704692575 
0.3982375848488046 -0.4009036528095504 -0.4009058705072172 -0.4004291802431629 -0.4010318048495054 -0.4009274851995749 -0.4009692657187059 
0.3982375848488046 -0.4009036528095504 -0.4009058705072172 -0.4004291802431629 -0.4010318048495054 -0.4009274851995749 -0.4009692657187059 
2.130211120425372 -2.128325985046382 -2.128331441464563 -2.127931217759138 -2.128219970793159 -2.128287134692 -2.12745621797331 
2.880717486460447 -3.112639133767736 -3.112624830899163 -3.111986779352329 -2.879966160869236 -3.112443575911495 -3.111344505282402 
1.042536703451173 -1.042597383586468 -1.042597450859508 -1.042590432609564 -1.042596163046199 -1.042597874754712 -1.042602429272129 
0.8796875584023705 -0.8797160057083192 -0.8797158491132828 -0.8797263638056961 -0.8797154058993537 -0.8797144995821214 -0.8797085134313913 
0.6740333142986702 -0.6748364129421024 -0.6748364485529498 -0.6747429263279637 -0.6748536974535272 -0.674836012171854 -0.6748656704692575 
4.234115959464575 -4.232956540139967 -4.232769241178839 -4.234475681497884 -4.232601843504984 -4.233129639728991 -4.233025681941911 
2.166120640026435 -2.164200123614506 -2.164205753280896 -2.163770906847462 -2.164074396850296 -2.164155448097347 -2.163282217444143 
-0.3982375848488046 0.4009036528095504 -0.4009058705072172 -0.4004291802431629 -0.4010318048495054 -0.4009274851995749 -0.4009692657187059 
-0.3982375848488046 -0.4009036528095504 0.4009058705072172 -0.4004291802431629 -0.4010318048495054 -0.4009274851995749 -0.4009692657187059 
2.011356991512546 -2.00970412718764 -2.009708559721087 -2.009432417822687 -2.00965405152677 -2.009682414819402 -2.009025201732875 
0.3982375848488046 -0.4009036528095504 -0.4009058705072172 -0.4004291802431629 -0.4010318048495054 -0.4009274851995749 -0.4009692657187059 
1.967344397456431 -1.965820467996867 -1.9658243934602 -1.965594411553621 -1.965786434751564 -1.965803962415825 -1.965220542588641 
1.292104880009344 -1.29254861594591 -1.292548477267119 -1.292519325094056 -1.292540130478477 -1.29254876244534 -1.292623323842559 
1.177218898729705 -1.177511308675422 -1.177511361802881 -1.177482657654727 -1.177506473039964 -1.177512009976723 -1.17755415665464 
0.3982375848488046 -0.4009036528095504 -0.4009058705072172 -0.4004291802431629 -0.4010318048495054 -0.4009274851995749 -0.4009692657187059 
1.177218898729705 -1.177511308675422 -1.177511361802881 -1.177482657654727 -1.177506473039964 -1.177512009976723 -1.17755415665464 
2.166120640026435 -2.164200123614506 -2.164205753280896 -2.163770906847462 -2.164074396850296 -2.164155448097347 -2.163282217444143 
0.3982375848488046 -0.4009036528095504 -0.4009058705072172 -0.4004291802431629 -0.4010318048495054 -0.4009274851995749 -0.4009692657187059 
0.8796875584023705 -0.8797160057083192 -0.8797158491132828 -0.8797263638056961 -0.8797154058993537 -0.8797144995821214 -0.8797085134313913 
0.3982375848488046 -0.4009036528095504 -0.4009058705072172 -0.4004291802431629 -0.4010318048495054 -0.4009274851995749 -0.4009692657187059 
2.166120640026435 -2.164200123614506 -2.164205753280896 -2.163770906847462 -2.164074396850296 -2.164155448097347 -2.163282217444143 
2.130211120425372 -2.128325985046382 -2.128331441464563 -2.127931217759138 -2.128219970793159 -2.128287134692 -2.12745621797331 
2.200451115981553 -2.198511625106958 -2.19851734963224 -2.198051669571801 -2.198366275846857 -2.198461222112284 -2.197552853248103 
2.011356991512546 -2.00970412718764 -2.009708559721087 -2.009432417822687 -2.00965405152677 -2.009682414819402 -2.009025201732875 
-2.161784615942223 -2.818590139094869 -2.818587669335361 -2.818050882873006 -2.818173974546461 2.161792539245215 -2.81763025413662 
-2.089767736434539 -2.377937769976608 -2.377942776455422 -2.377367147181023 -1.425643456691702 -2.377857830758002 1.247538540946326 
1.700086379518081 -1.699650593167424 -1.699651359307077 -1.699624920189052 -1.699655184766703 -1.699650199820832 -1.699510699935038 
2.09256941556001 -2.090738771616413 -2.090743971938737 -2.090382002222954 -2.090652216780531 -2.090705760499707 -2.089924774716259 
2.456097333629919 -2.454389240635646 -2.454393361023598 -2.453801148991384 -2.454101478284247 -2.454298468551462 -2.453306102034956 
3.321590560623618 -3.3199675763655 -3.319931311909371 -3.319313219194219 -3.318892757746329 -3.319721029133474 -3.318336118016864 
1.481232699492498 -1.481550803827035 -1.481550479860061 -1.481546538371673 -1.481544831827802 -1.481550838090487 -1.481612244728415 
0.8260820496385058 -1.29254861594591 -1.292548477267119 -0.8264182967093305 -1.292540130478477 -1.29254876244534 -1.292623323842559 
1.321073633795761 -1.699650593167424 -1.699651359307077 -1.699624920189052 -1.319759833617674 -1.699650199820832 -1.699510699935038 
0.6740333142986702 -0.6748364129421024 -0.6748364485529498 -0.6747429263279637 -0.6748536974535272 -0.674836012171854 -0.6748656704692575 
1.177218898729705 -1.177511308675422 -1.177511361802881 -1.177482657654727 -1.177506473039964 -1.177512009976723 -1.17755415665464 
0.8796875584023705 -0.8797160057083192 -0.8797158491132828 -0.8797263638056961 -0.8797154058993537 -0.8797144995821214 -0.8797085134313913 
0.3982375848488046 -0.4009036528095504 -0.4009058705072172 -0.4004291802431629 -0.4010318048495054 -0.4009274851995749 -0.4009692657187059 
-2.97964756374119 -3.383868940592842 -3.383827127700845 -1.71473279981083 -2.815987631873623 1.395987065408347 -3.382308713521118 
0.3982375848488046 -0.4009036528095504 -0.4009058705072172 -0.4004291802431629 -0.4010318048495054 -0.4009274851995749 -0.4009692657187059 
-0.3982375848488046 -0.4009036528095504 -0.4009058705072172 -0.4004291802431629 -0.4010318048495054 0.4009274851995749 -0.4009692657187059 
-1.700086379518081 -1.699650593167424 -1.699651359307077 -1.699624920189052 -1.699655184766703 1.699650199820832 -1.699510699935038 
3.195695579505682 -3.194275752937574 -3.194254108796938 -3.193582280002625 -3.193396329908505 -3.194051585761829 -3.192803830527094 
-2.907183217924183 -2.906122771098556 -2.906118165170832 2.90557552277315 -2.905655581532861 -2.905983763072521 -2.905133202378331 
3.205367922570879 -3.203928731886364 -3.203906062213762 -3.203232643164093 -3.203030841980213 -3.20370146643974 -3.202437099101332 
1.481232699492498 -1.481550803827035 -1.481550479860061 -1.481546538371673 -1.481544831827802 -1.481550838090487 -1.481612244728415 
2.686072722759939 -2.684807452851083 -2.684807669302487 -2.684246973946289 -2.684437500062362 -2.684693527561846 -2.683814314419594 
3.046719602621744 -3.045564228477244 -3.045554213981973 -3.044954888588125 -3.044946683239169 -3.045391187730226 -3.044402989147661 
0.3982375848488046 -0.4009036528095504 -0.4009058705072172 -0.4004291802431629 -0.4010318048495054 -0.4009274851995749 -0.4009692657187059 
0.3982375848488046 -0.4009036528095504 -0.4009058705072172 -0.4004291802431629 -0.4010318048495054 -0.4009274851995749 -0.4009692657187059 
0.3982375848488046 -0.4009036528095504 -0.4009058705072172 -0.4004291802431629 -0.4010318048495054 -0.4009274851995749 -0.4009692657187059 
2.166120640026435 -2.164200123614506 -2.164205753280896 -2.163770906847462 -2.164074396850296 -2.164155448097347 -2.163282217444143 
1.700086379518081 -1.699650593167424 -1.699651359307077 -1.699624920189052 -1.699655184766703 -1.699650199820832 -1.699510699935038 
2.264894501700648 -2.262956541419115 -2.262962244368943 -2.26244624830484 -2.262773288344982 -2.26289522917928 -2.261935992454283 
1.177218898729705 -1.177511308675422 -1.177511361802881 -1.177482657654727 -1.177506473039964 -1.177512009976723 -1.17755415665464 
3.87210668537978 -3.86925779357103 -3.869049761796215 -3.870199025842236 -3.867800706954008 -3.869126509881112 -3.868101052604167 
0.6740333142986702 -0.6748364129421024 -0.6748364485529498 -0.6747429263279637 -0.6748536974535272 -0.674836012171854 -0.6748656704692575 
0.6740333142986702 -0.6748364129421024 -0.6748364485529498 -0.6747429263279637 -0.6748536974535272 -0.674836012171854 -0.6748656704692575 
2.456097333629919 -2.454389240635646 -2.454393361023598 -2.453801148991384 -2.454101478284247 -2.454298468551462 -2.453306102034956 
2.130211120425372 -2.128325985046382 -2.128331441464563 -2.127931217759138 -2.128219970793159 -2.128287134692 -2.12745621797331 
2.589671900987378 -2.588226289854431 -2.588228286104091 -2.587644733166123 -2.587885566123427 -2.588120632244018 -2.587186331375243 
1.042536703451173 -1.042597383586468 -1.042597450859508 -1.042590432609564 -1.042596163046199 -1.042597874754712 -1.042602429272129 
-1.292104880009344 -1.29254861594591 -1.292548477267119 -1.292519325094056 -1.292540130478477 1.29254876244534 -1.292623323842559 
1.92070187241278 -1.919336780420421 -1.919340127523551 -1.919156995240626 -1.919316613706439 -1.919324996531012 -1.918822681209133 
0.8796875584023705 -0.8797160057083192 -0.8797158491132828 -0.8797263638056961 -0.8797154058993537 -0.8797144995821214 -0.8797085134313913 
0.3982375848488046 -0.4009036528095504 -0.4009058705072172 -0.4004291802431629 -0.4010318048495054 -0.4009274851995749 -0.4009692657187059 
0.3982375848488046 -0.4009036528095504 -0.4009058705072172 -0.4004291802431629 -0.4010318048495054 -0.4009274851995749 -0.4009692657187059 
1.042536703451173 -1.042597383586468 -1.042597450859508 -1.042590432609564 -1.042596163046199 -1.042597874754712 -1.042602429272129 
-0.3982375848488046 -0.4009036528095504 -0.4009058705072172 -0.4004291802431629 -0.4010318048495054 0.4009274851995749 -0.4009692657187059 
-0.6740333142986702 -0.6748364129421024 -0.6748364485529498 -0.6747429263279637 -0.6748536974535272 0.674836012171854 -0.6748656704692575 
1.292104880009344 -1.29254861594591 -1.292548477267119 -1.292519325094056 -1.292540130478477 -1.29254876244534 -1.292623323842559 
2.200451115981553 -2.198511625106958 -2.19851734963224 -2.198051669571801 -2.198366275846857 -2.198461222112284 -2.197552853248103 
2.738801683682042 -2.737618028899691 -2.737617224536702 -2.737068922167945 -2.737232180620507 -2.737499689572564 -2.736645747274449 
2.83493641165637 -2.833852604711239 -2.833849796937672 -2.833313575791002 -2.833429259442727 -2.833724393154762 -2.832891261152752 
0.8796875584023705 -0.8797160057083192 -0.8797158491132828 -0.8797263638056961 -0.8797154058993537 -0.8797144995821214 -0.8797085134313913 
1.042536703451173 -1.042597383586468 -1.042597450859508 -1.042590432609564 -1.042596163046199 -1.042597874754712 -1.042602429272129 
2.264894501700648 -2.262956541419115 -2.262962244368943 -2.26244624830484 -2.262773288344982 -2.26289522917928 -2.261935992454283 
1.392326454094739 -1.392772510170152 -1.392772201019489 -1.392755539862089 -1.392763623314617 -1.392772378195476 -1.392855190549219 
0.6740333142986702 -0.6748364129421024 -0.6748364485529498 -0.6747429263279637 -0.6748536974535272 -0.674836012171854 -0.6748656704692575 
0.3982375848488046 -0.4009036528095504 -0.4009058705072172 -0.4004291802431629 -0.4010318048495054 -0.4009274851995749 -0.4009692657187059 
-0.3982375848488046 -0.4009036528095504 -0.4009058705072172 0.4004291802431629 -0.4010318048495054 -0.4009274851995749 -0.4009692657187059 
1.292104880009344 -1.29254861594591 -1.292548477267119 -1.292519325094056 -1.292540130478477 -1.29254876244534 -1.292623323842559 
1.481232699492498 -1.481550803827035 -1.481550479860061 -1.481546538371673 -1.481544831827802 -1.481550838090487 -1.481612244728415 
-0.6740333142986702 -0.6748364129421024 -0.6748364485529498 -0.6747429263279637 -0.6748536974535272 0.674836012171854 -0.6748656704692575 
0.3982375848488046 -0.4009036528095504 -0.4009058705072172 -0.4004291802431629 -0.4010318048495054 -0.4009274851995749 -0.4009692657187059 
-0.6740333142986702 -0.6748364129421024 -0.6748364485529498 -0.6747429263279637 -0.6748536974535272 0.674836012171854 -0.6748656704692575 
2.011356991512546 -2.00970412718764 -2.009708559721087 -2.009432417822687 -2.00965405152677 -2.009682414819402 -2.009025201732875 
1.818133667090631 -1.81717965878333 -1.817181707181757 -1.817087590335098 -1.817178651059057 -1.81717528294689 -1.816851877192597 
0.3982375848488046 -0.4009036528095504 -0.4009058705072172 -0.4004291802431629 -0.4010318048495054 -0.4009274851995749 -0.4009692657187059 
0.6740333142986702 -0.6748364129421024 -0.6748364485529498 -0.6747429263279637 -0.6748536974535272 -0.674836012171854 -0.6748656704692575 
1.177218898729705 -1.177511308675422 -1.177511361802881 -1.177482657654727 -1.177506473039964 -1.177512009976723 -1.17755415665464 
0.6740333142986702 -0.6748364129421024 -0.6748364485529498 -0.6747429263279637 -0.6748536974535272 -0.674836012171854 -0.6748656704692575 
-0.3982375848488046 -0.4009036528095504 -0.4009058705072172 -0.4004291802431629 -0.4010318048495054 0.4009274851995749 -0.4009692657187059 
0.6740333142986702 -0.6748364129421024 -0.6748364485529498 -0.6747429263279637 -0.6748536974535272 -0.674836012171854 -0.6748656704692575 
1.633668123655216 -1.633508839200249 -1.63350908079067 -1.633502156457872 -1.633511435870917 -1.633509129948822 -1.633452816911927 
1.761327711541175 -1.760622541712384 -1.760623926847694 -1.760567593337855 -1.760626071010224 -1.760620613015479 -1.7603903573782 
0.3982375848488046 -0.4009036528095504 -0.4009058705072172 -0.4004291802431629 -0.4010318048495054 -0.4009274851995749 -0.4009692657187059 
1.392326454094739 -1.392772510170152 -1.392772201019489 -1.392755539862089 -1.392763623314617 -1.392772378195476 -1.392855190549219 
1.633668123655216 -1.633508839200249 -1.63350908079067 -1.633502156457872 -1.633511435870917 -1.633509129948822 -1.633452816911927 
1.292104880009344 -1.29254861594591 -1.292548477267119 -1.292519325094056 -1.292540130478477 -1.29254876244534 -1.292623323842559 
1.92070187241278 -1.919336780420421 -1.919340127523551 -1.919156995240626 -1.919316613706439 -1.919324996531012 -1.918822681209133 
0.6740333142986702 -0.6748364129421024 -0.6748364485529498 -0.6747429263279637 -0.6748536974535272 -0.674836012171854 -0.6748656704692575 
0.8796875584023705 -0.8797160057083192 -0.8797158491132828 -0.8797263638056961 -0.8797154058993537 -0.8797144995821214 -0.8797085134313913 
0.6740333142986702 -0.6748364129421024 -0.6748364485529498 -0.6747429263279637 -0.6748536974535272 -0.674836012171854 -0.6748656704692575 
1.177218898729705 -1.177511308675422 -1.177511361802881 -1.177482657654727 -1.177506473039964 -1.177512009976723 -1.17755415665464 
0.3982375848488046 -0.4009036528095504 -0.4009058705072172 -0.4004291802431629 -0.4010318048495054 -0.4009274851995749 -0.4009692657187059 
0.3982375848488046 -0.4009036528095504 -0.4009058705072172 -0.4004291802431629 -0.4010318048495054 -0.4009274851995749 -0.4009692657187059 
-2.132901608234635 1.932493187660257 -2.361623106408675 -2.627696025001483 -2.627916185345954 -2.62816029312167 -2.627249090816046 
0.6740333142986702 -0.6748364129421024 -0.6748364485529498 -0.6747429263279637 -0.6748536974535272 -0.674836012171854 -0.6748656704692575 
-0.3562816925336451 -1.81717965878333 -1.817181707181757 -1.142978828578662 -1.456867947603575 -0.3559702199399373 -1.816851877192597 
0.3982375848488046 -0.4009036528095504 -0.4009058705072172 -0.4004291802431629 -0.4010318048495054 -0.4009274851995749 -0.4009692657187059 
0.3982375848488046 -0.4009036528095504 -0.4009058705072172 -0.4004291802431629 -0.4010318048495054 -0.4009274851995749 -0.4009692657187059 
0.3982375848488046 -0.4009036528095504 -0.4009058705072172 -0.4004291802431629 -0.4010318048495054 -0.4009274851995749 -0.4009692657187059 
-1.292104880009344 0.4032230069922365 -0.4032228067259754 -1.292519325094056 -1.292540130478477 -1.29254876244534 -1.292623323842559 
-0.8796875584023705 -0.8797160057083192 0.8797158491132828 -0.8797263638056961 -0.8797154058993537 -0.8797144995821214 -0.8797085134313913 
-0.8796875584023705 -0.8797160057083192 0.8797158491132828 -0.8797263638056961 -0.8797154058993537 -0.8797144995821214 -0.8797085134313913 
2.568912243266278 -2.567425004282249 -2.567427364277083 -2.566840047046188 -2.567091317178359 -2.567321335109965 -2.566375533217579 
1.700086379518081 -1.699650593167424 -1.699651359307077 -1.699624920189052 -1.699655184766703 -1.699650199820832 -1.699510699935038 
2.503167450453727 -2.501548601918065 -2.501552040948943 -2.500958140524414 -2.501239999953882 -2.501451990203342 -2.500474850663115 
1.292104880009344 -1.29254861594591 -1.292548477267119 -1.292519325094056 -1.292540130478477 -1.29254876244534 -1.292623323842559 
0.6740333142986702 -0.6748364129421024 -0.6748364485529498 -0.6747429263279637 -0.6748536974535272 -0.674836012171854 -0.6748656704692575 
1.177218898729705 -1.177511308675422 -1.177511361802881 -1.177482657654727 -1.177506473039964 -1.177512009976723 -1.17755415665464 
2.011356991512546 -2.00970412718764 -2.009708559721087 -2.009432417822687 -2.00965405152677 -2.009682414819402 -2.009025201732875 
0.6740333142986702 -0.6748364129421024 -0.6748364485529498 -0.6747429263279637 -0.6748536974535272 -0.674836012171854 -0.6748656704692575 
0.3982375848488046 -0.4009036528095504 -0.4009058705072172 -0.4004291802431629 -0.4010318048495054 -0.4009274851995749 -0.4009692657187059 
2.629636921971442 -2.628269523213476 -2.628270796947674 -2.627696025001483 -2.627916185345954 -2.62816029312167 -2.627249090816046 
2.295229278364272 -2.29330754422786 -2.293313144263141 -2.292777431191332 -2.293106407395686 -2.293241140122893 -2.292265034983615 
2.52569295541691 -2.524118743238622 -2.524121827035697 -2.523529132375085 -2.523801032407565 -2.524019573796339 -2.523052071597457 
0.3982375848488046 -0.4009036528095504 -0.4009058705072172 -0.4004291802431629 -0.4010318048495054 -0.4009274851995749 -0.4009692657187059 
0.6740333142986702 -0.6748364129421024 -0.6748364485529498 -0.6747429263279637 -0.6748536974535272 -0.674836012171854 -0.6748656704692575 
1.292104880009344 -1.29254861594591 -1.292548477267119 -1.292519325094056 -1.292540130478477 -1.29254876244534 -1.292623323842559 
0.3982375848488046 -0.4009036528095504 -0.4009058705072172 -0.4004291802431629 -0.4010318048495054 -0.4009274851995749 -0.4009692657187059 
3.393121869809614 -3.391508554955323 -3.391466413179765 -3.390973254713836 -3.390436549141503 -3.391283103986828 -3.389967847102209 
-2.503167450453727 -2.22392952879514 -2.22392116744305 -2.223462783663078 -1.985213266140887 1.264826672783833 -2.223044826213527 
0.3982375848488046 -0.4009036528095504 -0.4009058705072172 -0.4004291802431629 -0.4010318048495054 -0.4009274851995749 -0.4009692657187059 
0.3982375848488046 -0.4009036528095504 -0.4009058705072172 -0.4004291802431629 -0.4010318048495054 -0.4009274851995749 -0.4009692657187059 
0.6740333142986702 -0.6748364129421024 -0.6748364485529498 -0.6747429263279637 -0.6748536974535272 -0.674836012171854 -0.6748656704692575 
0.6740333142986702 -0.6748364129421024 -0.6748364485529498 -0.6747429263279637 -0.6748536974535272 -0.674836012171854 -0.6748656704692575 
0.3982375848488046 -0.4009036528095504 -0.4009058705072172 -0.4004291802431629 -0.4010318048495054 -0.4009274851995749 -0.4009692657187059 
1.92070187241278 -1.919336780420421 -1.919340127523551 -1.919156995240626 -1.919316613706439 -1.919324996531012 -1.918822681209133 
0.3982375848488046 -0.4009036528095504 -0.4009058705072172 -0.4004291802431629 -0.4010318048495054 -0.4009274851995749 -0.4009692657187059 
1.92070187241278 -1.919336780420421 -1.919340127523551 -1.919156995240626 -1.919316613706439 -1.919324996531012 -1.918822681209133 
1.177218898729705 -1.177511308675422 -1.177511361802881 -1.177482657654727 -1.177506473039964 -1.177512009976723 -1.17755415665464 
3.113899993138351 -3.112639133767736 -3.112624830899163 -3.111986779352329 -3.111913135753324 -3.112443575911495 -3.111344505282402 
0.3982375848488046 -0.4009036528095504 -0.4009058705072172 -0.4004291802431629 -0.4010318048495054 -0.4009274851995749 -0.4009692657187059 
1.633668123655216 -1.633508839200249 -1.63350908079067 -1.633502156457872 -1.633511435870917 -1.633509129948822 -1.633452816911927 
2.738801683682042 -2.737618028899691 -2.737617224536702 -2.737068922167945 -2.737232180620507 -2.737499689572564 -2.736645747274449 
0.4680315271801149 -1.561230524159109 -1.561230388059571 -1.155421400578146 -1.56122906003153 -1.155495516880383 -1.155266393364595 
1.288666127433869 -2.70279996218288 -2.702799834625785 -1.413609679927006 -2.702424739040285 -2.442094397511213 -2.701814676644876 
1.818133667090631 -1.81717965878333 -1.817181707181757 -1.817087590335098 -1.817178651059057 -1.81717528294689 -1.816851877192597 
0.6740333142986702 -0.6748364129421024 -0.6748364485529498 -0.6747429263279637 -0.6748536974535272 -0.674836012171854 -0.6748656704692575 
-1.84035097003001 -2.377937769976608 -2.377942776455422 -2.087981409760921 -1.839443794131325 0 -0.643672770181733 
3.930493966296051 -3.92691933831719 -3.926650915621623 -3.928358358956837 -3.925425505614471 -3.92685263591867 -3.925914523262799 
0.3982375848488046 -0.4009036528095504 -0.4009058705072172 -0.4004291802431629 -0.4010318048495054 -0.4009274851995749 -0.4009692657187059 
2.456097333629919 -2.454389240635646 -2.454393361023598 -2.453801148991384 -2.454101478284247 -2.454298468551462 -2.453306102034956 
0.8796875584023705 -0.8797160057083192 -0.8797158491132828 -0.8797263638056961 -0.8797154058993537 -0.8797144995821214 -0.8797085134313913 
0.3982375848488046 -0.4009036528095504 -0.4009058705072172 -0.4004291802431629 -0.4010318048495054 -0.4009274851995749 -0.4009692657187059 
0.6740333142986702 -0.6748364129421024 -0.6748364485529498 -0.6747429263279637 -0.6748536974535272 -0.674836012171854 -0.6748656704692575 
0.8796875584023705 -0.8797160057083192 -0.8797158491132828 -0.8797263638056961 -0.8797154058993537 -0.8797144995821214 -0.8797085134313913 
1.042536703451173 -1.042597383586468 -1.042597450859508 -1.042590432609564 -1.042596163046199 -1.042597874754712 -1.042602429272129 
1.700086379518081 -1.699650593167424 -1.699651359307077 -1.699624920189052 -1.699655184766703 -1.699650199820832 -1.699510699935038 
1.818133667090631 -1.81717965878333 -1.817181707181757 -1.817087590335098 -1.817178651059057 -1.81717528294689 -1.816851877192597 
2.721606222692218 -2.720397722412157 -2.720397254765374 -2.71984516089799 -2.720017226275551 -2.720280856010852 -2.719419428013769 
0.8796875584023705 -0.8797160057083192 -0.8797158491132828 -0.8797263638056961 -0.8797154058993537 -0.8797144995821214 -0.8797085134313913 
0.6740333142986702 -0.6748364129421024 -0.6748364485529498 -0.6747429263279637 -0.6748536974535272 -0.674836012171854 -0.6748656704692575 
0.3982375848488046 -0.4009036528095504 -0.4009058705072172 -0.4004291802431629 -0.4010318048495054 -0.4009274851995749 -0.4009692657187059 
2.379769845402024 -2.377937769976608 -2.377942776455422 -2.377367147181023 -2.377688663825369 -2.377857830758002 -2.376858541953998 
-2.547596447556975 -2.5460662344281 -2.546068957663307 2.272004197899057 -2.271965899441196 -2.545964720134451 -2.545007762113999 
1.292104880009344 -1.29254861594591 -1.292548477267119 -1.292519325094056 -1.292540130478477 -1.29254876244534 -1.292623323842559 
2.011356991512546 -2.00970412718764 -2.009708559721087 -2.009432417822687 -2.00965405152677 -2.009682414819402 -2.009025201732875 
1.292104880009344 -1.29254861594591 -1.292548477267119 -1.292519325094056 -1.292540130478477 -1.29254876244534 -1.292623323842559 
1.481232699492498 -1.481550803827035 -1.481550479860061 -1.481546538371673 -1.481544831827802 -1.481550838090487 -1.481612244728415 
1.292104880009344 -1.29254861594591 -1.292548477267119 -1.292519325094056 -1.292540130478477 -1.29254876244534 -1.292623323842559 
0.3982375848488046 -0.4009036528095504 -0.4009058705072172 -0.4004291802431629 -0.4010318048495054 -0.4009274851995749 -0.4009692657187059 
1.761327711541175 -1.760622541712384 -1.760623926847694 -1.760567593337855 -1.760626071010224 -1.760620613015479 -1.7603903573782 
1.481232699492498 -1.481550803827035 -1.481550479860061 -1.481546538371673 -1.481544831827802 -1.481550838090487 -1.481612244728415 
3.422906988792697 -3.421351425605442 -3.421309125579024 -3.420890044026394 -3.420330282010906 -3.42114740339654 -3.41991492255545 
1.177218898729705 -1.177511308675422 -1.177511361802881 -1.177482657654727 -1.177506473039964 -1.177512009976723 -1.17755415665464 
0.3982375848488046 -0.4009036528095504 -0.4009058705072172 -0.4004291802431629 -0.4010318048495054 -0.4009274851995749 -0.4009692657187059 
2.52569295541691 -2.524118743238622 -2.524121827035697 -2.523529132375085 -2.523801032407565 -2.524019573796339 -2.523052071597457 
1.967344397456431 -1.965820467996867 -1.9658243934602 -1.965594411553621 -1.965786434751564 -1.965803962415825 -1.965220542588641 
0.3982375848488046 -0.4009036528095504 -0.4009058705072172 -0.4004291802431629 -0.4010318048495054 -0.4009274851995749 -0.4009692657187059 
2.479982531084262 -2.478318872277454 -2.478322658063081 -2.477728838041689 -2.478020230391545 -2.478225052967574 -2.477239507080899 
1.042536703451173 -1.042597383586468 -1.042597450859508 -1.042590432609564 -1.042596163046199 -1.042597874754712 -1.042602429272129 
-2.352588824093545 -2.350721505216011 -2.350726750223107 -0.3250472331252992 0.3250471409147867 -2.350645775927397 -2.349650196298481 
-1.700086379518081 -0.9872174374642635 -1.699651359307077 -0.9868013095980873 -1.319759833617674 0.1335581969298354 -1.699510699935038 
-0.3982375848488046 -0.4009036528095504 -0.4009058705072172 -0.4004291802431629 -0.4010318048495054 0.4009274851995749 -0.4009692657187059 
1.700086379518081 -1.699650593167424 -1.699651359307077 -1.699624920189052 -1.699655184766703 -1.699650199820832 -1.699510699935038 
0.3982375848488046 -0.4009036528095504 -0.4009058705072172 -0.4004291802431629 -0.4010318048495054 -0.4009274851995749 -0.4009692657187059 
1.042536703451173 -1.042597383586468 -1.042597450859508 -1.042590432609564 -1.042596163046199 -1.042597874754712 -1.042602429272129 
1.177218898729705 -1.177511308675422 -1.177511361802881 -1.177482657654727 -1.177506473039964 -1.177512009976723 -1.17755415665464 
-0.1822282430310809 -1.392772510170152 -1.392772201019489 -0.9509117315244496 -0.9509079201949934 -0.5542240370264186 -1.392855190549219 
3.165971234901147 -3.164611053942163 -3.164592359463629 -3.163929289784405 -3.16378867026536 -3.164396989459363 -3.163202605846973 
0.3982375848488046 -0.4009036528095504 -0.4009058705072172 -0.4004291802431629 -0.4010318048495054 -0.4009274851995749 -0.4009692657187059 
0.3982375848488046 -0.4009036528095504 -0.4009058705072172 -0.4004291802431629 -0.4010318048495054 -0.4009274851995749 -0.4009692657187059 
0.3982375848488046 -0.4009036528095504 -0.4009058705072172 -0.4004291802431629 -0.4010318048495054 -0.4009274851995749 -0.4009692657187059 
1.967344397456431 -1.965820467996867 -1.9658243934602 -1.965594411553621 -1.965786434751564 -1.965803962415825 -1.965220542588641 
1.967344397456431 -1.965820467996867 -1.9658243934602 -1.965594411553621 -1.965786434751564 -1.965803962415825 -1.965220542588641 
0.3982375848488046 -0.4009036528095504 -0.4009058705072172 -0.4004291802431629 -0.4010318048495054 -0.4009274851995749 -0.4009692657187059 
0.3982375848488046 -0.4009036528095504 -0.4009058705072172 -0.4004291802431629 -0.4010318048495054 -0.4009274851995749 -0.4009692657187059 
0.8796875584023705 -0.8797160057083192 -0.8797158491132828 -0.8797263638056961 -0.8797154058993537 -0.8797144995821214 -0.8797085134313913 
2.849907164802739 -2.848832117264698 -2.848828966452811 -2.848292689988639 -2.848401106872652 -2.848701971686635 -2.847867925084214 
0 -0.6748364129421024 -0.6748364485529498 -0.6747429263279637 0 -0.674836012171854 -0.6748656704692575 
1.700086379518081 -1.699650593167424 -1.699651359307077 -1.699624920189052 -1.699655184766703 -1.699650199820832 -1.699510699935038 
1.967344397456431 -1.965820467996867 -1.9658243934602 -1.965594411553621 -1.965786434751564 -1.965803962415825 -1.965220542588641 
-1.177218898729705 -1.177511308675422 -1.177511361802881 -1.177482657654727 -1.177506473039964 1.177512009976723 -1.17755415665464 
0.6740333142986702 -0.6748364129421024 -0.6748364485529498 -0.6747429263279637 -0.6748536974535272 -0.674836012171854 -0.6748656704692575 
1.561127920319651 -1.561230524159109 -1.561230388059571 -1.56123089854013 -1.56122906003153 -1.561230843368209 -1.561243815652052 
0.3982375848488046 -0.4009036528095504 -0.4009058705072172 -0.4004291802431629 -0.4010318048495054 -0.4009274851995749 -0.4009692657187059 
2.609904506417243 -2.608498913173194 -2.608500546899388 -2.607921230327627 -2.608151669204891 -2.608391409805763 -2.607468714120251 
0.8796875584023705 -0.8797160057083192 -0.8797158491132828 -0.8797263638056961 -0.8797154058993537 -0.8797144995821214 -0.8797085134313913 
1.561127920319651 -1.561230524159109 -1.561230388059571 -1.56123089854013 -1.56122906003153 -1.561230843368209 -1.561243815652052 
2.09256941556001 -2.090738771616413 -2.090743971938737 -2.090382002222954 -2.090652216780531 -2.090705760499707 -2.089924774716259 
1.481232699492498 -1.481550803827035 -1.481550479860061 -1.481546538371673 -1.481544831827802 -1.481550838090487 -1.481612244728415 
0.3982375848488046 -0.4009036528095504 -0.4009058705072172 -0.4004291802431629 -0.4010318048495054 -0.4009274851995749 -0.4009692657187059 
2.32443324074743 -2.322535577830519 -2.322541022907293 -2.321988962600065 -2.322317453130812 -2.322464362695442 -2.321476330754367 
0.8796875584023705 -0.8797160057083192 -0.8797158491132828 -0.8797263638056961 -0.8797154058993537 -0.8797144995821214 -0.8797085134313913 
0.6740333142986702 -0.6748364129421024 -0.6748364485529498 -0.6747429263279637 -0.6748536974535272 -0.674836012171854 -0.6748656704692575 
0.6740333142986702 -0.6748364129421024 -0.6748364485529498 -0.6747429263279637 -0.6748536974535272 -0.674836012171854 -0.6748656704692575 
0.3982375848488046 -0.4009036528095504 -0.4009058705072172 -0.4004291802431629 -0.4010318048495054 -0.4009274851995749 -0.4009692657187059 
1.481232699492498 -1.481550803827035 -1.481550479860061 -1.481546538371673 -1.481544831827802 -1.481550838090487 -1.481612244728415 
2.704035676123147 -2.70279996218288 -2.702799834625785 -2.702243583569802 -2.702424739040285 -2.702684560949156 -2.701814676644876 
2.264894501700648 -2.262956541419115 -2.262962244368943 -2.26244624830484 -2.262773288344982 -2.26289522917928 -2.261935992454283 
2.130211120425372 -2.128325985046382 -2.128331441464563 -2.127931217759138 -2.128219970793159 -2.128287134692 -2.12745621797331 
0.3982375848488046 -0.4009036528095504 -0.4009058705072172 -0.4004291802431629 -0.4010318048495054 -0.4009274851995749 -0.4009692657187059 
2.200451115981553 -2.198511625106958 -2.19851734963224 -2.198051669571801 -2.198366275846857 -2.198461222112284 -2.197552853248103 
1.042536703451173 -1.042597383586468 -1.042597450859508 -1.042590432609564 -1.042596163046199 -1.042597874754712 -1.042602429272129 
3.525073142141248 -3.524092171004721 -3.524074244663484 -3.523981692292153 -3.523646955013277 -3.524051606024874 -3.523488889003504 
-1.633668123655216 1.241691104666088 -1.63350908079067 -1.241539142896752 -1.633511435870917 -1.633509129948822 -1.633452816911927 
0.6740333142986702 -0.6748364129421024 -0.6748364485529498 -0.6747429263279637 -0.6748536974535272 -0.674836012171854 -0.6748656704692575 
0.3982375848488046 -0.4009036528095504 -0.4009058705072172 -0.4004291802431629 -0.4010318048495054 -0.4009274851995749 -0.4009692657187059 
2.686072722759939 -2.684807452851083 -2.684807669302487 -2.684246973946289 -2.684437500062362 -2.684693527561846 -2.683814314419594 
0.3982375848488046 -0.4009036528095504 -0.4009058705072172 -0.4004291802431629 -0.4010318048495054 -0.4009274851995749 -0.4009692657187059 
0.3982375848488046 -0.4009036528095504 -0.4009058705072172 -0.4004291802431629 -0.4010318048495054 -0.4009274851995749 -0.4009692657187059 
-0.6740333142986702 0.6748364129421024 -0.6748364485529498 -0.6747429263279637 -0.6748536974535272 -0.674836012171854 -0.6748656704692575 
-0.6740333142986702 0 0 -0.6747429263279637 -0.6748536974535272 -0.674836012171854 -0.6748656704692575 
1.042536703451173 -1.042597383586468 -1.042597450859508 -1.042590432609564 -1.042596163046199 -1.042597874754712 -1.042602429272129 
0.3982375848488046 -0.4009036528095504 -0.4009058705072172 -0.4004291802431629 -0.4010318048495054 -0.4009274851995749 -0.4009692657187059 
0.3982375848488046 -0.4009036528095504 -0.4009058705072172 -0.4004291802431629 -0.4010318048495054 -0.4009274851995749 -0.4009692657187059 
0.8796875584023705 -0.8797160057083192 -0.8797158491132828 -0.8797263638056961 -0.8797154058993537 -0.8797144995821214 -0.8797085134313913 
0.3982375848488046 -0.4009036528095504 -0.4009058705072172 -0.4004291802431629 -0.4010318048495054 -0.4009274851995749 -0.4009692657187059 
0.6740333142986702 -0.6748364129421024 -0.6748364485529498 -0.6747429263279637 -0.6748536974535272 -0.674836012171854 -0.6748656704692575 
1.700086379518081 -1.699650593167424 -1.699651359307077 -1.699624920189052 -1.699655184766703 -1.699650199820832 -1.699510699935038 
3.23371348553274 -3.232218974287425 -3.232193136247501 -3.231519484146161 -3.231268345441215 -3.231983464499602 -3.230674009395551 
1.761327711541175 -1.760622541712384 -1.760623926847694 -1.760567593337855 -1.760626071010224 -1.760620613015479 -1.7603903573782 
0.3982375848488046 -0.4009036528095504 -0.4009058705072172 -0.4004291802431629 -0.4010318048495054 -0.4009274851995749 -0.4009692657187059 
2.864607607103731 -2.863539207803538 -2.863535707324252 -2.862998752968857 -2.863100010253187 -2.86340702099304 -2.862570765731415 
0.3982375848488046 -0.4009036528095504 -0.4009058705072172 -0.4004291802431629 -0.4010318048495054 -0.4009274851995749 -0.4009692657187059 
0.6740333142986702 -0.6748364129421024 -0.6748364485529498 -0.6747429263279637 -0.6748536974535272 -0.674836012171854 -0.6748656704692575 
0.3982375848488046 -0.4009036528095504 -0.4009058705072172 -0.4004291802431629 -0.4010318048495054 -0.4009274851995749 -0.4009692657187059 
1.633668123655216 -1.633508839200249 -1.63350908079067 -1.633502156457872 -1.633511435870917 -1.633509129948822 -1.633452816911927 
0.6740333142986702 -0.6748364129421024 -0.6748364485529498 -0.6747429263279637 -0.6748536974535272 -0.674836012171854 -0.6748656704692575 
0.6740333142986702 -0.6748364129421024 -0.6748364485529498 -0.6747429263279637 -0.6748536974535272 -0.674836012171854 -0.6748656704692575 
0.8796875584023705 -0.8797160057083192 -0.8797158491132828 -0.8797263638056961 -0.8797154058993537 -0.8797144995821214 -0.8797085134313913 
0.3982375848488046 -0.4009036528095504 -0.4009058705072172 -0.4004291802431629 -0.4010318048495054 -0.4009274851995749 -0.4009692657187059 
0.3982375848488046 -0.4009036528095504 -0.4009058705072172 -0.4004291802431629 -0.4010318048495054 -0.4009274851995749 -0.4009692657187059 
2.934382799460484 -2.933318392658847 -2.933312985747414 -2.932763690787656 -2.932829474933706 -2.933174225427868 -2.93230794115474 
0.3982375848488046 -0.4009036528095504 -0.4009058705072172 -0.4004291802431629 -0.4010318048495054 -0.4009274851995749 -0.4009692657187059 
0.6740333142986702 -0.6748364129421024 -0.6748364485529498 -0.6747429263279637 -0.6748536974535272 -0.674836012171854 -0.6748656704692575 
2.264894501700648 -2.262956541419115 -2.262962244368943 -2.26244624830484 -2.262773288344982 -2.26289522917928 -2.261935992454283 
1.967344397456431 -1.965820467996867 -1.9658243934602 -1.965594411553621 -1.965786434751564 -1.965803962415825 -1.965220542588641 
1.92070187241278 -1.919336780420421 -1.919340127523551 -1.919156995240626 -1.919316613706439 -1.919324996531012 -1.918822681209133 
1.818133667090631 -1.81717965878333 -1.817181707181757 -1.817087590335098 -1.817178651059057 -1.81717528294689 -1.816851877192597 
1.700086379518081 -1.699650593167424 -1.699651359307077 -1.699624920189052 -1.699655184766703 -1.699650199820832 -1.699510699935038 
3.234033168260647 -3.87776238785393 -3.877541109474052 -3.878796515108443 -3.234661925859222 -3.877637998223963 -3.876606912073843 
3.23371348553274 -3.232218974287425 -3.232193136247501 -3.231519484146161 -3.231268345441215 -3.231983464499602 -3.230674009395551 
0.3982375848488046 -0.4009036528095504 -0.4009058705072172 -0.4004291802431629 -0.4010318048495054 -0.4009274851995749 -0.4009692657187059 
1.042536703451173 -1.042597383586468 -1.042597450859508 -1.042590432609564 -1.042596163046199 -1.042597874754712 -1.042602429272129 
1.871097559161459 -1.869922551834058 -1.869925265258933 -1.869788088222953 -1.869913546355017 -1.869914856618696 -1.869499832382769 
1.042536703451173 -1.042597383586468 -1.042597450859508 -1.042590432609564 -1.042596163046199 -1.042597874754712 -1.042602429272129 
0.3982375848488046 -0.4009036528095504 -0.4009058705072172 -0.4004291802431629 -0.4010318048495054 -0.4009274851995749 -0.4009692657187059 
1.92070187241278 -1.919336780420421 -1.919340127523551 -1.919156995240626 -1.919316613706439 -1.919324996531012 -1.918822681209133 
0.6740333142986702 -0.6748364129421024 -0.6748364485529498 -0.6747429263279637 -0.6748536974535272 -0.674836012171854 -0.6748656704692575 
2.721606222692218 -2.720397722412157 -2.720397254765374 -2.71984516089799 -2.720017226275551 -2.720280856010852 -2.719419428013769 
2.609904506417243 -2.608498913173194 -2.608500546899388 -2.607921230327627 -2.608151669204891 -2.608391409805763 -2.607468714120251 
0.8796875584023705 -0.8797160057083192 -0.8797158491132828 -0.8797263638056961 -0.8797154058993537 -0.8797144995821214 -0.8797085134313913 
0.6740333142986702 -0.6748364129421024 -0.6748364485529498 -0.6747429263279637 -0.6748536974535272 -0.674836012171854 -0.6748656704692575 
0.3982375848488046 -0.4009036528095504 -0.4009058705072172 -0.4004291802431629 -0.4010318048495054 -0.4009274851995749 -0.4009692657187059 
0.3982375848488046 -0.4009036528095504 -0.4009058705072172 -0.4004291802431629 -0.4010318048495054 -0.4009274851995749 -0.4009692657187059 
1.871097559161459 -1.869922551834058 -1.869925265258933 -1.869788088222953 -1.869913546355017 -1.869914856618696 -1.869499832382769 
2.379769845402024 -2.377937769976608 -2.377942776455422 -2.377367147181023 -2.377688663825369 -2.377857830758002 -2.376858541953998 
0.6740333142986702 -0.6748364129421024 -0.6748364485529498 -0.6747429263279637 -0.6748536974535272 -0.674836012171854 -0.6748656704692575 
0.3982375848488046 -0.4009036528095504 -0.4009058705072172 -0.4004291802431629 -0.4010318048495054 -0.4009274851995749 -0.4009692657187059 
-0.3982375848488046 -0.4009036528095504 0.4009058705072172 -0.4004291802431629 -0.4010318048495054 -0.4009274851995749 -0.4009692657187059 
-0.8796875584023705 -0.8797160057083192 0.8797158491132828 -0.8797263638056961 -0.8797154058993537 -0.8797144995821214 -0.8797085134313913 
0.6740333142986702 -0.6748364129421024 -0.6748364485529498 -0.6747429263279637 -0.6748536974535272 -0.674836012171854 -0.6748656704692575 
-1.321073633795761 -1.699650593167424 -1.699651359307077 -0.9868013095980872 -1.699655184766703 0.6857927123144377 -1.699510699935038 
-2.461585924336026 -2.720397722412157 -2.720397254765374 0.7847746104122086 -2.044196949130007 -2.720280856010852 -1.19829623398988 
0.3982375848488046 -0.4009036528095504 -0.4009058705072172 -0.4004291802431629 -0.4010318048495054 -0.4009274851995749 -0.4009692657187059 
-1.51975414717751 1.212322833268522 -1.51794532908264 -1.869788088222953 -1.869913546355017 -1.869914856618696 -1.869499832382769 
0.3982375848488046 -0.4009036528095504 -0.4009058705072172 -0.4004291802431629 -0.4010318048495054 -0.4009274851995749 -0.4009692657187059 
0.3982375848488046 -0.4009036528095504 -0.4009058705072172 -0.4004291802431629 -0.4010318048495054 -0.4009274851995749 -0.4009692657187059 
0.3982375848488046 -0.4009036528095504 -0.4009058705072172 -0.4004291802431629 -0.4010318048495054 -0.4009274851995749 -0.4009692657187059 
0.6740333142986702 -0.6748364129421024 -0.6748364485529498 -0.6747429263279637 -0.6748536974535272 -0.674836012171854 -0.6748656704692575 
0.3982375848488046 -0.4009036528095504 -0.4009058705072172 -0.4004291802431629 -0.4010318048495054 -0.4009274851995749 -0.4009692657187059 
-1.481232699492498 0.6836809790800402 -0.6836822167099373 -1.481546538371673 -1.481544831827802 -1.481550838090487 -1.481612244728415 
-0.6740333142986702 -0.6748364129421024 0.6748364485529498 -0.6747429263279637 -0.6748536974535272 -0.674836012171854 -0.6748656704692575 
-2.675475331610162 -2.919834442418478 -2.919829443533005 -2.675079189496617 -2.46515520363968 2.118266702869701 -2.918835093243632 
1.561127920319651 -1.561230524159109 -1.561230388059571 -1.56123089854013 -1.56122906003153 -1.561230843368209 -1.561243815652052 
1.177218898729705 -1.177511308675422 -1.177511361802881 -1.177482657654727 -1.177506473039964 -1.177512009976723 -1.17755415665464 
0.3982375848488046 -0.4009036528095504 -0.4009058705072172 -0.4004291802431629 -0.4010318048495054 -0.4009274851995749 -0.4009692657187059 
0.8796875584023705 -0.8797160057083192 -0.8797158491132828 -0.8797263638056961 -0.8797154058993537 -0.8797144995821214 -0.8797085134313913 
1.177218898729705 -1.177511308675422 -1.177511361802881 -1.177482657654727 -1.177506473039964 -1.177512009976723 -1.17755415665464 
0.3982375848488046 -0.4009036528095504 -0.4009058705072172 -0.4004291802431629 -0.4010318048495054 -0.4009274851995749 -0.4009692657187059 
1.042536703451173 -1.042597383586468 -1.042597450859508 -1.042590432609564 -1.042596163046199 -1.042597874754712 -1.042602429272129 
1.481232699492498 -1.481550803827035 -1.481550479860061 -1.481546538371673 -1.481544831827802 -1.481550838090487 -1.481612244728415 
1.042536703451173 -1.042597383586468 -1.042597450859508 -1.042590432609564 -1.042596163046199 -1.042597874754712 -1.042602429272129 
1.392326454094739 -1.392772510170152 -1.392772201019489 -1.392755539862089 -1.392763623314617 -1.392772378195476 -1.392855190549219 
1.392326454094739 -1.392772510170152 -1.392772201019489 -1.392755539862089 -1.392763623314617 -1.392772378195476 -1.392855190549219 
1.292104880009344 -1.29254861594591 -1.292548477267119 -1.292519325094056 -1.292540130478477 -1.29254876244534 -1.292623323842559 
-1.700086379518081 0.9872174374642634 -1.699651359307077 -1.699624920189052 -1.699655184766703 -1.699650199820832 -0.9864284081667593 
-1.177218898729705 0.2227316799925488 -0.2227315288264048 -1.177482657654727 -1.177506473039964 -1.177512009976723 -1.17755415665464 
-1.818133667090631 0.6020577182780475 -0.602051437797724 -1.817087590335098 -1.817178651059057 -1.81717528294689 -1.816851877192597 
1.042536703451173 -1.042597383586468 -1.042597450859508 -1.042590432609564 -1.042596163046199 -1.042597874754712 -1.042602429272129 
1.92070187241278 -1.919336780420421 -1.919340127523551 -1.919156995240626 -1.919316613706439 -1.919324996531012 -1.918822681209133 
2.431467096462775 -2.429715594093211 -2.429720032721038 -2.429131210588447 -2.429439688088394 -2.429628141894892 -2.428630926811638 
1.292104880009344 -1.29254861594591 -1.292548477267119 -1.292519325094056 -1.292540130478477 -1.29254876244534 -1.292623323842559 
0.8796875584023705 -0.8797160057083192 -0.8797158491132828 -0.8797263638056961 -0.8797154058993537 -0.8797144995821214 -0.8797085134313913 
0.3982375848488046 -0.4009036528095504 -0.4009058705072172 -0.4004291802431629 -0.4010318048495054 -0.4009274851995749 -0.4009692657187059 
0.6740333142986702 -0.6748364129421024 -0.6748364485529498 -0.6747429263279637 -0.6748536974535272 -0.674836012171854 -0.6748656704692575 
1.177218898729705 -1.177511308675422 -1.177511361802881 -1.177482657654727 -1.177506473039964 -1.177512009976723 -1.17755415665464 
0.3982375848488046 -0.4009036528095504 -0.4009058705072172 -0.4004291802431629 -0.4010318048495054 -0.4009274851995749 -0.4009692657187059 
1.177218898729705 -1.177511308675422 -1.177511361802881 -1.177482657654727 -1.177506473039964 -1.177512009976723 -1.17755415665464 
1.042536703451173 -1.042597383586468 -1.042597450859508 -1.042590432609564 -1.042596163046199 -1.042597874754712 -1.042602429272129 
-0.8796875584023705 -0.8797160057083192 -0.8797158491132828 -0.8797263638056961 -0.8797154058993537 0.8797144995821214 -0.8797085134313913 
-0.4031211468914465 -1.29254861594591 -1.292548477267119 -1.292519325094056 -0.8264117695278951 -1.29254876244534 0 
0.8796875584023705 -0.8797160057083192 -0.8797158491132828 -0.8797263638056961 -0.8797154058993537 -0.8797144995821214 -0.8797085134313913 
0.3982375848488046 -0.4009036528095504 -0.4009058705072172 -0.4004291802431629 -0.4010318048495054 -0.4009274851995749 -0.4009692657187059 
2.09256941556001 -2.090738771616413 -2.090743971938737 -2.090382002222954 -2.090652216780531 -2.090705760499707 -2.089924774716259 
1.392326454094739 -1.392772510170152 -1.392772201019489 -1.392755539862089 -1.392763623314617 -1.392772378195476 -1.392855190549219 
2.479982531084262 -2.478318872277454 -2.478322658063081 -2.477728838041689 -2.478020230391545 -2.478225052967574 -2.477239507080899 
1.177218898729705 -1.177511308675422 -1.177511361802881 -1.177482657654727 -1.177506473039964 -1.177512009976723 -1.17755415665464 
1.481232699492498 -1.481550803827035 -1.481550479860061 -1.481546538371673 -1.481544831827802 -1.481550838090487 -1.481612244728415 
1.177218898729705 -1.177511308675422 -1.177511361802881 -1.177482657654727 -1.177506473039964 -1.177512009976723 -1.17755415665464 
1.633668123655216 -1.633508839200249 -1.63350908079067 -1.633502156457872 -1.633511435870917 -1.633509129948822 -1.633452816911927 
0.6740333142986702 -0.6748364129421024 -0.6748364485529498 -0.6747429263279637 -0.6748536974535272 -0.674836012171854 -0.6748656704692575 
1.392326454094739 -1.392772510170152 -1.392772201019489 -1.392755539862089 -1.392763623314617 -1.392772378195476 -1.392855190549219 
1.392326454094739 -1.392772510170152 -1.392772201019489 -1.392755539862089 -1.392763623314617 -1.392772378195476 -1.392855190549219 
1.700086379518081 -1.699650593167424 -1.699651359307077 -1.699624920189052 -1.699655184766703 -1.699650199820832 -1.699510699935038 
-0.6740333142986702 0.6748364129421024 -0.6748364485529498 -0.6747429263279637 -0.6748536974535272 -0.674836012171854 -0.6748656704692575 
-1.292104880009344 -1.29254861594591 1.292548477267119 -1.292519325094056 -1.292540130478477 -1.29254876244534 -1.292623323842559 
-1.177218898729705 -0.2227316799925489 0.2227315288264049 -1.177482657654727 -1.177506473039964 -1.177512009976723 -1.17755415665464 
-0.8796875584023705 -0.8797160057083192 -0.8797158491132828 0.8797263638056961 -0.8797154058993537 -0.8797144995821214 -0.8797085134313913 
-1.156096685033126 -1.561230524159109 -1.561230388059571 -1.56123089854013 1.155490825470001 -1.561230843368209 -1.561243815652052 
-1.930526493863197 -2.454389240635646 -2.454393361023598 -2.453801148991384 1.929845515154237 -2.454298468551462 -2.453306102034956 
-1.292104880009344 -1.29254861594591 -1.292548477267119 -1.292519325094056 1.292540130478477 -1.29254876244534 -1.292623323842559 
-2.106950938446725 -3.222897838416549 -3.222873068857878 -2.997175606502313 -2.996523488765346 1.902781967183075 -3.221369583247349 
-2.362194267592811 -2.628269523213476 -2.361623106408672 -2.627696025001483 -2.132620373849585 -2.62816029312167 1.754033444311226 
-1.804539835842661 -2.524118743238622 -2.524121827035697 -1.619473818955943 -2.248064483531552 -2.011814742985929 0.7688382714098375 
-1.042536703451173 1.042597383586468 -1.042597450859508 -1.042590432609564 -1.042596163046199 -1.042597874754712 -1.042602429272129 
-1.481232699492498 0.3354635337574139 -0.3354644577334073 -1.481546538371673 -1.481544831827802 -1.481550838090487 -1.481612244728415 
-0.2006024991944681 -1.965820467996867 -1.9658243934602 -1.627190567064315 -1.334784647195524 -1.074591525984819 -1.073821501752601 
-1.177218898729705 -1.177511308675422 -1.177511361802881 -1.177482657654727 -0.680615594714389 -0.6806229391648827 0.2227598963491762 
1.292104880009344 -1.29254861594591 -1.292548477267119 -1.292519325094056 -1.292540130478477 -1.29254876244534 -1.292623323842559 
1.561127920319651 -1.561230524159109 -1.561230388059571 -1.56123089854013 -1.56122906003153 -1.561230843368209 -1.561243815652052 
1.481232699492498 -1.481550803827035 -1.481550479860061 -1.481546538371673 -1.481544831827802 -1.481550838090487 -1.481612244728415 
1.871097559161459 -1.869922551834058 -1.869925265258933 -1.869788088222953 -1.869913546355017 -1.869914856618696 -1.869499832382769 
1.481232699492498 -1.481550803827035 -1.481550479860061 -1.481546538371673 -1.481544831827802 -1.481550838090487 -1.481612244728415 
-2.946384951503847 2.161036929177903 -2.286635128438537 -3.173933448217189 -3.173778114314991 -3.174402163389215 -3.17318948906828 
1.292104880009344 -1.29254861594591 -1.292548477267119 -1.292519325094056 -1.292540130478477 -1.29254876244534 -1.292623323842559 
1.481232699492498 -1.481550803827035 -1.481550479860061 -1.481546538371673 -1.481544831827802 -1.481550838090487 -1.481612244728415 
0.3982375848488046 -0.4009036528095504 -0.4009058705072172 -0.4004291802431629 -0.4010318048495054 -0.4009274851995749 -0.4009692657187059 
1.481232699492498 -1.481550803827035 -1.481550479860061 -1.481546538371673 -1.481544831827802 -1.481550838090487 -1.481612244728415 
-1.042536703451173 1.042597383586468 -1.042597450859508 -1.042590432609564 -1.042596163046199 -1.042597874754712 -1.042602429272129 
-0.8796875584023705 -0.2865477395903848 0.2865477399094625 -0.8797263638056961 -0.8797154058993537 -0.8797144995821214 -0.8797085134313913 
-0.1337332110244266 -1.699650593167424 -1.699651359307077 -0.1334931073595825 -1.319759833617674 -1.699650199820832 -1.699510699935038 
-2.401674169287818 -2.863539207803538 -2.863535707324252 -1.305135484450802 1.112560636259355 -2.86340702099304 -2.862570765731415 
1.392326454094739 -1.392772510170152 -1.392772201019489 -1.392755539862089 -1.392763623314617 -1.392772378195476 -1.392855190549219 
1.392326454094739 -1.392772510170152 -1.392772201019489 -1.392755539862089 -1.392763623314617 -1.392772378195476 -1.392855190549219 
3.537666847895409 -3.53680532892203 -3.536794603237393 -3.536746751610996 -3.536495041461122 -3.536798046745857 -3.536377224774277 
1.818133667090631 -1.81717965878333 -1.817181707181757 -1.817087590335098 -1.817178651059057 -1.81717528294689 -1.816851877192597 
3.831417148055491 -3.8297341744778 -3.82960100578904 -3.830224346650308 -3.828601662103196 -3.829595757234501 -3.828739066575959 
1.292104880009344 -1.29254861594591 -1.292548477267119 -1.292519325094056 -1.292540130478477 -1.29254876244534 -1.292623323842559 
-1.739535521788562 -2.29330754422786 -2.293313144263141 1.738537335728355 -2.293106407395686 -2.293241140122893 -2.292265034983615 
2.503167450453727 -2.501548601918065 -2.501552040948943 -2.500958140524414 -2.501239999953882 -2.501451990203342 -2.500474850663115 
0.3982375848488046 -0.4009036528095504 -0.4009058705072172 -0.4004291802431629 -0.4010318048495054 -0.4009274851995749 -0.4009692657187059 
2.200451115981553 -2.198511625106958 -2.19851734963224 -2.198051669571801 -2.198366275846857 -2.198461222112284 -2.197552853248103 
1.871097559161459 -1.869922551834058 -1.869925265258933 -1.869788088222953 -1.869913546355017 -1.869914856618696 -1.869499832382769 
1.700086379518081 -1.699650593167424 -1.699651359307077 -1.699624920189052 -1.699655184766703 -1.699650199820832 -1.699510699935038 
1.292104880009344 -1.29254861594591 -1.292548477267119 -1.292519325094056 -1.292540130478477 -1.29254876244534 -1.292623323842559 
1.042536703451173 -1.042597383586468 -1.042597450859508 -1.042590432609564 -1.042596163046199 -1.042597874754712 -1.042602429272129 
1.92070187241278 -1.919336780420421 -1.919340127523551 -1.919156995240626 -1.919316613706439 -1.919324996531012 -1.918822681209133 
0.8796875584023705 -0.8797160057083192 -0.8797158491132828 -0.8797263638056961 -0.8797154058993537 -0.8797144995821214 -0.8797085134313913 
1.042536703451173 -1.042597383586468 -1.042597450859508 -1.042590432609564 -1.042596163046199 -1.042597874754712 -1.042602429272129 
3.518691314469269 -3.517654150994017 -3.517633014321589 -3.517517993724327 -3.5171473563679 -3.517598034423639 -3.516969693211019 
0.3982375848488046 -0.4009036528095504 -0.4009058705072172 -0.4004291802431629 -0.4010318048495054 -0.4009274851995749 -0.4009692657187059 
0.6740333142986702 -0.6748364129421024 -0.6748364485529498 -0.6747429263279637 -0.6748536974535272 -0.674836012171854 -0.6748656704692575 
-0.6802614371687079 -1.177511308675422 -0.2227315288264049 -1.177482657654727 -0.2227292318522121 -1.177512009976723 -1.17755415665464 
0.3982375848488046 -0.4009036528095504 -0.4009058705072172 -0.4004291802431629 -0.4010318048495054 -0.4009274851995749 -0.4009692657187059 
2.479982531084262 -2.478318872277454 -2.478322658063081 -2.477728838041689 -2.478020230391545 -2.478225052967574 -2.477239507080899 
2.406042653835621 -2.404249527900746 -2.404254263654245 -2.403670878302556 -2.403986498547054 -2.404165683034367 -2.403166010124685 
2.352588824093545 -2.350721505216011 -2.350726750223107 -2.350161471777075 -2.350487374001245 -2.350645775927397 -2.349650196298481 
1.871097559161459 -1.869922551834058 -1.869925265258933 -1.869788088222953 -1.869913546355017 -1.869914856618696 -1.869499832382769 
-1.292104880009344 -1.29254861594591 -1.292548477267119 1.292519325094056 -1.292540130478477 -1.29254876244534 -1.292623323842559 
-0.2865475353080579 -0.8797160057083192 -0.8797158491132828 -0.2865488890455661 -0.2865475293685329 -0.8797144995821214 -0.8797085134313913 
-1.292104880009344 -1.29254861594591 -1.292548477267119 -1.292519325094056 0.8264117695278953 -1.29254876244534 -0.8264901526316093 
1.481232699492498 -1.481550803827035 -1.481550479860061 -1.481546538371673 -1.481544831827802 -1.481550838090487 -1.481612244728415 
0.3982375848488046 -0.4009036528095504 -0.4009058705072172 -0.4004291802431629 -0.4010318048495054 -0.4009274851995749 -0.4009692657187059 
1.042536703451173 -1.042597383586468 -1.042597450859508 -1.042590432609564 -1.042596163046199 -1.042597874754712 -1.042602429272129 
0.3982375848488046 -0.4009036528095504 -0.4009058705072172 -0.4004291802431629 -0.4010318048495054 -0.4009274851995749 -0.4009692657187059 
1.818133667090631 -1.81717965878333 -1.817181707181757 -1.817087590335098 -1.817178651059057 -1.81717528294689 -1.816851877192597 
1.042536703451173 -1.042597383586468 -1.042597450859508 -1.042590432609564 -1.042596163046199 -1.042597874754712 -1.042602429272129 
1.392326454094739 -1.392772510170152 -1.392772201019489 -1.392755539862089 -1.392763623314617 -1.392772378195476 -1.392855190549219 
0.8796875584023705 -0.8797160057083192 -0.8797158491132828 -0.8797263638056961 -0.8797154058993537 -0.8797144995821214 -0.8797085134313913 
2.479982531084262 -2.478318872277454 -2.478322658063081 -2.477728838041689 -2.478020230391545 -2.478225052967574 -2.477239507080899 
0.3982375848488046 -0.4009036528095504 -0.4009058705072172 -0.4004291802431629 -0.4010318048495054 -0.4009274851995749 -0.4009692657187059 
0.8796875584023705 -0.8797160057083192 -0.8797158491132828 -0.8797263638056961 -0.8797154058993537 -0.8797144995821214 -0.8797085134313913 
2.738801683682042 -2.737618028899691 -2.737617224536702 -2.737068922167945 -2.737232180620507 -2.737499689572564 -2.736645747274449 
1.871097559161459 -1.869922551834058 -1.869925265258933 -1.869788088222953 -1.869913546355017 -1.869914856618696 -1.869499832382769 
1.177218898729705 -1.177511308675422 -1.177511361802881 -1.177482657654727 -1.177506473039964 -1.177512009976723 -1.17755415665464 
-2.130211120425372 -2.128325985046382 -2.128331441464563 1.810791374426559 -1.811093156219609 -2.128287134692 -2.12745621797331 
1.633668123655216 -1.633508839200249 -1.63350908079067 -1.633502156457872 -1.633511435870917 -1.633509129948822 -1.633452816911927 
0.6740333142986702 -0.6748364129421024 -0.6748364485529498 -0.6747429263279637 -0.6748536974535272 -0.674836012171854 -0.6748656704692575 
1.042536703451173 -1.042597383586468 -1.042597450859508 -1.042590432609564 -1.042596163046199 -1.042597874754712 -1.042602429272129 
1.392326454094739 -1.392772510170152 -1.392772201019489 -1.392755539862089 -1.392763623314617 -1.392772378195476 -1.392855190549219 
1.818133667090631 -1.81717965878333 -1.817181707181757 -1.817087590335098 -1.817178651059057 -1.81717528294689 -1.816851877192597 
1.818133667090631 -1.81717965878333 -1.817181707181757 -1.817087590335098 -1.817178651059057 -1.81717528294689 -1.816851877192597 
1.481232699492498 -1.481550803827035 -1.481550479860061 -1.481546538371673 -1.481544831827802 -1.481550838090487 -1.481612244728415 
1.761327711541175 -1.760622541712384 -1.760623926847694 -1.760567593337855 -1.760626071010224 -1.760620613015479 -1.7603903573782 
2.295229278364272 -2.29330754422786 -2.293313144263141 -2.292777431191332 -2.293106407395686 -2.293241140122893 -2.292265034983615 
1.761327711541175 -1.760622541712384 -1.760623926847694 -1.760567593337855 -1.760626071010224 -1.760620613015479 -1.7603903573782 
1.292104880009344 -1.29254861594591 -1.292548477267119 -1.292519325094056 -1.292540130478477 -1.29254876244534 -1.292623323842559 
3.113899993138351 -3.112639133767736 -3.112624830899163 -3.111986779352329 -3.111913135753324 -3.112443575911495 -3.111344505282402 
1.633668123655216 -1.633508839200249 -1.63350908079067 -1.633502156457872 -1.633511435870917 -1.633509129948822 -1.633452816911927 
0.6740333142986702 -0.6748364129421024 -0.6748364485529498 -0.6747429263279637 -0.6748536974535272 -0.674836012171854 -0.6748656704692575 
1.292104880009344 -1.29254861594591 -1.292548477267119 -1.292519325094056 -1.292540130478477 -1.29254876244534 -1.292623323842559 
0.3982375848488046 -0.4009036528095504 -0.4009058705072172 -0.4004291802431629 -0.4010318048495054 -0.4009274851995749 -0.4009692657187059 
1.177218898729705 -1.177511308675422 -1.177511361802881 -1.177482657654727 -1.177506473039964 -1.177512009976723 -1.17755415665464 
2.431467096462775 -2.429715594093211 -2.429720032721038 -2.429131210588447 -2.429439688088394 -2.429628141894892 -2.428630926811638 
-0.8796875584023705 -0.8797160057083192 -0.8797158491132828 0.8797263638056961 -0.8797154058993537 -0.8797144995821214 -0.8797085134313913 
0.6740333142986702 -0.6748364129421024 -0.6748364485529498 -0.6747429263279637 -0.6748536974535272 -0.674836012171854 -0.6748656704692575 
0.8796875584023705 -0.8797160057083192 -0.8797158491132828 -0.8797263638056961 -0.8797154058993537 -0.8797144995821214 -0.8797085134313913 
1.042536703451173 -1.042597383586468 -1.042597450859508 -1.042590432609564 -1.042596163046199 -1.042597874754712 -1.042602429272129 
0.3982375848488046 -0.4009036528095504 -0.4009058705072172 -0.4004291802431629 -0.4010318048495054 -0.4009274851995749 -0.4009692657187059 
1.967344397456431 -1.965820467996867 -1.9658243934602 -1.965594411553621 -1.965786434751564 -1.965803962415825 -1.965220542588641 
2.011356991512546 -2.00970412718764 -2.009708559721087 -2.009432417822687 -2.00965405152677 -2.009682414819402 -2.009025201732875 
0.6740333142986702 -0.6748364129421024 -0.6748364485529498 -0.6747429263279637 -0.6748536974535272 -0.674836012171854 -0.6748656704692575 
0.3982375848488046 -0.4009036528095504 -0.4009058705072172 -0.4004291802431629 -0.4010318048495054 -0.4009274851995749 -0.4009692657187059 
-2.09256941556001 1.769285814779967 -2.090743971938737 -2.090382002222954 -2.090652216780531 -1.769169336764687 -2.089924774716259 
1.33670644713756 -1.965820467996867 -1.335296922390621 -1.965594411553621 -1.965786434751564 -1.965803962415825 -1.965220542588641 
-1.481232699492498 0 0 -1.481546538371673 -1.481544831827802 -1.481550838090487 -1.481612244728415 
1.177218898729705 -1.177511308675422 -1.177511361802881 -1.177482657654727 -1.177506473039964 -1.177512009976723 -1.17755415665464 
0.6740333142986702 -0.6748364129421024 -0.6748364485529498 -0.6747429263279637 -0.6748536974535272 -0.674836012171854 -0.6748656704692575 
1.392326454094739 -1.392772510170152 -1.392772201019489 -1.392755539862089 -1.392763623314617 -1.392772378195476 -1.392855190549219 
1.633668123655216 -1.633508839200249 -1.63350908079067 -1.633502156457872 -1.633511435870917 -1.633509129948822 -1.633452816911927 
1.042536703451173 -1.042597383586468 -1.042597450859508 -1.042590432609564 -1.042596163046199 -1.042597874754712 -1.042602429272129 
1.967344397456431 -1.965820467996867 -1.9658243934602 -1.965594411553621 -1.965786434751564 -1.965803962415825 -1.965220542588641 
0.3982375848488046 -0.4009036528095504 -0.4009058705072172 -0.4004291802431629 -0.4010318048495054 -0.4009274851995749 -0.4009692657187059 
0.3982375848488046 -0.4009036528095504 -0.4009058705072172 -0.4004291802431629 -0.4010318048495054 -0.4009274851995749 -0.4009692657187059 
0.6740333142986702 -0.6748364129421024 -0.6748364485529498 -0.6747429263279637 -0.6748536974535272 -0.674836012171854 -0.6748656704692575 
-1.92070187241278 1.919336780420421 -1.919340127523551 -1.919156995240626 -1.919316613706439 -1.919324996531012 -1.918822681209133 
-1.177218898729705 0.2227316799925488 -0.2227315288264048 -1.177482657654727 -1.177506473039964 -1.177512009976723 -1.17755415665464 
1.292104880009344 -1.29254861594591 -1.292548477267119 -1.292519325094056 -1.292540130478477 -1.29254876244534 -1.292623323842559 
0.6740333142986702 -0.6748364129421024 -0.6748364485529498 -0.6747429263279637 -0.6748536974535272 -0.674836012171854 -0.6748656704692575 
1.392326454094739 -1.392772510170152 -1.392772201019489 -1.392755539862089 -1.392763623314617 -1.392772378195476 -1.392855190549219 
0.8796875584023705 -0.8797160057083192 -0.8797158491132828 -0.8797263638056961 -0.8797154058993537 -0.8797144995821214 -0.8797085134313913 
1.481232699492498 -1.481550803827035 -1.481550479860061 -1.481546538371673 -1.481544831827802 -1.481550838090487 -1.481612244728415 
0.3982375848488046 -0.4009036528095504 -0.4009058705072172 -0.4004291802431629 -0.4010318048495054 -0.4009274851995749 -0.4009692657187059 
0.3982375848488046 -0.4009036528095504 -0.4009058705072172 -0.4004291802431629 -0.4010318048495054 -0.4009274851995749 -0.4009692657187059 
0.3982375848488046 -0.4009036528095504 -0.4009058705072172 -0.4004291802431629 -0.4010318048495054 -0.4009274851995749 -0.4009692657187059 
0.8796875584023705 -0.8797160057083192 -0.8797158491132828 -0.8797263638056961 -0.8797154058993537 -0.8797144995821214 -0.8797085134313913 
1.761327711541175 -1.760622541712384 -1.760623926847694 -1.760567593337855 -1.760626071010224 -1.760620613015479 -1.7603903573782 
0.3982375848488046 -0.4009036528095504 -0.4009058705072172 -0.4004291802431629 -0.4010318048495054 -0.4009274851995749 -0.4009692657187059 
1.561127920319651 -1.561230524159109 -1.561230388059571 -1.56123089854013 -1.56122906003153 -1.561230843368209 -1.561243815652052 
1.042536703451173 -1.042597383586468 -1.042597450859508 -1.042590432609564 -1.042596163046199 -1.042597874754712 -1.042602429272129 
1.392326454094739 -1.392772510170152 -1.392772201019489 -1.392755539862089 -1.392763623314617 -1.392772378195476 -1.392855190549219 
1.177218898729705 -1.177511308675422 -1.177511361802881 -1.177482657654727 -1.177506473039964 -1.177512009976723 -1.17755415665464 
0.3982375848488046 -0.4009036528095504 -0.4009058705072172 -0.4004291802431629 -0.4010318048495054 -0.4009274851995749 -0.4009692657187059 
1.392326454094739 -1.392772510170152 -1.392772201019489 -1.392755539862089 -1.392763623314617 -1.392772378195476 -1.392855190549219 
1.292104880009344 -1.29254861594591 -1.292548477267119 -1.292519325094056 -1.292540130478477 -1.29254876244534 -1.292623323842559 
1.392326454094739 -1.392772510170152 -1.392772201019489 -1.392755539862089 -1.392763623314617 -1.392772378195476 -1.392855190549219 
2.130211120425372 -2.128325985046382 -2.128331441464563 -2.127931217759138 -2.128219970793159 -2.128287134692 -2.12745621797331 
1.700086379518081 -1.699650593167424 -1.699651359307077 -1.699624920189052 -1.699655184766703 -1.699650199820832 -1.699510699935038 
1.042536703451173 -1.042597383586468 -1.042597450859508 -1.042590432609564 -1.042596163046199 -1.042597874754712 -1.042602429272129 
0.6740333142986702 -0.6748364129421024 -0.6748364485529498 -0.6747429263279637 -0.6748536974535272 -0.674836012171854 -0.6748656704692575 
0.3982375848488046 -0.4009036528095504 -0.4009058705072172 -0.4004291802431629 -0.4010318048495054 -0.4009274851995749 -0.4009692657187059 
1.700086379518081 -1.699650593167424 -1.699651359307077 -1.699624920189052 -1.699655184766703 -1.699650199820832 -1.699510699935038 
0.8796875584023705 -0.8797160057083192 -0.8797158491132828 -0.8797263638056961 -0.8797154058993537 -0.8797144995821214 -0.8797085134313913 
3.058304228619061 -3.05713304355758 -3.057122388909915 -3.056516437915054 -3.056498402201854 -3.056956345220659 -3.055950669669345 
1.761327711541175 -1.760622541712384 -1.760623926847694 -1.760567593337855 -1.760626071010224 -1.760620613015479 -1.7603903573782 
0.3982375848488046 -0.4009036528095504 -0.4009058705072172 -0.4004291802431629 -0.4010318048495054 -0.4009274851995749 -0.4009692657187059 
-2.028896179958334 2.027559993456914 -2.322541022907293 -2.321988962600065 -2.322317453130812 -2.322464362695442 -2.321476330754367 
-1.561127920319651 -1.155498225870419 0.7968018693594427 -1.56123089854013 -1.56122906003153 -1.155495516880382 -1.561243815652052 
-0.3982375848488046 -0.4009036528095504 0.4009058705072172 -0.4004291802431629 -0.4010318048495054 -0.4009274851995749 -0.4009692657187059 
-0.6740333142986702 0.6748364129421024 -0.6748364485529498 -0.6747429263279637 -0.6748536974535272 -0.674836012171854 -0.6748656704692575 
-1.292104880009344 -0.8264176411604527 0.8264172141279453 -1.292519325094056 -1.292540130478477 -1.29254876244534 -1.292623323842559 
-0.3982375848488046 -0.4009036528095504 0.4009058705072172 -0.4004291802431629 -0.4010318048495054 -0.4009274851995749 -0.4009692657187059 
-0.6740333142986702 0.6748364129421024 -0.6748364485529498 -0.6747429263279637 -0.6748536974535272 -0.674836012171854 -0.6748656704692575 
-0.3982375848488046 -0.4009036528095504 0.4009058705072172 -0.4004291802431629 -0.4010318048495054 -0.4009274851995749 -0.4009692657187059 
-2.200451115981553 2.198511625106958 -2.19851734963224 -2.198051669571801 -2.198366275846857 -2.198461222112284 -2.197552853248103 
-0.3982375848488046 -0.4009036528095504 0.4009058705072172 -0.4004291802431629 -0.4010318048495054 -0.4009274851995749 -0.4009692657187059 
-0.8796875584023705 0.8797160057083192 -0.8797158491132828 -0.8797263638056961 -0.8797154058993537 -0.8797144995821214 -0.8797085134313913 
-1.633668123655216 -0.2872780231438121 0.28727860077886 -1.633502156457872 -1.633511435870917 -1.633509129948822 -1.633452816911927 
1.292104880009344 -1.29254861594591 -1.292548477267119 -1.292519325094056 -1.292540130478477 -1.29254876244534 -1.292623323842559 
1.177218898729705 -1.177511308675422 -1.177511361802881 -1.177482657654727 -1.177506473039964 -1.177512009976723 -1.17755415665464 
1.292104880009344 -1.29254861594591 -1.292548477267119 -1.292519325094056 -1.292540130478477 -1.29254876244534 -1.292623323842559 
0.3982375848488046 -0.4009036528095504 -0.4009058705072172 -0.4004291802431629 -0.4010318048495054 -0.4009274851995749 -0.4009692657187059 
0.6740333142986702 -0.6748364129421024 -0.6748364485529498 -0.6747429263279637 -0.6748536974535272 -0.674836012171854 -0.6748656704692575 
0.6740333142986702 -0.6748364129421024 -0.6748364485529498 -0.6747429263279637 -0.6748536974535272 -0.674836012171854 -0.6748656704692575 
1.177218898729705 -1.177511308675422 -1.177511361802881 -1.177482657654727 -1.177506473039964 -1.177512009976723 -1.17755415665464 
1.292104880009344 -1.29254861594591 -1.292548477267119 -1.292519325094056 -1.292540130478477 -1.29254876244534 -1.292623323842559 
0.3982375848488046 -0.4009036528095504 -0.4009058705072172 -0.4004291802431629 -0.4010318048495054 -0.4009274851995749 -0.4009692657187059 
0.3982375848488046 -0.4009036528095504 -0.4009058705072172 -0.4004291802431629 -0.4010318048495054 -0.4009274851995749 -0.4009692657187059 
0.3982375848488046 -0.4009036528095504 -0.4009058705072172 -0.4004291802431629 -0.4010318048495054 -0.4009274851995749 -0.4009692657187059 
0.6740333142986702 -0.6748364129421024 -0.6748364485529498 -0.6747429263279637 -0.6748536974535272 -0.674836012171854 -0.6748656704692575 
0.6740333142986702 -0.6748364129421024 -0.6748364485529498 -0.6747429263279637 -0.6748536974535272 -0.674836012171854 -0.6748656704692575 
