solver_type L2R_LR
nr_class 7
label 0 1 2 5 6 3 4
nr_feature 10691
bias -1
w
0.9251954326436497 -0.3522593151812411 -0.01738703188584815 -0.166970617791994 -0.04844736637135817 -0.326384600528116 -0.02451126926100841 
0.629387395330044 -0.1441943328426392 -0.003500867388869272 -0.1214313200440784 -0.04930538196624672 -0.174196509999542 -0.01080536654987673 
0.7905923239076872 -0.0926179738769706 -0.1383483706753721 -0.008847887371734527 -0.1944593932067739 -0.003364811781007799 -0.0841739419982508 
1.787692987031741 -0.3022457900068263 -0.1612318782461203 -0.4920519363696578 -0.2724833191919201 -0.6734609417249123 -0.1271177154499259 
0.4961553179918721 -0.2584938977654976 -0.4157087242212559 0.7724825381070826 -0.1295654251670448 -0.231696694089134 -0.1257622935570347 
0 0 0 0 0 0 0 
0 0 0 0 0 0 0 
0 0 0 0 0 0 0 
2.509477862444957 -3.988410584810528 -4.274274164325865 -2.786771468860698 -2.625813138825593 -2.354917100199111 -2.916307210683658 
3.544681150746774 -3.74524893228641 -4.158483003837564 -3.155307707007806 -3.012639035147746 -3.757900404036635 -3.335635215475506 
1.420944271287934 -4.542602027073858 -0.2973255236777027 -5.641173232176288 -0.9537634862603996 -6.674084383734873 -0.7126493663529322 
1.656412482410069 -1.327825536123666 -4.020765886167163 -1.982082053295817 -2.102699720269861 -3.132229621405891 -3.325316920982024 
3.291373404483494 -2.906387049569583 -5.459591788784472 -3.180029605659112 -6.098775701020419 -2.927400290508078 -4.733422171309072 
0 0 0 0 0 0 0 
0 0 0 0 0 0 0 
2.352098174523227 -3.697230188300288 -2.259828858221341 -3.512127380843382 -3.13337230489701 -2.11429129872382 -2.881869157006142 
0 0 0 0 0 0 0 
0 0 0 0 0 0 0 
-5.400549732556756 3.714375476936715 2.640366521552108 2.915150510793055 1.841994242032519 4.135197379561556 1.73928144491276 
3.647300006368253 -2.901404794562773 -0.09941959719156473 -1.723007985085805 -0.1465316737950121 -1.954116478326594 -0.1525323649448463 
-0.145473696905688 0.5473732241944125 -0.001394519533982089 -0.1059784415311015 -0.04930382384671544 -0.2252973772351205 -0.005102219606317785 
-0.1430130873135019 -0.01037036655586691 0.3837376944870826 -0.001946238484993948 -0.08653628805086454 -0.009118432787689762 -0.1216574867897226 
2.150680406517825 -3.174899547853509 -5.214217209455447 -2.957351933987841 -2.630263348877184 -1.987423820218723 -3.677892457702018 
2.897124236284683 -3.693041832351409 -3.392705055408683 -3.201022526068464 -2.718756591036655 -3.223944047874606 -3.068727507924183 
-2.923998724084601 -2.817401157881756 -0.1067677758961314 3.655492271527819 3.410473758171815 -1.99546698292691 -0.1530536933238478 
-1.799751247550987 -1.761560715491271 -2.423820615338767 -0.5292036489760368 4.280941742167102 -0.3630486237431433 -1.476130254427912 
4.479826658711293 -0.5220364544422931 -3.265463465815454 -0.1390009778937162 -1.638800160933734 -0.4777777837448237 -1.890021176722082 
2.540764683594416 -3.445307640757491 -0.5090889867417198 -0.02621816086434948 -0.8223899578782731 -2.924814356390572 -0.6732249334044389 
0.07306134868909837 -0.02677748441790216 -0.02424999641236218 -0.07493175988103175 -0.04088082531175 -0.0589948789825225 -0.03131719369856163 
0.02666190649115007 -0.003530276388519348 -0.002728634450872749 -0.02224487220067838 -0.01915358997927087 -0.01929136697830989 -0.01094240740780518 
0.6065169557332389 -0.430671568770494 -0.894694487140986 -0.2202363403389319 -0.6005234597865361 -0.1763891881349531 -0.556375288953496 
0.06523996463876242 -0.06461544873090065 -0.0230073800757851 -0.04726547848640792 -0.05654809734990541 -0.02833434245897082 -0.02458345131374344 
0.00303141324724043 -0.002542664755290777 -0.001561269370209767 -0.001867656543061937 -0.003316118062620841 -0.002985185581888516 -0.003817532105701973 
1.321258759172663 -1.52183101059172 -1.162611197350332 -1.076956263145914 -1.377839199015301 -0.8719471320384093 -1.299876116873649 
0.01102646824843208 -0.0006336038572762294 -0.001516264746523424 -0.00164349993145121 -0.003147934713884588 -0.01108431062744583 -0.00429252387733299 
1.303790290390632 -1.697900391795222 -2.912874655132288 -1.506876966875726 -2.061373890963692 -0.8727673056843447 -2.198001669728214 
-0.6472912031944554 -1.450588510004349 -1.602257605221302 -0.9894855857222878 0.585515559049224 -0.8283675639427376 -0.9318556004109984 
0.9858595966545661 -2.070473481449784 -0.7669773462312545 -1.549001974012699 -0.8097796167710836 -1.481222331829402 -1.005488558311202 
0.03754188750429935 -0.01184642079385679 -0.001540505965225148 -0.02640332869864947 -0.01113660303493239 -0.01845381490206105 -0.002247868365796351 
-1.479609865846062 -0.7015976056513608 -1.059962850480412 -0.4339439069633688 0.5749444972545698 -0.2043138060110693 -0.08239953532575442 
0.01233134324006518 -0.007089914658156941 -0.005853031034093893 -0.003449953368310921 -0.0104137889918781 -0.001557996246162336 -0.004771072709389909 
0.8820098585659061 -0.7663729917769249 -1.121941718040637 -0.5569457249239981 -0.951632012920428 -0.4836528151337896 -0.8722593580546377 
0.4084964394026841 -0.5863287343266069 -0.2781391536764992 -0.3214364107269076 -0.3559115623825818 -0.2694436462740568 -0.3062358748142938 
0.07612746661912632 -0.01099940008860664 -0.1228775599390079 -0.006186459608769906 -0.04785876859492937 -0.01151041053735984 -0.08291339786287419 
0.1104442282085196 -0.0985578223734548 -0.1507091226473526 -0.0916174437568706 -0.135824201770706 -0.09115179576633753 -0.1574785020381452 
0.5380588818622472 -0.401232401036561 -0.07162632865204252 -0.3609174874372395 -0.4561453193235063 -0.4232245220577357 -0.2362570875067758 
0.02981284195501703 -0.01885681665184343 -0.005066899210999054 -0.01798219654895217 -0.01380372892919726 -0.0154301585988842 -0.005733520960177732 
0.6795490316619568 -0.7084892993156012 -0.5442062623956895 -0.4425259802351689 -0.7181286080022595 -0.2985554857898999 -0.6356191436571457 
0.02403665204869727 -0.003522772452383523 -0.001257865333654269 -0.008219814000737936 -0.01113963347761301 -0.02452641279917271 -0.00565631840240696 
-0.7424118647810032 -0.6251629861844312 -2.080426132265343 -0.5805006955232249 -1.107697622698906 -1.034745529742409 0.7361035349947701 
2.671934670586891 -5.092352135676456 -4.816033264424015 -1.784471617330272 -3.736331976598203 -2.612256461173013 -4.555081797719955 
3.920141378103205 -3.96603423650175 -3.934433712860477 -3.421539703997142 -3.958458979519432 -4.051364900868617 -3.969725671824421 
3.217961368629346 -2.746146264948447 -3.655128184966523 -3.577927611816713 -3.178761511165839 -4.420379306924975 -3.977847065624365 
3.108503111247922 -2.96575099711411 -4.153398522514607 -3.131293393299925 -2.812214651936829 -3.644364675595058 -3.138846379815245 
3.07495599459273 -2.450851853342326 -2.633472384688667 -2.922692896799572 -3.099235789933603 -3.257158557987241 -2.871061019827545 
2.069793333446545 -2.508963580188428 -2.671683500320543 -2.45820208718095 -2.367667557061408 -2.887678237849242 -3.070906307809236 
2.99795384518295 -2.705584072017657 -2.949631472817843 -2.934808605277034 -3.081706945193799 -2.889514772205111 -3.006783610492978 
2.823341954714286 -2.518189491878279 -2.647848523049927 -3.024899120064276 -2.942268742149218 -3.318728575884259 -3.401155093282378 
2.533504952686314 -3.030448591853167 -3.498783749747657 -3.075030680692616 -3.431180919506682 -2.018296147363571 -3.434546289217135 
2.791903875524649 -3.288990112816427 -3.527668186222669 -3.345770180694001 -2.624592276168963 -2.923032970241295 -2.554336839245139 
2.023866266426277 -2.353889399113829 -4.94775789306079 -2.858802915721164 -3.958009860619326 -2.08058471125742 -3.961870526592765 
1.960253406664878 -3.210470575922254 -2.236473959276174 -3.615700440034611 -3.114357117368882 -2.124901353244311 -2.524468880844466 
2.017409786023007 -2.757252695055214 -4.050552368439669 -2.880199686134877 -2.296494852656257 -2.199646480374063 -3.352477118276651 
1.900095808185044 -2.944709427954341 -2.950596168952767 -2.868748796339188 -2.426841656709992 -2.347219867066945 -2.347377443254253 
2.44361155603227 -3.428145528357857 -2.887057227773244 -2.407276210854844 -1.816446246240764 -2.766981984658302 -1.787036113031824 
2.174482778274174 -2.037450970418739 -2.668475466806102 -2.368502066783726 -2.726794065467174 -2.997670310652928 -3.037518864383544 
2.503493787461006 -2.034194400791807 -4.012699144987748 -3.329757321816175 -4.135764781924903 -3.266555741914305 -3.842927481562914 
1.907898672055859 -1.630625768790807 -2.254479029858603 -3.258738346961358 -2.733159100420738 -3.700096405248213 -3.546412192746818 
3.525482759369837 -3.318591540662537 -3.049719860520952 -2.949764156509695 -2.968221161237965 -3.074650732123377 -2.821602959481065 
2.570666344378973 -2.387179159999122 -3.046059518026986 -2.600913283062229 -3.046308506089366 -2.973865348758707 -2.9303976280713 
2.699893688013673 -2.380951554043829 -3.171406692572915 -2.565674569898241 -3.037905547859266 -2.856678692435458 -3.186514873989738 
2.848009637076178 -2.479498731470148 -3.44957368658712 -2.9650902878257 -2.850519174151304 -3.14933720035182 -2.9243698723646 
2.734698774968484 -3.047951862762774 -2.428992962990949 -2.424795370184472 -2.319653236055305 -2.11400987287793 -2.452348298446405 
2.912260716543253 -2.207475042271783 -2.29624656194173 -2.030967405352719 -2.581731334027746 -2.408318949838522 -2.409517838294333 
0.3883448586723722 -0.06497244291427171 -0.07659707528321077 -0.1292905537312387 -0.2179718887387422 -0.2007814645679155 -0.3104515573105923 
1.91226445189352 -3.560344408315915 -2.566343140088833 -3.20277625781196 -2.702805654256101 -2.031881919370727 -2.487345451068546 
0.9118272080196298 -1.19774859231885 -0.8925108122079172 -1.050757748717248 -0.9172933615578334 -1.122156935932841 -0.9478219084247169 
0.06735040384242677 -0.02135423358484323 -0.01625628221353599 -0.01844714386170745 -0.01728916282789443 -0.03426802334404933 -0.01370776911437073 
1.528312965031011 -1.502700531580641 -1.058510627570426 -1.028412391588605 -1.456806465425342 -0.6297734796976703 -1.136279907079006 
0.01274242653062222 -0.005965374403807043 -0.0005278330371293288 -0.006328178817438462 -0.008794963802202091 -0.01127404194155018 -0.003547477672507583 
0.1225744144655421 -0.1376757834596905 -0.1084163839111958 -0.1283799066948076 -0.1592308106259675 -0.1322450791473025 -0.1328894811736751 
0.7721411020225841 -0.8153063934685552 -0.377560738570808 -0.6164817477706402 -0.6257613279374138 -0.3750424382229211 -0.4632542501831421 
1.393276476798943 -1.309037587534311 -0.4537173065930181 -1.106814036536892 -1.182290750684807 -1.090106146630895 -0.8308831471669731 
0.009484034674078918 -0.0001055510220421213 -0.00086947586319151 -0.004467173251976771 -0.001030287127693838 -0.008735711386140871 -0.000835784473934189 
0.8724668063597439 -2.396382669421207 -1.15086781736218 -1.171137326302995 0.06124550745081386 -1.261200789774908 -1.521262778929054 
-0.08939972283198756 0.1583242283511635 -0.008957238081200147 -0.1134330683072845 -0.0241306502118445 -0.05585024129030831 -0.01544771622103384 
-0.09891503079117388 -0.07228977926638348 0.3827304673953612 -0.002496839758958018 -0.1217672198675625 -0.001634823621447204 -0.06961117552132788 
1.793979330409939 -1.880941506206862 -1.667110916307667 -0.840538730786906 -1.513901056640031 -0.6508259319305916 -1.53925239832301 
0.308532122097849 -0.3387129507413352 -0.294836558775692 -0.2085602709236493 -0.3219139768484532 -0.1575283646385535 -0.3107323860878244 
0.01002819862569883 -0.0002040972058226364 -0.001466719695257044 -0.007018016186601534 -0.00247146013827542 -0.01207183724765994 -0.000793373890088602 
0.5624027680370103 -0.3381235313535141 -0.636064484688955 -0.1702997048077411 -0.6049803943352792 -0.1089181375590188 -0.5108608702583876 
0.009741731855746609 -0.004554070477315273 -0.003152862686462757 -0.003267311016860974 -0.007270473956784431 -0.005534219656040483 -0.003705749056992773 
0.003074700402182932 -0.002458965451033273 -0.0001599386505011367 -0.003309860356284278 -0.00332972745558687 -0.01061804316513669 -0.002322249796607234 
5.772558054960562 -4.556077682321626 -4.026709986238491 -4.370479136556773 -3.835967458135403 -4.891878982471129 -3.630571846440909 
2.854698201846281 -2.304297774266724 -2.266472171103815 -2.489881933688628 -2.706963191510627 -2.436427743914809 -2.544599211485883 
3.867270032824159 -3.162437917814514 -3.150510288336239 -3.379949839924327 -3.665969135702358 -3.571368887166052 -3.572245323647851 
3.531299515609758 -4.227783677900984 -4.137320145023144 -2.932963870960728 -3.307524933198321 -3.61010308974188 -2.83153588863023 
2.695577814484814 -2.352210565115383 -2.447322223519879 -2.225927822296075 -2.596391824288785 -2.855586999147044 -2.456388512154092 
3.287680129398517 -3.061544047339916 -3.094853291988146 -3.017513455095294 -2.570738570728722 -3.531415952784649 -2.435227506203268 
1.567156498883742 -0.8976087669746298 -3.33622513628645 -2.869119658194728 -3.404204927059229 -3.752644062523764 -2.551248553325948 
3.668287700960329 -2.931908439136695 -3.577202352076895 -2.741834445701376 -3.092117737968342 -2.485019764813785 -2.380707428416563 
2.748597779474325 -2.686144647243445 -2.290382668133223 -2.664065676323089 -2.265868537796763 -1.853607932708479 -2.013299260897824 
1.892186307389602 -3.486438743204753 -1.785573135899762 -3.167110217662037 -2.272465542654424 -1.796619852393446 -2.602864610861469 
2.900731840069864 -1.984932822683138 -0.6889898716688569 -0.7907664957336952 -0.2903964652075159 -1.311145567907063 -0.356341031409041 
0.01810035563005187 -0.003701200673633156 -0.02321512417119659 -0.002632876362798852 -0.03077921763911282 -0.00446901689074675 -0.04137539596215354 
0.008243696230772521 -0.001544420492017024 -0.001481390640739585 -0.004356340798229121 -0.006775966257724433 -0.008961666367365818 -0.003980198839185304 
0.6023802704766081 -0.7454618363496527 -0.4246256102806509 -0.5277724347312636 -0.5378097850311193 -0.3125670803601905 -0.4636298101653404 
0.07056247909568934 -0.04851097453589847 -0.02698218206920488 -0.04112581952736141 -0.05438882850219065 -0.06312725208965819 -0.03901549764697086 
-2.277010592025452 -1.395573531147087 -0.7619075905337802 -1.114479645235712 1.962312854273544 -0.5851118630279402 1.179047549918214 
0.006085826156161407 -0.0009905900802214666 -0.0001659750523710419 -0.002091456260375193 -0.00469567004411208 -0.005485907523038011 -0.001162149287635221 
0.02868145723797593 -0.0060870119027749 -0.0004646913206443179 -0.03832625605411447 -0.01216533023178619 -0.009105113364684427 -0.002911091073668683 
-0.7719853392443216 -1.573966627960028 -0.4772383434083615 0.2533973954696847 0.2492665378150603 1.848035363086894 -0.2316585617811021 
0.2216908136094931 -0.5728595460225547 -0.6689863379912524 -0.1517052533209523 0.2183264016914022 -0.1544410335788277 1.331218429367612 
-0.2386059013079405 -0.5586804424504527 -0.008699517941838469 -0.2082000328660181 -0.1268962076701091 1.058861417086703 -0.01401789902076402 
-0.1891340245901855 -0.02848926099654446 -0.6577023721298757 -0.004393089755556296 -0.1979699028746389 -0.01923496947192843 1.159388417517313 
0.2256831552025107 -0.2406980217157855 -0.05887852746814386 -0.1453658130987764 -0.07972049911982193 -0.1627763705368823 -0.07690398651144736 
0.2457659989234874 -0.1495922167841338 -0.1051872059176978 -0.180488876481723 -0.2234240880304422 -0.1700819662322475 -0.1513126970689288 
0.4572370326525752 -0.2858580602794211 -0.4892666392297461 -0.4057398896159084 -0.4156358956875194 -0.5494379866261083 -0.6860951453742076 
0.09122618593984171 -0.01569472917301111 -0.0006610371110698028 -0.03279129793103559 -0.05114688481398597 -0.03449613994661539 -0.008754114279959145 
1.389970890360299 -0.4003758548151607 -0.06834432865229699 -0.247123566842747 -0.1234066206890929 -0.8123616205425397 -0.07020044577197787 
0.4692194659956337 -0.5504063318935314 -0.6191196162412582 -0.3913646327040495 -0.4985870502526418 -0.3217733140862766 -0.4085704808767648 
0.2146265884738635 -0.3580625928389904 -0.2086096540602296 -0.2245150808616678 -0.1752538932223235 -0.1389273709770051 -0.1617169208186148 
0.1186053249648717 -0.1238210965829856 -0.04497321657287359 -0.04870036967341024 -0.08689361549666362 -0.05963574558956966 -0.06495415694626122 
0.04815420859335689 -0.01776510851231897 -0.006931577473204048 -0.02606979177036316 -0.03196198731653041 -0.04203494217518989 -0.01528457461259447 
0.002669118018890877 -0.001307599256664935 -0.00335002039106635 -0.00137549246067782 -0.001772760588053281 -0.00372173425168736 -0.002341530846530025 
3.81938490929465 -3.218100745430793 -2.739963201221589 -2.88359298460096 -2.827866503503636 -3.100612136006605 -2.746451758459554 
3.522481590280577 -3.029531844984883 -3.141717603707127 -2.825207237025897 -2.985355176145225 -3.055242024974946 -2.700412185441093 
2.104217267298663 -2.016819166374882 -1.970518940866904 -1.914336583713678 -1.868143415392157 -1.977491949262268 -1.564433001381554 
1.590373206612291 -1.595395643044385 -1.954568853179707 -1.816899071785804 -1.585026122258906 -2.193720809121937 -1.047572491763809 
0.9458411174275725 -0.7899508464888363 -0.643296165433377 -0.7446548350190889 -0.844173128656904 -0.8366590412176829 -0.8357262940017279 
1.118353392647555 -0.8731638262274052 -1.055318013407751 -1.005158840960003 -1.051046162786966 -1.02074521102488 -0.9706027187398949 
3.86365420053819 -4.204478504700107 -3.391025037609539 -2.864794336212321 -3.573359842834003 -3.223908311724291 -3.241570161093331 
3.300910507622703 -4.453850108206838 -3.322812557267568 -4.1854936941593 -3.646273654026672 -2.844890036963291 -2.639086955169268 
1.869766083697732 -2.911157316169827 -1.892878801892757 -2.46427714548688 -0.3831407348670511 -3.114015604395846 -1.495072772163623 
0.48905674912639 -2.804944799926938 -2.993569113897703 -1.178362446873844 -0.6720480377973131 -2.255206951577937 -2.539265620798561 
0.1383293471228029 -0.05159259134222317 -0.006140928341925696 -0.03094136223474794 -0.00282773049404928 -0.06240994997268879 -0.003770778135744749 
0.007272149840982911 -0.0006922377491061706 -0.0007852621524418837 -0.01256041618974776 -0.002208936534232751 -0.00342003872965677 -0.0009981160467309315 
0.3054013868312798 -0.3790882868088961 -0.2774319973341802 -0.2119103941613034 -0.3553738810745667 -0.1682503577851529 -0.3379342316302248 
0.002622144759756161 -0.001688814248676276 -0.001758421022206807 -0.002146471081892325 -0.003017813826049912 -0.002173484624309868 -0.002285647980455831 
0.1176991880143022 -0.1378353770038536 -0.116957591707586 -0.07861569886731928 -0.1352591117185454 -0.04667528728434429 -0.1169251691918911 
0.01966416514617401 -0.001093279146111611 -0.001433904598379621 -0.01303280636157918 -0.003098643800708658 -0.01127152445847961 -0.001161676269572773 
0.1513292674408674 -0.138051375794457 -0.1614799610056818 -0.06721556969945025 -0.1607613758212581 -0.07301933360289395 -0.1597873091182594 
1.799104019967592 -0.2928028080965902 -0.289529792622734 -0.1808850538238669 -0.1487661541969325 -1.232362983904599 -0.2513420862419126 
0.2535384946528936 -0.03095295765546305 -0.1387252016413397 -0.02600896488171816 -0.07449320986899953 -0.1794366642878956 -0.1146313055339488 
0.2187850446734182 -0.04337728657562249 -0.07703548179544903 -0.05160225793690783 -0.07711598076111999 -0.1802771143078752 -0.06787423039714073 
0.6641083660799526 -0.3839418149981605 -0.3909802610776588 -0.460673201867234 -0.5769766058206381 -0.3955239321519556 -0.5359505551521523 
1.25004570023218 -0.9372879844536471 -0.5001605050938903 -0.8324334019387514 -0.6829849831748674 -1.176219413564358 -0.5412510039718833 
2.221847715444054 -2.107091559922603 -1.786125091844316 -2.205507137918653 -2.192222149757377 -2.283356363543617 -2.114560985785915 
2.220576005705979 -2.119047044337697 -2.407933506969576 -2.569953308313274 -2.388639677820662 -3.118804519655165 -2.366380547529321 
2.590778626498487 -2.073986705960595 -0.258992092125667 -1.19956359306831 -0.2484329157926496 -1.30269959443304 -0.2525537148880364 
0.2007091539977583 -0.00935452231102472 -0.3305151301451547 -0.0288429654940938 -0.1985752307789507 -0.01913739912728602 -0.2839973685738683 
0.02427992205181512 -0.007523663468856688 -0.003253343800711944 -0.003957291327579297 -0.003458952305065756 -0.0129344143681935 -0.003313250567960664 
0.01771966982296748 -0.002606226036137172 -0.001928413554306754 -0.00151120669685801 -0.004443823675913388 -0.01290199966703961 -0.002797381608732114 
0.006867456414044074 -0.002306282246065765 -0.0002271664255326374 -0.002308380745343428 -0.001186710033497769 -0.004942953581330133 -0.000874792295716806 
0.01821335700812647 -0.006486685556145375 -0.0008995198229783822 -0.01207238960646044 -0.01620583986637622 -0.01616275067813101 -0.006811893294733808 
0.007645531262035331 -0.001457319546186206 -0.0007054114926780772 -0.009844296067015094 -0.005576046488932384 -0.006921793357673457 -0.003353058909612262 
0.0006423600486718904 -0.0008798811857021877 -0.001458266449685606 -0.001368972193907086 -0.001697428351569459 -0.001076385501638539 -0.001304349036956107 
0.02187347716507959 -0.005513665046190821 -0.00281013143807609 -0.03022160566527516 -0.009898806146056718 -0.02497267185550844 -0.004383055443560405 
0.348933275759731 -0.2333844195508576 -0.2744285223661538 -0.2104083037732474 -0.2873573461218463 -0.3452712436716395 -0.3554377241446559 
0.07064761145875482 -0.01405771757462362 -0.004288431846176781 -0.02048141790036678 -0.02863016967626873 -0.0572814842058282 -0.01198859112893131 
0.03269035132671572 -0.003553886407236354 -0.0006976422504923795 -0.005015712801239709 -0.010923848516689 -0.03039443852893131 -0.004484355853377085 
0.002978861119615037 -6.942641428280832e-05 -4.54171546980338e-05 -0.007220814931302596 -0.001339929456048313 -0.001852675626709685 -0.0004364519586276601 
0.06141673554012744 -0.02169823776218532 -0.009008628419848 -0.02704759937706608 -0.04613780410375944 -0.04938999170389974 -0.02082031250479563 
-0.6631091734112329 -0.9380616987312057 -0.6392433958697314 -0.6204548860923157 0.6771565910283054 -0.3717473112848338 -0.7091868699151052 
0.01570760198818479 -0.01498591809419199 -0.003686361969062842 -0.008601697047366776 -0.01395163929254306 -0.008805942676257934 -0.007663508556490121 
0.07469162804770881 -0.01429045999913697 -0.006390269238224118 -0.08800268635390776 -0.02867374113306157 -0.04638945815197459 -0.01469070045052315 
0.004590206250960157 -0.000956580925097252 -0.001885528400260524 -0.003637105993701218 -0.01056867071593768 -0.002548032451981254 -0.007640180279565398 
2.570761203341797 -1.829226532885658 -0.1391564325779075 -1.091075905050954 -0.233895819825602 -1.528971835493566 -0.2035071914484302 
0.003575253192573415 6.57216644695533e-06 -0.0002505942385014373 -0.006736868823051782 -0.001532936477211466 -0.002905929673184282 -0.000477799255846202 
0.0343235701331159 -0.001161712691359472 -0.06869309747375305 -0.002291248752989382 -0.01995821287547194 -0.003222697406467594 -0.03724360085395264 
0.01140675136124404 -0.01693478940214547 -0.0010272797028269 -0.01176782520521291 -0.00621046963882701 -0.003084738394785642 -0.001017984990884597 
-0.1896184949019343 0.6886079927326445 -0.003500867388869272 -0.1214313200440784 -0.04930538196624672 -0.174196509999542 -0.01080536654987673 
-0.4283325842307998 0.5102243408119633 0.4548814178513935 -0.0331330090846497 -0.1612579665192052 -0.07265090222282386 -0.1054034223933832 
0.01712809727681204 -0.005641241826579743 -0.02763087361495226 -0.001577964592184493 -0.03118225934779062 -0.0001923693991691314 -0.02981812044112592 
0.008549831944752522 -0.0009158676080315033 -0.001094169896881578 -0.01484490046164581 -0.003652601268275334 -0.007991947763762658 -0.001560465296833739 
0.5882814739041654 -0.536547366218008 -0.1572678689037916 -0.4110803821235317 -0.4735030012264477 -0.3817559864333006 -0.3078777347177427 
0.0277325519226787 -0.01847374071413244 -0.00608768366915031 -0.02207541100658742 -0.01835365717743587 -0.0204167414491125 -0.00728736853444853 
0.1675378753976097 -0.05045170097526342 -0.09240527631909816 -0.1296920373780836 -0.09154045814092283 -0.07333538934395226 -0.07239697789282425 
0.0339311862361087 -0.01421359259901205 -0.005189005002137276 -0.02777116091241902 -0.01206412867464221 -0.01102196605482574 -0.004224242109731881 
0.01284814298994022 -0.01809138249553264 -0.005880000876066935 -0.01220940123355191 -0.009615848376318414 -0.006697708331232011 -0.0140619015192181 
0.2601081491816783 -0.1987946019315007 -0.3518715421044072 -0.1441801899035871 -0.2835033367104327 -0.1345119583268586 -0.3428928694419124 
0.04878407609893496 -0.006518205716456803 -0.004198329159334123 -0.07193080488651533 -0.03567050075136531 -0.03154817111584141 -0.01582602411140511 
0.00176589774590719 -0.001423623803869092 -0.0008671028907486003 -0.001117146538784865 -0.002705907754777769 -0.0003709712147971072 -0.0008578579811780037 
0.02163342407353988 -0.00397383666497082 -0.003497287469930528 -0.02061298348375454 -0.01050178932766131 -0.01796374165943715 -0.008470017025634356 
0.0144959260049354 -0.003651131902041861 -0.005106704309096296 -0.004617525632858988 -0.01367967782065069 -0.00895403822073448 -0.01492626806630683 
0.02011178131956889 -0.01441566773759645 -0.005993982635809103 -0.01477906540491434 -0.01331633969807918 -0.01798158204238276 -0.01315628714832395 
0.689575748233807 -0.7741930808555257 -0.4105392959358202 -0.4895082127508932 -0.6145228085817617 -0.3234443911289264 -0.4713001460929567 
0.01586441405465229 -0.01136520443759377 -0.01110194792719041 -0.01069448209297762 -0.01507738480113689 -0.01726224247329508 -0.01522377031613003 
0.08480957866702647 -0.05007832516220597 -0.02043287932645989 -0.0700422831268574 -0.05503950004522929 -0.06408457243344706 -0.03898431353435867 
-0.5427386887186374 -0.8562240890726375 -0.759719930741897 -0.6328414434190344 0.4470869039453893 -0.3829621348102169 -0.7743584391676381 
0.2657366048701482 -0.1609960657863763 -0.03275258924138369 -0.2443273677481076 -0.1774869900465293 -0.2145598653371465 -0.1254107591402428 
0.01581534125083909 -0.004761703558483779 -0.01205652812104782 -0.0147101732988065 -0.01432012542914629 -0.02133766474250753 -0.01465388235081253 
0.01673649164413812 -0.007011247030813001 -0.007987931424772944 -0.01316312065534553 -0.02439084679297472 -0.01724267140767017 -0.01417262133959193 
0.02430628309217281 -0.01193355180410976 -0.001583059260177046 -0.01548359161504252 -0.01154353214900237 -0.008965187003061844 -0.002636164152522124 
-1.300343579113036 -0.6092179358628822 -0.095571144830903 -0.3517581129999079 -0.2159201876040219 2.202149543928932 -0.09440868087056747 
-0.8136876499463194 -0.0108093111017971 -0.08470602717383233 -0.02448415994923465 0.8420674115485353 -0.01388242821738443 -0.04034293343277848 
0.005041229256885984 -0.006980406719271781 -0.00470711473587696 -0.008558980111888456 -0.006511554993410286 -0.004890890559047113 -0.005838799148891742 
0.006574578600494182 -0.0004164088218828451 -0.0005774714144711271 -0.01467457475737634 -0.002957060319676635 -0.007494545292188783 -0.001020822831257876 
-0.2947343945419065 0.4609913087014024 -0.00670764992328382 -0.06237484198510076 -0.02961033647603964 -0.033284598312613 -0.003849960372900628 
-0.3475323187199269 0.5970912545005833 0.5959969916714749 -0.07957019018267122 -0.132422191350052 -0.2487075752487563 -0.1084680743472801 
0.9040101010380837 -0.9032144620855097 -0.7520583751302382 -0.5704216078722794 -0.8244116425606688 -0.4410621461922006 -0.7108144175498815 
0.006861505048437883 -0.003984754395535729 -0.0006627594451807075 -0.003643315108632767 -0.004575223995720028 -0.004550392226689366 -0.001882426999739676 
0.07454586682772057 -0.05033228625454804 -0.02122098391270989 -0.08949950295479588 -0.06371392631432016 -0.04750095986600115 -0.05501549805302206 
0.004116510599704022 -0.0003177044813234087 -0.0004620308985625052 -0.002483447992544899 -0.004667119495556661 -0.003716880714217361 -0.002492817561047158 
0.004662804397300832 -0.002099258480492556 -0.0001497125899290492 -0.003437358316162303 -0.00151430237123359 -0.004176039880825796 -0.0008024778118039309 
0.201790103176622 -0.04217677158362775 -0.1624828551810738 -0.1692618692482798 -0.1440683675100741 -0.1341574367332025 -0.1246273827394519 
0.001614395968839027 -0.003048710024354191 -0.0002889330660604221 -0.00119285296814703 -0.002422882092495341 -7.865620930366026e-05 -0.0007848797712579197 
1.378342146776128 -0.3493568274095213 -0.07927027838804206 -0.2983951395025893 -0.1282458878884693 -0.6650269859732716 -0.07612148039728939 
0.1473960399604479 -0.1509958558634227 -0.04411796876662241 -0.07088358669138736 -0.07209447311148819 -0.0577507550108718 -0.05370135474763105 
0.169526351351283 -0.07476953412748706 -0.09637933946981288 -0.1143093320985279 -0.1068984851910746 -0.1022197579664588 -0.0697505142308848 
0.00176589774590719 -0.001423623803869092 -0.0008671028907486003 -0.001117146538784865 -0.002705907754777769 -0.0003709712147971072 -0.0008578579811780037 
0.01867766145053566 -0.01708284784465366 -0.007174819659539974 -0.01737545067047547 -0.01112093331196 -0.009989451210229551 -0.008414857801451197 
2.704898104949318 -2.387951945500518 -2.763524625267702 -2.607796189993011 -2.823103717649553 -2.766365071295111 -2.791203534857416 
3.133558688224407 -2.510768668402685 -3.240254994741028 -3.022483431221621 -2.817802926643049 -2.774418493368111 -2.964324913478801 
0.2542981368433864 -0.04945753154329028 -0.001997837535867407 -0.02938773400500099 -0.001011842062129263 -0.1032767160165435 -0.00231623705082125 
0.03463414034841872 -0.01077923368362609 -0.00819013066160384 -0.009305618565634916 -0.008715227532236818 -0.01739064532709426 -0.00689968231395667 
2.104509714862524 -1.08280805494807 -0.2705275602492291 -0.4167468543470415 -0.3870039621167445 -0.5308352695341072 -0.1775187089027302 
1.061115247039219 -0.2026155783506938 -0.01366477813566915 -0.09805126609714208 -0.04584642819031122 -0.5625434848097067 -0.01793444312701662 
0.2151578105141179 -0.08423951298115118 -0.02884959482971365 -0.3062240194351009 -0.1587014723985233 -0.1448487836098041 -0.09691561592055914 
0.004116510599704022 -0.0003177044813234087 -0.0004620308985625052 -0.002483447992544899 -0.004667119495556661 -0.003716880714217361 -0.002492817561047158 
0.02081050498086983 -0.01099923221196869 -7.948175294199687e-05 -0.007027721677592534 -0.008556963927777482 -0.00607557723745625 -0.0008993984619898719 
-0.2947343945419065 0.4609913087014024 -0.00670764992328382 -0.06237484198510076 -0.02961033647603964 -0.033284598312613 -0.003849960372900628 
-0.2872909754974848 -0.02726808204612988 0.8338139109261421 -0.004371843207328263 -0.1975038314792409 -0.01221909020982775 -0.2416160074892088 
0.002472651960070785 -0.001494194634160469 -9.189740528840724e-05 -0.001802483027766194 -0.0001893090592155863 -0.001901708459973926 -0.0003383075039633497 
0.2329812652254815 -0.04523405667085983 -0.1072813992409832 -0.2118940968561384 -0.1652911269986478 -0.1539688737524354 -0.1479630917912379 
0.01384160539454562 -0.003211290902187936 -0.0003234896386321836 -0.003639696660600034 -0.01020795092494233 -0.01476791584531937 -0.00389419379277945 
0.002139748750200298 -0.0006883127686023307 -0.0004934781068144366 -0.00246714947847218 -0.001199919270595919 -0.003445610442860008 -0.001897380162990892 
0.02677330464046002 -0.004369462997088584 -0.004518476428131718 -0.04141526040311508 -0.02345788884073776 -0.02240567286617979 -0.01240718863617432 
0.05837980421400342 -0.009435870671913619 -0.00464115169152873 -0.02525800621805864 -0.03943080140081907 -0.05416973671737621 -0.0182336796124398 
0.07452085615711448 -0.0656887815158271 -0.04330164618948749 -0.05587177911299534 -0.05476499952811826 -0.08615755096846021 -0.04695120719306554 
0.002978861119615037 -6.942641428280832e-05 -4.54171546980338e-05 -0.007220814931302596 -0.001339929456048313 -0.001852675626709685 -0.0004364519586276601 
0.15353098380697 -0.04348155811520318 -0.02278652129897948 -0.0922528430673791 -0.08933469291911519 -0.1334730212319665 -0.04472545074271565 
1.208386528313795 -0.5687212912028523 -0.02729992594214849 -0.304506595639717 -0.01498518941719668 -0.6442157127683543 -0.03264851846873839 
0.3373165292355723 -0.1945844599494052 -0.07343422365467578 -0.2236439427785135 -0.2055521830421004 -0.2277848962823381 -0.1296616619571413 
0.2383359684347839 -0.1558257093310992 -0.02865316809286469 -0.1399535355476694 -0.1841689585168518 -0.1728783198209246 -0.08735818649818319 
0.03384497783762394 -0.006410679393891711 -0.01864530021061551 -0.007626649391329188 -0.01475007880037808 -0.04024874150428583 -0.01584670215025685 
0.3633239807790252 -0.005567019062089914 -0.003849128223218333 -0.1022303400545074 -0.009596041810951823 -0.1334145766611042 -0.002751702393673546 
0.6174152348625777 -0.1712602274894974 -0.1545331432797058 -0.05874517341848159 -0.04450661960074177 -0.1894715507458801 -0.05148818473662775 
1.157050753378055 -0.1007160617923079 -0.1478860453460414 -0.07954269160001917 -0.1992041977856829 -0.2883263216211893 -0.08824778331568749 
0.006264937184203784 -0.01917598077675236 -0.001636155210651083 -0.003336146312128748 -0.001798608017510864 -0.001264192343381788 -0.005182048417152084 
0.818160257384099 -0.6508015401657372 -0.4188642968754744 -0.3952350661807648 -0.5166627650868353 -0.4798510605055308 -0.3503479343850208 
1.282290648604962 -0.3594218807930268 -0.1641567535352102 -0.1831361133345515 -0.2467873192269126 -0.4085608566967296 -0.1370191693006415 
0.06455302717467561 -0.03637691989483003 -0.02771950220505404 -0.0292959185082504 -0.04607296496581296 -0.02713155473274676 -0.04073348007829312 
0.009923692397222558 -0.01280085175460337 -0.001652994693896146 -0.007244474790842432 -0.00932705054906292 -0.004460689894678932 -0.005126943065465921 
0.1569432156225328 -0.2803153720919985 -0.1083832896999823 -0.132674861242999 -0.1681760692117611 -0.07622414363420818 -0.128447727613153 
0.0225452273414982 -0.002403699205802702 -0.0003670656190167421 -0.01718605320732352 -0.008861434629804163 -0.01659964689454024 -0.003274516744935098 
0.6175695952258665 -0.5738018720106882 -0.3986145351094053 -0.2994357657457771 -0.3131249676750782 -0.361149643436706 -0.2682469443602161 
0.9901557826012516 -1.030748229041591 -0.4481038818056576 -0.3673880625640855 -0.5035620855093581 -0.3893412216922927 -0.3334294988246581 
0.05104230404210416 -0.01793086515434841 -0.004678297197106544 -0.01208203951418808 -0.009419575378948122 -0.0329022227838975 -0.01107158110739329 
0.00929367767458561 -0.001650230980092442 -0.006679743084630791 -0.003582551961697262 -0.006523987448571928 -0.01554608757552248 -0.007044080004759676 
0.03302874402155946 -0.4258503916967567 -0.00269687494148833 -0.13996152060657 -0.01457069259178688 0.5107011170465471 -0.005617401647762674 
0.3134400942598857 -0.2993403538280141 -0.1280966974398249 -0.1903910930632504 -0.3211060532337593 -0.1088419322577635 -0.225710135476741 
0.3728693748582808 -0.04740882574318081 -0.09154208135359194 -0.2986252537122672 -0.1810672234723927 -0.311985611131478 -0.1407241007502811 
0.004229510261049669 -0.004728107021729475 -0.002046873839438105 -0.003334562135738764 -0.005426977671665637 -0.002252513869850042 -0.00306722020641883 
0.008415354424643943 -0.008627240517479149 -0.0002745197669269321 -0.00378689130151252 -0.005153501471471752 -0.004370943550800801 -0.002000925213209308 
0.025714355632756 -0.02012971769559478 -0.001594733129626854 -0.007805242390884236 -0.0137939784796193 -0.01373878100657456 -0.003924203288451648 
-0.2947343945419065 0.4609913087014024 -0.00670764992328382 -0.06237484198510076 -0.02961033647603964 -0.033284598312613 -0.003849960372900628 
-0.4625891378867736 0.6304612962897285 0.4590077490460724 -0.06383555469016196 -0.1228504236932058 -0.1376405577572184 -0.1090490771580848 
0.005057851405739695 -0.003816883205129102 -0.005761886010514413 -0.007360843304227576 -0.01100591308047887 -0.005702991282877229 -0.01282071208529453 
0.0841688563965427 -0.02108299877399484 -0.01263159399644514 -0.01285592935414875 -0.01149238419993475 -0.03999740490195366 -0.01404262665541211 
0.3394968129909722 -0.1069789356098943 -0.006919170368547547 -0.05888692439599159 -0.02740820946967303 -0.2817239132372908 -0.01776824953086508 
0.8602053342487272 -0.8323931690450902 -0.3623480808335758 -0.3716465585027521 -0.39630277219731 -0.3420159022362679 -0.2340793178985547 
0.08937781136980699 -0.07108931461336093 -0.04372112156247689 -0.0656583167497562 -0.07782541174190916 -0.05587380521521996 -0.06432310113120876 
0.004138722966804165 -0.0001596846782757605 -0.0002457830795050368 -0.005854840429391843 -0.001721941266586012 -0.003959907568685386 -0.0008110831576229714 
0.00283970411406973 -0.000660035539372512 -0.001102799005232115 -0.0007178558979738362 -0.0008334168980047455 -0.00754966240556391 -0.002303154516884449 
0.1748564465514774 -0.05295777204930295 -0.01440150002154516 -0.1594093401741222 -0.1118850059850866 -0.1189440712216841 -0.06918798830869838 
0.01428508510580742 -0.006094067600333923 -0.008472681230782642 -0.007781534736541837 -0.0494968930541565 -0.00486567038650164 -0.01412257371266001 
0.03604271464653348 -0.0003245421368357893 -0.05128439618165749 -0.006875474645981453 -0.02595947961990343 -0.003008453303701537 -0.03805865707571737 
1.982399474516032 -1.602546839683783 -1.936876916753666 -2.112923835903157 -1.9548439148665 -2.245210068940171 -1.767482890007412 
2.475747286090136 -1.895445874031767 -1.959721028868326 -2.009547085363369 -2.0588083074857 -2.080214017711598 -1.842307033577265 
0.03548577192197978 -0.02431310543235761 -0.02377358223486052 -0.007856540463064941 -0.02645030682473859 -0.005424106651490523 -0.02239302475951991 
0.01880701508445094 -0.0002109865538345351 -0.001737153381677709 -0.00889542377732125 -0.002058638940596522 -0.01732384878330728 -0.001670170578102538 
0.007878091176004264 -0.003621346006222053 -0.000217705866393843 -0.002009446730244376 -0.001370136928372196 -0.006693430479715705 -0.001470210827223376 
-0.7936065117796626 -0.02318402501475533 -0.00286687900385732 1.32596638032766 -0.01708806748997642 -0.1800212303622173 -0.005090425645079354 
0.004116510599704022 -0.0003177044813234087 -0.0004620308985625052 -0.002483447992544899 -0.004667119495556661 -0.003716880714217361 -0.002492817561047158 
0.1350570486317814 -0.03029611803122526 -0.1439751636040137 -0.02669102943721849 -0.09584176615402683 -0.07499964867650331 -0.1230362632445376 
0.2635271091440551 -0.1714263258391838 -0.1468388442701322 -0.230230997775522 -0.2481381415692968 -0.1132124626176713 -0.1714300266026254 
1.09614073837959 -0.135874487122959 -0.4800340313587979 -0.06600978540333707 -0.1437135254961835 -0.3623748685652772 -0.1089978754487269 
-0.4677061188838793 -0.01170413173094846 -0.001435136407465551 -0.1083983074178647 -0.008610005077331433 0.7686902384395865 -0.002551488167860907 
0.004687088295016373 -7.971881175285655e-05 -0.01456499032164028 -9.146197032647413e-05 -0.00732648395615547 8.572726814513545e-05 -0.009195431834186325 
0.007462749109867324 -0.01656153234015435 -0.0004528636731808402 -0.003797864622070807 -0.004986212230176293 -0.0003938650721792629 -0.0006689966863053203 
1.462493242071018 -0.8581470184902201 -0.01862623118998364 -0.3428341154847392 -0.0903069186242621 -0.4552024815393994 -0.02068051102421727 
-0.0808685377254186 0.7685916856171 -0.1383483706753721 -0.008847887371734527 -0.1944593932067739 -0.003364811781007799 -0.0841739419982508 
0.02874005610145662 -0.01348600130440748 -0.0001775809556070163 -0.01192706479750854 -0.01529698977996652 -0.01308028837417108 -0.003451936755716043 
0.009147801484819675 -0.004304313299912665 -0.004145634099154288 -0.00410540693808832 -0.006667159051833296 -0.004039537192870628 -0.004391359056675892 
0.001927248814690281 -0.001443037656247041 -0.001376392542120961 -0.005681650617517842 -0.002775724713453798 -0.001562378049720032 -0.004992664010819987 
0.01678483369090209 -0.005963744154662711 -0.00515819366125704 -0.01226917052158663 -0.01523914507549029 -0.02535107123699816 -0.01342111048524504 
0.08555334175746675 -0.1079766005711321 -0.09403766838411358 -0.07760564432826919 -0.09874548328204799 -0.03492030732092503 -0.08950480892465922 
0.03668826845807077 -0.005395647987991298 -0.005603152661186691 -0.0116619717822721 -0.02676615538490741 -0.02694864015541938 -0.02119239044117098 
1.596108120835846 -1.016619145485143 -0.047802535234543 -0.4506292369868502 -0.06400701924512793 -0.7669224021004062 -0.04632095757345078 
0.02814689005003395 -0.01461444046048527 -0.01359442969571103 -0.01740863057380284 -0.03628437801510629 -0.01109609548050913 -0.02732241848813991 
0.00176589774590719 -0.001423623803869092 -0.0008671028907486003 -0.001117146538784865 -0.002705907754777769 -0.0003709712147971072 -0.0008578579811780037 
-0.211886437712548 -0.05828517086401968 -0.002064765189929413 0.5697704610394235 -0.01746444571603566 -0.1438763075786746 -0.002147783964772823 
0.2706118545340304 -0.110959990797008 -0.4648653159270482 -0.0140168589724206 0.9659414130156386 -0.009429040072073416 -0.254656256699885 
0.319753999465352 -0.9803436233551313 -0.07365242397435372 1.456924437808026 -0.142160349880068 -0.7681584337433411 -0.05821710017999643 
0.06669088249831873 -0.02818315543877123 -0.0172555266901848 -0.06502952148874129 -0.0418435330823699 -0.03538176000338618 -0.01954274030751984 
-0.2230994271601753 -0.1141320255095445 -0.0197006066260758 -0.0401579149082188 -0.02753587492943844 0.7437108426749547 -0.008691858182307404 
0.04097354014418653 -0.009364700242003369 -0.007218651576924011 -0.06304738210923029 -0.01689226258905414 -0.02439266725794446 -0.006419547833231344 
0.006085826156161407 -0.0009905900802214666 -0.0001659750523710419 -0.002091456260375193 -0.00469567004411208 -0.005485907523038011 -0.001162149287635221 
0.04773143903210985 -0.03763468703728468 -0.01416540950197211 -0.03553989276532739 -0.04180325622005685 -0.03489079254961319 -0.03297842095790744 
0.03463414034841872 -0.01077923368362609 -0.00819013066160384 -0.009305618565634916 -0.008715227532236818 -0.01739064532709426 -0.00689968231395667 
0.5048792744466946 -0.03105896542744343 -0.00819872182816285 -0.1930923630954905 -0.009647811813830915 -0.1601221336967897 -0.002921188360059519 
0.01007336272499032 -0.01939023380565079 -0.001764006809411784 -0.00993423571354916 -0.008728416700499127 -0.002606329217760718 -0.005046895937710199 
0.0013365936495536 -0.002004224778742613 -0.001134238766237817 -0.002296076077888272 -0.002251786987941236 -0.000943029598660029 -0.00201194642179156 
0.01212709921742641 -0.002884365910567652 -0.002266761193892499 -0.01025334230997216 -0.01269764678719718 -0.003315632959561154 -0.00225427345196016 
0.07001161533427609 -0.06151574811254738 -0.03617210657247325 -0.04406891899467884 -0.1038567739821873 -0.0491502699680446 -0.08002133867644931 
-0.5127055335504112 -0.1465465485341174 -0.02629600498980702 -0.1670010945295721 0.596237841087483 -0.1726369349963156 -0.09672839267370001 
0.007123700604636514 -0.005855256618542472 -0.003803413911595687 -0.0144622054207454 -0.01133040915305491 -0.00798746581971068 -0.01311657635880964 
0.01838631173977145 -0.009610705927562547 -0.009722461176872501 -0.006718359920708477 -0.01377150522077085 -0.007091282651540775 -0.0108081020627219 
0.08934914593731962 -0.05028878721810923 -0.02689212402515464 -0.03212934717782119 -0.01876335625484829 -0.0432508099859869 -0.01668498764348246 
0.7789270728283985 -0.7450838934313339 -0.8510073715198535 -0.5889137104559171 -0.8618444584256385 -0.451746296547135 -0.8033679471275615 
0.1099547244517641 -0.0389058050432001 -0.02817805635025858 -0.06230323005563693 -0.1104090574331872 -0.0547771857550186 -0.06220915054391495 
-0.185377228514587 0.328847527205384 -0.004572007572212873 -0.07735999824823568 -0.01191383658327518 -0.08506827389076542 -0.004367698243477961 
-0.1032886033880981 -0.01682219680967837 0.3793205500507643 -0.001745000388929825 -0.08893736408216807 -0.009211908702821478 -0.1598180531738098 
0.08533993003300341 -0.03434813425496277 -0.03513901337503009 -0.03351301964819932 -0.07464509082163956 -0.05256982062156251 -0.05088182625862051 
0.009855402275864785 -0.0001348095107515021 -0.0006099915701598318 -0.006738771843809302 -0.001609548127703188 -0.009642170850850994 -0.0008729760439696059 
-1.157415687179544 -1.086222495414178 1.365922132966378 -0.8018005749566683 -0.1254378203302189 -1.559098561233428 -0.1951297759773756 
0.09378305667921784 -0.4160967034498491 -0.9747323231314434 -0.9113435982572132 -1.181917442658919 -1.085711724919811 -1.338598446256686 
2.146942541745462 -1.355197655584053 -0.2063681047566385 -0.6645795523258229 -0.2663709105254497 -0.9331913802730533 -0.1635128656209559 
0.04421989900874687 -0.01414206667899145 -0.01158308369159838 -0.03313177831322336 -0.02084645472480015 -0.04120292060137834 -0.01657711291648533 
0.0826506114283823 -0.04040392877642066 -0.04404675951905849 -0.06798378286777695 -0.06287738925063359 -0.06287764779149983 -0.07832936475265705 
0.005581043608231279 -0.003215910810761046 -0.0002618080886706413 -0.002449223869258392 -0.005951240317963622 -0.002731368789028975 -0.001512280648132619 
0.02565975464821731 -0.005364764155683053 -0.001529601317380223 -0.009416524580450478 -0.02116502870502689 -0.02194918227374397 -0.005483299033276721 
0.07241697845498851 -0.09836400918422798 -0.05385523046139933 -0.06782105582319559 -0.07047090322667221 -0.03812948231227871 -0.05991559115381331 
0.003177805112253713 -0.0007566603628006389 -5.40170504447801e-05 -0.002202097726308754 -0.003524766814971496 -0.003136847110796669 -0.0008906862570485944 
0.01589187901686461 -0.0102112113059144 -0.007584911211840935 -0.003859976144933984 -0.007483751852029389 -0.003248553803996251 -0.003871353064805925 
0.05069137461414518 -0.01283562975282738 -0.03726214962451108 -0.01850833461100928 -0.02723543381397113 -0.04978584369692141 -0.03358401021116218 
0.09978716124466963 -0.07865389101461959 -0.002730194954557316 -0.05052238965604129 -0.02635377934845163 -0.05951661137150203 -0.01837367537355989 
0.2206138520552589 -0.1743227939626966 -0.1516538039222169 -0.1056372328374021 -0.1419339017961416 -0.1132223693015188 -0.09818385969840999 
0.07198168410519006 -0.05472954416006018 -0.04874501974492059 -0.0472569565317574 -0.08591438551995867 -0.0337762982251285 -0.07264626829433005 
0.1035390394029503 -0.109841631987138 -0.03446170898803837 -0.04137516117642248 -0.04341960409907578 -0.05305147933556967 -0.03971004551590097 
-2.114254941512305 -1.21459036220992 -0.1383005271431213 -1.73999985258748 -0.5394445921630118 3.711822760211235 -0.2389984067779645 
-1.027428078424008 -0.7253902969439455 -2.065530417280595 -0.3405645329487336 -0.03310794720168431 -0.5352453963566139 2.93505635299068 
0.05448356273215391 -0.008075625697569991 -0.005835440548658574 -0.08269017534361206 -0.02133306219060577 -0.03712393669137236 -0.00744898306057004 
1.302843284645523 -0.7507985872476752 -0.163448538057978 -0.3492389960237141 -0.1259782384898942 -0.5809357876781253 -0.09418021596477723 
0.2124290806474842 -0.02833352704524789 -0.08152876034654523 -0.1837411324193072 -0.09358926355421929 -0.1552430759735163 -0.08182887606324998 
3.422480344616093 -2.303397520684507 -0.9077996680558373 -1.217513308664608 -0.8551486804948886 -1.855204890261483 -0.6966719611486236 
0.01926062348285365 -0.01798063527264184 -0.01884986648901951 -0.01702114287494407 -0.0225546490558024 -0.02430829425080567 -0.02588174963268043 
0.7819786542063429 -0.8921872172761823 -0.5987668467902982 -0.6654455212621613 -0.759177949867491 -0.4695755189421304 -0.6947207575908593 
0.8144928062078395 -0.1773821599890884 -0.3800044386741233 -0.2139617852744351 -0.7905557334165523 -0.2889210857569687 -0.6534746394606962 
0.6101564657466703 -0.1234742915312835 -0.01456113416986726 0.1527623324100621 -0.04855255634431955 -0.4287761047947277 -0.02508362365155023 
1.587012820810507 -1.085150251752306 -0.4441722035814537 -0.3117926591983572 0.5725396835305512 -0.5865090463121122 -0.1031962254172601 
0.231318668605123 -0.1563197971103426 -0.01349002717247337 -0.05461816483918545 -0.02484891328231395 -0.06001677930874181 -0.01214585223674798 
0.03388020682628899 -0.009935071993996729 -0.01385746381304971 -0.005931825729360949 -0.008792595929655304 -0.03382360037872049 -0.01421006443282384 
0.7952735806696216 -0.3995755105839341 -0.03076364471284712 -0.09770124386636764 -0.06059718225814335 -0.08864027358247568 -0.0135673029204088 
0.6903645264522371 -0.2513426072772039 -0.001394519533982089 -0.1059784415311015 -0.04930382384671544 -0.2252973772351205 -0.005102219606317786 
-3.28154165150835 -2.037851335510289 -0.6221288317828377 0.240800247396962 0.09178012756641464 3.450568839949658 -0.6225744543850671 
0.6937791297691179 -0.01037036655586691 -0.414968635392665 -0.001946238484993948 -0.08653628805086454 -0.009118432787689762 -0.1216574867897226 
-0.3656301089744719 -0.0742428789133299 -0.006377544120924235 -0.01974800550655513 -0.0006865225033335124 0.5717839286924341 -0.003995703346218263 
-1.36436945048863 -0.6955803170979719 -0.06697982016298265 -0.4275533636453522 -0.1657834058919311 2.227528723129103 -0.1900826169296431 
1.007910104567338 -0.1932084036419822 -0.5163674839541676 -0.1050056792090482 -1.030533587526488 -0.02491819888153364 -0.6189000596587274 
-2.112000606854829 -1.878774063740869 -1.684220985349848 3.200344730845822 -1.013883532806431 -1.741117239293558 -1.148886799258119 
0.7765427612568091 -0.08272884034443009 -1.300254037705767 -0.04896097218636826 -0.6844081820142444 -0.05777245269956782 -0.8539610354755662 
2.122473781573598 -2.182821171225194 -2.826924473633436 -2.150703492743825 -2.121756421642201 -2.566647883543801 -2.030654539822812 
0.5603981491318963 -2.477633172146855 -2.786137721960433 -2.442014518546863 -2.552811172108802 -1.034489380882189 -0.950629045412108 
0.7811298703336063 -0.4974208438571628 -0.6442738754134447 -0.796609009389277 -0.8620578898091728 -0.945365224658386 -0.7161188751010644 
1.851181483502244 -2.991396811179309 -1.503813640640201 -0.7746712965756841 -2.611420443456932 -3.26964336547082 -2.336900091764669 
0.04754857511003056 -0.07966472628818172 -0.02005380061318304 -0.01989923264792668 -0.0267077782367136 -0.0122306371976226 -0.04159460925018134 
0.2576981082166554 -0.08380711569807194 -0.1782320125848071 -0.1022999293783411 -0.2181348287384325 -0.1755302613939462 -0.2092395869196206 
0.2598967388205299 -0.1397231078356053 -0.1244935270753531 -0.1940163887846043 -0.1955219622537372 -0.2468717747476129 -0.1591377532172827 
0.005581043608231279 -0.003215910810761046 -0.0002618080886706413 -0.002449223869258392 -0.005951240317963622 -0.002731368789028975 -0.001512280648132619 
0.02081050498086983 -0.01099923221196869 -7.948175294199687e-05 -0.007027721677592534 -0.008556963927777482 -0.00607557723745625 -0.0008993984619898719 
0.0313180139860306 -0.0004057829066999063 -0.06864205192856079 -8.946804827922795e-05 -0.01653795457440151 -8.628509488260838e-05 -0.03641242144516921 
0.0800238503078832 -0.009188696174481609 -0.02538621740903296 -0.09599087236378377 -0.08375982462978501 -0.04333759795879734 -0.0604782067327516 
0.07672903440860981 -0.05948308003838495 -0.01772315250585624 -0.05517496555889065 -0.03647878246266689 -0.04664168484339042 -0.02129476167030817 
0.1863776491575423 -0.05887375228623448 -0.1639705097240118 -0.06758851641235879 -0.1754120623934284 -0.04520255763921405 -0.1589489263080308 
0.03017051142177531 -0.01152847812988234 -0.01140803076120308 -0.01885099956050108 -0.01913936984185495 -0.02840491520734233 -0.01385208005742713 
0.4286593495067678 -0.4664838114760493 -0.6090922220760724 -0.3404922616729527 -0.5146805340996097 -0.2699514960364749 -0.4595665222530915 
0.03727521777038103 -0.0125529214584563 -0.06861417998582746 -0.001861688433511989 -0.02465923769117212 -0.001261673844941843 -0.01441228058058174 
0.003309252092269353 -0.002350112989136416 -0.002446821203381538 -0.003226780475232133 -0.006044564426384911 -0.002169692967731656 -0.003598321209459951 
0.07628153844197184 -0.136836193553962 -0.04891276874510487 -0.08996142082184412 -0.07301958559227613 -0.04344675334062634 -0.05519903366621363 
0.2843030611323619 -0.1344372855629379 -0.008688369396668673 -0.1613674056320729 -0.1528731484728217 -0.114652662231666 -0.03771124058612019 
0.151231346042688 -0.1850514743974362 -0.07466411716914684 -0.08118659918879353 -0.09250473298383868 -0.09067113559718236 -0.04323955789546816 
0.01971842569466368 -0.01127927567209326 -0.006338527528058966 -0.008122329247845677 -0.01036239439090741 -0.00943194195471176 -0.007285763966490483 
-0.9725345115013402 -0.3352477709676414 -0.06198950953646218 -0.2391469217233192 -0.1058440723206801 1.722282040670374 -0.05643670271990257 
0.1301006544654459 -0.0967186664419039 -0.06307224332607432 -0.04800835793585871 -0.08430144859052979 -0.03119291716220224 -0.07793487586260806 
0.004326004196211366 -0.00430293076904765 -0.00281930075053848 -0.003888784680991767 -0.003142847205329453 -0.002716505728709872 -0.002805435724531245 
0.002978861119615037 -6.942641428280832e-05 -4.54171546980338e-05 -0.007220814931302596 -0.001339929456048313 -0.001852675626709685 -0.0004364519586276601 
0.005569944463838981 -0.001929055228878319 -0.002043640455346698 -0.001131643717557985 -0.002786893470857904 -0.001521150021817746 -0.00156806455098828 
0.9467037480199422 -0.4863791003781712 -0.01625181599919157 -0.1063169876431243 -0.004003139876251473 -0.2914253907002619 -0.00745491325069766 
-0.326286165622146 -0.03892607921348683 -0.002583604991423205 -0.03621624610327824 -0.0280820920451939 0.6022503755142736 -0.006571177495126432 
-0.4805341285898161 -0.1387964047451184 -0.005071423756908378 -0.08456830655430236 -0.06051993594292161 0.9458594896216743 -0.01937709280088356 
0.09027192563851698 -0.004044874485311673 -0.1203237422381165 -0.01929464456454114 -0.08624475337782482 -0.01146011642232238 -0.07990824058274977 
0.1114154671211048 -0.04054457846064534 -0.01322719561304435 -0.06614960336152277 -0.07613016936793282 -0.08518617467628718 -0.05293420029751613 
0.2960976597357912 -0.3013412801248178 -0.08690567807243073 -0.1221019605610152 -0.1470518766764185 -0.1296952895240952 -0.08401080228110652 
3.14604837293916 -1.687705028723181 -0.6430336787752251 -0.8500152375450902 -0.6496882584711661 -1.693261715570334 -0.5048167235662558 
0.005945547761348829 -0.0160172681617603 -0.01076007535892549 -0.01356298709412001 -0.009277078987064615 -0.008527676369042713 -0.01025923790331025 
0.01872936272989697 -0.004202248711651905 -0.007571321707370397 -0.02262161462744139 -0.01739276663631048 -0.01963217359864732 -0.01284847787671916 
0.1196746626874316 -0.1038776548183396 -0.06806013433055427 -0.05211440651436051 -0.1109059899758137 -0.03038202960865561 -0.07491553849114801 
0.03615462511610078 -0.006510259285942798 -0.003770971893886029 -0.008643122930804029 -0.0140231406656899 -0.0463911240148806 -0.01388871631210546 
0.003696752490514051 -0.0006586330414663473 -0.0006070007812486794 -0.005755756110033343 -0.00366335088714945 -0.004506685826874211 -0.003765351858814034 
0.009855402275864785 -0.0001348095107515021 -0.0006099915701598318 -0.006738771843809302 -0.001609548127703188 -0.009642170850850994 -0.0008729760439696059 
-0.4677061188838793 -0.01170413173094846 -0.001435136407465551 0.7721682428335302 -0.008610005077331433 -0.09637817750521456 -0.002551488167860907 
0.04912963339008477 -0.003711975911499925 -0.003559862850788338 -0.02736271449791347 -0.01207257823423843 -0.03249390422416221 -0.005796273173384916 
0.02047659540039419 -0.01423963481429038 -0.00999821425855882 -0.01472760201697743 -0.01891401827583662 -0.01019539688342635 -0.01346265572172173 
-0.6687381923169737 -0.1048315927424946 -0.004951514367292865 -0.08533196353807983 -0.04679936957797393 1.18234259466477 -0.01748063956274187 
0.012541672159094 -0.0002103438969972258 -0.02366016869960696 -0.000131299376387404 -0.0243007377200557 2.223818602169624e-05 -0.02174128482579883 
-0.4578826162542412 -0.1403537445361402 -0.009728054433757946 -0.07519080479838554 -0.06168987431618379 0.9304180253616547 -0.01996126549626388 
0.06589095610763968 -0.02190600686643269 -0.01359252149296573 -0.05874791410655646 -0.0416372741311992 -0.04476858104161852 -0.01980093635156022 
0.03983358975396934 -0.05271538769075412 -0.03902798358694726 -0.0313798823890266 -0.04571723621733748 -0.02418074377637015 -0.05025364419408875 
0.003177805112253713 -0.0007566603628006389 -5.40170504447801e-05 -0.002202097726308754 -0.003524766814971496 -0.003136847110796669 -0.0008906862570485944 
0.005955585817092345 -0.004847013596047583 -0.001033287321258348 -0.01037751402113633 -0.004866422782672739 -0.003511387996214568 -0.003082199664832053 
0.0421283750705121 -0.006802359781704875 -0.005666091582062443 -0.03484407912973274 -0.01214192424669596 -0.03080778583254732 -0.009264047651990338 
0.01127095353756329 -0.009656063266675464 -0.002333011369205544 -0.003892735863763967 -0.003918248129708026 -0.009301010942239346 -0.002547169546664015 
-0.2979491823507908 -0.05748368077075516 -0.008019170213938359 -0.03900055133559821 -0.03848769646278224 0.6401354704171814 -0.009081663209339261 
0.01828113181493694 -0.03569429107971886 -0.0009353250059019687 -0.006301893747914139 -0.003019196449462174 -0.002968082227111348 -0.0017630805890664 
0.04080729494415591 -0.02357220048001915 -0.007842914201515764 -0.03319091509472211 -0.03624503103092709 -0.03751960939407734 -0.01783127499145914 
0.08969631912578524 -0.04099065539408921 -0.02097268088705101 -0.03192774054260779 -0.04907716788938725 -0.05692362509567477 -0.03092533493705838 
0.00183264335629752 0.0002045004693773639 -6.560100000549475e-05 -0.00707703196851502 -0.001103695461970631 -0.00162036937666691 -0.0003555653674551727 
0.01875389294147163 -0.003462017583349246 -0.001239220759412872 -0.03948099042526185 -0.01452417830406001 -0.01256810942472925 -0.005969044620059842 
0.03886621810485199 -0.004861827024936457 -0.005319321772112791 -0.04465049984432955 -0.03134536725380705 -0.0316611346155059 -0.01415386829457809 
0.06050023585056438 -0.006680802437962625 -0.07431017657313382 -0.008952607884613929 -0.03950696044404674 -0.02588815700673683 -0.02589872451654004 
0.05519961156813941 -0.02709171518728699 -0.01399524221545196 -0.03557131147956711 -0.02944089612644198 -0.06000043897570247 -0.02391321858041456 
0.0212920838576169 -0.003684226875620639 -0.001274995130748646 -0.005877309763076673 -0.009879128793810201 -0.0163567189375955 -0.004193063771264198 
0.0254514237407603 -0.00557978008536738 -0.003379937969706849 -0.004893493030531686 -0.0136185003904026 -0.01749862431760987 -0.005259089695843776 
0.006160848571176865 -0.000549901199545869 -0.0001115149531629187 -0.009919947573362146 -0.003962038210536287 -0.005380848442592329 -0.001913839781289841 
0.02274964305173078 -0.02773120209900574 -0.008869536456869239 -0.006823248356634475 -0.01530778396304588 -0.005617730275540426 -0.00592981682600453 
0.4801615320058277 -0.2949675255174381 -0.00107863772945906 -0.0880554688429321 -0.001875469517843727 -0.1119414480486829 -0.001796683128654909 
0.7600668433118589 -0.01329913018207223 -0.5092461902548249 -0.002772464281616654 -0.1713886019027924 -0.01292610130256594 -0.1504660752591635 
-1.623448990022851 4.388113952123357 -1.245209763968808 -0.9266281401089478 -0.9709868298826566 -1.249043029577076 -0.840957908492294 
0.9293113448710235 -0.1052079690232185 -0.1739392536092838 -0.03791532933035664 -0.1998544376864605 -0.190675534441409 -0.09464999974076778 
0.2623251320397553 -1.184355242571898 -0.2119003593502991 0.2552345893720993 0.1991647977017927 0.8250938636512125 -0.1584615265808527 
0.6040322457110159 -0.01075440578864453 -0.2174341725084198 -0.00263570548956589 -0.1236547897048805 -0.003060571958379563 -0.1043512362617705 
0.6903645264522371 -0.2513426072772039 -0.001394519533982089 -0.1059784415311015 -0.04930382384671544 -0.2252973772351205 -0.005102219606317786 
0.6937791297691179 -0.01037036655586691 -0.414968635392665 -0.001946238484993948 -0.08653628805086454 -0.009118432787689762 -0.1216574867897226 
-0.6400119238448022 1.103512204261424 1.211461889273932 -0.3405927837474702 -0.4300668240089059 -0.5916542289694614 -0.1703264640409464 
-0.2169643349040054 -0.245664415148369 1.576398123173851 -0.02609576072872732 -0.4699041175085069 -0.01002866992255903 -0.2227689973292739 
-0.3616910438324816 -0.03054862400239123 0.8480867553586937 -0.005816004826355391 -0.2299577307007066 -0.02690778986094313 -0.3094120203754826 
3.58417776319948 -2.194823925695209 -0.5172933172728106 -1.246720621662269 -0.8191408156116827 -1.615512630249575 -0.3945688095401009 
0.01749249598575178 -0.02210232172916263 -0.02793119842642799 -0.0168752785663596 -0.02857387436324104 -0.01005316566537555 -0.02694771220099943 
0.09851956474072743 -0.03708357303416886 -0.01759587008263749 -0.1303217909649591 -0.08129253967703913 -0.07585313638549221 -0.04598989181323317 
0.0208175008299391 -0.006103794345316582 -0.003043676830740137 -0.01948051725341118 -0.01841930387189942 -0.01818541709835902 -0.01117285463269645 
0.005807821136764853 -0.002659402505158149 -0.001442265135923096 -0.01100787831010193 -0.007147967491423738 -0.005035450986568206 -0.004134767905362832 
0.03172411419436539 -0.02085463778974311 -0.03914956703850585 -0.0401897441471166 -0.05564909895069384 -0.03780886645879989 -0.04837144004926118 
0.06392883072715731 -0.03602187923323658 -0.01385506833430426 -0.09186307223722892 -0.05881074810760847 -0.05605822418855397 -0.039303114449148 
0.008250570908663124 -0.002939637133540693 -0.001822289942963505 -0.005255224605785898 -0.00822192224377156 -0.007258288629004983 -0.006056672101708294 
0.001440735103046656 -0.0009289711148756684 -0.000593724885935107 -0.001498905004192944 -0.0005946607406715369 -0.002225103920342077 -0.0006064531166445051 
0.129626844344385 -0.07461986219312894 -0.03151028976494221 -0.09160727873868856 -0.09999574810237073 -0.1103256895046869 -0.0666406593952077 
0.2756196872701982 -0.02419533869897311 -0.3146566619363642 -0.1494872835121874 -0.2466856391877716 -0.08636764992792426 -0.2744201023402791 
0.1056354419476094 -0.03841117060012837 -0.0407937180711381 -0.1396210376188032 -0.1013011802710754 -0.07690223882389861 -0.0696472513274838 
0.01487073245286399 -0.008957203520537489 -0.01104509332708004 -0.02927409237394561 -0.0182720203053206 -0.01684723593401489 -0.02986557843970744 
0.01292924920242031 -0.002405756221606569 -0.009727935501168697 -0.004841621625319091 -0.008965724401567171 -0.01777458171774339 -0.009257489442657555 
0.08151806024942589 -0.00802912507783669 -0.001778014667810972 -0.03764590305857676 -0.05745774297719577 -0.02245855146734949 -0.008694006360333632 
0.01170069171447474 -0.0009438222673181884 -0.0007277780066497823 -0.003461766531250319 -0.006208910117284344 -0.008829254043988936 -0.00512139279143217 
0.3506034528672656 -0.2936518225579019 -0.2277388982771859 -0.1812483032169951 -0.3260349180811694 -0.1831601409247521 -0.253887703322733 
-2.189612946519501 -0.8997085124454292 -0.2530238636692823 -0.4661305938309226 0.2739442475580149 2.757887228857684 0.1305455930407023 
0.03266139286106799 -0.0003310462122989788 -0.05105511018033797 -0.0001403442309936007 -0.02449376552653214 -0.0001028843189222484 -0.03761325517505897 
1.254559211468891 -0.9462598322965388 -0.2926739404873168 -0.8180487967869366 -0.4743326442417436 -0.7027147499375386 -0.3079278644034858 
0.111535361060538 -0.08824386480505353 -0.05315081370230786 -0.08504480486372845 -0.1132189413893301 -0.1333984332969401 -0.07818846919890084 
0.6414875656761136 -0.4902522103156822 -0.3499337545575762 -0.5371679797817045 -0.6813863723822298 -0.4226591831056468 -0.6212788080244434 
0.8987328880915453 -0.3066204587978419 -0.3764634640847975 -0.5374427519865025 -0.6382393485092753 -0.4411384823062428 -0.4890445364709283 
0.006667601808759647 -0.0001258549480615642 -0.01158033451306818 -0.0001429204487892999 -0.01849423919670565 6.762904595641292e-05 -0.01689816238796032 
0.01085154382220326 -0.005592636999256035 -0.009263150926383957 -0.004769903718322478 -0.00390020086445516 -0.007697667458449193 -0.008020364462686823 
0.005636238222739116 -2.553378585199123e-05 -0.0004457476320894417 -0.009314509353439533 -0.004998019474182009 -0.004909266005059983 -0.002391594825326573 
0.0006423600486718904 -0.0008798811857021877 -0.001458266449685606 -0.001368972193907086 -0.001697428351569459 -0.001076385501638539 -0.001304349036956107 
0.07057861652130597 -0.05045947554282462 -0.01777580990970668 -0.02514548773066849 -0.03184106335773294 -0.02793112567438906 -0.01531350579191776 
0.0108767345998253 -0.002549490844509392 -0.005336634243345809 -0.007113622496151704 -0.009295963529468612 -0.008871715357227665 -0.01052293004550886 
0.04613939628920825 -0.06754561554129303 -0.03641998492521904 -0.0351578986364309 -0.04509641890781017 -0.01458991991834599 -0.03484073488808685 
0.03598534416435201 -0.0262972375478009 -0.004510377961781176 -0.0188951725871616 -0.02175874642882399 -0.02202590363225458 -0.0122051451636508 
0.3948435575389422 -0.3582126838214483 -0.3855946889490456 -0.172680418478147 -0.372323682277257 -0.09501262058883558 -0.3434949600792082 
0.002978861119615037 -6.942641428280832e-05 -4.54171546980338e-05 -0.007220814931302596 -0.001339929456048313 -0.001852675626709685 -0.0004364519586276601 
0.08170459261367639 -0.02666423843829321 -0.02092097988026216 -0.03597860032600845 -0.05761800796645034 -0.04561299648984166 -0.05041267948274404 
1.33922196389223 -0.9428348597849854 -0.4269307099049917 -0.4734231370059037 -0.3061440267023104 -0.7238273812665612 -0.343896693765154 
0.2190972965851883 -0.5718145345253186 -0.1337775334439631 0.1130903697090758 -0.111465333881221 -0.03384636605880491 0.8195594229080028 
1.493494724727384 -1.073962703956812 -0.4013156808372407 0.3449553030166016 -0.5928946983943629 -1.301386668937162 -0.4235665575194142 
0.09033342140570906 -0.02366054971228065 -0.08010519582174248 -0.02909862542300829 -0.0562561501883604 -0.0514781538063824 -0.06747693367084634 
0.00558722587979727 -0.0002272810367375036 -0.0006151463506566422 -0.01635670738155236 -0.002739229033485119 -0.00634923474372344 -0.001184735903963816 
-1.256452489941561 -1.096475694300154 -1.458354801955548 -0.1342719376882215 0.0871179194126315 1.770941085539341 2.056729258468987 
0.5219065879756434 -0.4724824261553418 -0.4260076057007346 -0.3442476654292587 -0.5197921780865928 -0.2552860927309488 -0.4768166689253313 
0.003991018434937167 -0.0004038618923398232 -0.0008665736200749135 -0.01354632707848238 -0.001632708179789914 -0.006409854891324636 -0.0008298877771275249 
0.1503260768965777 -0.03721590781240448 -0.03741689789401544 -0.1697021121752048 -0.09848931709470943 -0.09064255630410907 -0.06093872825253436 
0.00965251575903108 -0.01795372412633261 -0.002080996099609315 -0.00910233630782766 -0.006589134390140805 -0.002449040988727867 -0.002577716976465818 
0.009484034674078918 -0.0001055510220421213 -0.00086947586319151 -0.004467173251976771 -0.001030287127693838 -0.008735711386140871 -0.000835784473934189 
0.008344342721720521 -0.0006677069089927642 -0.0006738432559597932 -0.008867586282028574 -0.006655212375794846 -0.007914536452684025 -0.004634482920127855 
0.02133810776372036 -0.01010961158080007 -0.002743692707666045 -0.01387309446544068 -0.02105833259201507 -0.02624951131139024 -0.008280663169230349 
0.03090616434117269 -0.01036292067974675 -0.008047481557206138 -0.01528516481551201 -0.02254915077712299 -0.02572174570660184 -0.02718992052232037 
0.117323085761644 -0.02231632804152606 -0.08236917541541114 -0.03051499945303975 -0.05557437909724622 -0.08294639804639954 -0.06025589551266176 
1.594083142406064 -2.386757855442931 -1.841624602503759 -1.730992204095299 -1.957775241907216 -1.487474750988984 -1.460352909653707 
2.25120682327564 -1.817147601783136 -1.583555689330605 -1.758681212725263 -1.643788389439949 -1.943850271906708 -1.560528557448216 
1.366519650825878 -0.7465950531128149 -0.1172336810608127 -0.278016313640567 -0.06933217580656185 -0.6095079214522191 -0.06703477904934274 
0.1637890159756383 -0.2297311521657708 -0.09112957671162192 -0.1541739372847856 -0.1376019274317537 -0.09802684457394222 -0.1141182672196322 
0.0106603069085297 2.013990468476321e-05 -0.0007513684191712488 -0.01995054544958932 -0.004585861624879865 -0.008668971868864693 -0.001432075057154772 
5.737307385842106e-05 -0.001151305491326104 -0.0005530521010903403 -0.001111648991738904 -0.002606419717942208 -0.0003288099623870705 -0.002292327566242709 
0.001818940597416447 -0.005146130759620471 -0.001254703626097307 -0.004897575344824939 -0.002271720579930736 -0.004435202543512006 -0.003805051301022505 
0.1738922278424952 -0.05248246755507951 -0.294753622250217 -0.05327933971014827 -0.2001540811541684 -0.05739391671176072 -0.2234061182904059 
-2.237998101297476 -1.43805698361819 -0.7481758960062774 4.859457671373566 -0.03220929312265364 -1.784977717806512 -0.3557108196855247 
0.03746325271775956 -0.009242421898844709 -0.00588123958680279 -0.03102654746565152 -0.01477540642284385 -0.01440343161528732 -0.005618300671066371 
0.07416296321767253 -0.01113351725938838 -0.01709583150492306 -0.07944173077699371 -0.05982418380758732 -0.0528246191321045 -0.04088428834191889 
0.04598045272948022 -0.02278001817161829 -0.01945905593254957 -0.01282720903662407 -0.03594888906513902 -0.02524560834219313 -0.03032974765208142 
0.04856459381743735 -0.02036278635238252 -0.01031522552302589 -0.02078398562181146 -0.02653192723833572 -0.03471721712839794 -0.01716442761357646 
0.02570427250442701 -0.00423868033283716 -0.01273903910322932 -0.02683930420077887 -0.01933646368633597 -0.03172084156695443 -0.0168759882419195 
0.004116510599704022 -0.0003177044813234087 -0.0004620308985625052 -0.002483447992544899 -0.004667119495556661 -0.003716880714217361 -0.002492817561047158 
0.1604030753990342 -0.007330045879441035 -0.3024440035349241 -0.01747340433776993 -0.1216061665373869 -0.01275897083301783 -0.1858253802796329 
0.1071096968621615 -0.02929015959073732 -0.1013689078033906 -0.02099741330952581 -0.1459290488394638 -0.006948360095412988 -0.05389710042105917 
0.4301089789678963 -0.3609720646915039 -0.6429112904038636 -0.2297500569858333 -0.4818114532385815 -0.156883009203612 -0.4644337482695232 
0.005784376950670491 -0.01553466330752197 -0.004020819310168859 -0.009773268263287213 -0.004811075552780966 -0.003856959247557829 -0.005477206478130262 
0.002200840724892666 -0.0006075758942785404 -5.785255175935053e-05 -0.001640416463498841 -0.0013253464948759 -0.002284728775291249 -0.0004644532990807633 
0.1176181990674338 -0.02868612050570607 -0.005482903082741025 -0.1486973884422171 -0.08066378673364287 -0.08394104056807448 -0.03413819517286015 
0.1327903236508984 -0.01658059537005901 -0.1176867489603711 -0.0393681552281749 -0.09594478369397982 -0.07409071869496282 -0.08962674652902519 
0.6078882839735702 -0.5462494148870382 -0.4393614035257201 -0.6000383100110258 -0.532444642857922 -0.5427766085057418 -0.5121887417353748 
1.006617059419301 -0.8054376428853545 -0.6635066446392537 -0.6450001279419004 -0.6044564422068864 -0.8494965778250596 -0.61895908718718 
0.433386826761636 -0.246664157970994 -0.006217660297448453 -0.02785002273386901 -0.000997236077656345 -0.06874774805933674 -0.001431335010630372 
0.2165346469768716 -0.1292975545936116 -0.267631161832955 -0.08070564556201332 -0.1894448109523952 -0.06303079214161317 -0.2205881516319354 
0.008212268056371127 -0.007772901528698322 -0.01173842522148718 -0.008207252810148561 -0.007569349577399519 -0.01065934288136806 -0.01015143778259203 
-1.978842186599585 -0.4165745797302605 -1.5180943154252 2.799651747543681 2.73952100426061 -0.8504451413439298 -0.9434012352971082 
-1.190099835222869 -0.4073028144526448 -0.04893879634710057 0.5244923000286827 0.6187585099487625 1.028392272696151 -0.06022767288028566 
-0.145473696905688 -0.2513426072772039 -0.001394519533982089 -0.1059784415311015 -0.04930382384671544 0.5842768205365084 -0.005102219606317786 
0.1692818057378924 -0.0427791185898073 -0.2786226569518077 -0.0130654941994072 -0.1161020067520213 -0.0184347237892815 -0.1817841163047223 
0.001017620300993864 -0.002174878967084468 -0.0003121065482995345 -0.001145346303034815 -0.0002323155470814119 -0.0003310756346790259 -0.0003889550276860317 
0.02888596627639536 -0.03835246163489119 -0.02326095313643841 -0.05150406515337993 -0.03510405804892326 -0.05439306274040505 -0.05652846568739656 
0.02965827865801743 -0.008892672430457106 -0.005114203378883188 -0.02102495042321208 -0.01350682330211857 -0.02219536049943759 -0.008127187533709765 
0.5369419330809375 -0.6264122540643731 -0.1490511546642247 0.09014195340423885 0.3785953513038889 0.2547054037359511 -0.1165466458529984 
0.3504232502895909 -0.2718830469640899 -0.05035476927901322 -0.2601976246068963 -0.2950990723173891 -0.3254894091469442 -0.1638175400704393 
0.0003983009554521368 -0.0004868249843731698 -0.001983763575165009 -0.0003463131519719265 -0.0009844070268999363 -0.001022857449519644 -0.002125680629046331 
0.005738373984136275 -0.004730886278643678 -6.564070025283315e-05 -0.002467611792381066 -0.00103141747311505 -0.003159079501294599 -0.0008104349160495362 
0.002096202297113743 -0.001013270676525391 -0.0004138369912566935 -0.003915075383852801 -0.003315882419407246 -0.007289069091082733 -0.004944173498623869 
0.1410778795385501 -0.03356644292088376 -0.2328646765455584 -0.04328758533474467 -0.1198343005481457 -0.03235196835710664 -0.1217530926980664 
0.07091501215524537 -0.03809644672955838 -0.01143663466837597 -0.03451715530821728 -0.05298068941162575 -0.0433486406543009 -0.02416289785991553 
0.01259367801786023 -0.001436172558734526 -0.0001268355667213324 -0.02208194885381864 -0.002858762176691145 -0.003215310647862838 -0.0003723027039650749 
0.2805316208869882 -0.009633815560694092 -0.003033552295414381 -0.05402226126063988 -0.01593934111624298 -0.1220963911866547 -0.01749202372353549 
0.03775340903846948 -0.001500644204281496 -0.05200252792586409 -0.01117483342842224 -0.03146785589592586 -0.005228111639489633 -0.04284167586077003 
0.2707658200562868 -0.1667870488116895 -0.06157481417065373 -0.1696804770431931 -0.1761862572899171 -0.1609805832621561 -0.1117659801455633 
0.278080931744111 -0.03687003517775354 -0.03193507286332197 -0.09705996805988386 0.9132989026935916 -0.5339335214881501 -0.02805920741219119 
0.05559476150855417 -0.03434802709594716 -0.02580783114051128 -0.04781683292786886 -0.03882709730293159 -0.03865923052757201 -0.03164221766681633 
0.06445203811978011 -0.01808254229997953 -0.01204381275740649 -0.03754487570009456 -0.06808919127815247 -0.04830896485822465 -0.03441482538432764 
-0.7476325688244134 -0.3925066715640322 -0.04550765954982425 -0.171479136383635 -0.06678186472355339 1.35358388729771 -0.05109781587828611 
0.005942312217448786 -0.0001385860059958398 -9.073336089821795e-05 -0.01434117917147852 -0.002676841544036892 -0.003698921685416717 -0.0008725633714825629 
0.03353263887240492 -0.01086988906605808 -0.002876554310589014 -0.03313819852660187 -0.02430149104155256 -0.02381930619024987 -0.01402159434146397 
0.00176589774590719 -0.001423623803869092 -0.0008671028907486003 -0.001117146538784865 -0.002705907754777769 -0.0003709712147971072 -0.0008578579811780037 
0.1125071495913466 -0.1572764516944916 -0.07796152605446018 -0.0820718411021934 -0.0817969671452754 -0.03334368764439102 -0.06082938270606714 
0.01752855313656518 -0.003860107833635445 -0.007013971235582267 -0.009543385558759838 -0.02161731151046152 -0.01773627142538278 -0.02223375917143292 
0.07322463771053754 -0.05665010573682654 -0.03484966667954756 -0.04573090440123014 -0.06932657428372305 -0.02196287078507619 -0.03972646390652562 
0.094815343319989 -0.00697131002206211 -0.007064197898335902 -0.1274487112743883 -0.0278140568788161 -0.07259245255215563 -0.0148423424193033 
0.03117949482190971 -0.01624468714084644 -0.003645229205258499 -0.0530829125128306 -0.03611617624184832 -0.01728188983878193 -0.0191493840458321 
0.003532364426191617 -0.007338435556703262 -0.002982658845850938 -0.006606248481136084 -0.008233367380685046 -0.003997628162257733 -0.007309356959564168 
0.152655165952428 -0.02220665256536913 -0.01974367564918164 -0.2416541295138594 -0.04738371862634783 -0.08361738717963836 -0.019074144920069 
2.639814583355729 -2.009192825870453 -1.684844781411078 -1.880010709206758 -2.004051101529638 -1.934977461846006 -1.769052112925511 
2.262227640270093 -1.410809773704531 -1.27266695358925 -1.566181195083783 -1.580191487588562 -1.69934875045072 -1.353368129628993 
0.8353715783156628 -0.1808097887145802 -0.01462125546063106 -0.06617902006438423 -0.002380174161348188 -0.4728339012797141 -0.0102394278860051 
0.02494373833894081 -0.005684959065614371 -0.02265931354855451 -0.001081186171721232 -0.02701947983212983 -0.004346042875994697 -0.03695621999758916 
0.01340342493797307 -0.0005092113423464906 -0.00173422794787673 -0.01789624591647741 -0.002659654824434302 -0.01503563099879844 -0.001664242175333222 
0.003597861594371299 -0.001176579911623307 -9.710562671723063e-05 -0.003010546910702982 -0.0006401849063214355 -0.003078115186296923 -0.001113521511748321 
0.03325464147681378 -0.02498514923773391 -0.02324672863045002 -0.02643007537317458 -0.03421564169873061 -0.02696500769866073 -0.04161327164251681 
0.2408108790956049 -0.2071265785302224 -0.07685281348905836 -0.1128051860690923 -0.1102810570803779 -0.1636368158473094 -0.1052711283576421 
0.06581240871029574 -0.08649402268963489 -0.03890431339918918 -0.05768067617715734 -0.04939334308596613 -0.05460912095313027 -0.04588313396467261 
0.0617486903123383 -0.0564373878422063 -0.03583212918724479 -0.04997599470251932 -0.05738579716265183 -0.05281930607532169 -0.05245608995961706 
1.559344706711374 -1.606638489403323 -2.143372999534028 -2.127256863493911 -1.957561178781597 -1.899366385890535 -1.715914846855954 
1.728290736631744 -1.438856643461048 -1.387121188872714 -1.775577990648383 -1.737273074314446 -1.301368478918627 -1.549838805373342 
0.00183264335629752 0.0002045004693773639 -6.560100000549475e-05 -0.00707703196851502 -0.001103695461970631 -0.00162036937666691 -0.0003555653674551727 
0.06556921564228248 -0.05688144527813327 -0.01736691677251365 -0.06080392378709882 -0.05056150551474289 -0.05083672834292267 -0.03830463488391435 
0.02183210193297389 -0.01787404967557054 -0.005751575346404934 -0.007484769626347119 -0.01526639622189743 -0.005343500403454508 -0.00758851627226031 
0.3888991784401473 -0.3692254280778997 -0.4678360781682193 -0.3292728664145488 -0.4748092942161671 -0.2957660152885738 -0.4047048649399123 
-1.001039102957476 1.963486870504111 -0.3724749171514128 0.1099764321587408 -0.573449837307954 -0.6626221960684873 -0.2510114757185238 
0.02122874876078772 -0.003215511865329855 -0.002160730386215596 -0.006541992885582814 -0.01666273483140594 -0.01547343053988919 -0.01001013307955709 
0.006085826156161407 -0.0009905900802214666 -0.0001659750523710419 -0.002091456260375193 -0.00469567004411208 -0.005485907523038011 -0.001162149287635221 
0.09213140006946692 -0.165052200352205 -0.04273217731325064 -0.09224041231410914 -0.08764596565445028 -0.03998384187243858 -0.04995867513244684 
7.054348765052039e-06 -0.0001596709091880192 -0.0003003151546549129 -0.0006835972353882733 -0.0008202791178007872 -0.0001969380690061981 -0.001560522970138881 
0.009277140209107217 -0.00253310208820138 -0.001008273644311937 -0.005708212129441746 -0.004683534649759551 -0.004900664776492079 -0.002594052829609397 
-0.2041113953908517 0.5602650525067583 -0.01324728842691726 -0.208540923043853 -0.08829257661201284 -0.2372387224112764 -0.0222985743469616 
-0.2690007052074238 0.7156924680329568 0.4592374245124544 -0.05464313979543525 -0.1517573481218559 -0.3590476915562418 -0.1181855860072864 
0.03620278524857406 -0.005381560459492492 -0.004411209054008837 -0.01342908632508947 -0.01594052437419504 -0.03057738177906555 -0.01381825769326075 
0.006085826156161407 -0.0009905900802214666 -0.0001659750523710419 -0.002091456260375193 -0.00469567004411208 -0.005485907523038011 -0.001162149287635221 
0.002978861119615037 -6.942641428280832e-05 -4.54171546980338e-05 -0.007220814931302596 -0.001339929456048313 -0.001852675626709685 -0.0004364519586276601 
0.01070023404074427 -0.007931981683577208 -0.00322025574914823 -0.01269690935283182 -0.00972264902730928 -0.01058634277809624 -0.006107159267697426 
0.002978861119615037 -6.942641428280832e-05 -4.54171546980338e-05 -0.007220814931302596 -0.001339929456048313 -0.001852675626709685 -0.0004364519586276601 
0.001603946826343957 -0.006022362923054218 -0.002068204774383547 -0.003945492097731349 -0.003195226949612429 -0.003207877095941881 -0.004339560429201086 
0.0449043273033327 -0.02958351256225821 -0.02165140514241081 -0.03085191712309398 -0.05664165604401612 -0.03666949053432932 -0.03777980914201337 
0.2665246322166967 -0.2422298025627637 -0.1118207767076944 -0.1927741189529608 -0.176141078490865 -0.1962072072617971 -0.1632557689972452 
0.03636714691286334 -0.0137762172779899 -0.00293146640492934 -0.04403202427586823 -0.0205700827840968 -0.02694262583630027 -0.01364308237179241 
0.01141121496819288 -0.0005519210976358166 -0.001080833236173771 -0.0024868619105185 -0.004770988512158927 -0.01223319733477122 -0.004448309078266913 
2.750985919313855 -1.78371488663032 -0.6049010961552049 -0.8439344310220205 -0.3312205346138438 -1.411567165965661 -0.3144648646236976 
0.002978861119615037 -6.942641428280832e-05 -4.54171546980338e-05 -0.007220814931302596 -0.001339929456048313 -0.001852675626709685 -0.0004364519586276601 
0.01012586159900075 -0.006019795758789322 -0.00101765390420931 -0.002986099615096031 -0.00435039959944244 -0.007221472927942857 -0.002920093411231858 
0.001440735103046656 -0.0009289711148756684 -0.000593724885935107 -0.001498905004192944 -0.0005946607406715369 -0.002225103920342077 -0.0006064531166445051 
0.04367861714863802 -0.00902422523850805 -0.008403190903781903 -0.0399142479132543 -0.0307890736777386 -0.03726874010842354 -0.01999083351915313 
0.01015948445163457 -0.001307753123573558 -0.0006278616024481447 -0.004565001487080183 -0.009323495441545026 -0.00916308428666074 -0.00364939770308707 
0.01008203853165303 -0.007798514367089204 -0.001187349436810136 -0.008118223405573631 -0.006518134120301339 -0.01327074653263684 -0.003247581082814036 
0.01551264448781597 -0.003280624806502471 -0.003265799443421526 -0.007719868802044539 -0.01565025709687432 -0.01558557666410972 -0.006259177532296658 
0.001818940597416447 -0.005146130759620471 -0.001254703626097307 -0.004897575344824939 -0.002271720579930736 -0.004435202543512006 -0.003805051301022505 
0.02081050498086983 -0.01099923221196869 -7.948175294199687e-05 -0.007027721677592534 -0.008556963927777482 -0.00607557723745625 -0.0008993984619898719 
3.402984400262327 -1.660616286842083 -0.7446391832029179 -0.8906837373922694 -0.6127262286821011 -2.013706728168789 -0.3837721650043263 
0.000439765525878783 -0.0008214248195397037 -0.001280507328740587 -0.001799160898383958 -0.001103730567687974 -0.0007886494263880289 -0.001209015651428301 
0.0184074672179435 -0.004172119023303803 -0.007673451831259174 -0.009249563852884207 -0.01114824611057075 -0.02029563882628016 -0.009601622767338351 
2.084996044880093 -1.470482280027984 -0.1652602401413099 -0.4284064690931929 -0.06726781675072134 -0.778278108616647 -0.08292983523891974 
0.09377937931146067 -0.1483178078708152 -0.08327036624596479 -0.05292736095609044 -0.07561342861490443 -0.04196058642282552 -0.05005581442566199 
0.04071719784159913 -0.06303269141876815 -0.04042196048040638 -0.06037053946404939 -0.04953911428080057 -0.03834505895150721 -0.04888590302357521 
0.04718935891643385 -0.02600751959778101 -0.00321663905679983 -0.03081463145917327 -0.04025872072408684 -0.0342670499032775 -0.01799184283062052 
0.06200510982919052 -0.01274801557762626 -0.05955404243554606 -0.02939272521029904 -0.07705713478783777 -0.06074617360322382 -0.0548075138956766 
-0.4401598564338267 -0.1512635330100535 -1.352391758996556 -0.1741861046729867 0.5884181619298131 -0.4150535746688285 -0.9689648368831547 
0.5276973707251041 -0.5131980023824437 -0.2210084922190779 -0.2361627219830196 -0.3252593894032164 -0.2519235096276913 -0.2710477299612154 
0.01172804537879387 -0.001532855025672614 -0.006004610699349658 -0.002411234773062669 -0.007169589600861355 -0.007653439495238004 -0.01305367681281729 
0.01203527115301065 -0.002430867591269741 -0.02742936825009975 -0.007512301895276706 -0.02286573543397634 -0.01637236338343398 -0.05010469494394144 
0.05711916821811299 -0.02225220912457943 -0.01729055779897106 -0.0489798162192638 -0.0591994428484771 -0.03010907796422223 -0.04239635182938856 
0.03151893914610746 -0.003243306822730908 -0.004160274963851445 -0.01021409123003884 -0.01418686313486092 -0.03010190085537857 -0.01380989281925061 
0.002096202297113743 -0.001013270676525391 -0.0004138369912566935 -0.003915075383852801 -0.003315882419407246 -0.007289069091082733 -0.004944173498623869 
0.08862538859462157 -0.05031289414519814 -0.06594268235729363 -0.04446425900994851 -0.09068413709439764 -0.08658614267706939 -0.07709818725395276 
0.009794072200303082 -0.00394633315069845 -0.002699930592802175 -0.005247104945465853 -0.0104302829258489 -0.006849924058228356 -0.004443675247784258 
0.09537365287889736 -0.1886895365013594 -0.06732733569844554 -0.1053393188762629 -0.1251644852713048 -0.07284845704433987 -0.1180339131085333 
0.1078574125470757 -0.1037208864480624 -0.04622873651710085 -0.1179225450028136 -0.07973594108984257 -0.08531391532553093 -0.07413051796565195 
0.01541015625136195 -0.009345738860218729 -0.003609460011953076 -0.008565425670959421 -0.01053438283812331 -0.01018540408009354 -0.007505805390036923 
0.006441900970362609 -0.002338401808417057 -0.001445706473936561 -0.01028659077568193 -0.004447791994998028 -0.004088170250620004 -0.002346723574140478 
0.002096202297113743 -0.001013270676525391 -0.0004138369912566935 -0.003915075383852801 -0.003315882419407246 -0.007289069091082733 -0.004944173498623869 
0.002978861119615037 -6.942641428280832e-05 -4.54171546980338e-05 -0.007220814931302596 -0.001339929456048313 -0.001852675626709685 -0.0004364519586276601 
0.06402276017706471 -0.02892880022359117 -0.02215751226851092 -0.02866491383052198 -0.04185759570323328 -0.07329383100450583 -0.03673499371385582 
0.1747376328623008 -0.1942541161116552 -0.1278894150328111 -0.1845651354910731 -0.1795871942870586 -0.2201569709275217 -0.1795343590342481 
0.003244167898123417 -0.005877042718251143 -0.007236291673278829 -0.008288990287243432 -0.007233394662183683 -0.004353128373780885 -0.00653934841421892 
0.00929367767458561 -0.001650230980092442 -0.006679743084630791 -0.003582551961697262 -0.006523987448571928 -0.01554608757552248 -0.007044080004759676 
-0.0808685377254186 -0.0926179738769706 0.7176825454426718 -0.008847887371734527 -0.1944593932067739 -0.003364811781007799 -0.0841739419982508 
-0.2785655693235756 -0.06419136191161692 0.8964788666102727 -0.00902364481115211 -0.2935700825378051 -0.02252292599368888 -0.3543547522252669 
0.005467597272141942 -0.0006711262866274861 -0.01491822703693413 -0.001558423044030069 -0.008805834731375603 8.091266077538627e-05 -0.01027088934815698 
-0.557598310031493 -0.8827814107196776 -0.430905953026137 -0.153892842183892 -0.2645148760117539 1.964151208709191 -0.1817113694844674 
-2.408689571666325 -0.9430787969647755 -1.401618392417301 3.65606894841997 0.1502043643353364 -1.497347291450644 1.728395596878185 
0.2542981368433864 -0.04945753154329028 -0.001997837535867407 -0.02938773400500099 -0.001011842062129263 -0.1032767160165435 -0.00231623705082125 
-1.107783987639777 2.64089835523999 -0.07230593959306139 -0.44672456196753 -0.3576634951162793 -0.9078167407650212 -0.2759271606467352 
0.5619572729546067 -0.0210350099060017 -0.1267814258942999 -0.002809591095583827 -0.1142578446349633 -0.001879629293881929 -0.09872250916646334 
0.6148638155298526 -0.03169057713117103 -0.3412918766370064 -0.003167571917056712 -0.1014005165459699 -0.002836336245438944 -0.07890106212844271 
0.2692621564070666 -0.05792587793315982 -0.01234113315803417 -0.02011946293940598 -0.01653583045336918 -0.03047966154729188 -0.004922198545514144 
1.01734193940476 -0.5052169983189709 -0.008082218465644574 -0.1583023146085953 -0.07659865622883229 -0.2482419964628616 -0.008912734244033084 
0.4969460273239488 -0.01689927344776037 -0.01951462086196487 -0.0316231429026557 -0.01845396612648309 -0.3341163396705813 -0.01671295790834232 
-0.6642953990552493 1.423031764282765 1.204853069745045 -0.4693136741187049 -0.5016078151344082 -0.8386331708115738 -0.1801852400056058 
-0.2613288386436478 -0.02055096257695543 0.6491010330683212 -0.003884884832065048 -0.1624488094669684 -0.01808598453244986 -0.2227755954681962 
-2.257081820655197 -1.496626524356032 -1.044822272509386 -0.758265101049963 -0.02278705339746911 3.848920409350537 -0.6718759751516706 
0.06628841186658412 -0.03191377815336196 -0.1165534034115433 -0.02519538900488654 -0.09041052847017551 -0.01319845200639939 -0.09682898923397262 
0.03450824488107107 -0.04360722010671007 -0.0333925611241029 -0.01805141699178479 -0.04036570993034458 -0.01675208551606555 -0.04595668276973097 
0.01466820398670745 -0.03265356561310554 -0.000326977664689719 -0.004868244562539256 -0.001965969504146577 -0.001549825161878347 -0.0007711382569333449 
0.009872764353077783 -0.006039159387768086 -0.002406245210212777 -0.009130998831632627 -0.01844816964456449 -0.004676787641278812 -0.0139360499470532 
0.02565663819160958 -0.02268258211482525 -0.01289470118130678 -0.0106592216111102 -0.02204581610187371 -0.01308309226876399 -0.01724249168267403 
0.001440735103046656 -0.0009289711148756684 -0.000593724885935107 -0.001498905004192944 -0.0005946607406715369 -0.002225103920342077 -0.0006064531166445051 
0.02033216105553892 -0.002199143369781425 -0.001180908442293676 -0.03712698331431268 -0.007770519968344452 -0.01015642391380488 -0.005088208690375093 
1.391592551535677 -0.1745191181510659 -0.02664839771050339 -0.4303435172825179 -0.1045875532504894 -0.7203935340020369 -0.05408850962946464 
0.03760588032104689 -0.002344865711095447 -0.04802307811233102 -0.01007683229141289 -0.04010164420625183 -0.009846762468351446 -0.02548509139534024 
0.02567301940326617 -0.017526617180021 -0.01085178814142528 -0.01943713737403498 -0.02045599792236931 -0.01838715258151384 -0.01673986422972178 
0.0333615579213167 -0.006531645272732191 -0.02839630743726767 -0.02380229957734941 -0.03477654660802829 -0.01366888661531505 -0.02669753156163236 
0.07319559846578867 -0.004285927383524203 -0.07612308426343127 -0.03243267277745007 -0.05749609637492508 -0.02139125015195968 -0.06429318707578914 
-0.9273876782928158 2.494841460860579 -0.9817940182486571 -0.2682743776160963 -0.8006566259895385 -0.3138872321598345 0.5471949869323977 
-0.4890781180792006 1.195579748581762 0.806149532822325 -0.09318873159623831 -0.5857102580452976 -0.04574286708360589 -0.2837068140898744 
-1.238560872380731 2.041609541680375 0.8950517988378809 -0.2864154578214628 -0.3251188711690308 -0.9364300173196173 -0.4988606849485108 
0.04988875203215443 -0.011219170514968 -0.01337134430943569 -0.005621388068474962 -0.02938145270066091 -0.03135483928350122 -0.02475429132528457 
0.04490943093371562 -0.01042983807724135 -0.001782635352535229 -0.06613962359836571 -0.034728277908185 -0.03445425659337506 -0.02172362521872508 
0.2062039724878984 -0.05175825294164926 -0.1764575316251689 -0.112383746802494 -0.2174827761628018 -0.1018886786847464 -0.1834763421995932 
0.02878842724150202 -0.009894618259634474 -0.005178050245925501 -0.01611974973343899 -0.02011511930528581 -0.01643953044026814 -0.007914920071263107 
0.03271614610619347 -0.01139874285092475 -0.004685949139334782 -0.01246810479467944 -0.02164735908388951 -0.03285618971977375 -0.01475661626548103 
0.001017620300993864 -0.002174878967084468 -0.0003121065482995345 -0.001145346303034815 -0.0002323155470814119 -0.0003310756346790259 -0.0003889550276860317 
0.01753968090226074 -0.004845663902769431 -0.0002917249852414111 -0.01540837168869499 -0.009858030466161693 -0.005933812252187256 -0.00236649379813015 
0.01791106000601811 -0.007716183973166969 -0.01668899693969125 -0.007558543037396165 -0.01857173156927315 -0.01099709811803959 -0.01577489945135907 
0.006964548019004656 -0.001608427823429241 -0.0001617824574285796 -0.001823171293338653 -0.005127575223401314 -0.007439871721707862 -0.001950843000758784 
0.01194904609049501 -0.006492917359179537 -0.002246915196774517 -0.009897561621421302 -0.006835317456974159 -0.01382146750513561 -0.006277484877690388 
0.05361662520989453 -0.002808514502685626 -0.05388899422588357 -0.01208832809349962 -0.02942637141892341 -0.01959221383046307 -0.04093976371486263 
-0.4173820960786788 -0.473642070490648 -0.004836960635730207 -0.3889782758888473 -0.1097473088676856 1.367808077239158 -0.01225952163432038 
0.2516456229645047 -0.07381269659058225 -1.021468569849217 -0.01494609369155314 0.2634685254207837 -0.03228702160945259 1.035208209437278 
0.04773340715357685 -0.002807387431954899 -0.07387241299532306 -0.003379453892747777 -0.05059280245800173 -0.002324283041266018 -0.05960230229423776 
0.0313180139860306 -0.0004057829066999063 -0.06864205192856079 -8.946804827922795e-05 -0.01653795457440151 -8.628509488260838e-05 -0.03641242144516921 
0.0701714821651073 -0.02803007050695257 -0.007180011117473954 -0.09145594354104258 -0.04645394292724701 -0.04304130512697298 -0.03076598137261497 
0.0352138338682921 -0.008423715710357386 -0.005616068933835369 -0.02392995406903252 -0.02178510551484509 -0.03218442772195371 -0.01332653123221092 
0.1170916743587756 -0.1683696046026258 -0.04217723012926027 -0.06684068426487247 -0.05597091693030649 -0.07253373559388165 -0.06406458562050038 
0.03684648604471163 -0.01285337444309212 -0.001592219297106217 -0.01076526008348555 -0.02417339472244543 -0.02302148530407764 -0.009350954989592673 
0.07674110925904604 -0.007646227218820151 -0.0439834318635478 -0.0349826101845737 -0.05034813483929199 -0.06385602461337264 -0.05173910742350002 
0.04963542696855772 -0.002165668627858616 -0.06856182346483036 -0.02516725364108503 -0.02862662322330851 -0.01492747751111487 -0.01576066095770891 
0.04055692643519754 -0.02490067725970525 -0.01417639330944806 -0.02730515225893714 -0.03984502200196319 -0.03825001792155187 -0.03493760470608907 
0.007544529093547427 -0.001026297895674261 -0.001931188245024447 -0.01080659439902559 -0.01188403423358921 -0.004391448139101879 -0.008070743343795655 
0.0578322188396169 -0.04247218179905204 -0.02914869332238389 -0.03907712437514801 -0.04565985935764124 -0.06674089232942207 -0.03603952197978588 
0.9734853615442954 -0.36908159779904 -0.01310923001318067 -0.1840161351196175 -0.006877119088657421 -0.5222177384666205 -0.01610016128889308 
2.982581978727387 -1.045651678882703 -0.641233950761151 -0.423755509198758 -0.8598982408651599 -0.513588796887724 -0.4435861010693756 
-0.2818853882201942 1.054850636727996 -0.1576116552978341 -0.1404316957697818 -0.2459480244601573 -0.246627271252868 -0.1064320249875996 
-0.3773581616192917 -0.4223547433563621 2.21389909833943 -0.05092636002104558 -0.742880369084262 -0.01986459662206994 -0.3838143645417772 
-0.8457335666403585 1.340004104896133 1.097471327386325 -0.046219396827176 -0.3529849144845836 -0.4240052357302939 -0.3106962040131255 
-2.531349931899888 -0.004296321678865085 -0.0003803813465054568 2.395767530907618 -0.008530372433649437 -0.009583790434428856 -0.001116093937357988 
-0.330933803335532 -0.7577216289115343 -0.6780991819359012 -0.137858918193082 2.427474441678085 -0.1380245084455088 -0.4465401079241307 
-0.8558819809612185 -0.7434076035655279 -2.060795424055857 -0.1700582195370296 3.589258470669605 -0.2128874392401485 -1.232920209551439 
-1.081002814440704 -0.2442004109624474 -0.01937854675945858 -0.1810934568154349 3.323813141087281 -0.8803004218919511 -0.04223798347402753 
-1.171816478172153 -2.606818290994675 -0.2058918852324993 -1.666724401228825 -0.7078289617651345 3.22611682616253 -0.3634096310478002 
-1.166252670567488 -0.9143617594518756 -1.690606778815068 -0.2106715290969155 -0.9537427612570156 -0.44777061443833 3.54173247756198 
-1.038430747025617 -0.792310079160749 -2.031951477325153 0.8920177986464726 -0.7471978369378963 0.3042999391303366 3.109189625412068 
-0.5788196352297661 1.829933474264656 -0.2488786995767245 -0.1734904618320069 -0.3421513277011812 -0.2229624212425758 -0.1784091041749785 
-1.049890072580447 2.14614062306661 1.079836603355776 -0.1896223794728173 -0.3951755358050876 -0.8505891672308613 -0.3091194841253335 
0.4528143278259347 -0.7795483299102697 -0.726455654087904 0.1121181081363508 0.1121898197059566 0.7900715956254036 1.03381373105616 
-0.7927799355835946 -0.5877573200165358 -0.02295683359426896 -0.2305409280299618 0.6874742010586459 -0.2847494297194675 2.55418713953377 
0.04420093596191974 -0.02249486845804 -0.04042485577317491 -0.02107322408475058 -0.06401706843426505 -0.01939745608724066 -0.06794219815024115 
0.05240940788993517 -0.007262253718366536 -0.002935401372360163 -0.02314715946226712 -0.03600188200930391 -0.04731035066051614 -0.01391302570918842 
0.1031668381554953 -0.01973698030759415 -0.008357948384293759 -0.01452675832916974 -0.02994304818816637 -0.09231343213296626 -0.01684133971395699 
0.03899465059063628 -0.02403472149553732 -0.01485199639938937 -0.03336967890642076 -0.03417269708807877 -0.01136456532468588 -0.01843771243515601 
2.419010390365083 -1.071422888354007 -0.1479535975208264 -0.5113255707168904 -0.3978378913327312 -0.8583843810769973 -0.1129659413851279 
-2.545626097512279 4.971478657519394 -0.8833347754316897 -1.308805540690332 -1.286622461084498 -1.879251085006463 -1.182866217501632 
0.04038965608658723 -0.01213539047483685 -0.02124949804578586 -0.02021791986421411 -0.0542751481759609 -0.0166759690733915 -0.04394667783533225 
0.06782823064343611 -0.01164716570305164 -0.07255308326022802 -0.02088923941520252 -0.04241508352678409 -0.01962050465018406 -0.02481659742051129 
0.006085826156161407 -0.0009905900802214666 -0.0001659750523710419 -0.002091456260375193 -0.00469567004411208 -0.005485907523038011 -0.001162149287635221 
2.495655275499304 -0.9821930922706233 -0.3600080713089225 -0.3998169703193959 -0.54515007354837 -0.6771540191231004 -0.2405637802669668 
-0.3244379855229698 1.921350353063479 -0.3489913430005705 -0.1276034502643684 -0.493696749018009 -0.2322883002861123 -0.2261802869323293 
-0.3504625208724894 0.637989573093915 0.7374338445572141 -0.08131542932825647 -0.2470107813241018 -0.260733328237966 -0.2981761789282407 
0.6560685031100285 -1.255853241030154 -0.1617283727008328 1.326228703058709 0.4589021949597321 -0.8913971094317227 -0.1127598477940806 
-1.887200208341045 -0.7640458398944905 -2.276022946566147 2.341524924314903 3.593434783374847 -0.8548268085399832 -1.439829287775638 
0.1075416973427262 -0.007276531232671881 -0.2044520960806295 -0.01621147594675501 -0.07817001035809962 -0.005245606158447319 -0.1046719782808009 
0.04158014618025985 -0.005215336889262941 -0.008316385613806397 -0.04246475279027047 -0.02811202042070386 -0.03594827857943311 -0.01873620446077823 
0.7609316887362008 -0.6984344905770059 -0.07959334278237884 -0.3149210759352563 -0.2012545571647787 -0.3713815368649173 -0.1117900150685295 
0.0508505171698101 -0.06869967399712915 -0.04416810670299458 -0.03572026693467743 -0.06498230095914928 -0.03097586564833777 -0.06590388938484118 
0.523791571878843 -0.5959927872673507 -0.6173654547747958 -0.4781866018469518 -0.4818587967864686 -0.4659069871978253 -0.4230698826738047 
0.01887939429999979 -0.011393190335996 -0.03458570260176144 -0.008553614769144834 -0.02914127922681531 -0.005696012505352359 -0.03686368634196536 
-1.641163954649245 -0.998837092194418 -0.1292954290345936 3.554515599921785 -0.4149836405844887 -1.37540937714836 -0.1249638575372221 
