solver_type L2R_LR
nr_class 7
label 0 1 2 5 6 3 4
nr_feature 10599
bias -1
w
1.217510804155179 -0.3006391005845703 -0.2736919045643912 -0.1430600822510787 -0.1615873583584762 -0.3148133533032345 -0.1305817412227837 
0.5610707516919361 -0.1175781143116656 -0.1055577961513743 -0.05193066483151068 -0.05890594553039191 -0.1237085125832871 -0.04707322302894316 
0.5610707516919361 -0.1175781143116656 -0.1055577961513743 -0.05193066483151068 -0.05890594553039191 -0.1237085125832871 -0.04707322302894316 
2.142608530122287 -0.6971331011522008 -0.6477465382121615 -0.3803073840752862 -0.4232071915111307 -0.723481325800761 -0.3522132886389887 
0.2734430533952906 -0.2159886390542706 -0.1954433664080111 0.7758959570556098 -0.1124836208595565 -0.226659179118374 -0.09040905109733088 
0 0 0 0 0 0 0 
0 0 0 0 0 0 0 
0 0 0 0 0 0 0 
-0.8371192042083551 -1.894359113434911 -2.022786093755762 -2.850431855343901 -2.695903236112486 -1.827858738608281 -2.95879386078488 
4.033739769864068 -2.004941514452923 -1.919968133602418 -1.408571949240742 -1.499878693812821 -2.046536102114564 -1.345763428777629 
-0.2487464487184187 0.7554037248192103 -0.1055577961513743 -0.05193066483151068 -0.05890594553039191 -0.1237085125832871 -0.04707322302894316 
-0.2487464487184187 -0.1175781143116656 0.7732586258219054 -0.05193066483151068 -0.05890594553039191 -0.1237085125832871 -0.04707322302894316 
-2.721212776417012 -1.970691307589127 -1.886260709692495 4.365180030073032 0.7711633666636527 -2.012183540032421 -1.316575025390586 
-2.728816842023741 -1.97766660770633 -1.893124133394086 -1.384849723363297 5.353158460936046 -2.019180357762379 -0.9352954510476028 
3.854360075723295 -1.865581605296854 -1.782920579752454 -1.288045027504781 -1.375800917163485 -1.906697337445796 -1.227720718919244 
3.613667961099767 -3.060384494515261 -2.964010327415779 -0.09002220203976101 -2.470989436100373 -3.100068799712714 -2.287801997526332 
2.014178178201111 -2.008705347636656 -2.008527733562742 -2.008259874976013 -2.011941472462607 -2.008488213589436 -2.009100848186976 
1.042458274958608 -1.042497851090828 -1.042575306507482 -1.042512193685875 -1.042711525243074 -1.042667732886917 -1.042610997626665 
3.598516375357729 -3.609735285474917 -3.6097843140913 -3.609699979850771 -3.609669290983087 -3.609545542766134 -3.609734553047286 
1.922744173773647 -1.918561452545953 -1.918432786369512 -1.918098104677304 -1.92138257349342 -1.91853862495963 -1.918781107031789 
0.3970483892380933 -0.4007030658205964 -0.400178216375942 -0.4009260113521515 -0.3990493014774812 -0.4000634995398715 -0.4008926098189751 
5.303011105704606 -5.406372542153305 -5.413532869593421 -5.404635464307701 -5.404689297266377 -5.408165414040634 -5.402365800113206 
0.3970483892380933 -0.4007030658205964 -0.400178216375942 -0.4009260113521515 -0.3990493014774812 -0.4000634995398715 -0.4008926098189751 
5.362739153032082 -6.27377245905566 -6.282982327359724 -6.27105978887317 -5.825403816412354 -6.193395196224678 -5.927147884375364 
3.709915240414887 -5.412553506575007 -5.416902766548936 -5.41082169815726 -3.749109334761149 -5.414421015514855 -5.128746780480076 
5.271063615617105 -6.123521619466174 -6.148280637293198 -6.010629705078983 -5.591339383640332 -5.93634873131782 -6.002391730214082 
0.879694003720053 -0.8797855498402524 -0.8797647753833447 -0.8796775836090641 -0.8806375276657175 -0.8798775974361255 -0.8797030468298803 
2.919382924947456 -4.608069417606401 -4.442046270961506 -4.608266711062418 -3.237463976531447 -4.61888924005872 -3.843205480273145 
0.3970483892380933 -0.4007030658205964 -0.400178216375942 -0.4009260113521515 -0.3990493014774812 -0.4000634995398715 -0.4008926098189751 
4.463928424239305 -4.426908421096166 -4.426843538642433 -4.427058291648637 -4.427410738413879 -4.4394324547386 -4.427288399757658 
3.58176672642605 -3.586060390493075 -3.586110444537723 -3.586023271248152 -3.585992291706749 -3.585757716187266 -3.586061865837801 
1.176896110776516 -1.177369755624706 -1.177476122065463 -1.17747378755575 -1.176752908651632 -1.177508664837496 -1.177586115465786 
2.237818210607395 -2.230106709693695 -2.229873556163697 -2.229791037254114 -2.233161455121724 -2.229091557679278 -2.230830717221171 
3.778587229239631 -3.773308948943541 -3.773341186276345 -3.773293220797234 -3.773286644195684 -3.774340792238531 -3.773314745464069 
1.042458274958608 -1.042497851090828 -1.042575306507482 -1.042512193685875 -1.042711525243074 -1.042667732886917 -1.042610997626665 
4.274616707765144 -4.246487240286998 -4.246425897424103 -4.246585552610656 -4.246814588469461 -4.260538799848351 -4.246719855540097 
0.879694003720053 -0.8797855498402524 -0.8797647753833447 -0.8796775836090641 -0.8806375276657175 -0.8798775974361255 -0.8797030468298803 
3.732351306637089 -5.299416863879485 -5.156219331927285 -5.299617053479646 -5.149497314850667 -5.282569473048458 -3.823537447130326 
5.188929204273194 -5.311302650839092 -5.311994238942551 -5.311590080672832 -5.308368121596899 -5.281375324942001 -5.312234064007302 
0.9444594789340727 -0.2159886390542706 -0.1954433664080111 -0.09936885113115011 -0.1124836208595565 -0.226659179118374 -0.09040905109733088 
5.154943872410536 -5.304974877963451 -5.306245861477471 -5.305213298735731 -5.30307442784265 -5.280749786997591 -5.306166787817451 
0.6736607479524879 -0.6750332109573683 -0.6747929122943818 -0.6749340802609312 -0.6754077233314432 -0.674832965958598 -0.6748622517537098 
2.300047789681897 -2.2920183961581 -2.291789690271628 -2.291745130359591 -2.294806330276798 -2.290751290830477 -2.292779787661419 
4.164845518313875 -4.136266330528819 -4.136223632134954 -4.136333341816517 -4.13649251170215 -4.147074114252136 -4.13642228990502 
5.165712921003946 -5.308141443153959 -5.309106643833997 -5.308404247741943 -5.30574490447697 -5.280522868904329 -5.30921600108805 
0.3970483892380933 -0.4007030658205964 -0.400178216375942 -0.4009260113521515 -0.3990493014774812 -0.4000634995398715 -0.4008926098189751 
4.724095302964187 -5.347567438051865 -5.350447214688435 -5.347362287728839 -4.74296458136361 -5.34602096445691 -5.344572734608079 
-0.2487464487184187 0.7554037248192103 -0.1055577961513743 -0.05193066483151068 -0.05890594553039191 -0.1237085125832871 -0.04707322302894316 
-0.2487464487184187 -0.1175781143116656 0.7732586258219054 -0.05193066483151068 -0.05890594553039191 -0.1237085125832871 -0.04707322302894316 
4.774012371065654 -4.82458131219309 -4.824767079545174 -4.824813744218493 -4.825433815061504 -4.807975469804592 -4.825319173006805 
3.401053469546882 -3.382768496050307 -3.382813070356038 -3.382724735205879 -3.382726927517969 -3.381822898788928 -3.38281861545149 
0.3970483892380933 -0.4007030658205964 -0.400178216375942 -0.4009260113521515 -0.3990493014774812 -0.4000634995398715 -0.4008926098189751 
3.274812658100604 -3.258460128158895 -3.258490438936081 -3.25841765170233 -3.258474202044221 -3.25726416071634 -3.258563460117119 
0.6736607479524879 -0.6750332109573683 -0.6747929122943818 -0.6749340802609312 -0.6754077233314432 -0.674832965958598 -0.6748622517537098 
0.3970483892380933 -0.4007030658205964 -0.400178216375942 -0.4009260113521515 -0.3990493014774812 -0.4000634995398715 -0.4008926098189751 
3.425904104267167 -1.53634123223761 -1.460223278576675 -1.01085163800979 -1.088502628179759 -1.575332596833362 -0.9574076297774265 
0.879694003720053 -0.8797855498402524 -0.8797647753833447 -0.8796775836090641 -0.8806375276657175 -0.8798775974361255 -0.8797030468298803 
0.6736607479524879 -0.6750332109573683 -0.6747929122943818 -0.6749340802609312 -0.6754077233314432 -0.674832965958598 -0.6748622517537098 
4.167650799585988 -4.139360038967896 -4.13931671960634 -4.139427911343764 -4.139588961233048 -4.150291283742221 -4.139517986836297 
1.700439935132541 -1.699438630374436 -1.699433505536227 -1.699094980080275 -1.700279851881953 -1.699536857042705 -1.699381627869927 
2.830989114627257 -5.525989142619413 -5.366181305984458 -5.51877654300683 -3.064970902593858 -5.541505883484042 -4.282170703975936 
0.3970483892380933 -0.4007030658205964 -0.400178216375942 -0.4009260113521515 -0.3990493014774812 -0.4000634995398715 -0.4008926098189751 
0.879694003720053 -0.8797855498402524 -0.8797647753833447 -0.8796775836090641 -0.8806375276657175 -0.8798775974361255 -0.8797030468298803 
-0.792859003623708 -1.098663727836448 -1.03395033903729 0.9656114121123183 -0.198490328148412 2.078662998987261 -0.6230945268544302 
0.08096462127919393 -0.5013390997821289 -0.4618089077154321 -0.2568403004882244 0.4353962711755618 -0.5224757651690206 1.686692653918555 
-0.4354434453562695 -0.2159886390542706 -0.1954433664080111 -0.09936885113115011 -0.1124836208595565 1.271265602611191 -0.09040905109733088 
-0.4354434453562695 -0.2159886390542706 -0.1954433664080111 -0.09936885113115011 -0.1124836208595565 -0.226659179118374 1.592980699596674 
2.744475629428249 -2.736778835639144 -2.736689264873613 -2.736708948540476 -2.737552952918359 -2.734695796828139 -2.737279337888224 
3.177089362806758 -3.163651244869506 -3.163666385824222 -3.163610428232301 -3.163729379142627 -3.162279561405487 -3.163805991844785 
3.112616376634937 -3.100968708970771 -3.100972119973473 -3.100928533453614 -3.101101147074188 -3.099479090752933 -3.101162532513038 
1.2915812829804 -1.29245537785476 -1.292559973115698 -1.292566322845619 -1.291307147773859 -1.292539146643289 -1.292661588670094 
1.85511564518693 -0.5561394637409919 -0.5136544266708366 -0.290236474343793 -0.324932320379513 -0.57887854041528 -0.2674705012863035 
3.696505248153751 -3.718891161006411 -3.718930807312153 -3.718867528705391 -3.718848774134828 -3.719408350805172 -3.718890468276951 
3.274812658100604 -3.258460128158895 -3.258490438936081 -3.25841765170233 -3.258474202044221 -3.25726416071634 -3.258563460117119 
2.096060801438178 -2.089585659106068 -2.089374931472043 -2.089178624490163 -2.092935861395807 -2.089117778602728 -2.090129700843198 
1.633652630609203 -1.633411019535954 -1.633434769129038 -1.633147721501272 -1.633583335085556 -1.633489630456012 -1.633347481481325 
0.3970483892380933 -0.4007030658205964 -0.400178216375942 -0.4009260113521515 -0.3990493014774812 -0.4000634995398715 -0.4008926098189751 
0.9444594789340727 -0.2159886390542706 -0.1954433664080111 -0.09936885113115011 -0.1124836208595565 -0.226659179118374 -0.09040905109733088 
0.3970483892380933 -0.4007030658205964 -0.400178216375942 -0.4009260113521515 -0.3990493014774812 -0.4000634995398715 -0.4008926098189751 
3.408638827713149 -3.39042129427082 -3.390466504322255 -3.390377545820275 -3.39037728610269 -3.389493046518418 -3.390468685476825 
0.3970483892380933 -0.4007030658205964 -0.400178216375942 -0.4009260113521515 -0.3990493014774812 -0.4000634995398715 -0.4008926098189751 
2.635193686568262 -2.627302029234413 -2.62717549768798 -2.627202614196984 -2.628449907669257 -2.625204183807357 -2.627910247281407 
0.6736607479524879 -0.6750332109573683 -0.6747929122943818 -0.6749340802609312 -0.6754077233314432 -0.674832965958598 -0.6748622517537098 
2.237818210607395 -2.230106709693695 -2.229873556163697 -2.229791037254114 -2.233161455121724 -2.229091557679278 -2.230830717221171 
2.474056522343578 -0.8806479584264151 -0.823531568043115 -0.5056018684828217 -0.5579410957198365 -0.9107751175801879 -0.471019167574435 
1.872719633770874 -1.869281956775142 -1.869182608598957 -1.868823882071361 -1.871754027188883 -1.869325271932983 -1.869412623191893 
2.133993174888746 -2.127120116943004 -2.126898792253224 -2.126735562981847 -2.130445865790548 -2.12651600308772 -2.127723933538898 
3.594995452313967 -1.824164707171679 -1.742244250760702 -1.252563482957146 -1.339170279415955 -1.542713819341748 -1.193021770691383 
1.819325324551544 -1.816683606859749 -1.816615534035282 -1.816244837828809 -1.818704055479467 -1.816768832318833 -1.816732796875928 
0.6736607479524879 -0.6750332109573683 -0.6747929122943818 -0.6749340802609312 -0.6754077233314432 -0.674832965958598 -0.6748622517537098 
0.3970483892380933 -0.4007030658205964 -0.400178216375942 -0.4009260113521515 -0.3990493014774812 -0.4000634995398715 -0.4008926098189751 
0.3970483892380933 -0.4007030658205964 -0.400178216375942 -0.4009260113521515 -0.3990493014774812 -0.4000634995398715 -0.4008926098189751 
1.176896110776516 -1.177369755624706 -1.177476122065463 -1.17747378755575 -1.176752908651632 -1.177508664837496 -1.177586115465786 
0.6736607479524879 -0.6750332109573683 -0.6747929122943818 -0.6749340802609312 -0.6754077233314432 -0.674832965958598 -0.6748622517537098 
0.3970483892380933 -0.4007030658205964 -0.400178216375942 -0.4009260113521515 -0.3990493014774812 -0.4000634995398715 -0.4008926098189751 
0.879694003720053 -0.8797855498402524 -0.8797647753833447 -0.8796775836090641 -0.8806375276657175 -0.8798775974361255 -0.8797030468298803 
3.577349820313382 -3.580033970037471 -3.580084227263305 -3.579996428320086 -3.579965508916177 -3.579704312453195 -3.580036129547145 
1.391731930817141 -1.392743607995079 -1.392834458869371 -1.392791502056421 -1.391491951467474 -1.392790532761269 -1.392873455621433 
0.6736607479524879 -0.6750332109573683 -0.6747929122943818 -0.6749340802609312 -0.6754077233314432 -0.674832965958598 -0.6748622517537098 
0.3970483892380933 -0.4007030658205964 -0.400178216375942 -0.4009260113521515 -0.3990493014774812 -0.4000634995398715 -0.4008926098189751 
1.762090952669214 -1.76027308719086 -1.76023691095892 -1.75987139155415 -1.761743637870723 -1.760375705750985 -1.760256607331283 
3.67087006942134 -4.459214678546455 -4.45915463959302 -4.459373502320878 -3.671807538220559 -4.469771198445 -4.459623445789746 
1.042458274958608 -1.042497851090828 -1.042575306507482 -1.042512193685875 -1.042711525243074 -1.042667732886917 -1.042610997626665 
1.762090952669214 -1.76027308719086 -1.76023691095892 -1.75987139155415 -1.761743637870723 -1.760375705750985 -1.760256607331283 
0.3970483892380933 -0.4007030658205964 -0.400178216375942 -0.4009260113521515 -0.3990493014774812 -0.4000634995398715 -0.4008926098189751 
3.731678472849094 -1.771226417932884 -1.690287886028316 -1.207450704332833 -1.292530470017514 -1.81189793994437 -1.148941472312456 
0.3970483892380933 -0.4007030658205964 -0.400178216375942 -0.4009260113521515 -0.3990493014774812 -0.4000634995398715 -0.4008926098189751 
0.6736607479524879 -0.6750332109573683 -0.6747929122943818 -0.6749340802609312 -0.6754077233314432 -0.674832965958598 -0.6748622517537098 
0.6736607479524879 -0.6750332109573683 -0.6747929122943818 -0.6749340802609312 -0.6754077233314432 -0.674832965958598 -0.6748622517537098 
-0.2487464487184187 0.7554037248192103 -0.1055577961513743 -0.05193066483151068 -0.05890594553039191 -0.1237085125832871 -0.04707322302894316 
-0.4354434453562695 0.5772287200520956 0.6080080628674323 -0.09936885113115011 -0.1124836208595565 -0.226659179118374 -0.09040905109733088 
0.879694003720053 -0.8797855498402524 -0.8797647753833447 -0.8796775836090641 -0.8806375276657175 -0.8798775974361255 -0.8797030468298803 
0.879694003720053 -0.8797855498402524 -0.8797647753833447 -0.8796775836090641 -0.8806375276657175 -0.8798775974361255 -0.8797030468298803 
3.87339638594307 -3.837775684791291 -3.83779707272309 -3.837771084319873 -3.83778392295776 -3.839628496980355 -3.83779482682212 
1.2915812829804 -1.29245537785476 -1.292559973115698 -1.292566322845619 -1.291307147773859 -1.292539146643289 -1.292661588670094 
2.411289350038111 -2.403020197381848 -2.402816079804371 -2.402817541008252 -2.405239308104546 -2.401347520513217 -2.403785698149089 
1.2915812829804 -1.29245537785476 -1.292559973115698 -1.292566322845619 -1.291307147773859 -1.292539146643289 -1.292661588670094 
0.3970483892380933 -0.4007030658205964 -0.400178216375942 -0.4009260113521515 -0.3990493014774812 -0.4000634995398715 -0.4008926098189751 
2.993577007042513 -2.984369000848667 -2.984347353893553 -2.984327274617909 -2.984634772051138 -2.982654846977467 -2.984646550882455 
1.762090952669214 -1.76027308719086 -1.76023691095892 -1.75987139155415 -1.761743637870723 -1.760375705750985 -1.760256607331283 
0.3970483892380933 -0.4007030658205964 -0.400178216375942 -0.4009260113521515 -0.3990493014774812 -0.4000634995398715 -0.4008926098189751 
0.879694003720053 -0.8797855498402524 -0.8797647753833447 -0.8796775836090641 -0.8806375276657175 -0.8798775974361255 -0.8797030468298803 
0.6736607479524879 -0.6750332109573683 -0.6747929122943818 -0.6749340802609312 -0.6754077233314432 -0.674832965958598 -0.6748622517537098 
1.2915812829804 -1.29245537785476 -1.292559973115698 -1.292566322845619 -1.291307147773859 -1.292539146643289 -1.292661588670094 
4.251130746307496 -4.224453130510459 -4.22439482572082 -4.224545112190939 -4.224759756338266 -4.238114644122756 -4.224669513854025 
1.176896110776516 -1.177369755624706 -1.177476122065463 -1.17747378755575 -1.176752908651632 -1.177508664837496 -1.177586115465786 
1.700439935132541 -1.699438630374436 -1.699433505536227 -1.699094980080275 -1.700279851881953 -1.699536857042705 -1.699381627869927 
4.113393367367475 -4.671274392143542 -4.671310459574061 -4.671485623946392 -4.113118774084229 -4.649427851932932 -4.671883075665872 
3.145441214539224 -3.132913970929585 -3.13292351809716 -3.132873551020131 -3.133017427869066 -3.131484804650083 -3.133087369931002 
1.391731930817141 -1.392743607995079 -1.392834458869371 -1.392791502056421 -1.391491951467474 -1.392790532761269 -1.392873455621433 
1.176896110776516 -1.177369755624706 -1.177476122065463 -1.17747378755575 -1.176752908651632 -1.177508664837496 -1.177586115465786 
0.879694003720053 -0.8797855498402524 -0.8797647753833447 -0.8796775836090641 -0.8806375276657175 -0.8798775974361255 -0.8797030468298803 
-1.116789421294151 -0.6534431456061293 -0.6060970619816696 -0.3517849409282877 -0.3922241465970014 2.681783226515662 -0.3253108327672314 
0.950487099729093 -1.392743607995079 -1.392834458869371 -1.392791502056421 -0.9478872150888386 -1.392790532761269 -1.392873455621433 
1.042458274958608 -1.042497851090828 -1.042575306507482 -1.042512193685875 -1.042711525243074 -1.042667732886917 -1.042610997626665 
0.6736607479524879 -0.6750332109573683 -0.6747929122943818 -0.6749340802609312 -0.6754077233314432 -0.674832965958598 -0.6748622517537098 
-0.2487464487184187 0.7554037248192103 -0.1055577961513743 -0.05193066483151068 -0.05890594553039191 -0.1237085125832871 -0.04707322302894316 
-0.4354434453562695 0.5772287200520956 0.6080080628674323 -0.09936885113115011 -0.1124836208595565 -0.226659179118374 -0.09040905109733088 
4.516355581505583 -4.488294422666153 -4.488240605692901 -4.488461169011194 -4.488857289257493 -4.494331038713734 -4.488729640446831 
0.6736607479524879 -0.6750332109573683 -0.6747929122943818 -0.6749340802609312 -0.6754077233314432 -0.674832965958598 -0.6748622517537098 
2.170163933088428 -2.162955802890046 -2.162727483091575 -2.162594412636857 -2.166217960734451 -2.162213116110366 -2.163609263499401 
0.3970483892380933 -0.4007030658205964 -0.400178216375942 -0.4009260113521515 -0.3990493014774812 -0.4000634995398715 -0.4008926098189751 
0.6736607479524879 -0.6750332109573683 -0.6747929122943818 -0.6749340802609312 -0.6754077233314432 -0.674832965958598 -0.6748622517537098 
2.384935342409071 -2.376687723565435 -2.376476262583596 -2.376469252956678 -2.379046360033663 -2.375102812151217 -2.377458894609337 
0.3970483892380933 -0.4007030658205964 -0.400178216375942 -0.4009260113521515 -0.3990493014774812 -0.4000634995398715 -0.4008926098189751 
1.85511564518693 -0.5561394637409919 -0.5136544266708366 -0.290236474343793 -0.324932320379513 -0.57887854041528 -0.2674705012863035 
2.384935342409071 -2.376687723565435 -2.376476262583596 -2.376469252956678 -2.379046360033663 -2.375102812151217 -2.377458894609337 
2.508615776131987 -2.500420677496889 -2.500248583591242 -2.500270073441129 -2.502135086406446 -2.498487053126772 -2.501136788625774 
0.3970483892380933 -0.4007030658205964 -0.400178216375942 -0.4009260113521515 -0.3990493014774812 -0.4000634995398715 -0.4008926098189751 
1.480712988940087 -1.481551891401583 -1.481623858328212 -1.481498690344434 -1.480567323955368 -1.481591243687406 -1.481591124775437 
0.5610707516919361 -0.1175781143116656 -0.1055577961513743 -0.05193066483151068 -0.05890594553039191 -0.1237085125832871 -0.04707322302894316 
0.5610707516919361 -0.1175781143116656 -0.1055577961513743 -0.05193066483151068 -0.05890594553039191 -0.1237085125832871 -0.04707322302894316 
2.220416294304777 -0.738102372492544 -0.686875581850402 -0.4075280522966798 -0.4526622828691731 -0.7653747133732286 -0.3779409370768068 
0.9444594789340727 -0.2159886390542706 -0.1954433664080111 -0.09936885113115011 -0.1124836208595565 -0.226659179118374 -0.09040905109733088 
2.954524493219619 -2.945842336572778 -2.945811494092875 -2.945798883509966 -2.946163798234215 -2.944055290393791 -2.94615076170667 
0.3970483892380933 -0.4007030658205964 -0.400178216375942 -0.4009260113521515 -0.3990493014774812 -0.4000634995398715 -0.4008926098189751 
0.3970483892380933 -0.4007030658205964 -0.400178216375942 -0.4009260113521515 -0.3990493014774812 -0.4000634995398715 -0.4008926098189751 
-0.2487464487184187 0.7554037248192103 -0.1055577961513743 -0.05193066483151068 -0.05890594553039191 -0.1237085125832871 -0.04707322302894316 
-0.4354434453562695 -0.2159886390542706 1.331927641306102 -0.09936885113115011 -0.1124836208595565 -0.226659179118374 -0.09040905109733088 
0.3970483892380933 -0.4007030658205964 -0.400178216375942 -0.4009260113521515 -0.3990493014774812 -0.4000634995398715 -0.4008926098189751 
2.673282711266853 -2.665481846436443 -2.665368629129947 -2.665394184630854 -2.666487009472552 -2.663374030816864 -2.666052970509391 
0.6736607479524879 -0.6750332109573683 -0.6747929122943818 -0.6749340802609312 -0.6754077233314432 -0.674832965958598 -0.6748622517537098 
0.3970483892380933 -0.4007030658205964 -0.400178216375942 -0.4009260113521515 -0.3990493014774812 -0.4000634995398715 -0.4008926098189751 
1.480712988940087 -1.481551891401583 -1.481623858328212 -1.481498690344434 -1.480567323955368 -1.481591243687406 -1.481591124775437 
1.633652630609203 -1.633411019535954 -1.633434769129038 -1.633147721501272 -1.633583335085556 -1.633489630456012 -1.633347481481325 
2.056190293855384 -2.05018069656875 -2.049984483577249 -2.049752886233757 -2.05350511474542 -2.049843139868269 -2.050654999896648 
0.3970483892380933 -0.4007030658205964 -0.400178216375942 -0.4009260113521515 -0.3990493014774812 -0.4000634995398715 -0.4008926098189751 
2.384935342409071 -2.376687723565435 -2.376476262583596 -2.376469252956678 -2.379046360033663 -2.375102812151217 -2.377458894609337 
2.291587659524835 -0.7766857507933074 -0.7237877993968023 -0.4335692430462282 -0.4807411669945591 -0.8047830577360254 -0.4025993577620676 
3.055075274242436 -3.044763847698682 -3.044755695587558 -3.044723501149527 -3.044954649961478 -3.043166266311067 -3.044996214271531 
3.03098199501524 -3.021143659771628 -3.021130361882539 -3.021102944265192 -3.02136213684035 -3.019500384659032 -3.021393229684195 
0.879694003720053 -0.8797855498402524 -0.8797647753833447 -0.8796775836090641 -0.8806375276657175 -0.8798775974361255 -0.8797030468298803 
0.5610707516919361 -0.1175781143116656 -0.1055577961513743 -0.05193066483151068 -0.05890594553039191 -0.1237085125832871 -0.04707322302894316 
1.217510804155179 -0.3006391005845703 -0.2736919045643912 -0.1430600822510787 -0.1615873583584762 -0.3148133533032345 -0.1305817412227837 
0.9444594789340727 -0.2159886390542706 -0.1954433664080111 -0.09936885113115011 -0.1124836208595565 -0.226659179118374 -0.09040905109733088 
0.3970483892380933 -0.4007030658205964 -0.400178216375942 -0.4009260113521515 -0.3990493014774812 -0.4000634995398715 -0.4008926098189751 
3.703623129215364 -3.723988540811352 -3.724027566793489 -3.723965589904557 -3.723947805625436 -3.724548358743468 -3.72398827082895 
1.85511564518693 -0.5561394637409919 -0.5136544266708366 -0.290236474343793 -0.324932320379513 -0.57887854041528 -0.2674705012863035 
1.176896110776516 -1.177369755624706 -1.177476122065463 -1.17747378755575 -1.176752908651632 -1.177508664837496 -1.177586115465786 
1.042458274958608 -1.042497851090828 -1.042575306507482 -1.042512193685875 -1.042711525243074 -1.042667732886917 -1.042610997626665 
2.993577007042513 -2.984369000848667 -2.984347353893553 -2.984327274617909 -2.984634772051138 -2.982654846977467 -2.984646550882455 
0.879694003720053 -0.8797855498402524 -0.8797647753833447 -0.8796775836090641 -0.8806375276657175 -0.8798775974361255 -0.8797030468298803 
3.503799555268284 -3.490680633733685 -3.490731196576088 -3.490638581710042 -3.490615056615793 -3.490018895132216 -3.490698558278536 
3.892327981548186 -3.850962541429747 -3.850981466269077 -3.850960444283069 -3.850977885148081 -3.853018944879285 -3.850985166193126 
1.176896110776516 -1.177369755624706 -1.177476122065463 -1.17747378755575 -1.176752908651632 -1.177508664837496 -1.177586115465786 
0.3970483892380933 -0.4007030658205964 -0.400178216375942 -0.4009260113521515 -0.3990493014774812 -0.4000634995398715 -0.4008926098189751 
0.2734430533952906 -0.2159886390542706 -0.1954433664080111 -0.09936885113115011 -0.1124836208595565 0.5598557594245872 -0.09040905109733088 
3.15611793474716 -3.143289334149098 -3.143300804156527 -3.143248795285529 -3.14338397267379 -3.141879641512368 -3.143456327964918 
3.123693209496846 -3.111757293544831 -3.111762812857889 -3.111717058309792 -3.111879626267778 -3.110288175286438 -3.111944100132488 
0.6736607479524879 -0.6750332109573683 -0.6747929122943818 -0.6749340802609312 -0.6754077233314432 -0.674832965958598 -0.6748622517537098 
0.6736607479524879 -0.6750332109573683 -0.6747929122943818 -0.6749340802609312 -0.6754077233314432 -0.674832965958598 -0.6748622517537098 
0.879694003720053 -0.8797855498402524 -0.8797647753833447 -0.8796775836090641 -0.8806375276657175 -0.8798775974361255 -0.8797030468298803 
-0.2487464487184187 0.7554037248192103 -0.1055577961513743 -0.05193066483151068 -0.05890594553039191 -0.1237085125832871 -0.04707322302894316 
-0.4354434453562695 0.5772287200520956 0.6080080628674323 -0.09936885113115011 -0.1124836208595565 -0.226659179118374 -0.09040905109733088 
0.3970483892380933 -0.4007030658205964 -0.400178216375942 -0.4009260113521515 -0.3990493014774812 -0.4000634995398715 -0.4008926098189751 
0.5610707516919361 -0.1175781143116656 -0.1055577961513743 -0.05193066483151068 -0.05890594553039191 -0.1237085125832871 -0.04707322302894316 
0.5610707516919361 -0.1175781143116656 -0.1055577961513743 -0.05193066483151068 -0.05890594553039191 -0.1237085125832871 -0.04707322302894316 
3.860444762036518 -3.828866805430533 -3.828889813627429 -3.828860556496639 -3.828870404048637 -3.83058960221642 -3.828883738661821 
2.357657170455692 -2.349453964258535 -2.349235783814575 -2.349218462895775 -2.35195530132168 -2.347966070458356 -2.350226868110792 
0.3970483892380933 -0.4007030658205964 -0.400178216375942 -0.4009260113521515 -0.3990493014774812 -0.4000634995398715 -0.4008926098189751 
0.3970483892380933 -0.4007030658205964 -0.400178216375942 -0.4009260113521515 -0.3990493014774812 -0.4000634995398715 -0.4008926098189751 
2.654463600288957 -2.646619682406255 -2.646499935870341 -2.646526416896428 -2.647693670175283 -2.644514629332628 -2.647209261893213 
1.042458274958608 -1.042497851090828 -1.042575306507482 -1.042512193685875 -1.042711525243074 -1.042667732886917 -1.042610997626665 
0.6736607479524879 -0.6750332109573683 -0.6747929122943818 -0.6749340802609312 -0.6754077233314432 -0.674832965958598 -0.6748622517537098 
0.6736607479524879 -0.6750332109573683 -0.6747929122943818 -0.6749340802609312 -0.6754077233314432 -0.674832965958598 -0.6748622517537098 
0.6736607479524879 -0.6750332109573683 -0.6747929122943818 -0.6749340802609312 -0.6754077233314432 -0.674832965958598 -0.6748622517537098 
0.3970483892380933 -0.4007030658205964 -0.400178216375942 -0.4009260113521515 -0.3990493014774812 -0.4000634995398715 -0.4008926098189751 
-0.4354434453562695 -0.2159886390542706 -0.1954433664080111 1.566568241678167 -0.1124836208595565 -0.226659179118374 -0.09040905109733088 
0.3970483892380933 -0.4007030658205964 -0.400178216375942 -0.4009260113521515 -0.3990493014774812 -0.4000634995398715 -0.4008926098189751 
1.922744173773647 -1.918561452545953 -1.918432786369512 -1.918098104677304 -1.92138257349342 -1.91853862495963 -1.918781107031789 
3.558605409353004 -3.555477935253722 -3.555528778961664 -3.555438832443306 -3.555408725589816 -3.555045032989396 -3.555483387545709 
1.217510804155179 -0.3006391005845703 -0.2736919045643912 -0.1430600822510787 -0.1615873583584762 -0.3148133533032345 -0.1305817412227837 
-0.2487464487184187 -0.1175781143116656 -0.1055577961513743 -0.05193066483151068 -0.05890594553039191 0.7432909372323518 -0.04707322302894316 
0.3970483892380933 -0.4007030658205964 -0.400178216375942 -0.4009260113521515 -0.3990493014774812 -0.4000634995398715 -0.4008926098189751 
0.3970483892380933 -0.4007030658205964 -0.400178216375942 -0.4009260113521515 -0.3990493014774812 -0.4000634995398715 -0.4008926098189751 
1.4254426481371 -0.3749849961215677 -0.3430039660280748 -0.1835812913092601 -0.2068922436667689 -0.3919495399703434 -0.1680440982217076 
-0.2487464487184187 0.7554037248192103 -0.1055577961513743 -0.05193066483151068 -0.05890594553039191 -0.1237085125832871 -0.04707322302894316 
0.879694003720053 -0.8797855498402524 -0.8797647753833447 -0.8796775836090641 -0.8806375276657175 -0.8798775974361255 -0.8797030468298803 
0.6736607479524879 -0.6750332109573683 -0.6747929122943818 -0.6749340802609312 -0.6754077233314432 -0.674832965958598 -0.6748622517537098 
0.3970483892380933 -0.4007030658205964 -0.400178216375942 -0.4009260113521515 -0.3990493014774812 -0.4000634995398715 -0.4008926098189751 
0.6736607479524879 -0.6750332109573683 -0.6747929122943818 -0.6749340802609312 -0.6754077233314432 -0.674832965958598 -0.6748622517537098 
2.691673374654531 -2.683909729026282 -2.683802787687275 -2.683827168295617 -2.684850807502507 -2.681803145393364 -2.684462661889686 
1.042458274958608 -1.042497851090828 -1.042575306507482 -1.042512193685875 -1.042711525243074 -1.042667732886917 -1.042610997626665 
2.747222590694919 -1.050306103580138 -0.9871410821208313 -0.6285461790488963 -0.688389921108046 -1.083274925989602 -0.5884225906420534 
1.2915812829804 -1.29245537785476 -1.292559973115698 -1.292566322845619 -1.291307147773859 -1.292539146643289 -1.292661588670094 
0.3970483892380933 -0.4007030658205964 -0.400178216375942 -0.4009260113521515 -0.3990493014774812 -0.4000634995398715 -0.4008926098189751 
-0.2487464487184187 -0.1175781143116656 -0.1055577961513743 0.8754335315918607 -0.05890594553039191 -0.1237085125832871 -0.04707322302894316 
0.05675508949442895 -0.3006391005845703 -0.2736919045643912 -0.1430600822510787 1.372975449255779 -0.3148133533032345 -0.1305817412227837 
0.7526066844822384 -0.738102372492544 -0.686875581850402 1.911512925818647 -0.4526622828691731 -0.7653747133732286 -0.3779409370768068 
1.969788258040021 -1.964924956785422 -1.964769972812195 -1.964466822580809 -1.967997427938084 -1.964814115810826 -1.96523449928132 
-0.2487464487184187 -0.1175781143116656 -0.1055577961513743 -0.05193066483151068 -0.05890594553039191 0.7432909372323518 -0.04707322302894316 
1.560811096952695 -1.561207939247148 -1.561257490903407 -1.56104463172279 -1.560739005450267 -1.561262354516862 -1.56117730322014 
0.3970483892380933 -0.4007030658205964 -0.400178216375942 -0.4009260113521515 -0.3990493014774812 -0.4000634995398715 -0.4008926098189751 
1.391731930817141 -1.392743607995079 -1.392834458869371 -1.392791502056421 -1.391491951467474 -1.392790532761269 -1.392873455621433 
0.5610707516919361 -0.1175781143116656 -0.1055577961513743 -0.05193066483151068 -0.05890594553039191 -0.1237085125832871 -0.04707322302894316 
0.5610707516919361 -0.1175781143116656 -0.1055577961513743 -0.05193066483151068 -0.05890594553039191 -0.1237085125832871 -0.04707322302894316 
0.6736607479524879 -0.6750332109573683 -0.6747929122943818 -0.6749340802609312 -0.6754077233314432 -0.674832965958598 -0.6748622517537098 
0.3970483892380933 -0.4007030658205964 -0.400178216375942 -0.4009260113521515 -0.3990493014774812 -0.4000634995398715 -0.4008926098189751 
0.3970483892380933 -0.4007030658205964 -0.400178216375942 -0.4009260113521515 -0.3990493014774812 -0.4000634995398715 -0.4008926098189751 
2.133993174888746 -2.127120116943004 -2.126898792253224 -2.126735562981847 -2.130445865790548 -2.12651600308772 -2.127723933538898 
2.887908882804555 -3.111757293544831 -3.111762812857889 -3.111717058309792 -2.879988273104319 -3.110288175286438 -3.111944100132488 
1.042458274958608 -1.042497851090828 -1.042575306507482 -1.042512193685875 -1.042711525243074 -1.042667732886917 -1.042610997626665 
0.879694003720053 -0.8797855498402524 -0.8797647753833447 -0.8796775836090641 -0.8806375276657175 -0.8798775974361255 -0.8797030468298803 
0.9444594789340727 -0.2159886390542706 -0.1954433664080111 -0.09936885113115011 -0.1124836208595565 -0.226659179118374 -0.09040905109733088 
4.25992716981369 -4.232783665257265 -4.23272416332784 -4.23287803796061 -4.23309810137252 -4.246610797758027 -4.233006135239817 
2.170163933088428 -2.162955802890046 -2.162727483091575 -2.162594412636857 -2.166217960734451 -2.162213116110366 -2.163609263499401 
-0.2487464487184187 0.7554037248192103 -0.1055577961513743 -0.05193066483151068 -0.05890594553039191 -0.1237085125832871 -0.04707322302894316 
-0.2487464487184187 -0.1175781143116656 0.7732586258219054 -0.05193066483151068 -0.05890594553039191 -0.1237085125832871 -0.04707322302894316 
2.014178178201111 -2.008705347636656 -2.008527733562742 -2.008259874976013 -2.011941472462607 -2.008488213589436 -2.009100848186976 
0.3970483892380933 -0.4007030658205964 -0.400178216375942 -0.4009260113521515 -0.3990493014774812 -0.4000634995398715 -0.4008926098189751 
2.526688916395651 -0.912021405762267 -0.8537105466420312 -0.5278503184666448 -0.5816589847543405 -0.9427128919846959 -0.4922097596123115 
1.2915812829804 -1.29245537785476 -1.292559973115698 -1.292566322845619 -1.291307147773859 -1.292539146643289 -1.292661588670094 
1.176896110776516 -1.177369755624706 -1.177476122065463 -1.17747378755575 -1.176752908651632 -1.177508664837496 -1.177586115465786 
0.3970483892380933 -0.4007030658205964 -0.400178216375942 -0.4009260113521515 -0.3990493014774812 -0.4000634995398715 -0.4008926098189751 
1.176896110776516 -1.177369755624706 -1.177476122065463 -1.17747378755575 -1.176752908651632 -1.177508664837496 -1.177586115465786 
2.170163933088428 -2.162955802890046 -2.162727483091575 -2.162594412636857 -2.166217960734451 -2.162213116110366 -2.163609263499401 
0.3970483892380933 -0.4007030658205964 -0.400178216375942 -0.4009260113521515 -0.3990493014774812 -0.4000634995398715 -0.4008926098189751 
0.879694003720053 -0.8797855498402524 -0.8797647753833447 -0.8796775836090641 -0.8806375276657175 -0.8798775974361255 -0.8797030468298803 
0.3970483892380933 -0.4007030658205964 -0.400178216375942 -0.4009260113521515 -0.3990493014774812 -0.4000634995398715 -0.4008926098189751 
2.170163933088428 -2.162955802890046 -2.162727483091575 -2.162594412636857 -2.166217960734451 -2.162213116110366 -2.163609263499401 
2.133993174888746 -2.127120116943004 -2.126898792253224 -2.126735562981847 -2.130445865790548 -2.12651600308772 -2.127723933538898 
2.204727177834306 -2.197241431101351 -2.197009315344438 -2.19690316610899 -2.200410527594066 -2.196360890569616 -2.197934738058072 
2.014178178201111 -2.008705347636656 -2.008527733562742 -2.008259874976013 -2.011941472462607 -2.008488213589436 -2.009100848186976 
-1.485822933884803 -1.548821379939962 -1.472428446018793 -1.021137630960618 -1.099205090732261 3.691557188800041 -0.9674031098218193 
-1.497719440740682 -1.20658813100988 -1.138667619798344 -0.74708829276389 0.6883983398193341 -1.241812317408646 3.750429223372196 
1.700439935132541 -1.699438630374436 -1.699433505536227 -1.699094980080275 -1.700279851881953 -1.699536857042705 -1.699381627869927 
2.666309197398364 -0.9982949998069128 -0.9368793078688126 -0.5901845492362997 -0.6478369018469141 -1.030443339614707 -0.5517125975068566 
2.461465975502641 -2.453208061771552 -2.453019714285295 -2.453033557650232 -2.455162730727325 -2.451387401173021 -2.453953101135919 
3.981177271209895 -1.963650985824149 -1.879334003229561 -1.37268435704672 -1.462991069211092 -2.005121124176395 -1.310589156416182 
1.480712988940087 -1.481551891401583 -1.481623858328212 -1.481498690344434 -1.480567323955368 -1.481591243687406 -1.481591124775437 
1.305513854413363 -0.5013390997821289 -0.4618089077154321 0.4851756275168828 -0.2881659138360747 -0.5224757651690206 -0.2362201839471882 
1.88479102665915 -0.738102372492544 -0.686875581850402 -0.4075280522966798 0.1808861080929297 -0.7653747133732286 -0.3779409370768068 
0.9444594789340727 -0.2159886390542706 -0.1954433664080111 -0.09936885113115011 -0.1124836208595565 -0.226659179118374 -0.09040905109733088 
1.176896110776516 -1.177369755624706 -1.177476122065463 -1.17747378755575 -1.176752908651632 -1.177508664837496 -1.177586115465786 
1.217510804155179 -0.3006391005845703 -0.2736919045643912 -0.1430600822510787 -0.1615873583584762 -0.3148133533032345 -0.1305817412227837 
0.5610707516919361 -0.1175781143116656 -0.1055577961513743 -0.05193066483151068 -0.05890594553039191 -0.1237085125832871 -0.04707322302894316 
-2.308308881294011 -2.018219019120684 -1.933039622247493 0.9229531888920567 -0.6167265290779974 3.146234871584734 -1.357108593856658 
0.5610707516919361 -0.1175781143116656 -0.1055577961513743 -0.05193066483151068 -0.05890594553039191 -0.1237085125832871 -0.04707322302894316 
-0.2487464487184187 -0.1175781143116656 -0.1055577961513743 -0.05193066483151068 -0.05890594553039191 0.7432909372323518 -0.04707322302894316 
-1.232509404522454 -0.738102372492544 -0.686875581850402 -0.4075280522966798 -0.4526622828691731 2.86514953025977 -0.3779409370768068 
3.207624315331668 -3.193269683503461 -3.193289913688899 -3.193228384930579 -3.193325620016251 -3.191952905665714 -3.193407377895673 
-2.320169796344268 -1.619520264881618 -1.541609795286265 5.142510552490511 -1.160149691969438 -1.659207649220403 -1.024429896922168 
3.217564448254273 -3.202907871113119 -3.202929691169587 -3.202866402493813 -3.202957027067529 -3.201608902453045 -3.203040210490543 
1.480712988940087 -1.481551891401583 -1.481623858328212 -1.481498690344434 -1.480567323955368 -1.481591243687406 -1.481591124775437 
2.691673374654531 -2.683909729026282 -2.683802787687275 -2.683827168295617 -2.684850807502507 -2.681803145393364 -2.684462661889686 
3.055075274242436 -3.044763847698682 -3.044755695587558 -3.044723501149527 -3.044954649961478 -3.043166266311067 -3.044996214271531 
0.3970483892380933 -0.4007030658205964 -0.400178216375942 -0.4009260113521515 -0.3990493014774812 -0.4000634995398715 -0.4008926098189751 
0.3970483892380933 -0.4007030658205964 -0.400178216375942 -0.4009260113521515 -0.3990493014774812 -0.4000634995398715 -0.4008926098189751 
0.3970483892380933 -0.4007030658205964 -0.400178216375942 -0.4009260113521515 -0.3990493014774812 -0.4000634995398715 -0.4008926098189751 
2.170163933088428 -2.162955802890046 -2.162727483091575 -2.162594412636857 -2.166217960734451 -2.162213116110366 -2.163609263499401 
1.700439935132541 -1.699438630374436 -1.699433505536227 -1.699094980080275 -1.700279851881953 -1.699536857042705 -1.699381627869927 
2.269556447259739 -2.26166551031954 -2.261433633904669 -2.261371571928906 -2.264591376698222 -2.260520993897092 -2.262411906749782 
1.176896110776516 -1.177369755624706 -1.177476122065463 -1.17747378755575 -1.176752908651632 -1.177508664837496 -1.177586115465786 
3.916189776904838 -3.86822599140727 -3.868241581379706 -3.868227283581852 -3.868251058541594 -3.870570406594028 -3.868253558517421 
0.6736607479524879 -0.6750332109573683 -0.6747929122943818 -0.6749340802609312 -0.6754077233314432 -0.674832965958598 -0.6748622517537098 
0.6736607479524879 -0.6750332109573683 -0.6747929122943818 -0.6749340802609312 -0.6754077233314432 -0.674832965958598 -0.6748622517537098 
2.461465975502641 -2.453208061771552 -2.453019714285295 -2.453033557650232 -2.455162730727325 -2.451387401173021 -2.453953101135919 
2.133993174888746 -2.127120116943004 -2.126898792253224 -2.126735562981847 -2.130445865790548 -2.12651600308772 -2.127723933538898 
2.595203289585422 -2.587207317154602 -2.587066458342441 -2.587093776557835 -2.588519465634356 -2.585139137692622 -2.587852926373849 
1.042458274958608 -1.042497851090828 -1.042575306507482 -1.042512193685875 -1.042711525243074 -1.042667732886917 -1.042610997626665 
-0.8991613030714768 -0.5013390997821289 -0.4618089077154321 -0.2568403004882244 -0.2881659138360747 2.302417522564586 -0.2362201839471882 
1.922744173773647 -1.918561452545953 -1.918432786369512 -1.918098104677304 -1.92138257349342 -1.91853862495963 -1.918781107031789 
0.879694003720053 -0.8797855498402524 -0.8797647753833447 -0.8796775836090641 -0.8806375276657175 -0.8798775974361255 -0.8797030468298803 
0.3970483892380933 -0.4007030658205964 -0.400178216375942 -0.4009260113521515 -0.3990493014774812 -0.4000634995398715 -0.4008926098189751 
0.3970483892380933 -0.4007030658205964 -0.400178216375942 -0.4009260113521515 -0.3990493014774812 -0.4000634995398715 -0.4008926098189751 
1.4254426481371 -0.3749849961215677 -0.3430039660280748 -0.1835812913092601 -0.2068922436667689 -0.3919495399703434 -0.1680440982217076 
-0.2487464487184187 -0.1175781143116656 -0.1055577961513743 -0.05193066483151068 -0.05890594553039191 0.7432909372323518 -0.04707322302894316 
-0.4354434453562695 -0.2159886390542706 -0.1954433664080111 -0.09936885113115011 -0.1124836208595565 1.271265602611191 -0.09040905109733088 
1.2915812829804 -1.29245537785476 -1.292559973115698 -1.292566322845619 -1.291307147773859 -1.292539146643289 -1.292661588670094 
2.204727177834306 -2.197241431101351 -2.197009315344438 -2.19690316610899 -2.200410527594066 -2.196360890569616 -2.197934738058072 
2.744475629428249 -2.736778835639144 -2.736689264873613 -2.736708948540476 -2.737552952918359 -2.734695796828139 -2.737279337888224 
3.458304075326489 -1.561090880412444 -1.484429704860246 -1.031268807675516 -1.109743728385544 -1.600301100080617 -0.9772511237854444 
0.879694003720053 -0.8797855498402524 -0.8797647753833447 -0.8796775836090641 -0.8806375276657175 -0.8798775974361255 -0.8797030468298803 
1.042458274958608 -1.042497851090828 -1.042575306507482 -1.042512193685875 -1.042711525243074 -1.042667732886917 -1.042610997626665 
2.269556447259739 -2.26166551031954 -2.261433633904669 -2.261371571928906 -2.264591376698222 -2.260520993897092 -2.262411906749782 
1.391731930817141 -1.392743607995079 -1.392834458869371 -1.392791502056421 -1.391491951467474 -1.392790532761269 -1.392873455621433 
0.6736607479524879 -0.6750332109573683 -0.6747929122943818 -0.6749340802609312 -0.6754077233314432 -0.674832965958598 -0.6748622517537098 
0.3970483892380933 -0.4007030658205964 -0.400178216375942 -0.4009260113521515 -0.3990493014774812 -0.4000634995398715 -0.4008926098189751 
-0.2487464487184187 -0.1175781143116656 -0.1055577961513743 0.8754335315918607 -0.05890594553039191 -0.1237085125832871 -0.04707322302894316 
1.2915812829804 -1.29245537785476 -1.292559973115698 -1.292566322845619 -1.291307147773859 -1.292539146643289 -1.292661588670094 
1.480712988940087 -1.481551891401583 -1.481623858328212 -1.481498690344434 -1.480567323955368 -1.481591243687406 -1.481591124775437 
-0.4354434453562695 -0.2159886390542706 -0.1954433664080111 -0.09936885113115011 -0.1124836208595565 1.271265602611191 -0.09040905109733088 
0.3970483892380933 -0.4007030658205964 -0.400178216375942 -0.4009260113521515 -0.3990493014774812 -0.4000634995398715 -0.4008926098189751 
-0.4354434453562695 -0.2159886390542706 -0.1954433664080111 -0.09936885113115011 -0.1124836208595565 1.271265602611191 -0.09040905109733088 
2.014178178201111 -2.008705347636656 -2.008527733562742 -2.008259874976013 -2.011941472462607 -2.008488213589436 -2.009100848186976 
1.819325324551544 -1.816683606859749 -1.816615534035282 -1.816244837828809 -1.818704055479467 -1.816768832318833 -1.816732796875928 
0.3970483892380933 -0.4007030658205964 -0.400178216375942 -0.4009260113521515 -0.3990493014774812 -0.4000634995398715 -0.4008926098189751 
0.6736607479524879 -0.6750332109573683 -0.6747929122943818 -0.6749340802609312 -0.6754077233314432 -0.674832965958598 -0.6748622517537098 
1.176896110776516 -1.177369755624706 -1.177476122065463 -1.17747378755575 -1.176752908651632 -1.177508664837496 -1.177586115465786 
0.6736607479524879 -0.6750332109573683 -0.6747929122943818 -0.6749340802609312 -0.6754077233314432 -0.674832965958598 -0.6748622517537098 
-0.2487464487184187 -0.1175781143116656 -0.1055577961513743 -0.05193066483151068 -0.05890594553039191 0.7432909372323518 -0.04707322302894316 
0.6736607479524879 -0.6750332109573683 -0.6747929122943818 -0.6749340802609312 -0.6754077233314432 -0.674832965958598 -0.6748622517537098 
1.633652630609203 -1.633411019535954 -1.633434769129038 -1.633147721501272 -1.633583335085556 -1.633489630456012 -1.633347481481325 
1.762090952669214 -1.76027308719086 -1.76023691095892 -1.75987139155415 -1.761743637870723 -1.760375705750985 -1.760256607331283 
0.3970483892380933 -0.4007030658205964 -0.400178216375942 -0.4009260113521515 -0.3990493014774812 -0.4000634995398715 -0.4008926098189751 
1.391731930817141 -1.392743607995079 -1.392834458869371 -1.392791502056421 -1.391491951467474 -1.392790532761269 -1.392873455621433 
1.633652630609203 -1.633411019535954 -1.633434769129038 -1.633147721501272 -1.633583335085556 -1.633489630456012 -1.633347481481325 
1.2915812829804 -1.29245537785476 -1.292559973115698 -1.292566322845619 -1.291307147773859 -1.292539146643289 -1.292661588670094 
1.922744173773647 -1.918561452545953 -1.918432786369512 -1.918098104677304 -1.92138257349342 -1.91853862495963 -1.918781107031789 
0.6736607479524879 -0.6750332109573683 -0.6747929122943818 -0.6749340802609312 -0.6754077233314432 -0.674832965958598 -0.6748622517537098 
0.879694003720053 -0.8797855498402524 -0.8797647753833447 -0.8796775836090641 -0.8806375276657175 -0.8798775974361255 -0.8797030468298803 
0.6736607479524879 -0.6750332109573683 -0.6747929122943818 -0.6749340802609312 -0.6754077233314432 -0.674832965958598 -0.6748622517537098 
1.176896110776516 -1.177369755624706 -1.177476122065463 -1.17747378755575 -1.176752908651632 -1.177508664837496 -1.177586115465786 
0.5610707516919361 -0.1175781143116656 -0.1055577961513743 -0.05193066483151068 -0.05890594553039191 -0.1237085125832871 -0.04707322302894316 
0.5610707516919361 -0.1175781143116656 -0.1055577961513743 -0.05193066483151068 -0.05890594553039191 -0.1237085125832871 -0.04707322302894316 
-1.493027897959347 3.502475548137662 -0.9319382349714831 -0.8982247822664821 -0.9711376834337662 -1.435615054577472 -0.8481722729311241 
0.9444594789340727 -0.2159886390542706 -0.1954433664080111 -0.09936885113115011 -0.1124836208595565 -0.226659179118374 -0.09040905109733088 
0.2779252417686044 -0.813158098950542 -0.7587337847364048 0.6741626801802187 0.1011985977377955 1.009864093526103 -0.4262801558846979 
0.5610707516919361 -0.1175781143116656 -0.1055577961513743 -0.05193066483151068 -0.05890594553039191 -0.1237085125832871 -0.04707322302894316 
0.5610707516919361 -0.1175781143116656 -0.1055577961513743 -0.05193066483151068 -0.05890594553039191 -0.1237085125832871 -0.04707322302894316 
0.5610707516919361 -0.1175781143116656 -0.1055577961513743 -0.05193066483151068 -0.05890594553039191 -0.1237085125832871 -0.04707322302894316 
-0.8991613030714768 1.534665458529048 0.7186315013785168 -0.2568403004882244 -0.2881659138360747 -0.5224757651690206 -0.2362201839471882 
-0.583248044964317 -0.3006391005845703 1.722828906928052 -0.1430600822510787 -0.1615873583584762 -0.3148133533032345 -0.1305817412227837 
-0.583248044964317 -0.3006391005845703 1.722828906928052 -0.1430600822510787 -0.1615873583584762 -0.3148133533032345 -0.1305817412227837 
3.17873450344387 -1.350729715822772 -1.278977656769533 -0.8603396086230131 -0.9315841575552155 -1.387779959348441 -0.8115201187652582 
1.700439935132541 -1.699438630374436 -1.699433505536227 -1.699094980080275 -1.700279851881953 -1.699536857042705 -1.699381627869927 
2.508615776131987 -2.500420677496889 -2.500248583591242 -2.500270073441129 -2.502135086406446 -2.498487053126772 -2.501136788625774 
1.2915812829804 -1.29245537785476 -1.292559973115698 -1.292566322845619 -1.291307147773859 -1.292539146643289 -1.292661588670094 
0.6736607479524879 -0.6750332109573683 -0.6747929122943818 -0.6749340802609312 -0.6754077233314432 -0.674832965958598 -0.6748622517537098 
1.176896110776516 -1.177369755624706 -1.177476122065463 -1.17747378755575 -1.176752908651632 -1.177508664837496 -1.177586115465786 
2.014178178201111 -2.008705347636656 -2.008527733562742 -2.008259874976013 -2.011941472462607 -2.008488213589436 -2.009100848186976 
0.6736607479524879 -0.6750332109573683 -0.6747929122943818 -0.6749340802609312 -0.6754077233314432 -0.674832965958598 -0.6748622517537098 
0.3970483892380933 -0.4007030658205964 -0.400178216375942 -0.4009260113521515 -0.3990493014774812 -0.4000634995398715 -0.4008926098189751 
2.635193686568262 -2.627302029234413 -2.62717549768798 -2.627202614196984 -2.628449907669257 -2.625204183807357 -2.627910247281407 
2.300047789681897 -2.2920183961581 -2.291789690271628 -2.291745130359591 -2.294806330276798 -2.290751290830477 -2.292779787661419 
2.531169369946151 -2.523018233674207 -2.522854195530929 -2.522878143090643 -2.524622339094639 -2.521040279219282 -2.523717817452583 
0.3970483892380933 -0.4007030658205964 -0.400178216375942 -0.4009260113521515 -0.3990493014774812 -0.4000634995398715 -0.4008926098189751 
0.6736607479524879 -0.6750332109573683 -0.6747929122943818 -0.6749340802609312 -0.6754077233314432 -0.674832965958598 -0.6748622517537098 
1.2915812829804 -1.29245537785476 -1.292559973115698 -1.292566322845619 -1.291307147773859 -1.292539146643289 -1.292661588670094 
0.3970483892380933 -0.4007030658205964 -0.400178216375942 -0.4009260113521515 -0.3990493014774812 -0.4000634995398715 -0.4008926098189751 
3.408638827713149 -3.39042129427082 -3.390466504322255 -3.390377545820275 -3.39037728610269 -3.389493046518418 -3.390468685476825 
-1.943015748145368 -0.9009664692883662 -0.8193374979146613 -0.3248688179470791 -0.02605074175512715 2.829016187248885 -0.2648155339963634 
0.3970483892380933 -0.4007030658205964 -0.400178216375942 -0.4009260113521515 -0.3990493014774812 -0.4000634995398715 -0.4008926098189751 
0.3970483892380933 -0.4007030658205964 -0.400178216375942 -0.4009260113521515 -0.3990493014774812 -0.4000634995398715 -0.4008926098189751 
0.6736607479524879 -0.6750332109573683 -0.6747929122943818 -0.6749340802609312 -0.6754077233314432 -0.674832965958598 -0.6748622517537098 
0.6736607479524879 -0.6750332109573683 -0.6747929122943818 -0.6749340802609312 -0.6754077233314432 -0.674832965958598 -0.6748622517537098 
0.3970483892380933 -0.4007030658205964 -0.400178216375942 -0.4009260113521515 -0.3990493014774812 -0.4000634995398715 -0.4008926098189751 
1.922744173773647 -1.918561452545953 -1.918432786369512 -1.918098104677304 -1.92138257349342 -1.91853862495963 -1.918781107031789 
0.3970483892380933 -0.4007030658205964 -0.400178216375942 -0.4009260113521515 -0.3990493014774812 -0.4000634995398715 -0.4008926098189751 
1.922744173773647 -1.918561452545953 -1.918432786369512 -1.918098104677304 -1.92138257349342 -1.91853862495963 -1.918781107031789 
1.176896110776516 -1.177369755624706 -1.177476122065463 -1.17747378755575 -1.176752908651632 -1.177508664837496 -1.177586115465786 
3.123693209496846 -3.111757293544831 -3.111762812857889 -3.111717058309792 -3.111879626267778 -3.110288175286438 -3.111944100132488 
0.3970483892380933 -0.4007030658205964 -0.400178216375942 -0.4009260113521515 -0.3990493014774812 -0.4000634995398715 -0.4008926098189751 
1.633652630609203 -1.633411019535954 -1.633434769129038 -1.633147721501272 -1.633583335085556 -1.633489630456012 -1.633347481481325 
3.357259438649934 -1.484154118196449 -1.409209852264549 -0.9680546088942121 -1.0439433366168 -1.522651951002044 -0.9158529262342122 
1.046083095400166 -0.6534431456061293 -0.6060970619816696 0.3301824628365686 -0.3922241465970014 -0.1213601275257673 0.3704750804654983 
2.029581639236063 -1.456575059689324 -1.382267120788658 1.027342489220284 -1.020527685241499 -1.124859366544228 -0.8940559757626533 
1.819325324551544 -1.816683606859749 -1.816615534035282 -1.816244837828809 -1.818704055479467 -1.816768832318833 -1.816732796875928 
0.6736607479524879 -0.6750332109573683 -0.6747929122943818 -0.6749340802609312 -0.6754077233314432 -0.674832965958598 -0.6748622517537098 
-1.216034316382179 -1.20658813100988 -1.138667619798344 -0.2304194188438072 0.08773748219454253 1.598106419516078 1.880933676077085 
3.984259441571878 -3.925975993757759 -3.925979652481835 -3.925989504074851 -3.926036892437547 -3.929487439315339 -3.926023204397885 
0.3970483892380933 -0.4007030658205964 -0.400178216375942 -0.4009260113521515 -0.3990493014774812 -0.4000634995398715 -0.4008926098189751 
2.461465975502641 -2.453208061771552 -2.453019714285295 -2.453033557650232 -2.455162730727325 -2.451387401173021 -2.453953101135919 
0.879694003720053 -0.8797855498402524 -0.8797647753833447 -0.8796775836090641 -0.8806375276657175 -0.8798775974361255 -0.8797030468298803 
0.3970483892380933 -0.4007030658205964 -0.400178216375942 -0.4009260113521515 -0.3990493014774812 -0.4000634995398715 -0.4008926098189751 
0.6736607479524879 -0.6750332109573683 -0.6747929122943818 -0.6749340802609312 -0.6754077233314432 -0.674832965958598 -0.6748622517537098 
0.879694003720053 -0.8797855498402524 -0.8797647753833447 -0.8796775836090641 -0.8806375276657175 -0.8798775974361255 -0.8797030468298803 
1.042458274958608 -1.042497851090828 -1.042575306507482 -1.042512193685875 -1.042711525243074 -1.042667732886917 -1.042610997626665 
1.700439935132541 -1.699438630374436 -1.699433505536227 -1.699094980080275 -1.700279851881953 -1.699536857042705 -1.699381627869927 
2.357088818494427 -0.813158098950542 -0.7587337847364048 -0.4585362881010602 -0.5075743834294828 -0.8419978062336124 -0.4262801558846979 
2.727251113962602 -2.71954038096673 -2.719445254949784 -2.719466671865396 -2.720366240142066 -2.717446570756794 -2.720057961167277 
0.879694003720053 -0.8797855498402524 -0.8797647753833447 -0.8796775836090641 -0.8806375276657175 -0.8798775974361255 -0.8797030468298803 
0.6736607479524879 -0.6750332109573683 -0.6747929122943818 -0.6749340802609312 -0.6754077233314432 -0.674832965958598 -0.6748622517537098 
0.3970483892380933 -0.4007030658205964 -0.400178216375942 -0.4009260113521515 -0.3990493014774812 -0.4000634995398715 -0.4008926098189751 
2.384935342409071 -2.376687723565435 -2.376476262583596 -2.376469252956678 -2.379046360033663 -2.375102812151217 -2.377458894609337 
-1.983998685848043 -1.334240109766856 -1.262904100696491 4.525153005187485 -0.4438342609619315 -1.371094353459993 -0.798830081159124 
1.2915812829804 -1.29245537785476 -1.292559973115698 -1.292566322845619 -1.291307147773859 -1.292539146643289 -1.292661588670094 
2.014178178201111 -2.008705347636656 -2.008527733562742 -2.008259874976013 -2.011941472462607 -2.008488213589436 -2.009100848186976 
1.2915812829804 -1.29245537785476 -1.292559973115698 -1.292566322845619 -1.291307147773859 -1.292539146643289 -1.292661588670094 
1.480712988940087 -1.481551891401583 -1.481623858328212 -1.481498690344434 -1.480567323955368 -1.481591243687406 -1.481591124775437 
1.2915812829804 -1.29245537785476 -1.292559973115698 -1.292566322845619 -1.291307147773859 -1.292539146643289 -1.292661588670094 
0.3970483892380933 -0.4007030658205964 -0.400178216375942 -0.4009260113521515 -0.3990493014774812 -0.4000634995398715 -0.4008926098189751 
1.762090952669214 -1.76027308719086 -1.76023691095892 -1.75987139155415 -1.761743637870723 -1.760375705750985 -1.760256607331283 
1.480712988940087 -1.481551891401583 -1.481623858328212 -1.481498690344434 -1.480567323955368 -1.481591243687406 -1.481591124775437 
3.437942625031981 -3.420337670318872 -3.420385067823072 -3.420294113783858 -3.420285204894947 -3.419480650051353 -3.420375033450136 
1.176896110776516 -1.177369755624706 -1.177476122065463 -1.17747378755575 -1.176752908651632 -1.177508664837496 -1.177586115465786 
0.3970483892380933 -0.4007030658205964 -0.400178216375942 -0.4009260113521515 -0.3990493014774812 -0.4000634995398715 -0.4008926098189751 
2.531169369946151 -2.523018233674207 -2.522854195530929 -2.522878143090643 -2.524622339094639 -2.521040279219282 -2.523717817452583 
1.969788258040021 -1.964924956785422 -1.964769972812195 -1.964466822580809 -1.967997427938084 -1.964814115810826 -1.96523449928132 
0.5610707516919361 -0.1175781143116656 -0.1055577961513743 -0.05193066483151068 -0.05890594553039191 -0.1237085125832871 -0.04707322302894316 
2.485395458813339 -2.47716392675142 -2.47698370237313 -2.477001872972135 -2.478995237532595 -2.475282585860916 -2.477895320922325 
1.042458274958608 -1.042497851090828 -1.042575306507482 -1.042512193685875 -1.042711525243074 -1.042667732886917 -1.042610997626665 
-1.805151296505732 -1.186299587686629 -1.118957550371291 2.135010036740707 2.67070725742661 -1.221247213098568 -0.6871947264032867 
-1.232509404522454 0.2372500828153166 -0.686875581850402 0.773763067640411 0.1808861080929297 1.465812482133025 -0.3779409370768068 
-0.2487464487184187 -0.1175781143116656 -0.1055577961513743 -0.05193066483151068 -0.05890594553039191 0.7432909372323518 -0.04707322302894316 
1.700439935132541 -1.699438630374436 -1.699433505536227 -1.699094980080275 -1.700279851881953 -1.699536857042705 -1.699381627869927 
0.3970483892380933 -0.4007030658205964 -0.400178216375942 -0.4009260113521515 -0.3990493014774812 -0.4000634995398715 -0.4008926098189751 
1.042458274958608 -1.042497851090828 -1.042575306507482 -1.042512193685875 -1.042711525243074 -1.042667732886917 -1.042610997626665 
1.176896110776516 -1.177369755624706 -1.177476122065463 -1.17747378755575 -1.176752908651632 -1.177508664837496 -1.177586115465786 
0.3435368734657264 -0.5561394637409919 -0.5136544266708366 0.429295350892273 0.376107508665781 0.515751521247735 -0.2674705012863035 
3.177089362806758 -3.163651244869506 -3.163666385824222 -3.163610428232301 -3.163729379142627 -3.162279561405487 -3.163805991844785 
0.3970483892380933 -0.4007030658205964 -0.400178216375942 -0.4009260113521515 -0.3990493014774812 -0.4000634995398715 -0.4008926098189751 
0.3970483892380933 -0.4007030658205964 -0.400178216375942 -0.4009260113521515 -0.3990493014774812 -0.4000634995398715 -0.4008926098189751 
0.3970483892380933 -0.4007030658205964 -0.400178216375942 -0.4009260113521515 -0.3990493014774812 -0.4000634995398715 -0.4008926098189751 
1.969788258040021 -1.964924956785422 -1.964769972812195 -1.964466822580809 -1.967997427938084 -1.964814115810826 -1.96523449928132 
1.969788258040021 -1.964924956785422 -1.964769972812195 -1.964466822580809 -1.967997427938084 -1.964814115810826 -1.96523449928132 
0.3970483892380933 -0.4007030658205964 -0.400178216375942 -0.4009260113521515 -0.3990493014774812 -0.4000634995398715 -0.4008926098189751 
0.5610707516919361 -0.1175781143116656 -0.1055577961513743 -0.05193066483151068 -0.05890594553039191 -0.1237085125832871 -0.04707322302894316 
0.879694003720053 -0.8797855498402524 -0.8797647753833447 -0.8796775836090641 -0.8806375276657175 -0.8798775974361255 -0.8797030468298803 
2.855971052113451 -2.848078785990276 -2.848022427153207 -2.848027078236571 -2.848575866557603 -2.846123852785734 -2.848472468270444 
0.2734430533952906 -0.2159886390542706 -0.1954433664080111 -0.09936885113115011 0.7443454991019955 -0.226659179118374 -0.09040905109733088 
1.700439935132541 -1.699438630374436 -1.699433505536227 -1.699094980080275 -1.700279851881953 -1.699536857042705 -1.699381627869927 
1.969788258040021 -1.964924956785422 -1.964769972812195 -1.964466822580809 -1.967997427938084 -1.964814115810826 -1.96523449928132 
-0.8088493975103458 -0.441344894731538 -0.4052589606471071 -0.2213868644140326 -0.2489389794317281 2.128233612885444 -0.2031587549428615 
0.6736607479524879 -0.6750332109573683 -0.6747929122943818 -0.6749340802609312 -0.6754077233314432 -0.674832965958598 -0.6748622517537098 
1.560811096952695 -1.561207939247148 -1.561257490903407 -1.56104463172279 -1.560739005450267 -1.561262354516862 -1.56117730322014 
0.3970483892380933 -0.4007030658205964 -0.400178216375942 -0.4009260113521515 -0.3990493014774812 -0.4000634995398715 -0.4008926098189751 
2.615448901341062 -2.607506090091662 -2.607372519019705 -2.607399933273516 -2.608733250175272 -2.605420371245365 -2.608133027344236 
0.879694003720053 -0.8797855498402524 -0.8797647753833447 -0.8796775836090641 -0.8806375276657175 -0.8798775974361255 -0.8797030468298803 
1.560811096952695 -1.561207939247148 -1.561257490903407 -1.56104463172279 -1.560739005450267 -1.561262354516862 -1.56117730322014 
2.096060801438178 -2.089585659106068 -2.089374931472043 -2.089178624490163 -2.092935861395807 -2.089117778602728 -2.090129700843198 
1.480712988940087 -1.481551891401583 -1.481623858328212 -1.481498690344434 -1.480567323955368 -1.481591243687406 -1.481591124775437 
0.3970483892380933 -0.4007030658205964 -0.400178216375942 -0.4009260113521515 -0.3990493014774812 -0.4000634995398715 -0.4008926098189751 
2.329386572097892 -2.321254657268502 -2.321030630354461 -2.321000887899757 -2.323899953331795 -2.319872845014089 -2.322024583339232 
1.217510804155179 -0.3006391005845703 -0.2736919045643912 -0.1430600822510787 -0.1615873583584762 -0.3148133533032345 -0.1305817412227837 
0.6736607479524879 -0.6750332109573683 -0.6747929122943818 -0.6749340802609312 -0.6754077233314432 -0.674832965958598 -0.6748622517537098 
0.6736607479524879 -0.6750332109573683 -0.6747929122943818 -0.6749340802609312 -0.6754077233314432 -0.674832965958598 -0.6748622517537098 
0.3970483892380933 -0.4007030658205964 -0.400178216375942 -0.4009260113521515 -0.3990493014774812 -0.4000634995398715 -0.4008926098189751 
1.480712988940087 -1.481551891401583 -1.481623858328212 -1.481498690344434 -1.480567323955368 -1.481591243687406 -1.481591124775437 
2.70965638525995 -2.701923092371737 -2.701822179037116 -2.701845170168742 -2.702804506273553 -2.699821310069847 -2.702458161277358 
2.269556447259739 -2.26166551031954 -2.261433633904669 -2.261371571928906 -2.264591376698222 -2.260520993897092 -2.262411906749782 
2.133993174888746 -2.127120116943004 -2.126898792253224 -2.126735562981847 -2.130445865790548 -2.12651600308772 -2.127723933538898 
0.3970483892380933 -0.4007030658205964 -0.400178216375942 -0.4009260113521515 -0.3990493014774812 -0.4000634995398715 -0.4008926098189751 
2.204727177834306 -2.197241431101351 -2.197009315344438 -2.19690316610899 -2.200410527594066 -2.196360890569616 -2.197934738058072 
1.042458274958608 -1.042497851090828 -1.042575306507482 -1.042512193685875 -1.042711525243074 -1.042667732886917 -1.042610997626665 
3.532623357566584 -3.523716635409643 -3.523767668458738 -3.523675882672979 -3.523648191065994 -3.523164465953421 -3.523727527542468 
-1.176915325435373 2.508259852237691 -0.6477465382121615 0.2857358985978966 -0.4232071915111307 -0.723481325800761 -0.3522132886389887 
0.6736607479524879 -0.6750332109573683 -0.6747929122943818 -0.6749340802609312 -0.6754077233314432 -0.674832965958598 -0.6748622517537098 
0.3970483892380933 -0.4007030658205964 -0.400178216375942 -0.4009260113521515 -0.3990493014774812 -0.4000634995398715 -0.4008926098189751 
2.691673374654531 -2.683909729026282 -2.683802787687275 -2.683827168295617 -2.684850807502507 -2.681803145393364 -2.684462661889686 
0.3970483892380933 -0.4007030658205964 -0.400178216375942 -0.4009260113521515 -0.3990493014774812 -0.4000634995398715 -0.4008926098189751 
0.3970483892380933 -0.4007030658205964 -0.400178216375942 -0.4009260113521515 -0.3990493014774812 -0.4000634995398715 -0.4008926098189751 
-0.4354434453562695 1.292640799508378 -0.1954433664080111 -0.09936885113115011 -0.1124836208595565 -0.226659179118374 -0.09040905109733088 
-0.4354434453562695 0.5772287200520956 0.6080080628674323 -0.09936885113115011 -0.1124836208595565 -0.226659179118374 -0.09040905109733088 
1.042458274958608 -1.042497851090828 -1.042575306507482 -1.042512193685875 -1.042711525243074 -1.042667732886917 -1.042610997626665 
0.3970483892380933 -0.4007030658205964 -0.400178216375942 -0.4009260113521515 -0.3990493014774812 -0.4000634995398715 -0.4008926098189751 
0.3970483892380933 -0.4007030658205964 -0.400178216375942 -0.4009260113521515 -0.3990493014774812 -0.4000634995398715 -0.4008926098189751 
0.879694003720053 -0.8797855498402524 -0.8797647753833447 -0.8796775836090641 -0.8806375276657175 -0.8798775974361255 -0.8797030468298803 
0.3970483892380933 -0.4007030658205964 -0.400178216375942 -0.4009260113521515 -0.3990493014774812 -0.4000634995398715 -0.4008926098189751 
0.6736607479524879 -0.6750332109573683 -0.6747929122943818 -0.6749340802609312 -0.6754077233314432 -0.674832965958598 -0.6748622517537098 
1.700439935132541 -1.699438630374436 -1.699433505536227 -1.699094980080275 -1.700279851881953 -1.699536857042705 -1.699381627869927 
3.246693192339924 -3.231156875386695 -3.231183159981478 -3.231114891921325 -3.23118735750863 -3.229910117254911 -3.231274068047286 
1.762090952669214 -1.76027308719086 -1.76023691095892 -1.75987139155415 -1.761743637870723 -1.760375705750985 -1.760256607331283 
0.3970483892380933 -0.4007030658205964 -0.400178216375942 -0.4009260113521515 -0.3990493014774812 -0.4000634995398715 -0.4008926098189751 
3.489564971986552 -1.585026617143351 -1.507848073881512 -1.051085730576236 -1.13034965707153 -1.624439041857765 -0.9965225661920961 
0.3970483892380933 -0.4007030658205964 -0.400178216375942 -0.4009260113521515 -0.3990493014774812 -0.4000634995398715 -0.4008926098189751 
0.6736607479524879 -0.6750332109573683 -0.6747929122943818 -0.6749340802609312 -0.6754077233314432 -0.674832965958598 -0.6748622517537098 
0.3970483892380933 -0.4007030658205964 -0.400178216375942 -0.4009260113521515 -0.3990493014774812 -0.4000634995398715 -0.4008926098189751 
1.633652630609203 -1.633411019535954 -1.633434769129038 -1.633147721501272 -1.633583335085556 -1.633489630456012 -1.633347481481325 
0.6736607479524879 -0.6750332109573683 -0.6747929122943818 -0.6749340802609312 -0.6754077233314432 -0.674832965958598 -0.6748622517537098 
0.6736607479524879 -0.6750332109573683 -0.6747929122943818 -0.6749340802609312 -0.6754077233314432 -0.674832965958598 -0.6748622517537098 
0.879694003720053 -0.8797855498402524 -0.8797647753833447 -0.8796775836090641 -0.8806375276657175 -0.8798775974361255 -0.8797030468298803 
0.3970483892380933 -0.4007030658205964 -0.400178216375942 -0.4009260113521515 -0.3990493014774812 -0.4000634995398715 -0.4008926098189751 
0.3970483892380933 -0.4007030658205964 -0.400178216375942 -0.4009260113521515 -0.3990493014774812 -0.4000634995398715 -0.4008926098189751 
3.563302887617366 -1.641645099570781 -1.563273592800554 -1.098229750917537 -1.179326472955582 -1.681498641466282 -1.042412047877427 
0.3970483892380933 -0.4007030658205964 -0.400178216375942 -0.4009260113521515 -0.3990493014774812 -0.4000634995398715 -0.4008926098189751 
0.6736607479524879 -0.6750332109573683 -0.6747929122943818 -0.6749340802609312 -0.6754077233314432 -0.674832965958598 -0.6748622517537098 
2.854710204546284 -1.121630831715918 -1.056207178178794 -0.6820586335089321 -0.7447776231204123 -1.155665366532329 -0.6397386590352386 
1.969788258040021 -1.964924956785422 -1.964769972812195 -1.964466822580809 -1.967997427938084 -1.964814115810826 -1.96523449928132 
1.922744173773647 -1.918561452545953 -1.918432786369512 -1.918098104677304 -1.92138257349342 -1.91853862495963 -1.918781107031789 
1.819325324551544 -1.816683606859749 -1.816615534035282 -1.816244837828809 -1.818704055479467 -1.816768832318833 -1.816732796875928 
1.700439935132541 -1.699438630374436 -1.699433505536227 -1.699094980080275 -1.700279851881953 -1.699536857042705 -1.699381627869927 
3.239327609951662 -3.876725244928933 -3.876739149944233 -3.876728251543797 -3.235535721376614 -3.879220988556731 -3.876755403917756 
3.246693192339924 -3.231156875386695 -3.231183159981478 -3.231114891921325 -3.23118735750863 -3.229910117254911 -3.231274068047286 
0.3970483892380933 -0.4007030658205964 -0.400178216375942 -0.4009260113521515 -0.3990493014774812 -0.4000634995398715 -0.4008926098189751 
1.042458274958608 -1.042497851090828 -1.042575306507482 -1.042512193685875 -1.042711525243074 -1.042667732886917 -1.042610997626665 
1.872719633770874 -1.869281956775142 -1.869182608598957 -1.868823882071361 -1.871754027188883 -1.869325271932983 -1.869412623191893 
1.042458274958608 -1.042497851090828 -1.042575306507482 -1.042512193685875 -1.042711525243074 -1.042667732886917 -1.042610997626665 
0.3970483892380933 -0.4007030658205964 -0.400178216375942 -0.4009260113521515 -0.3990493014774812 -0.4000634995398715 -0.4008926098189751 
1.922744173773647 -1.918561452545953 -1.918432786369512 -1.918098104677304 -1.92138257349342 -1.91853862495963 -1.918781107031789 
0.6736607479524879 -0.6750332109573683 -0.6747929122943818 -0.6749340802609312 -0.6754077233314432 -0.674832965958598 -0.6748622517537098 
2.727251113962602 -2.71954038096673 -2.719445254949784 -2.719466671865396 -2.720366240142066 -2.717446570756794 -2.720057961167277 
2.615448901341062 -2.607506090091662 -2.607372519019705 -2.607399933273516 -2.608733250175272 -2.605420371245365 -2.608133027344236 
0.879694003720053 -0.8797855498402524 -0.8797647753833447 -0.8796775836090641 -0.8806375276657175 -0.8798775974361255 -0.8797030468298803 
0.6736607479524879 -0.6750332109573683 -0.6747929122943818 -0.6749340802609312 -0.6754077233314432 -0.674832965958598 -0.6748622517537098 
0.3970483892380933 -0.4007030658205964 -0.400178216375942 -0.4009260113521515 -0.3990493014774812 -0.4000634995398715 -0.4008926098189751 
0.3970483892380933 -0.4007030658205964 -0.400178216375942 -0.4009260113521515 -0.3990493014774812 -0.4000634995398715 -0.4008926098189751 
1.872719633770874 -1.869281956775142 -1.869182608598957 -1.868823882071361 -1.871754027188883 -1.869325271932983 -1.869412623191893 
2.384935342409071 -2.376687723565435 -2.376476262583596 -2.376469252956678 -2.379046360033663 -2.375102812151217 -2.377458894609337 
0.6736607479524879 -0.6750332109573683 -0.6747929122943818 -0.6749340802609312 -0.6754077233314432 -0.674832965958598 -0.6748622517537098 
0.3970483892380933 -0.4007030658205964 -0.400178216375942 -0.4009260113521515 -0.3990493014774812 -0.4000634995398715 -0.4008926098189751 
-0.2487464487184187 -0.1175781143116656 0.7732586258219054 -0.05193066483151068 -0.05890594553039191 -0.1237085125832871 -0.04707322302894316 
-0.583248044964317 -0.3006391005845703 1.722828906928052 -0.1430600822510787 -0.1615873583584762 -0.3148133533032345 -0.1305817412227837 
0.6736607479524879 -0.6750332109573683 -0.6747929122943818 -0.6749340802609312 -0.6754077233314432 -0.674832965958598 -0.6748622517537098 
-0.7977328014791283 -0.738102372492544 -0.686875581850402 0.773763067640411 -0.4526622828691731 1.998678702181213 -0.3779409370768068 
-1.848071513854145 -1.470496528948536 -1.39586595299071 3.374195657552082 0.0614790898534137 -1.508858173371374 1.39315071309156 
0.5610707516919361 -0.1175781143116656 -0.1055577961513743 -0.05193066483151068 -0.05890594553039191 -0.1237085125832871 -0.04707322302894316 
-0.974044709552447 2.607389771366744 -0.2769542221914595 -0.4825205637873761 -0.5332749129367249 -0.8772608170539823 -0.4490633308783986 
0.5610707516919361 -0.1175781143116656 -0.1055577961513743 -0.05193066483151068 -0.05890594553039191 -0.1237085125832871 -0.04707322302894316 
0.5610707516919361 -0.1175781143116656 -0.1055577961513743 -0.05193066483151068 -0.05890594553039191 -0.1237085125832871 -0.04707322302894316 
0.5610707516919361 -0.1175781143116656 -0.1055577961513743 -0.05193066483151068 -0.05890594553039191 -0.1237085125832871 -0.04707322302894316 
0.9444594789340727 -0.2159886390542706 -0.1954433664080111 -0.09936885113115011 -0.1124836208595565 -0.226659179118374 -0.09040905109733088 
0.5610707516919361 -0.1175781143116656 -0.1055577961513743 -0.05193066483151068 -0.05890594553039191 -0.1237085125832871 -0.04707322302894316 
-1.051277540879882 1.930219121399946 0.5306848595906276 -0.3218176087187326 -0.3595355948668514 -0.6307312742776576 -0.2971110196569316 
-0.4354434453562695 -0.2159886390542706 1.331927641306102 -0.09936885113115011 -0.1124836208595565 -0.226659179118374 -0.09040905109733088 
-2.052156495438862 -1.630666116029059 -1.552522566521545 -0.6583413617779403 -0.4176006533067449 3.678625352522164 -1.033480904143945 
1.560811096952695 -1.561207939247148 -1.561257490903407 -1.56104463172279 -1.560739005450267 -1.561262354516862 -1.56117730322014 
1.176896110776516 -1.177369755624706 -1.177476122065463 -1.17747378755575 -1.176752908651632 -1.177508664837496 -1.177586115465786 
0.3970483892380933 -0.4007030658205964 -0.400178216375942 -0.4009260113521515 -0.3990493014774812 -0.4000634995398715 -0.4008926098189751 
0.879694003720053 -0.8797855498402524 -0.8797647753833447 -0.8796775836090641 -0.8806375276657175 -0.8798775974361255 -0.8797030468298803 
1.176896110776516 -1.177369755624706 -1.177476122065463 -1.17747378755575 -1.176752908651632 -1.177508664837496 -1.177586115465786 
0.3970483892380933 -0.4007030658205964 -0.400178216375942 -0.4009260113521515 -0.3990493014774812 -0.4000634995398715 -0.4008926098189751 
1.042458274958608 -1.042497851090828 -1.042575306507482 -1.042512193685875 -1.042711525243074 -1.042667732886917 -1.042610997626665 
1.961827986720832 -0.6066186630416056 -0.5615544560522817 -0.3218176087187326 -0.3595355948668514 -0.6307312742776576 -0.2971110196569316 
1.042458274958608 -1.042497851090828 -1.042575306507482 -1.042512193685875 -1.042711525243074 -1.042667732886917 -1.042610997626665 
1.391731930817141 -1.392743607995079 -1.392834458869371 -1.392791502056421 -1.391491951467474 -1.392790532761269 -1.392873455621433 
1.391731930817141 -1.392743607995079 -1.392834458869371 -1.392791502056421 -1.391491951467474 -1.392790532761269 -1.392873455621433 
1.2915812829804 -1.29245537785476 -1.292559973115698 -1.292566322845619 -1.291307147773859 -1.292539146643289 -1.292661588670094 
-1.232509404522454 2.326545525121734 -0.686875581850402 -0.4075280522966798 -0.4526622828691731 -0.7653747133732286 0.8298220548445128 
-0.8088493975103458 1.263084215528295 0.832958153551604 -0.2213868644140326 -0.2489389794317281 -0.4605865870072557 -0.2031587549428615 
-1.332606267956274 2.037486504312173 0.8729993415607631 -0.4585362881010602 -0.5075743834294828 -0.8419978062336124 -0.4262801558846979 
1.042458274958608 -1.042497851090828 -1.042575306507482 -1.042512193685875 -1.042711525243074 -1.042667732886917 -1.042610997626665 
1.922744173773647 -1.918561452545953 -1.918432786369512 -1.918098104677304 -1.92138257349342 -1.91853862495963 -1.918781107031789 
2.436780906039279 -2.428509436315307 -2.428313079409694 -2.428321417913897 -2.430593574966684 -2.426758233285516 -2.429266022483807 
1.2915812829804 -1.29245537785476 -1.292559973115698 -1.292566322845619 -1.291307147773859 -1.292539146643289 -1.292661588670094 
0.879694003720053 -0.8797855498402524 -0.8797647753833447 -0.8796775836090641 -0.8806375276657175 -0.8798775974361255 -0.8797030468298803 
0.3970483892380933 -0.4007030658205964 -0.400178216375942 -0.4009260113521515 -0.3990493014774812 -0.4000634995398715 -0.4008926098189751 
0.6736607479524879 -0.6750332109573683 -0.6747929122943818 -0.6749340802609312 -0.6754077233314432 -0.674832965958598 -0.6748622517537098 
1.176896110776516 -1.177369755624706 -1.177476122065463 -1.17747378755575 -1.176752908651632 -1.177508664837496 -1.177586115465786 
0.3970483892380933 -0.4007030658205964 -0.400178216375942 -0.4009260113521515 -0.3990493014774812 -0.4000634995398715 -0.4008926098189751 
1.176896110776516 -1.177369755624706 -1.177476122065463 -1.17747378755575 -1.176752908651632 -1.177508664837496 -1.177586115465786 
1.042458274958608 -1.042497851090828 -1.042575306507482 -1.042512193685875 -1.042711525243074 -1.042667732886917 -1.042610997626665 
-0.583248044964317 -0.3006391005845703 -0.2736919045643912 -0.1430600822510787 -0.1615873583584762 1.640605629481753 -0.1305817412227837 
0.08096462127919393 -0.5013390997821289 -0.4618089077154321 -0.2568403004882244 0.4353962711755618 -0.5224757651690206 1.686692653918555 
0.879694003720053 -0.8797855498402524 -0.8797647753833447 -0.8796775836090641 -0.8806375276657175 -0.8798775974361255 -0.8797030468298803 
0.3970483892380933 -0.4007030658205964 -0.400178216375942 -0.4009260113521515 -0.3990493014774812 -0.4000634995398715 -0.4008926098189751 
2.096060801438178 -2.089585659106068 -2.089374931472043 -2.089178624490163 -2.092935861395807 -2.089117778602728 -2.090129700843198 
1.391731930817141 -1.392743607995079 -1.392834458869371 -1.392791502056421 -1.391491951467474 -1.392790532761269 -1.392873455621433 
2.485395458813339 -2.47716392675142 -2.47698370237313 -2.477001872972135 -2.478995237532595 -2.475282585860916 -2.477895320922325 
1.176896110776516 -1.177369755624706 -1.177476122065463 -1.17747378755575 -1.176752908651632 -1.177508664837496 -1.177586115465786 
1.480712988940087 -1.481551891401583 -1.481623858328212 -1.481498690344434 -1.480567323955368 -1.481591243687406 -1.481591124775437 
1.176896110776516 -1.177369755624706 -1.177476122065463 -1.17747378755575 -1.176752908651632 -1.177508664837496 -1.177586115465786 
1.633652630609203 -1.633411019535954 -1.633434769129038 -1.633147721501272 -1.633583335085556 -1.633489630456012 -1.633347481481325 
0.6736607479524879 -0.6750332109573683 -0.6747929122943818 -0.6749340802609312 -0.6754077233314432 -0.674832965958598 -0.6748622517537098 
1.391731930817141 -1.392743607995079 -1.392834458869371 -1.392791502056421 -1.391491951467474 -1.392790532761269 -1.392873455621433 
1.85511564518693 -0.5561394637409919 -0.5136544266708366 -0.290236474343793 -0.324932320379513 -0.57887854041528 -0.2674705012863035 
2.220416294304777 -0.738102372492544 -0.686875581850402 -0.4075280522966798 -0.4526622828691731 -0.7653747133732286 -0.3779409370768068 
-0.4354434453562695 1.292640799508378 -0.1954433664080111 -0.09936885113115011 -0.1124836208595565 -0.226659179118374 -0.09040905109733088 
-0.8991613030714768 -0.5013390997821289 2.418568396547105 -0.2568403004882244 -0.2881659138360747 -0.5224757651690206 -0.2362201839471882 
-0.8088493975103458 0.7717381610621015 1.331366307580113 -0.2213868644140326 -0.2489389794317281 -0.4605865870072557 -0.2031587549428615 
-0.879694003720053 -0.8797855498402524 -0.8797647753833447 0.8796775836090641 -0.8806375276657175 -0.8798775974361255 -0.8797030468298803 
-0.6543396830461177 -0.6534431456061293 -0.6060970619816696 -0.3517849409282877 2.927924118371062 -0.6787471046655527 -0.3253108327672314 
-1.301191159014261 -1.264149946779833 -1.194643916333246 -0.7918944777905185 4.101238994262751 -1.30013310732353 -0.7454295594665225 
-0.8991613030714768 -0.5013390997821289 -0.4618089077154321 -0.2568403004882244 2.789156905904372 -0.5224757651690206 -0.2362201839471882 
-1.363366973695746 -1.881527512274331 -1.798587881328686 -0.9107319738408296 -1.010146964002802 3.564626397582108 -1.24112837006529 
-1.753909933987334 -1.398022726524179 -0.9319382349714833 -0.8982247822664821 -0.1437413504227392 -1.435615054577472 4.273301270320494 
-1.144403972547612 -1.317358068233325 -1.246453502997411 0.6398984734051081 -0.4262747719576298 -0.6408201069989734 3.390898840290027 
-0.7051503135223078 1.946441894817176 -0.3430039660280748 -0.1835812913092601 -0.2068922436667689 -0.3919495399703434 -0.1680440982217076 
-1.051277540879882 1.595425030760257 0.9549331448614805 -0.3218176087187326 -0.3595355948668514 -0.6307312742776576 -0.2971110196569316 
0.4694517399038666 -0.912021405762267 -0.8537105466420312 0.06763291823770055 0.4591567486954509 0.2555287915404265 1.008544359833895 
-0.8088493975103458 -0.441344894731538 -0.4052589606471071 -0.2213868644140326 0.5004671303014322 0.187827374746389 1.802700035598507 
1.2915812829804 -1.29245537785476 -1.292559973115698 -1.292566322845619 -1.291307147773859 -1.292539146643289 -1.292661588670094 
1.560811096952695 -1.561207939247148 -1.561257490903407 -1.56104463172279 -1.560739005450267 -1.561262354516862 -1.56117730322014 
1.480712988940087 -1.481551891401583 -1.481623858328212 -1.481498690344434 -1.480567323955368 -1.481591243687406 -1.481591124775437 
1.872719633770874 -1.869281956775142 -1.869182608598957 -1.868823882071361 -1.871754027188883 -1.869325271932983 -1.869412623191893 
1.961827986720832 -0.6066186630416056 -0.5615544560522817 -0.3218176087187326 -0.3595355948668514 -0.6307312742776576 -0.2971110196569316 
-2.313402767426349 3.84698003839884 -0.5582774177655715 -1.266973262627555 -1.35405232709781 -1.882018591154795 -1.207110692140164 
1.2915812829804 -1.29245537785476 -1.292559973115698 -1.292566322845619 -1.291307147773859 -1.292539146643289 -1.292661588670094 
1.480712988940087 -1.481551891401583 -1.481623858328212 -1.481498690344434 -1.480567323955368 -1.481591243687406 -1.481591124775437 
0.3970483892380933 -0.4007030658205964 -0.400178216375942 -0.4009260113521515 -0.3990493014774812 -0.4000634995398715 -0.4008926098189751 
1.961827986720832 -0.6066186630416056 -0.5615544560522817 -0.3218176087187326 -0.3595355948668514 -0.6307312742776576 -0.2971110196569316 
-0.7051503135223078 1.946441894817176 -0.3430039660280748 -0.1835812913092601 -0.2068922436667689 -0.3919495399703434 -0.1680440982217076 
-0.583248044964317 0.4345966804996574 1.128912240653221 -0.1430600822510787 -0.1615873583584762 -0.3148133533032345 -0.1305817412227837 
0.4804771721042203 -0.738102372492544 -0.686875581850402 1.911512925818647 0.1808861080929297 -0.7653747133732286 -0.3779409370768068 
-1.749822266362649 -1.585026617143351 -1.507848073881512 1.23206399682033 3.572699781814016 -1.624439041857765 -0.9965225661920961 
1.391731930817141 -1.392743607995079 -1.392834458869371 -1.392791502056421 -1.391491951467474 -1.392790532761269 -1.392873455621433 
1.391731930817141 -1.392743607995079 -1.392834458869371 -1.392791502056421 -1.391491951467474 -1.392790532761269 -1.392873455621433 
3.543360098707427 -3.536568498071991 -3.536619531170834 -3.536528364094487 -3.536499508646063 -3.536062800898082 -3.536577030716349 
1.819325324551544 -1.816683606859749 -1.816615534035282 -1.816244837828809 -1.818704055479467 -1.816768832318833 -1.816732796875928 
3.860444762036518 -3.828866805430533 -3.828889813627429 -3.828860556496639 -3.828870404048637 -3.83058960221642 -3.828883738661821 
1.2915812829804 -1.29245537785476 -1.292559973115698 -1.292566322845619 -1.291307147773859 -1.292539146643289 -1.292661588670094 
-1.121061523590078 -1.143861775619539 -1.07776539113348 4.003218121544002 -0.7625319583354176 -1.178215685420841 -0.6559552590816764 
2.508615776131987 -2.500420677496889 -2.500248583591242 -2.500270073441129 -2.502135086406446 -2.498487053126772 -2.501136788625774 
0.3970483892380933 -0.4007030658205964 -0.400178216375942 -0.4009260113521515 -0.3990493014774812 -0.4000634995398715 -0.4008926098189751 
2.204727177834306 -2.197241431101351 -2.197009315344438 -2.19690316610899 -2.200410527594066 -2.196360890569616 -2.197934738058072 
1.872719633770874 -1.869281956775142 -1.869182608598957 -1.868823882071361 -1.871754027188883 -1.869325271932983 -1.869412623191893 
1.700439935132541 -1.699438630374436 -1.699433505536227 -1.699094980080275 -1.700279851881953 -1.699536857042705 -1.699381627869927 
1.2915812829804 -1.29245537785476 -1.292559973115698 -1.292566322845619 -1.291307147773859 -1.292539146643289 -1.292661588670094 
1.042458274958608 -1.042497851090828 -1.042575306507482 -1.042512193685875 -1.042711525243074 -1.042667732886917 -1.042610997626665 
1.922744173773647 -1.918561452545953 -1.918432786369512 -1.918098104677304 -1.92138257349342 -1.91853862495963 -1.918781107031789 
0.879694003720053 -0.8797855498402524 -0.8797647753833447 -0.8796775836090641 -0.8806375276657175 -0.8798775974361255 -0.8797030468298803 
1.042458274958608 -1.042497851090828 -1.042575306507482 -1.042512193685875 -1.042711525243074 -1.042667732886917 -1.042610997626665 
3.527083892977319 -3.517214681672029 -3.517265675372283 -3.517173640554381 -3.517146634885789 -3.516639863134802 -3.517226848494445 
0.3970483892380933 -0.4007030658205964 -0.400178216375942 -0.4009260113521515 -0.3990493014774812 -0.4000634995398715 -0.4008926098189751 
0.9444594789340727 -0.2159886390542706 -0.1954433664080111 -0.09936885113115011 -0.1124836208595565 -0.226659179118374 -0.09040905109733088 
-0.2558184437045509 -0.441344894731538 0.832958153551604 -0.2213868644140326 1.136118989192404 -0.4605865870072557 -0.2031587549428615 
0.3970483892380933 -0.4007030658205964 -0.400178216375942 -0.4009260113521515 -0.3990493014774812 -0.4000634995398715 -0.4008926098189751 
2.485395458813339 -2.47716392675142 -2.47698370237313 -2.477001872972135 -2.478995237532595 -2.475282585860916 -2.477895320922325 
3.006240636326193 -1.22630486532483 -1.157832229821958 -0.7623702339272588 -0.8290929115498372 -1.261793319931164 -0.7169736963979345 
2.357657170455692 -2.349453964258535 -2.349235783814575 -2.349218462895775 -2.35195530132168 -2.347966070458356 -2.350226868110792 
1.872719633770874 -1.869281956775142 -1.869182608598957 -1.868823882071361 -1.871754027188883 -1.869325271932983 -1.869412623191893 
-0.8991613030714768 -0.5013390997821289 -0.4618089077154321 2.91239210839082 -0.2881659138360747 -0.5224757651690206 -0.2362201839471882 
0.05675508949442895 -0.3006391005845703 -0.2736919045643912 0.6898407421179422 0.653109904152547 -0.3148133533032345 -0.1305817412227837 
-0.8991613030714768 -0.5013390997821289 -0.4618089077154321 -0.2568403004882244 2.393038536510127 -0.5224757651690206 0.5187166576913824 
1.480712988940087 -1.481551891401583 -1.481623858328212 -1.481498690344434 -1.480567323955368 -1.481591243687406 -1.481591124775437 
0.3970483892380933 -0.4007030658205964 -0.400178216375942 -0.4009260113521515 -0.3990493014774812 -0.4000634995398715 -0.4008926098189751 
1.042458274958608 -1.042497851090828 -1.042575306507482 -1.042512193685875 -1.042711525243074 -1.042667732886917 -1.042610997626665 
0.3970483892380933 -0.4007030658205964 -0.400178216375942 -0.4009260113521515 -0.3990493014774812 -0.4000634995398715 -0.4008926098189751 
1.819325324551544 -1.816683606859749 -1.816615534035282 -1.816244837828809 -1.818704055479467 -1.816768832318833 -1.816732796875928 
1.042458274958608 -1.042497851090828 -1.042575306507482 -1.042512193685875 -1.042711525243074 -1.042667732886917 -1.042610997626665 
1.391731930817141 -1.392743607995079 -1.392834458869371 -1.392791502056421 -1.391491951467474 -1.392790532761269 -1.392873455621433 
0.879694003720053 -0.8797855498402524 -0.8797647753833447 -0.8796775836090641 -0.8806375276657175 -0.8798775974361255 -0.8797030468298803 
2.485395458813339 -2.47716392675142 -2.47698370237313 -2.477001872972135 -2.478995237532595 -2.475282585860916 -2.477895320922325 
0.3970483892380933 -0.4007030658205964 -0.400178216375942 -0.4009260113521515 -0.3990493014774812 -0.4000634995398715 -0.4008926098189751 
0.879694003720053 -0.8797855498402524 -0.8797647753833447 -0.8796775836090641 -0.8806375276657175 -0.8798775974361255 -0.8797030468298803 
2.744475629428249 -2.736778835639144 -2.736689264873613 -2.736708948540476 -2.737552952918359 -2.734695796828139 -2.737279337888224 
1.872719633770874 -1.869281956775142 -1.869182608598957 -1.868823882071361 -1.871754027188883 -1.869325271932983 -1.869412623191893 
1.176896110776516 -1.177369755624706 -1.177476122065463 -1.17747378755575 -1.176752908651632 -1.177508664837496 -1.177586115465786 
-1.60497238902831 -1.02479261504408 -0.9624745531941873 3.961187967273105 -0.1213260562143151 -1.05736386815881 -0.5703382355177855 
1.633652630609203 -1.633411019535954 -1.633434769129038 -1.633147721501272 -1.633583335085556 -1.633489630456012 -1.633347481481325 
0.6736607479524879 -0.6750332109573683 -0.6747929122943818 -0.6749340802609312 -0.6754077233314432 -0.674832965958598 -0.6748622517537098 
1.042458274958608 -1.042497851090828 -1.042575306507482 -1.042512193685875 -1.042711525243074 -1.042667732886917 -1.042610997626665 
1.391731930817141 -1.392743607995079 -1.392834458869371 -1.392791502056421 -1.391491951467474 -1.392790532761269 -1.392873455621433 
1.819325324551544 -1.816683606859749 -1.816615534035282 -1.816244837828809 -1.818704055479467 -1.816768832318833 -1.816732796875928 
1.819325324551544 -1.816683606859749 -1.816615534035282 -1.816244837828809 -1.818704055479467 -1.816768832318833 -1.816732796875928 
1.480712988940087 -1.481551891401583 -1.481623858328212 -1.481498690344434 -1.480567323955368 -1.481591243687406 -1.481591124775437 
1.762090952669214 -1.76027308719086 -1.76023691095892 -1.75987139155415 -1.761743637870723 -1.760375705750985 -1.760256607331283 
2.300047789681897 -2.2920183961581 -2.291789690271628 -2.291745130359591 -2.294806330276798 -2.290751290830477 -2.292779787661419 
1.762090952669214 -1.76027308719086 -1.76023691095892 -1.75987139155415 -1.761743637870723 -1.760375705750985 -1.760256607331283 
1.2915812829804 -1.29245537785476 -1.292559973115698 -1.292566322845619 -1.291307147773859 -1.292539146643289 -1.292661588670094 
3.123693209496846 -3.111757293544831 -3.111762812857889 -3.111717058309792 -3.111879626267778 -3.110288175286438 -3.111944100132488 
1.633652630609203 -1.633411019535954 -1.633434769129038 -1.633147721501272 -1.633583335085556 -1.633489630456012 -1.633347481481325 
0.6736607479524879 -0.6750332109573683 -0.6747929122943818 -0.6749340802609312 -0.6754077233314432 -0.674832965958598 -0.6748622517537098 
1.2915812829804 -1.29245537785476 -1.292559973115698 -1.292566322845619 -1.291307147773859 -1.292539146643289 -1.292661588670094 
0.3970483892380933 -0.4007030658205964 -0.400178216375942 -0.4009260113521515 -0.3990493014774812 -0.4000634995398715 -0.4008926098189751 
1.176896110776516 -1.177369755624706 -1.177476122065463 -1.17747378755575 -1.176752908651632 -1.177508664837496 -1.177586115465786 
2.436780906039279 -2.428509436315307 -2.428313079409694 -2.428321417913897 -2.430593574966684 -2.426758233285516 -2.429266022483807 
-0.583248044964317 -0.3006391005845703 -0.2736919045643912 2.061657361584706 -0.1615873583584762 -0.3148133533032345 -0.1305817412227837 
0.6736607479524879 -0.6750332109573683 -0.6747929122943818 -0.6749340802609312 -0.6754077233314432 -0.674832965958598 -0.6748622517537098 
0.879694003720053 -0.8797855498402524 -0.8797647753833447 -0.8796775836090641 -0.8806375276657175 -0.8798775974361255 -0.8797030468298803 
1.042458274958608 -1.042497851090828 -1.042575306507482 -1.042512193685875 -1.042711525243074 -1.042667732886917 -1.042610997626665 
0.3970483892380933 -0.4007030658205964 -0.400178216375942 -0.4009260113521515 -0.3990493014774812 -0.4000634995398715 -0.4008926098189751 
1.969788258040021 -1.964924956785422 -1.964769972812195 -1.964466822580809 -1.967997427938084 -1.964814115810826 -1.96523449928132 
2.014178178201111 -2.008705347636656 -2.008527733562742 -2.008259874976013 -2.011941472462607 -2.008488213589436 -2.009100848186976 
0.6736607479524879 -0.6750332109573683 -0.6747929122943818 -0.6749340802609312 -0.6754077233314432 -0.674832965958598 -0.6748622517537098 
0.3970483892380933 -0.4007030658205964 -0.400178216375942 -0.4009260113521515 -0.3990493014774812 -0.4000634995398715 -0.4008926098189751 
-1.571554987543025 3.165506665868699 -0.9368793078688126 -0.5901845492362997 -0.6478369018469141 -0.574794951178995 -0.5517125975068566 
1.966089217352231 -0.912021405762267 0.04808560245909231 -0.5278503184666448 -0.5816589847543405 -0.9427128919846959 -0.4922097596123115 
-1.051277540879882 1.248990450826948 1.332464867993701 -0.3218176087187326 -0.3595355948668514 -0.6307312742776576 -0.2971110196569316 
1.176896110776516 -1.177369755624706 -1.177476122065463 -1.17747378755575 -1.176752908651632 -1.177508664837496 -1.177586115465786 
0.6736607479524879 -0.6750332109573683 -0.6747929122943818 -0.6749340802609312 -0.6754077233314432 -0.674832965958598 -0.6748622517537098 
1.391731930817141 -1.392743607995079 -1.392834458869371 -1.392791502056421 -1.391491951467474 -1.392790532761269 -1.392873455621433 
1.633652630609203 -1.633411019535954 -1.633434769129038 -1.633147721501272 -1.633583335085556 -1.633489630456012 -1.633347481481325 
1.042458274958608 -1.042497851090828 -1.042575306507482 -1.042512193685875 -1.042711525243074 -1.042667732886917 -1.042610997626665 
1.969788258040021 -1.964924956785422 -1.964769972812195 -1.964466822580809 -1.967997427938084 -1.964814115810826 -1.96523449928132 
0.3970483892380933 -0.4007030658205964 -0.400178216375942 -0.4009260113521515 -0.3990493014774812 -0.4000634995398715 -0.4008926098189751 
0.3970483892380933 -0.4007030658205964 -0.400178216375942 -0.4009260113521515 -0.3990493014774812 -0.4000634995398715 -0.4008926098189751 
0.6736607479524879 -0.6750332109573683 -0.6747929122943818 -0.6749340802609312 -0.6754077233314432 -0.674832965958598 -0.6748622517537098 
-1.420910241318905 3.198030192589886 -0.823531568043115 -0.5056018684828217 -0.5579410957198365 -0.9107751175801879 -0.471019167574435 
-0.8088493975103458 1.263084215528295 0.832958153551604 -0.2213868644140326 -0.2489389794317281 -0.4605865870072557 -0.2031587549428615 
1.2915812829804 -1.29245537785476 -1.292559973115698 -1.292566322845619 -1.291307147773859 -1.292539146643289 -1.292661588670094 
0.6736607479524879 -0.6750332109573683 -0.6747929122943818 -0.6749340802609312 -0.6754077233314432 -0.674832965958598 -0.6748622517537098 
1.391731930817141 -1.392743607995079 -1.392834458869371 -1.392791502056421 -1.391491951467474 -1.392790532761269 -1.392873455621433 
0.879694003720053 -0.8797855498402524 -0.8797647753833447 -0.8796775836090641 -0.8806375276657175 -0.8798775974361255 -0.8797030468298803 
1.480712988940087 -1.481551891401583 -1.481623858328212 -1.481498690344434 -1.480567323955368 -1.481591243687406 -1.481591124775437 
0.3970483892380933 -0.4007030658205964 -0.400178216375942 -0.4009260113521515 -0.3990493014774812 -0.4000634995398715 -0.4008926098189751 
0.3970483892380933 -0.4007030658205964 -0.400178216375942 -0.4009260113521515 -0.3990493014774812 -0.4000634995398715 -0.4008926098189751 
0.3970483892380933 -0.4007030658205964 -0.400178216375942 -0.4009260113521515 -0.3990493014774812 -0.4000634995398715 -0.4008926098189751 
0.879694003720053 -0.8797855498402524 -0.8797647753833447 -0.8796775836090641 -0.8806375276657175 -0.8798775974361255 -0.8797030468298803 
1.762090952669214 -1.76027308719086 -1.76023691095892 -1.75987139155415 -1.761743637870723 -1.760375705750985 -1.760256607331283 
0.3970483892380933 -0.4007030658205964 -0.400178216375942 -0.4009260113521515 -0.3990493014774812 -0.4000634995398715 -0.4008926098189751 
1.560811096952695 -1.561207939247148 -1.561257490903407 -1.56104463172279 -1.560739005450267 -1.561262354516862 -1.56117730322014 
1.042458274958608 -1.042497851090828 -1.042575306507482 -1.042512193685875 -1.042711525243074 -1.042667732886917 -1.042610997626665 
1.391731930817141 -1.392743607995079 -1.392834458869371 -1.392791502056421 -1.391491951467474 -1.392790532761269 -1.392873455621433 
1.176896110776516 -1.177369755624706 -1.177476122065463 -1.17747378755575 -1.176752908651632 -1.177508664837496 -1.177586115465786 
0.3970483892380933 -0.4007030658205964 -0.400178216375942 -0.4009260113521515 -0.3990493014774812 -0.4000634995398715 -0.4008926098189751 
1.391731930817141 -1.392743607995079 -1.392834458869371 -1.392791502056421 -1.391491951467474 -1.392790532761269 -1.392873455621433 
1.2915812829804 -1.29245537785476 -1.292559973115698 -1.292566322845619 -1.291307147773859 -1.292539146643289 -1.292661588670094 
1.391731930817141 -1.392743607995079 -1.392834458869371 -1.392791502056421 -1.391491951467474 -1.392790532761269 -1.392873455621433 
2.133993174888746 -2.127120116943004 -2.126898792253224 -2.126735562981847 -2.130445865790548 -2.12651600308772 -2.127723933538898 
1.700439935132541 -1.699438630374436 -1.699433505536227 -1.699094980080275 -1.700279851881953 -1.699536857042705 -1.699381627869927 
1.042458274958608 -1.042497851090828 -1.042575306507482 -1.042512193685875 -1.042711525243074 -1.042667732886917 -1.042610997626665 
0.6736607479524879 -0.6750332109573683 -0.6747929122943818 -0.6749340802609312 -0.6754077233314432 -0.674832965958598 -0.6748622517537098 
0.3970483892380933 -0.4007030658205964 -0.400178216375942 -0.4009260113521515 -0.3990493014774812 -0.4000634995398715 -0.4008926098189751 
1.700439935132541 -1.699438630374436 -1.699433505536227 -1.699094980080275 -1.700279851881953 -1.699536857042705 -1.699381627869927 
0.879694003720053 -0.8797855498402524 -0.8797647753833447 -0.8796775836090641 -0.8806375276657175 -0.8798775974361255 -0.8797030468298803 
3.066883046546723 -3.056320697188027 -3.05631500127358 -3.056280461131656 -3.056498669568902 -3.05474543876565 -3.056544864392989 
1.762090952669214 -1.76027308719086 -1.76023691095892 -1.75987139155415 -1.761743637870723 -1.760375705750985 -1.760256607331283 
0.5610707516919361 -0.1175781143116656 -0.1055577961513743 -0.05193066483151068 -0.05890594553039191 -0.1237085125832871 -0.04707322302894316 
-1.440873883192663 3.467109720926104 -1.098668898942889 -0.7153950379594306 -0.7798156179674549 -1.200061643640999 -0.6717669949842522 
-1.116789421294151 -0.08895603995853077 2.170750290457439 -0.3517849409282877 -0.3922241465970014 -0.1213601275257673 -0.3253108327672314 
-0.2487464487184187 -0.1175781143116656 0.7732586258219054 -0.05193066483151068 -0.05890594553039191 -0.1237085125832871 -0.04707322302894316 
-0.4354434453562695 1.292640799508378 -0.1954433664080111 -0.09936885113115011 -0.1124836208595565 -0.226659179118374 -0.09040905109733088 
-0.8991613030714768 0.1256724261105821 2.015666298677081 -0.2568403004882244 -0.2881659138360747 -0.5224757651690206 -0.2362201839471882 
-0.2487464487184187 -0.1175781143116656 0.7732586258219054 -0.05193066483151068 -0.05890594553039191 -0.1237085125832871 -0.04707322302894316 
-0.4354434453562695 1.292640799508378 -0.1954433664080111 -0.09936885113115011 -0.1124836208595565 -0.226659179118374 -0.09040905109733088 
-0.2487464487184187 -0.1175781143116656 0.7732586258219054 -0.05193066483151068 -0.05890594553039191 -0.1237085125832871 -0.04707322302894316 
-1.667709010950905 3.544234543912848 -1.010946290267661 -0.6468883717635836 -0.7077396482636771 -1.10825195389298 -0.6059981651367213 
-0.2487464487184187 -0.1175781143116656 0.7732586258219054 -0.05193066483151068 -0.05890594553039191 -0.1237085125832871 -0.04707322302894316 
-0.583248044964317 1.668235301422356 -0.2736919045643912 -0.1430600822510787 -0.1615873583584762 -0.3148133533032345 -0.1305817412227837 
-1.176915325435373 1.031893363665504 1.729574501690724 -0.3803073840752862 -0.4232071915111307 -0.723481325800761 -0.3522132886389887 
1.733742957909278 -0.5013390997821289 -0.4618089077154321 -0.2568403004882244 -0.2881659138360747 -0.5224757651690206 -0.2362201839471882 
1.176896110776516 -1.177369755624706 -1.177476122065463 -1.17747378755575 -1.176752908651632 -1.177508664837496 -1.177586115465786 
1.2915812829804 -1.29245537785476 -1.292559973115698 -1.292566322845619 -1.291307147773859 -1.292539146643289 -1.292661588670094 
0.3970483892380933 -0.4007030658205964 -0.400178216375942 -0.4009260113521515 -0.3990493014774812 -0.4000634995398715 -0.4008926098189751 
0.6736607479524879 -0.6750332109573683 -0.6747929122943818 -0.6749340802609312 -0.6754077233314432 -0.674832965958598 -0.6748622517537098 
0.6736607479524879 -0.6750332109573683 -0.6747929122943818 -0.6749340802609312 -0.6754077233314432 -0.674832965958598 -0.6748622517537098 
1.176896110776516 -1.177369755624706 -1.177476122065463 -1.17747378755575 -1.176752908651632 -1.177508664837496 -1.177586115465786 
