solver_type L2R_LR
nr_class 7
label 0 1 2 5 6 3 4
nr_feature 10599
bias -1
w
1.217510775639541 -0.3006391005787983 -0.2736919045632006 -0.1430634534792437 -0.1615873564388844 -0.3148133424674683 -0.1305817412241119 
0.5610685834059451 -0.1175781143147206 -0.1055577961507864 -0.05193309946509071 -0.0589059447096081 -0.1237085091465126 -0.04707322302995815 
0.5610685834059451 -0.1175781143147206 -0.1055577961507864 -0.05193309946509071 -0.0589059447096081 -0.1237085091465126 -0.04707322302995815 
2.142615048185346 -0.6971331011632332 -0.6477465382108176 -0.3803084135964095 -0.4232071868663722 -0.7234813145681552 -0.3522132886401951 
0.2734422908645693 -0.2159886390535286 -0.1954433664070523 0.775936875075703 -0.1124836194302309 -0.2266591720786642 -0.09040905109867531 
4.033644286372431 -2.004941515177519 -1.919968133598283 -1.408567366040789 -1.499878660741312 -2.046536071177819 -1.345763428829587 
-0.2487455729605793 0.7554037247812464 -0.1055577961507864 -0.05193309946509071 -0.0589059447096081 -0.1237085091465126 -0.04707322302995815 
-0.2487455729605793 -0.1175781143147206 0.7732586258183188 -0.05193309946509071 -0.0589059447096081 -0.1237085091465126 -0.04707322302995815 
-2.721249027885726 -1.970691308280503 -1.886260709688033 4.364728147182698 0.7711633281394579 -2.012183516023424 -1.316575025439207 
-2.728853946194016 -1.977666608404606 -1.89312413338969 -1.384844834095964 5.353158266091457 -2.01918033231206 -0.9352954510646213 
3.854341512282768 -1.865581605877958 -1.782920579747166 -1.288039057374313 -1.375800887952458 -1.906697336255166 -1.227720718958172 
3.613666321692592 -3.060384494895311 -2.964010327413476 -0.09004983662643359 -2.470989405791954 -3.100067905163711 -2.287801997509752 
2.014177281448441 -2.008705347542547 -2.00852773356388 -2.008303331059432 -2.011941471433033 -2.008488114590225 -2.00910084821364 
1.04245837730378 -1.042497851109759 -1.042575306507508 -1.0425125003396 -1.042711525179737 -1.04266771676363 -1.042610997627241 
3.598517795769844 -3.609735285465804 -3.60978431409131 -3.60970366002477 -3.609669290990482 -3.609545538792107 -3.609734553045306 
1.922743487939729 -1.918561452455514 -1.91843278637038 -1.918132545410595 -1.921382572496759 -1.918538544346157 -1.918781107053035 
0.3970472524560306 -0.400703065788136 -0.4001782163747178 -0.4009381044858885 -0.3990492982025664 -0.4000634716123524 -0.4008926098150177 
5.303020916393812 -5.406372541322877 -5.413532869597051 -5.404630923983822 -5.4046893253777 -5.408165225120332 -5.402365799641051 
0.3970472524560306 -0.400703065788136 -0.4001782163747178 -0.4009381044858885 -0.3990492982025664 -0.4000634716123524 -0.4008926098150177 
5.362735944259008 -6.273772458366481 -6.282982327355697 -6.271220799440886 -5.82540384964747 -6.193394602908051 -5.927147884414548 
3.709925117674212 -5.412553505653326 -5.416902766553197 -5.410817516703124 -3.749109319075404 -5.414420837650109 -5.128746780393304 
5.271073570718563 -6.123521621484277 -6.148280637289719 -6.010394971213445 -5.5913394142143 -5.936349742576025 -6.002391730102946 
0.8796936567411455 -0.8797855498285025 -0.8797647753831462 -0.8796774778221096 -0.8806375264474322 -0.8798775678647451 -0.8797030468274296 
2.919382433798842 -4.608069417683313 -4.442046270963591 -4.608260730564661 -3.237463995137096 -4.618888949161162 -3.843205480490354 
0.3970472524560306 -0.400703065788136 -0.4001782163747178 -0.4009381044858885 -0.3990492982025664 -0.4000634716123524 -0.4008926098150177 
4.463919532175761 -4.426908421152656 -4.426843538642894 -4.427051702516302 -4.427410737923783 -4.439432338880241 -4.427288399776613 
3.581767093441796 -3.586060390483074 -3.586110444537747 -3.586027612567706 -3.585992291719273 -3.585757708589898 -3.586061865835789 
1.176896481418255 -1.177369755660513 -1.1774761220655 -1.177474034001741 -1.176752909229655 -1.177508659487934 -1.177586115466888 
2.237816974569754 -2.230106709613783 -2.229873556165172 -2.229848049295071 -2.23316145435732 -2.229091425896504 -2.230830717253248 
3.778595602575619 -3.773308948942188 -3.77334118627631 -3.773292830172378 -3.77328664415256 -3.77434082487656 -3.773314745463231 
1.04245837730378 -1.042497851109759 -1.042575306507508 -1.0425125003396 -1.042711525179737 -1.04266771676363 -1.042610997627241 
4.274615091359834 -4.246487240324314 -4.246425897424325 -4.246579131062759 -4.24681458813648 -4.260538804567366 -4.246719855551601 
0.8796936567411455 -0.8797855498285025 -0.8797647753831462 -0.8796774778221096 -0.8806375264474322 -0.8798775678647451 -0.8797030468274296 
3.73234834539914 -5.299416864028204 -5.156219331926712 -5.299615615759851 -5.149497316373313 -5.282569383810617 -3.823537447095525 
5.188917188505331 -5.311302650968202 -5.311994238943941 -5.311589473441394 -5.308368128665791 -5.281374627443455 -5.312234064046507 
0.9444580269221521 -0.2159886390535286 -0.1954433664070523 -0.09937215614106026 -0.1124836194302309 -0.2266591720786642 -0.09040905109867531 
5.154907594639463 -5.304974878105428 -5.306245861479626 -5.305212207642576 -5.303074432730599 -5.280749398151475 -5.306166787873744 
0.6736598573919836 -0.6750332109174706 -0.6747929122936589 -0.6749362764683022 -0.6754077206749751 -0.6748329280968479 -0.6748622517473818 
2.300046510644109 -2.29201839608521 -2.291789690273101 -2.291803100849558 -2.294806329624759 -2.290751154498941 -2.292779787692801 
4.164844515776937 -4.136266330555324 -4.136223632135055 -4.136327538033156 -4.136492511453748 -4.147074273192142 -4.136422289912612 
5.16568273041233 -5.308141443290444 -5.309106643835812 -5.308403387181234 -5.305744910401804 -5.280522309723988 -5.309216001136498 
0.3970472524560306 -0.400703065788136 -0.4001782163747178 -0.4009381044858885 -0.3990492982025664 -0.4000634716123524 -0.4008926098150177 
4.724140610865444 -5.34756743776301 -5.350447214683407 -5.347363561950004 -4.742964581863484 -5.346020829484531 -5.344572734453694 
-0.2487455729605793 0.7554037247812464 -0.1055577961507864 -0.05193309946509071 -0.0589059447096081 -0.1237085091465126 -0.04707322302995815 
-0.2487455729605793 -0.1175781143147206 0.7732586258183188 -0.05193309946509071 -0.0589059447096081 -0.1237085091465126 -0.04707322302995815 
4.774065859972757 -4.824581312290856 -4.824767079546347 -4.824809296401099 -4.825433814172585 -4.807975271396075 -4.825319173043677 
3.401051374453214 -3.382768496034723 -3.382813070356172 -3.382735424113972 -3.382726927553729 -3.381822868511038 -3.382818615450461 
0.3970472524560306 -0.400703065788136 -0.4001782163747178 -0.4009381044858885 -0.3990492982025664 -0.4000634716123524 -0.4008926098150177 
3.27481065605586 -3.25846012814111 -3.258490438936325 -3.258432814289784 -3.258474202078174 -3.257264119400963 -3.258563460117648 
0.6736598573919836 -0.6750332109174706 -0.6747929122936589 -0.6749362764683022 -0.6754077206749751 -0.6748329280968479 -0.6748622517473818 
0.3970472524560306 -0.400703065788136 -0.4001782163747178 -0.4009381044858885 -0.3990492982025664 -0.4000634716123524 -0.4008926098150177 
3.425915160691509 -1.536341232479254 -1.460223278571134 -1.01084637290433 -1.088502608602219 -1.57533265584217 -0.9574076297957907 
0.8796936567411455 -0.8797855498285025 -0.8797647753831462 -0.8796774778221096 -0.8806375264474322 -0.8798775678647451 -0.8797030468274296 
0.6736598573919836 -0.6750332109174706 -0.6747929122936589 -0.6749362764683022 -0.6754077206749751 -0.6748329280968479 -0.6748622517473818 
4.167649904153967 -4.13936003899471 -4.139316719606456 -4.139422084088667 -4.139588960982397 -4.150291440905374 -4.139517986843968 
1.700439836927587 -1.699438630322707 -1.699433505536406 -1.699107327294656 -1.700279851444074 -1.699536821826229 -1.699381627876512 
2.830989384502659 -5.525989141362126 -5.366181305992663 -5.519106612981425 -3.06497090362147 -5.541505749037714 -4.282170703967663 
0.3970472524560306 -0.400703065788136 -0.4001782163747178 -0.4009381044858885 -0.3990492982025664 -0.4000634716123524 -0.4008926098150177 
0.8796936567411455 -0.8797855498285025 -0.8797647753831462 -0.8796774778221096 -0.8806375264474322 -0.8798775678647451 -0.8797030468274296 
-0.7928625291599077 -1.09866372789928 -1.033950339035026 0.9656699338892173 -0.1984903169285856 2.078662965155636 -0.6230945268615836 
0.08096619343376681 -0.5013390997732097 -0.4618089077140118 -0.2568424710348913 0.4353962735697796 -0.522475747217398 1.686692653921972 
-0.4354423580028512 -0.2159886390535286 -0.1954433664070523 -0.09937215614106026 -0.1124836194302309 1.271265507516204 -0.09040905109867531 
-0.4354423580028512 -0.2159886390535286 -0.1954433664070523 -0.09937215614106026 -0.1124836194302309 -0.2266591720786642 1.592980699570946 
2.744474461957978 -2.736778835607462 -2.736689264874482 -2.736749539712759 -2.737552952820399 -2.734695688946076 -2.737279337902602 
3.177087617081413 -3.163651244850226 -3.163666385824553 -3.163629349931106 -3.163729379168434 -3.162279511013629 -3.163805991846936 
3.112614807165339 -3.100968708950465 -3.100972119973868 -3.100950132731313 -3.101101147091634 -3.099479033615683 -3.101162532516464 
1.291581758819431 -1.292455377891405 -1.29255997311566 -1.292566028150667 -1.291307148554664 -1.292539146585766 -1.292661588670337 
1.855119474760539 -0.5561394637354764 -0.5136544266694212 -0.2902382459632544 -0.3249323168798827 -0.5788785224753445 -0.2674705012871167 
3.69651694070268 -3.718891161002128 -3.718930807312136 -3.718868391291288 -3.718848774111483 -3.719408368485153 -3.718890468275549 
3.27481065605586 -3.25846012814111 -3.258490438936325 -3.258432814289784 -3.258474202078174 -3.257264119400963 -3.258563460117648 
2.096059748152452 -2.089585659014129 -2.089374931473365 -2.089228750985086 -2.092935860420521 -2.089117665066684 -2.090129700873308 
1.633652699803101 -1.633411019502013 -1.633434769129072 -1.633155123204988 -1.633583334916787 -1.633489606699102 -1.633347481484642 
0.3970472524560306 -0.400703065788136 -0.4001782163747178 -0.4009381044858885 -0.3990492982025664 -0.4000634716123524 -0.4008926098150177 
0.9444580269221521 -0.2159886390535286 -0.1954433664070523 -0.09937215614106026 -0.1124836194302309 -0.2266591720786642 -0.09040905109867531 
0.3970472524560306 -0.400703065788136 -0.4001782163747178 -0.4009381044858885 -0.3990492982025664 -0.4000634716123524 -0.4008926098150177 
3.408636746516641 -3.390421294255407 -3.39046650432239 -3.390387974493901 -3.390377286138202 -3.389493016935689 -3.390468685475723 
0.3970472524560306 -0.400703065788136 -0.4001782163747178 -0.4009381044858885 -0.3990492982025664 -0.4000634716123524 -0.4008926098150177 
2.635192471620412 -2.627302029195794 -2.627175497689029 -2.62724953124254 -2.628449907492706 -2.625204061217975 -2.627910247300332 
0.6736598573919836 -0.6750332109174706 -0.6747929122936589 -0.6749362764683022 -0.6754077206749751 -0.6748329280968479 -0.6748622517473818 
2.237816974569754 -2.230106709613783 -2.229873556165172 -2.229848049295071 -2.23316145435732 -2.229091425896504 -2.230830717253248 
2.474062463585487 -0.8806479584643506 -0.8235315680417128 -0.505602624551501 -0.557941089098802 -0.9107751294615204 -0.471019167577606 
1.872719075325303 -1.869281956689812 -1.869182608599661 -1.868853056224381 -1.871754026259356 -1.869325201851096 -1.869412623209753 
2.133992061267865 -2.127120116853461 -2.12689879225461 -2.126788157881459 -2.13044586486079 -2.126515883702711 -2.127723933570047 
3.595000511050613 -1.824164707707184 -1.74224425075517 -1.252557239624574 -1.339170251421597 -1.542713703145879 -1.193021770726834 
1.819324907833602 -1.816683606782339 -1.816615534035811 -1.816268412444264 -1.818704054661419 -1.81676877349272 -1.816732796890079 
0.6736598573919836 -0.6750332109174706 -0.6747929122936589 -0.6749362764683022 -0.6754077206749751 -0.6748329280968479 -0.6748622517473818 
0.3970472524560306 -0.400703065788136 -0.4001782163747178 -0.4009381044858885 -0.3990492982025664 -0.4000634716123524 -0.4008926098150177 
0.3970472524560306 -0.400703065788136 -0.4001782163747178 -0.4009381044858885 -0.3990492982025664 -0.4000634716123524 -0.4008926098150177 
1.176896481418255 -1.177369755660513 -1.1774761220655 -1.177474034001741 -1.176752909229655 -1.177508659487934 -1.177586115466888 
0.6736598573919836 -0.6750332109174706 -0.6747929122936589 -0.6749362764683022 -0.6754077206749751 -0.6748329280968479 -0.6748622517473818 
0.3970472524560306 -0.400703065788136 -0.4001782163747178 -0.4009381044858885 -0.3990492982025664 -0.4000634716123524 -0.4008926098150177 
0.8796936567411455 -0.8797855498285025 -0.8797647753831462 -0.8796774778221096 -0.8806375264474322 -0.8798775678647451 -0.8797030468274296 
3.577349982423796 -3.580033970027249 -3.580084227263326 -3.580000940647771 -3.579965508929919 -3.579704303980645 -3.580036129545135 
1.391732392057076 -1.392743608020399 -1.392834458869266 -1.392791144348604 -1.39149195215911 -1.39279053240503 -1.392873455620857 
0.6736598573919836 -0.6750332109174706 -0.6747929122936589 -0.6749362764683022 -0.6754077206749751 -0.6748329280968479 -0.6748622517473818 
0.3970472524560306 -0.400703065788136 -0.4001782163747178 -0.4009381044858885 -0.3990492982025664 -0.4000634716123524 -0.4008926098150177 
1.762090690476819 -1.760273087124581 -1.760236910959269 -1.759889255596454 -1.76174363721536 -1.76037565866797 -1.760256607341588 
3.670872046133635 -4.459214678606523 -4.459154639593551 -4.459366972849612 -3.671807538334644 -4.469771205442377 -4.459623445810171 
1.04245837730378 -1.042497851109759 -1.042575306507508 -1.0425125003396 -1.042711525179737 -1.04266771676363 -1.042610997627241 
1.762090690476819 -1.760273087124581 -1.760236910959269 -1.759889255596454 -1.76174363721536 -1.76037565866797 -1.760256607341588 
0.3970472524560306 -0.400703065788136 -0.4001782163747178 -0.4009381044858885 -0.3990492982025664 -0.4000634716123524 -0.4008926098150177 
3.731682862716688 -1.771226418409679 -1.690287886022562 -1.207444249650511 -1.292530443599219 -1.811897959324865 -1.148941472343811 
0.3970472524560306 -0.400703065788136 -0.4001782163747178 -0.4009381044858885 -0.3990492982025664 -0.4000634716123524 -0.4008926098150177 
0.6736598573919836 -0.6750332109174706 -0.6747929122936589 -0.6749362764683022 -0.6754077206749751 -0.6748329280968479 -0.6748622517473818 
0.6736598573919836 -0.6750332109174706 -0.6747929122936589 -0.6749362764683022 -0.6754077206749751 -0.6748329280968479 -0.6748622517473818 
-0.2487455729605793 0.7554037247812464 -0.1055577961507864 -0.05193309946509071 -0.0589059447096081 -0.1237085091465126 -0.04707322302995815 
-0.4354423580028512 0.5772287199939417 0.6080080628653646 -0.09937215614106026 -0.1124836194302309 -0.2266591720786642 -0.09040905109867531 
0.8796936567411455 -0.8797855498285025 -0.8797647753831462 -0.8796774778221096 -0.8806375264474322 -0.8798775678647451 -0.8797030468274296 
0.8796936567411455 -0.8797855498285025 -0.8797647753831462 -0.8796774778221096 -0.8806375264474322 -0.8798775678647451 -0.8797030468274296 
3.873396390924514 -3.837775684793837 -3.837797072723065 -3.83776934980235 -3.837783922887337 -3.839628552277961 -3.837794826822205 
1.291581758819431 -1.292455377891405 -1.29255997311566 -1.292566028150667 -1.291307148554664 -1.292539146585766 -1.292661588670337 
2.411288046854284 -2.403020197321905 -2.402816079805759 -2.402874348184648 -2.405239307646852 -2.401347381869815 -2.403785698177421 
1.291581758819431 -1.292455377891405 -1.29255997311566 -1.292566028150667 -1.291307148554664 -1.292539146585766 -1.292661588670337 
0.3970472524560306 -0.400703065788136 -0.4001782163747178 -0.4009381044858885 -0.3990492982025664 -0.4000634716123524 -0.4008926098150177 
2.993575695865522 -2.984369000826035 -2.984347353894074 -2.984354320100924 -2.984634772046365 -2.982654775349095 -2.984646550888687 
1.762090690476819 -1.760273087124581 -1.760236910959269 -1.759889255596454 -1.76174363721536 -1.76037565866797 -1.760256607341588 
0.3970472524560306 -0.400703065788136 -0.4001782163747178 -0.4009381044858885 -0.3990492982025664 -0.4000634716123524 -0.4008926098150177 
0.8796936567411455 -0.8797855498285025 -0.8797647753831462 -0.8796774778221096 -0.8806375264474322 -0.8798775678647451 -0.8797030468274296 
0.6736598573919836 -0.6750332109174706 -0.6747929122936589 -0.6749362764683022 -0.6754077206749751 -0.6748329280968479 -0.6748622517473818 
1.291581758819431 -1.292455377891405 -1.29255997311566 -1.292566028150667 -1.291307148554664 -1.292539146585766 -1.292661588670337 
4.251129981970793 -4.224453130545555 -4.224394825721012 -4.224538779381541 -4.224759756022912 -4.23811469196277 -4.224669513864713 
1.176896481418255 -1.177369755660513 -1.1774761220655 -1.177474034001741 -1.176752909229655 -1.177508659487934 -1.177586115466888 
1.700439836927587 -1.699438630322707 -1.699433505536406 -1.699107327294656 -1.700279851444074 -1.699536821826229 -1.699381627876512 
4.113392914824124 -4.671274392227413 -4.671310459574965 -4.671480000475279 -4.113118773443749 -4.649426991430747 -4.671883075696325 
3.145439556914326 -3.132913970909812 -3.132923518097519 -3.132893765235401 -3.133017427891066 -3.131484751037152 -3.133087369933755 
1.391732392057076 -1.392743608020399 -1.392834458869266 -1.392791144348604 -1.39149195215911 -1.39279053240503 -1.392873455620857 
1.176896481418255 -1.177369755660513 -1.1774761220655 -1.177474034001741 -1.176752909229655 -1.177508659487934 -1.177586115466888 
0.8796936567411455 -0.8797855498285025 -0.8797647753831462 -0.8796774778221096 -0.8806375264474322 -0.8798775678647451 -0.8797030468274296 
-1.116790798727137 -0.6534431456111054 -0.6060970619803001 -0.3517861445519936 -0.3922241423377857 2.681783282760803 -0.3253108327682191 
0.9504873039371072 -1.392743608020399 -1.392834458869266 -1.392791144348604 -0.9478872164157778 -1.39279053240503 -1.392873455620857 
1.04245837730378 -1.042497851109759 -1.042575306507508 -1.0425125003396 -1.042711525179737 -1.04266771676363 -1.042610997627241 
0.6736598573919836 -0.6750332109174706 -0.6747929122936589 -0.6749362764683022 -0.6754077206749751 -0.6748329280968479 -0.6748622517473818 
-0.2487455729605793 0.7554037247812464 -0.1055577961507864 -0.05193309946509071 -0.0589059447096081 -0.1237085091465126 -0.04707322302995815 
-0.4354423580028512 0.5772287199939417 0.6080080628653646 -0.09937215614106026 -0.1124836194302309 -0.2266591720786642 -0.09040905109867531 
4.516352593738132 -4.488294422729497 -4.488240605693481 -4.488454712673529 -4.488857288708766 -4.494331127719938 -4.488729640468581 
0.6736598573919836 -0.6750332109174706 -0.6747929122936589 -0.6749362764683022 -0.6754077206749751 -0.6748329280968479 -0.6748622517473818 
2.170162769615546 -2.16295580280343 -2.162727483093005 -2.16264894554465 -2.166217959856914 -2.16221299177036 -2.163609263531189 
0.3970472524560306 -0.400703065788136 -0.4001782163747178 -0.4009381044858885 -0.3990492982025664 -0.4000634716123524 -0.4008926098150177 
0.6736598573919836 -0.6750332109174706 -0.6747929122936589 -0.6749362764683022 -0.6754077206749751 -0.6748329280968479 -0.6748622517473818 
2.384934039328081 -2.376687723502474 -2.376476262585014 -2.376526636458901 -2.379046359532119 -2.37510267337773 -2.37745889463856 
0.3970472524560306 -0.400703065788136 -0.4001782163747178 -0.4009381044858885 -0.3990492982025664 -0.4000634716123524 -0.4008926098150177 
1.855119474760539 -0.5561394637354764 -0.5136544266694212 -0.2902382459632544 -0.3249323168798827 -0.5788785224753445 -0.2674705012871167 
2.384934039328081 -2.376687723502474 -2.376476262585014 -2.376526636458901 -2.379046359532119 -2.37510267337773 -2.37745889463856 
2.50861449690016 -2.500420677447323 -2.500248583592497 -2.500323462514048 -2.502135086092287 -2.498486918429207 -2.501136788650243 
0.3970472524560306 -0.400703065788136 -0.4001782163747178 -0.4009381044858885 -0.3990492982025664 -0.4000634716123524 -0.4008926098150177 
1.48071335735533 -1.481551891408621 -1.481623858328092 -1.481499492999097 -1.480567324399698 -1.481591238442755 -1.481591124774969 
0.5610685834059451 -0.1175781143147206 -0.1055577961507864 -0.05193309946509071 -0.0589059447096081 -0.1237085091465126 -0.04707322302995815 
0.5610685834059451 -0.1175781143147206 -0.1055577961507864 -0.05193309946509071 -0.0589059447096081 -0.1237085091465126 -0.04707322302995815 
2.220423206347716 -0.7381023725096564 -0.6868755818490742 -0.4075289656220237 -0.4526622778348662 -0.7653747060287053 -0.3779409370783036 
0.9444580269221521 -0.2159886390535286 -0.1954433664070523 -0.09937215614106026 -0.1124836194302309 -0.2266591720786642 -0.09040905109867531 
2.954523239290826 -2.945842336549178 -2.945811494093443 -2.94582787010981 -2.946163798219851 -2.944055213447083 -2.946150761713965 
0.3970472524560306 -0.400703065788136 -0.4001782163747178 -0.4009381044858885 -0.3990492982025664 -0.4000634716123524 -0.4008926098150177 
0.3970472524560306 -0.400703065788136 -0.4001782163747178 -0.4009381044858885 -0.3990492982025664 -0.4000634716123524 -0.4008926098150177 
-0.2487455729605793 0.7554037247812464 -0.1055577961507864 -0.05193309946509071 -0.0589059447096081 -0.1237085091465126 -0.04707322302995815 
-0.4354423580028512 -0.2159886390535286 1.33192764130348 -0.09937215614106026 -0.1124836194302309 -0.2266591720786642 -0.09040905109867531 
0.3970472524560306 -0.400703065788136 -0.4001782163747178 -0.4009381044858885 -0.3990492982025664 -0.4000634716123524 -0.4008926098150177 
2.673281515984552 -2.665481846400498 -2.66536862913093 -2.665438925540055 -2.666487009327119 -2.663373913032177 -2.666052970526682 
0.6736598573919836 -0.6750332109174706 -0.6747929122936589 -0.6749362764683022 -0.6754077206749751 -0.6748329280968479 -0.6748622517473818 
0.3970472524560306 -0.400703065788136 -0.4001782163747178 -0.4009381044858885 -0.3990492982025664 -0.4000634716123524 -0.4008926098150177 
1.48071335735533 -1.481551891408621 -1.481623858328092 -1.481499492999097 -1.480567324399698 -1.481591238442755 -1.481591124774969 
1.633652699803101 -1.633411019502013 -1.633434769129072 -1.633155123204988 -1.633583334916787 -1.633489606699102 -1.633347481484642 
2.056189312498082 -2.050180696475186 -2.04998448357849 -2.0497999746026 -2.05350511373522 -2.049843033118132 -2.050654999925277 
0.3970472524560306 -0.400703065788136 -0.4001782163747178 -0.4009381044858885 -0.3990492982025664 -0.4000634716123524 -0.4008926098150177 
2.384934039328081 -2.376687723502474 -2.376476262585014 -2.376526636458901 -2.379046359532119 -2.37510267337773 -2.37745889463856 
2.291594668079566 -0.7766857508162731 -0.7237877993954794 -0.4335700839062345 -0.4807411615671876 -0.8047830548002304 -0.4025993577639208 
3.055073844049673 -3.044763847677342 -3.044755695588014 -3.04474764666972 -3.044954649969377 -3.043166202507433 -3.044996214276234 
3.030980615501425 -3.021143659749806 -3.021130361883017 -3.021128203306112 -3.021362136843608 -3.019500317874565 -3.021393229689474 
0.8796936567411455 -0.8797855498285025 -0.8797647753831462 -0.8796774778221096 -0.8806375264474322 -0.8798775678647451 -0.8797030468274296 
0.5610685834059451 -0.1175781143147206 -0.1055577961507864 -0.05193309946509071 -0.0589059447096081 -0.1237085091465126 -0.04707322302995815 
1.217510775639541 -0.3006391005787983 -0.2736919045632006 -0.1430634534792437 -0.1615873564388844 -0.3148133424674683 -0.1305817412241119 
0.9444580269221521 -0.2159886390535286 -0.1954433664070523 -0.09937215614106026 -0.1124836194302309 -0.2266591720786642 -0.09040905109867531 
0.3970472524560306 -0.400703065788136 -0.4001782163747178 -0.4009381044858885 -0.3990492982025664 -0.4000634716123524 -0.4008926098150177 
3.703634948259272 -3.72398854080734 -3.724027566793459 -3.723966330649303 -3.723947805600354 -3.724548377685396 -3.723988270827587 
1.855119474760539 -0.5561394637354764 -0.5136544266694212 -0.2902382459632544 -0.3249323168798827 -0.5788785224753445 -0.2674705012871167 
1.176896481418255 -1.177369755660513 -1.1774761220655 -1.177474034001741 -1.176752909229655 -1.177508659487934 -1.177586115466888 
1.04245837730378 -1.042497851109759 -1.042575306507508 -1.0425125003396 -1.042711525179737 -1.04266771676363 -1.042610997627241 
2.993575695865522 -2.984369000826035 -2.984347353894074 -2.984354320100924 -2.984634772046365 -2.982654775349095 -2.984646550888687 
0.8796936567411455 -0.8797855498285025 -0.8797647753831462 -0.8796774778221096 -0.8806375264474322 -0.8798775678647451 -0.8797030468274296 
3.503798055645851 -3.490680633720659 -3.490731196576156 -3.490645754601856 -3.490615056643672 -3.490018875474885 -3.490698558276722 
3.892324931168758 -3.850962541433163 -3.850981466269051 -3.850958454397108 -3.850977885071551 -3.853019005567136 -3.850985166193422 
1.176896481418255 -1.177369755660513 -1.1774761220655 -1.177474034001741 -1.176752909229655 -1.177508659487934 -1.177586115466888 
0.3970472524560306 -0.400703065788136 -0.4001782163747178 -0.4009381044858885 -0.3990492982025664 -0.4000634716123524 -0.4008926098150177 
0.2734422908645693 -0.2159886390535286 -0.1954433664070523 -0.09937215614106026 -0.1124836194302309 0.5598557210853715 -0.09040905109867531 
3.1561162476059 -3.143289334129491 -3.143300804156873 -3.143268568904773 -3.143383972697138 -3.141879589004684 -3.14345632796747 
3.123691610814984 -3.111757293524707 -3.111762812858275 -3.111738184936371 -3.111879626286829 -3.110288119360346 -3.111944100135686 
0.6736598573919836 -0.6750332109174706 -0.6747929122936589 -0.6749362764683022 -0.6754077206749751 -0.6748329280968479 -0.6748622517473818 
0.6736598573919836 -0.6750332109174706 -0.6747929122936589 -0.6749362764683022 -0.6754077206749751 -0.6748329280968479 -0.6748622517473818 
0.8796936567411455 -0.8797855498285025 -0.8797647753831462 -0.8796774778221096 -0.8806375264474322 -0.8798775678647451 -0.8797030468274296 
-0.2487455729605793 0.7554037247812464 -0.1055577961507864 -0.05193309946509071 -0.0589059447096081 -0.1237085091465126 -0.04707322302995815 
-0.4354423580028512 0.5772287199939417 0.6080080628653646 -0.09937215614106026 -0.1124836194302309 -0.2266591720786642 -0.09040905109867531 
0.3970472524560306 -0.400703065788136 -0.4001782163747178 -0.4009381044858885 -0.3990492982025664 -0.4000634716123524 -0.4008926098150177 
0.5610685834059451 -0.1175781143147206 -0.1055577961507864 -0.05193309946509071 -0.0589059447096081 -0.1237085091465126 -0.04707322302995815 
0.5610685834059451 -0.1175781143147206 -0.1055577961507864 -0.05193309946509071 -0.0589059447096081 -0.1237085091465126 -0.04707322302995815 
3.860446470689309 -3.828866805432512 -3.828889813627409 -3.828858998310534 -3.828870403982227 -3.830589654023508 -3.828883738661757 
2.35765587099707 -2.349453964192397 -2.349235783816015 -2.349276256149489 -2.351955300773009 -2.34796593199122 -2.350226868140837 
0.3970472524560306 -0.400703065788136 -0.4001782163747178 -0.4009381044858885 -0.3990492982025664 -0.4000634716123524 -0.4008926098150177 
0.3970472524560306 -0.400703065788136 -0.4001782163747178 -0.4009381044858885 -0.3990492982025664 -0.4000634716123524 -0.4008926098150177 
2.654462395531732 -2.646619682369024 -2.646499935871355 -2.646572239973746 -2.647693670015017 -2.644514509121427 -2.647209261911305 
1.04245837730378 -1.042497851109759 -1.042575306507508 -1.0425125003396 -1.042711525179737 -1.04266771676363 -1.042610997627241 
0.6736598573919836 -0.6750332109174706 -0.6747929122936589 -0.6749362764683022 -0.6754077206749751 -0.6748329280968479 -0.6748622517473818 
0.6736598573919836 -0.6750332109174706 -0.6747929122936589 -0.6749362764683022 -0.6754077206749751 -0.6748329280968479 -0.6748622517473818 
0.6736598573919836 -0.6750332109174706 -0.6747929122936589 -0.6749362764683022 -0.6754077206749751 -0.6748329280968479 -0.6748622517473818 
0.3970472524560306 -0.400703065788136 -0.4001782163747178 -0.4009381044858885 -0.3990492982025664 -0.4000634716123524 -0.4008926098150177 
-0.4354423580028512 -0.2159886390535286 -0.1954433664070523 1.566595456217416 -0.1124836194302309 -0.2266591720786642 -0.09040905109867531 
0.3970472524560306 -0.400703065788136 -0.4001782163747178 -0.4009381044858885 -0.3990492982025664 -0.4000634716123524 -0.4008926098150177 
1.922743487939729 -1.918561452455514 -1.91843278637038 -1.918132545410595 -1.921382572496759 -1.918538544346157 -1.918781107053035 
3.558604912852548 -3.555477935242667 -3.555528778961696 -3.555444052783494 -3.555408725608168 -3.555045021129088 -3.555483387543714 
1.217510775639541 -0.3006391005787983 -0.2736919045632006 -0.1430634534792437 -0.1615873564388844 -0.3148133424674683 -0.1305817412241119 
-0.2487455729605793 -0.1175781143147206 -0.1055577961507864 -0.05193309946509071 -0.0589059447096081 0.743290897230242 -0.04707322302995815 
0.3970472524560306 -0.400703065788136 -0.4001782163747178 -0.4009381044858885 -0.3990492982025664 -0.4000634716123524 -0.4008926098150177 
0.3970472524560306 -0.400703065788136 -0.4001782163747178 -0.4009381044858885 -0.3990492982025664 -0.4000634716123524 -0.4008926098150177 
1.425443687767172 -0.374984996112286 -0.3430039660267485 -0.1835843552260654 -0.2068922413203756 -0.3919495257482262 -0.1680440982228788 
-0.2487455729605793 0.7554037247812464 -0.1055577961507864 -0.05193309946509071 -0.0589059447096081 -0.1237085091465126 -0.04707322302995815 
0.8796936567411455 -0.8797855498285025 -0.8797647753831462 -0.8796774778221096 -0.8806375264474322 -0.8798775678647451 -0.8797030468274296 
0.6736598573919836 -0.6750332109174706 -0.6747929122936589 -0.6749362764683022 -0.6754077206749751 -0.6748329280968479 -0.6748622517473818 
0.3970472524560306 -0.400703065788136 -0.4001782163747178 -0.4009381044858885 -0.3990492982025664 -0.4000634716123524 -0.4008926098150177 
0.6736598573919836 -0.6750332109174706 -0.6747929122936589 -0.6749362764683022 -0.6754077206749751 -0.6748329280968479 -0.6748622517473818 
2.691672187970783 -2.683909728991529 -2.683802787688228 -2.683870842431392 -2.684850807370598 -2.681803030067873 -2.684462661906202 
1.04245837730378 -1.042497851109759 -1.042575306507508 -1.0425125003396 -1.042711525179737 -1.04266771676363 -1.042610997627241 
2.74722481836903 -1.050306103637519 -0.9871410821188512 -0.6285466257248304 -0.6883899120833714 -1.083274965895349 -0.5884225906482348 
1.291581758819431 -1.292455377891405 -1.29255997311566 -1.292566028150667 -1.291307148554664 -1.292539146585766 -1.292661588670337 
0.3970472524560306 -0.400703065788136 -0.4001782163747178 -0.4009381044858885 -0.3990492982025664 -0.4000634716123524 -0.4008926098150177 
-0.2487455729605793 -0.1175781143147206 -0.1055577961507864 0.8755068441857926 -0.0589059447096081 -0.1237085091465126 -0.04707322302995815 
0.05675495257083089 -0.3006391005787983 -0.2736919045632006 -0.1430634534792437 1.372975446877206 -0.3148133424674683 -0.1305817412241119 
0.7526143905670104 -0.7381023725096564 -0.6868755818490742 1.911426098915307 -0.4526622778348662 -0.7653747060287053 -0.3779409370783036 
1.969787459545775 -1.964924956692211 -1.964769972813207 -1.964506051429737 -1.967997426910679 -1.964814025533069 -1.965234499305518 
-0.2487455729605793 -0.1175781143147206 -0.1055577961507864 -0.05193309946509071 -0.0589059447096081 0.743290897230242 -0.04707322302995815 
1.56081132691815 -1.5612079392334 -1.561257490903336 -1.561048068366206 -1.560739005587037 -1.561262341074879 -1.561177303221005 
0.3970472524560306 -0.400703065788136 -0.4001782163747178 -0.4009381044858885 -0.3990492982025664 -0.4000634716123524 -0.4008926098150177 
1.391732392057076 -1.392743608020399 -1.392834458869266 -1.392791144348604 -1.39149195215911 -1.39279053240503 -1.392873455620857 
0.5610685834059451 -0.1175781143147206 -0.1055577961507864 -0.05193309946509071 -0.0589059447096081 -0.1237085091465126 -0.04707322302995815 
0.5610685834059451 -0.1175781143147206 -0.1055577961507864 -0.05193309946509071 -0.0589059447096081 -0.1237085091465126 -0.04707322302995815 
0.6736598573919836 -0.6750332109174706 -0.6747929122936589 -0.6749362764683022 -0.6754077206749751 -0.6748329280968479 -0.6748622517473818 
0.3970472524560306 -0.400703065788136 -0.4001782163747178 -0.4009381044858885 -0.3990492982025664 -0.4000634716123524 -0.4008926098150177 
0.3970472524560306 -0.400703065788136 -0.4001782163747178 -0.4009381044858885 -0.3990492982025664 -0.4000634716123524 -0.4008926098150177 
2.133992061267865 -2.127120116853461 -2.12689879225461 -2.126788157881459 -2.13044586486079 -2.126515883702711 -2.127723933570047 
2.887908217499794 -3.111757293524707 -3.111762812858275 -3.111738184936371 -2.879988273040592 -3.110288119360346 -3.111944100135686 
1.04245837730378 -1.042497851109759 -1.042575306507508 -1.0425125003396 -1.042711525179737 -1.04266771676363 -1.042610997627241 
0.8796936567411455 -0.8797855498285025 -0.8797647753831462 -0.8796774778221096 -0.8806375264474322 -0.8798775678647451 -0.8797030468274296 
0.9444580269221521 -0.2159886390535286 -0.1954433664070523 -0.09937215614106026 -0.1124836194302309 -0.2266591720786642 -0.09040905109867531 
4.259926132400619 -4.232783665293201 -4.232724163328045 -4.232871669646793 -4.233098101050543 -4.246610829652022 -4.233006135250812 
2.170162769615546 -2.16295580280343 -2.162727483093005 -2.16264894554465 -2.166217959856914 -2.16221299177036 -2.163609263531189 
-0.2487455729605793 0.7554037247812464 -0.1055577961507864 -0.05193309946509071 -0.0589059447096081 -0.1237085091465126 -0.04707322302995815 
-0.2487455729605793 -0.1175781143147206 0.7732586258183188 -0.05193309946509071 -0.0589059447096081 -0.1237085091465126 -0.04707322302995815 
2.014177281448441 -2.008705347542547 -2.00852773356388 -2.008303331059432 -2.011941471433033 -2.008488114590225 -2.00910084821364 
0.3970472524560306 -0.400703065788136 -0.4001782163747178 -0.4009381044858885 -0.3990492982025664 -0.4000634716123524 -0.4008926098150177 
2.526694236505755 -0.912021405804241 -0.853710546640569 -0.5278510557042474 -0.5816589777327132 -0.9427129089317697 -0.492209759615974 
1.291581758819431 -1.292455377891405 -1.29255997311566 -1.292566028150667 -1.291307148554664 -1.292539146585766 -1.292661588670337 
1.176896481418255 -1.177369755660513 -1.1774761220655 -1.177474034001741 -1.176752909229655 -1.177508659487934 -1.177586115466888 
0.3970472524560306 -0.400703065788136 -0.4001782163747178 -0.4009381044858885 -0.3990492982025664 -0.4000634716123524 -0.4008926098150177 
1.176896481418255 -1.177369755660513 -1.1774761220655 -1.177474034001741 -1.176752909229655 -1.177508659487934 -1.177586115466888 
2.170162769615546 -2.16295580280343 -2.162727483093005 -2.16264894554465 -2.166217959856914 -2.16221299177036 -2.163609263531189 
0.3970472524560306 -0.400703065788136 -0.4001782163747178 -0.4009381044858885 -0.3990492982025664 -0.4000634716123524 -0.4008926098150177 
0.8796936567411455 -0.8797855498285025 -0.8797647753831462 -0.8796774778221096 -0.8806375264474322 -0.8798775678647451 -0.8797030468274296 
0.3970472524560306 -0.400703065788136 -0.4001782163747178 -0.4009381044858885 -0.3990492982025664 -0.4000634716123524 -0.4008926098150177 
2.170162769615546 -2.16295580280343 -2.162727483093005 -2.16264894554465 -2.166217959856914 -2.16221299177036 -2.163609263531189 
2.133992061267865 -2.127120116853461 -2.12689879225461 -2.126788157881459 -2.13044586486079 -2.126515883702711 -2.127723933570047 
2.204725973902971 -2.197241431017996 -2.197009315345896 -2.196959154295344 -2.200410526772412 -2.196360762116263 -2.197934738090153 
2.014177281448441 -2.008705347542547 -2.00852773356388 -2.008303331059432 -2.011941471433033 -2.008488114590225 -2.00910084821364 
-1.485852060035412 -1.548821380192075 -1.472428446013192 -1.021132222371175 -1.099205070810123 3.691559532051672 -0.9674031098406853 
-1.497719977415033 -1.206588131089455 -1.138667619795292 -0.7470875757183967 0.6883983282022353 -1.241812378127117 3.750429223205051 
1.700439836927587 -1.699438630322707 -1.699433505536406 -1.699107327294656 -1.700279851444074 -1.699536821826229 -1.699381627876512 
2.66631253577623 -0.998294999858768 -0.9368793078670765 -0.5901851642385711 -0.6478368936222109 -1.030443370997108 -0.5517125975120339 
2.461464680403036 -2.453208061717139 -2.453019714286619 -2.453088830424776 -2.455162730347551 -2.451387263904616 -2.453953101162349 
3.981108677928415 -1.963650986508498 -1.87933400322504 -1.372679314127293 -1.4629910372337 -2.005121101635901 -1.310589156464132 
1.48071335735533 -1.481551891408621 -1.481623858328092 -1.481499492999097 -1.480567324399698 -1.481591238442755 -1.481591124774969 
1.30551760698428 -0.5013390997732097 -0.4618089077140118 0.48518016794843 -0.2881659107135465 -0.522475747217398 -0.2362201839480519 
1.884798614630616 -0.7381023725096564 -0.6868755818490742 -0.4075289656220237 0.1808861141310952 -0.7653747060287053 -0.3779409370783036 
0.9444580269221521 -0.2159886390535286 -0.1954433664070523 -0.09937215614106026 -0.1124836194302309 -0.2266591720786642 -0.09040905109867531 
1.176896481418255 -1.177369755660513 -1.1774761220655 -1.177474034001741 -1.176752909229655 -1.177508659487934 -1.177586115466888 
1.217510775639541 -0.3006391005787983 -0.2736919045632006 -0.1430634534792437 -0.1615873564388844 -0.3148133424674683 -0.1305817412241119 
0.5610685834059451 -0.1175781143147206 -0.1055577961507864 -0.05193309946509071 -0.0589059447096081 -0.1237085091465126 -0.04707322302995815 
-2.308430427019649 -2.0182190198577 -1.933039622243491 0.9229753881840463 -0.6167265263550199 3.146234580026392 -1.357108593909917 
0.5610685834059451 -0.1175781143147206 -0.1055577961507864 -0.05193309946509071 -0.0589059447096081 -0.1237085091465126 -0.04707322302995815 
-0.2487455729605793 -0.1175781143147206 -0.1055577961507864 -0.05193309946509071 -0.0589059447096081 0.743290897230242 -0.04707322302995815 
-1.232510852179196 -0.7381023725096564 -0.6868755818490742 -0.4075289656220237 -0.4526622778348662 2.865149800980897 -0.3779409370783036 
3.207622484461426 -3.193269683484647 -3.193289913689204 -3.193246096616319 -3.193325620045187 -3.191952858234252 -3.193407377897283 
-2.32017482306391 -1.619520265198345 -1.541609795280433 5.142559629450875 -1.160149670042613 -1.659207697015467 -1.024429896944212 
3.217562590156296 -3.202907871094455 -3.202929691169882 -3.202883727638872 -3.202957027097376 -3.201608855957531 -3.203040210491982 
1.48071335735533 -1.481551891408621 -1.481623858328092 -1.481499492999097 -1.480567324399698 -1.481591238442755 -1.481591124774969 
2.691672187970783 -2.683909728991529 -2.683802787688228 -2.683870842431392 -2.684850807370598 -2.681803030067873 -2.684462661906202 
3.055073844049673 -3.044763847677342 -3.044755695588014 -3.04474764666972 -3.044954649969377 -3.043166202507433 -3.044996214276234 
0.3970472524560306 -0.400703065788136 -0.4001782163747178 -0.4009381044858885 -0.3990492982025664 -0.4000634716123524 -0.4008926098150177 
0.3970472524560306 -0.400703065788136 -0.4001782163747178 -0.4009381044858885 -0.3990492982025664 -0.4000634716123524 -0.4008926098150177 
0.3970472524560306 -0.400703065788136 -0.4001782163747178 -0.4009381044858885 -0.3990492982025664 -0.4000634716123524 -0.4008926098150177 
2.170162769615546 -2.16295580280343 -2.162727483093005 -2.16264894554465 -2.166217959856914 -2.16221299177036 -2.163609263531189 
1.700439836927587 -1.699438630322707 -1.699433505536406 -1.699107327294656 -1.700279851444074 -1.699536821826229 -1.699381627876512 
2.269555186489535 -2.261665510243145 -2.261433633906148 -2.261429228093604 -2.264591375990754 -2.260520859508535 -2.262411906781612 
1.176896481418255 -1.177369755660513 -1.1774761220655 -1.177474034001741 -1.176752909229655 -1.177508659487934 -1.177586115466888 
3.916182204377381 -3.868225991411844 -3.868241581379685 -3.86822496964186 -3.868251058456821 -3.870570474747013 -3.868253558518026 
0.6736598573919836 -0.6750332109174706 -0.6747929122936589 -0.6749362764683022 -0.6754077206749751 -0.6748329280968479 -0.6748622517473818 
0.6736598573919836 -0.6750332109174706 -0.6747929122936589 -0.6749362764683022 -0.6754077206749751 -0.6748329280968479 -0.6748622517473818 
2.461464680403036 -2.453208061717139 -2.453019714286619 -2.453088830424776 -2.455162730347551 -2.451387263904616 -2.453953101162349 
2.133992061267865 -2.127120116853461 -2.12689879225461 -2.126788157881459 -2.13044586486079 -2.126515883702711 -2.127723933570047 
2.595202052858956 -2.587207317112867 -2.587066458343554 -2.58714289780169 -2.588519465420258 -2.585139010564493 -2.587852926394524 
1.04245837730378 -1.042497851109759 -1.042575306507508 -1.0425125003396 -1.042711525179737 -1.04266771676363 -1.042610997627241 
-0.8991618833655362 -0.5013390997732097 -0.4618089077140118 -0.2568424710348913 -0.2881659107135465 2.302417417632559 -0.2362201839480519 
1.922743487939729 -1.918561452455514 -1.91843278637038 -1.918132545410595 -1.921382572496759 -1.918538544346157 -1.918781107053035 
0.8796936567411455 -0.8797855498285025 -0.8797647753831462 -0.8796774778221096 -0.8806375264474322 -0.8798775678647451 -0.8797030468274296 
0.3970472524560306 -0.400703065788136 -0.4001782163747178 -0.4009381044858885 -0.3990492982025664 -0.4000634716123524 -0.4008926098150177 
0.3970472524560306 -0.400703065788136 -0.4001782163747178 -0.4009381044858885 -0.3990492982025664 -0.4000634716123524 -0.4008926098150177 
1.425443687767172 -0.374984996112286 -0.3430039660267485 -0.1835843552260654 -0.2068922413203756 -0.3919495257482262 -0.1680440982228788 
-0.2487455729605793 -0.1175781143147206 -0.1055577961507864 -0.05193309946509071 -0.0589059447096081 0.743290897230242 -0.04707322302995815 
-0.4354423580028512 -0.2159886390535286 -0.1954433664070523 -0.09937215614106026 -0.1124836194302309 1.271265507516204 -0.09040905109867531 
1.291581758819431 -1.292455377891405 -1.29255997311566 -1.292566028150667 -1.291307148554664 -1.292539146585766 -1.292661588670337 
2.204725973902971 -2.197241431017996 -2.197009315345896 -2.196959154295344 -2.200410526772412 -2.196360762116263 -2.197934738090153 
2.744474461957978 -2.736778835607462 -2.736689264874482 -2.736749539712759 -2.737552952820399 -2.734695688946076 -2.737279337902602 
3.458315814425404 -1.561090880675141 -1.484429704854598 -1.031263265129452 -1.109743708121703 -1.600301156150786 -0.9772511238048147 
0.8796936567411455 -0.8797855498285025 -0.8797647753831462 -0.8796774778221096 -0.8806375264474322 -0.8798775678647451 -0.8797030468274296 
1.04245837730378 -1.042497851109759 -1.042575306507508 -1.0425125003396 -1.042711525179737 -1.04266771676363 -1.042610997627241 
2.269555186489535 -2.261665510243145 -2.261433633906148 -2.261429228093604 -2.264591375990754 -2.260520859508535 -2.262411906781612 
1.391732392057076 -1.392743608020399 -1.392834458869266 -1.392791144348604 -1.39149195215911 -1.39279053240503 -1.392873455620857 
0.6736598573919836 -0.6750332109174706 -0.6747929122936589 -0.6749362764683022 -0.6754077206749751 -0.6748329280968479 -0.6748622517473818 
0.3970472524560306 -0.400703065788136 -0.4001782163747178 -0.4009381044858885 -0.3990492982025664 -0.4000634716123524 -0.4008926098150177 
-0.2487455729605793 -0.1175781143147206 -0.1055577961507864 0.8755068441857926 -0.0589059447096081 -0.1237085091465126 -0.04707322302995815 
1.291581758819431 -1.292455377891405 -1.29255997311566 -1.292566028150667 -1.291307148554664 -1.292539146585766 -1.292661588670337 
1.48071335735533 -1.481551891408621 -1.481623858328092 -1.481499492999097 -1.480567324399698 -1.481591238442755 -1.481591124774969 
-0.4354423580028512 -0.2159886390535286 -0.1954433664070523 -0.09937215614106026 -0.1124836194302309 1.271265507516204 -0.09040905109867531 
0.3970472524560306 -0.400703065788136 -0.4001782163747178 -0.4009381044858885 -0.3990492982025664 -0.4000634716123524 -0.4008926098150177 
-0.4354423580028512 -0.2159886390535286 -0.1954433664070523 -0.09937215614106026 -0.1124836194302309 1.271265507516204 -0.09040905109867531 
2.014177281448441 -2.008705347542547 -2.00852773356388 -2.008303331059432 -2.011941471433033 -2.008488114590225 -2.00910084821364 
1.819324907833602 -1.816683606782339 -1.816615534035811 -1.816268412444264 -1.818704054661419 -1.81676877349272 -1.816732796890079 
0.3970472524560306 -0.400703065788136 -0.4001782163747178 -0.4009381044858885 -0.3990492982025664 -0.4000634716123524 -0.4008926098150177 
0.6736598573919836 -0.6750332109174706 -0.6747929122936589 -0.6749362764683022 -0.6754077206749751 -0.6748329280968479 -0.6748622517473818 
1.176896481418255 -1.177369755660513 -1.1774761220655 -1.177474034001741 -1.176752909229655 -1.177508659487934 -1.177586115466888 
0.6736598573919836 -0.6750332109174706 -0.6747929122936589 -0.6749362764683022 -0.6754077206749751 -0.6748329280968479 -0.6748622517473818 
-0.2487455729605793 -0.1175781143147206 -0.1055577961507864 -0.05193309946509071 -0.0589059447096081 0.743290897230242 -0.04707322302995815 
0.6736598573919836 -0.6750332109174706 -0.6747929122936589 -0.6749362764683022 -0.6754077206749751 -0.6748329280968479 -0.6748622517473818 
1.633652699803101 -1.633411019502013 -1.633434769129072 -1.633155123204988 -1.633583334916787 -1.633489606699102 -1.633347481484642 
1.762090690476819 -1.760273087124581 -1.760236910959269 -1.759889255596454 -1.76174363721536 -1.76037565866797 -1.760256607341588 
0.3970472524560306 -0.400703065788136 -0.4001782163747178 -0.4009381044858885 -0.3990492982025664 -0.4000634716123524 -0.4008926098150177 
1.391732392057076 -1.392743608020399 -1.392834458869266 -1.392791144348604 -1.39149195215911 -1.39279053240503 -1.392873455620857 
1.633652699803101 -1.633411019502013 -1.633434769129072 -1.633155123204988 -1.633583334916787 -1.633489606699102 -1.633347481484642 
1.291581758819431 -1.292455377891405 -1.29255997311566 -1.292566028150667 -1.291307148554664 -1.292539146585766 -1.292661588670337 
1.922743487939729 -1.918561452455514 -1.91843278637038 -1.918132545410595 -1.921382572496759 -1.918538544346157 -1.918781107053035 
0.6736598573919836 -0.6750332109174706 -0.6747929122936589 -0.6749362764683022 -0.6754077206749751 -0.6748329280968479 -0.6748622517473818 
0.8796936567411455 -0.8797855498285025 -0.8797647753831462 -0.8796774778221096 -0.8806375264474322 -0.8798775678647451 -0.8797030468274296 
0.6736598573919836 -0.6750332109174706 -0.6747929122936589 -0.6749362764683022 -0.6754077206749751 -0.6748329280968479 -0.6748622517473818 
1.176896481418255 -1.177369755660513 -1.1774761220655 -1.177474034001741 -1.176752909229655 -1.177508659487934 -1.177586115466888 
0.5610685834059451 -0.1175781143147206 -0.1055577961507864 -0.05193309946509071 -0.0589059447096081 -0.1237085091465126 -0.04707322302995815 
0.5610685834059451 -0.1175781143147206 -0.1055577961507864 -0.05193309946509071 -0.0589059447096081 -0.1237085091465126 -0.04707322302995815 
-1.493040988082276 3.502475549424136 -0.9319382349685245 -0.898221442890183 -0.9711376674472686 -1.435615122982273 -0.8481722729450129 
0.9444580269221521 -0.2159886390535286 -0.1954433664070523 -0.09937215614106026 -0.1124836194302309 -0.2266591720786642 -0.09040905109867531 
0.2779320722385235 -0.8131580989789745 -0.7587337847350711 0.6741697664343146 0.1011986048721988 1.009863671716054 -0.4262801558869555 
0.5610685834059451 -0.1175781143147206 -0.1055577961507864 -0.05193309946509071 -0.0589059447096081 -0.1237085091465126 -0.04707322302995815 
0.5610685834059451 -0.1175781143147206 -0.1055577961507864 -0.05193309946509071 -0.0589059447096081 -0.1237085091465126 -0.04707322302995815 
0.5610685834059451 -0.1175781143147206 -0.1055577961507864 -0.05193309946509071 -0.0589059447096081 -0.1237085091465126 -0.04707322302995815 
-0.8991618833655362 1.534665458740764 0.7186315013773273 -0.2568424710348913 -0.2881659107135465 -0.522475747217398 -0.2362201839480519 
-0.5832471950778421 -0.3006391005787983 1.72282890692463 -0.1430634534792437 -0.1615873564388844 -0.3148133424674683 -0.1305817412241119 
-0.5832471950778421 -0.3006391005787983 1.72282890692463 -0.1430634534792437 -0.1615873564388844 -0.3148133424674683 -0.1305817412241119 
3.178738712958957 -1.350729715947032 -1.27897765676527 -0.8603369823510459 -0.9315841426910325 -1.387780028062397 -0.8115201187779332 
1.700439836927587 -1.699438630322707 -1.699433505536406 -1.699107327294656 -1.700279851444074 -1.699536821826229 -1.699381627876512 
2.50861449690016 -2.500420677447323 -2.500248583592497 -2.500323462514048 -2.502135086092287 -2.498486918429207 -2.501136788650243 
1.291581758819431 -1.292455377891405 -1.29255997311566 -1.292566028150667 -1.291307148554664 -1.292539146585766 -1.292661588670337 
0.6736598573919836 -0.6750332109174706 -0.6747929122936589 -0.6749362764683022 -0.6754077206749751 -0.6748329280968479 -0.6748622517473818 
1.176896481418255 -1.177369755660513 -1.1774761220655 -1.177474034001741 -1.176752909229655 -1.177508659487934 -1.177586115466888 
2.014177281448441 -2.008705347542547 -2.00852773356388 -2.008303331059432 -2.011941471433033 -2.008488114590225 -2.00910084821364 
0.6736598573919836 -0.6750332109174706 -0.6747929122936589 -0.6749362764683022 -0.6754077206749751 -0.6748329280968479 -0.6748622517473818 
0.3970472524560306 -0.400703065788136 -0.4001782163747178 -0.4009381044858885 -0.3990492982025664 -0.4000634716123524 -0.4008926098150177 
2.635192471620412 -2.627302029195794 -2.627175497689029 -2.62724953124254 -2.628449907492706 -2.625204061217975 -2.627910247300332 
2.300046510644109 -2.29201839608521 -2.291789690273101 -2.291803100849558 -2.294806329624759 -2.290751154498941 -2.292779787692801 
2.531168100511254 -2.52301823362682 -2.522854195532148 -2.52293050705955 -2.524622338809098 -2.521040146159068 -2.523717817476077 
0.3970472524560306 -0.400703065788136 -0.4001782163747178 -0.4009381044858885 -0.3990492982025664 -0.4000634716123524 -0.4008926098150177 
0.6736598573919836 -0.6750332109174706 -0.6747929122936589 -0.6749362764683022 -0.6754077206749751 -0.6748329280968479 -0.6748622517473818 
1.291581758819431 -1.292455377891405 -1.29255997311566 -1.292566028150667 -1.291307148554664 -1.292539146585766 -1.292661588670337 
0.3970472524560306 -0.400703065788136 -0.4001782163747178 -0.4009381044858885 -0.3990492982025664 -0.4000634716123524 -0.4008926098150177 
3.408636746516641 -3.390421294255407 -3.39046650432239 -3.390387974493901 -3.390377286138202 -3.389493016935689 -3.390468685475723 
-1.943015741143689 -0.9009664696627532 -0.8193374979117861 -0.3248590603931843 -0.02605073072162791 2.829016394002937 -0.264815534001648 
0.3970472524560306 -0.400703065788136 -0.4001782163747178 -0.4009381044858885 -0.3990492982025664 -0.4000634716123524 -0.4008926098150177 
0.3970472524560306 -0.400703065788136 -0.4001782163747178 -0.4009381044858885 -0.3990492982025664 -0.4000634716123524 -0.4008926098150177 
0.6736598573919836 -0.6750332109174706 -0.6747929122936589 -0.6749362764683022 -0.6754077206749751 -0.6748329280968479 -0.6748622517473818 
0.6736598573919836 -0.6750332109174706 -0.6747929122936589 -0.6749362764683022 -0.6754077206749751 -0.6748329280968479 -0.6748622517473818 
0.3970472524560306 -0.400703065788136 -0.4001782163747178 -0.4009381044858885 -0.3990492982025664 -0.4000634716123524 -0.4008926098150177 
1.922743487939729 -1.918561452455514 -1.91843278637038 -1.918132545410595 -1.921382572496759 -1.918538544346157 -1.918781107053035 
0.3970472524560306 -0.400703065788136 -0.4001782163747178 -0.4009381044858885 -0.3990492982025664 -0.4000634716123524 -0.4008926098150177 
1.922743487939729 -1.918561452455514 -1.91843278637038 -1.918132545410595 -1.921382572496759 -1.918538544346157 -1.918781107053035 
1.176896481418255 -1.177369755660513 -1.1774761220655 -1.177474034001741 -1.176752909229655 -1.177508659487934 -1.177586115466888 
3.123691610814984 -3.111757293524707 -3.111762812858275 -3.111738184936371 -3.111879626286829 -3.110288119360346 -3.111944100135686 
0.3970472524560306 -0.400703065788136 -0.4001782163747178 -0.4009381044858885 -0.3990492982025664 -0.4000634716123524 -0.4008926098150177 
1.633652699803101 -1.633411019502013 -1.633434769129072 -1.633155123204988 -1.633583334916787 -1.633489606699102 -1.633347481484642 
3.357268699753103 -1.484154118397692 -1.409209852259296 -0.9680500118524137 -1.043943318445401 -1.522652015001197 -0.9158529262506976 
1.046089882984284 -0.6534431456111054 -0.6060970619803001 0.330183161314253 -0.3922241423377857 -0.1213601724032155 0.3704750804509624 
2.029598953207093 -1.456575059871518 -1.382267120783584 1.027386525935049 -1.02052766778888 -1.124859338216559 -0.8940559757782426 
1.819324907833602 -1.816683606782339 -1.816615534035811 -1.816268412444264 -1.818704054661419 -1.81676877349272 -1.816732796890079 
0.6736598573919836 -0.6750332109174706 -0.6747929122936589 -0.6749362764683022 -0.6754077206749751 -0.6748329280968479 -0.6748622517473818 
-1.21603907042159 -1.206588131089455 -1.138667619795292 -0.2304124822255937 0.08773749274649101 1.598106171369301 1.880933675813644 
3.984241935270437 -3.925975993766424 -3.925979652481826 -3.925986192095406 -3.926036892323082 -3.929487535687187 -3.92602320439964 
0.3970472524560306 -0.400703065788136 -0.4001782163747178 -0.4009381044858885 -0.3990492982025664 -0.4000634716123524 -0.4008926098150177 
2.461464680403036 -2.453208061717139 -2.453019714286619 -2.453088830424776 -2.455162730347551 -2.451387263904616 -2.453953101162349 
0.8796936567411455 -0.8797855498285025 -0.8797647753831462 -0.8796774778221096 -0.8806375264474322 -0.8798775678647451 -0.8797030468274296 
0.3970472524560306 -0.400703065788136 -0.4001782163747178 -0.4009381044858885 -0.3990492982025664 -0.4000634716123524 -0.4008926098150177 
0.6736598573919836 -0.6750332109174706 -0.6747929122936589 -0.6749362764683022 -0.6754077206749751 -0.6748329280968479 -0.6748622517473818 
0.8796936567411455 -0.8797855498285025 -0.8797647753831462 -0.8796774778221096 -0.8806375264474322 -0.8798775678647451 -0.8797030468274296 
1.04245837730378 -1.042497851109759 -1.042575306507508 -1.0425125003396 -1.042711525179737 -1.04266771676363 -1.042610997627241 
1.700439836927587 -1.699438630322707 -1.699433505536406 -1.699107327294656 -1.700279851444074 -1.699536821826229 -1.699381627876512 
2.357095661143506 -0.8131580989789745 -0.7587337847350711 -0.4585370864950737 -0.5075743776061833 -0.8419978080632522 -0.4262801558869555 
2.727249941299791 -2.719540380934102 -2.719445254950679 -2.719508269247466 -2.720366240033776 -2.717446460394036 -2.720057961182337 
0.8796936567411455 -0.8797855498285025 -0.8797647753831462 -0.8796774778221096 -0.8806375264474322 -0.8798775678647451 -0.8797030468274296 
0.6736598573919836 -0.6750332109174706 -0.6747929122936589 -0.6749362764683022 -0.6754077206749751 -0.6748329280968479 -0.6748622517473818 
0.3970472524560306 -0.400703065788136 -0.4001782163747178 -0.4009381044858885 -0.3990492982025664 -0.4000634716123524 -0.4008926098150177 
2.384934039328081 -2.376687723502474 -2.376476262585014 -2.376526636458901 -2.379046359532119 -2.37510267337773 -2.37745889463856 
-1.983998825602931 -1.334240109884184 -1.262904100692366 4.52520006902022 -0.4438342456971036 -1.37109442192914 -0.7988300811713973 
1.291581758819431 -1.292455377891405 -1.29255997311566 -1.292566028150667 -1.291307148554664 -1.292539146585766 -1.292661588670337 
2.014177281448441 -2.008705347542547 -2.00852773356388 -2.008303331059432 -2.011941471433033 -2.008488114590225 -2.00910084821364 
1.291581758819431 -1.292455377891405 -1.29255997311566 -1.292566028150667 -1.291307148554664 -1.292539146585766 -1.292661588670337 
1.48071335735533 -1.481551891408621 -1.481623858328092 -1.481499492999097 -1.480567324399698 -1.481591238442755 -1.481591124774969 
1.291581758819431 -1.292455377891405 -1.29255997311566 -1.292566028150667 -1.291307148554664 -1.292539146585766 -1.292661588670337 
0.3970472524560306 -0.400703065788136 -0.4001782163747178 -0.4009381044858885 -0.3990492982025664 -0.4000634716123524 -0.4008926098150177 
1.762090690476819 -1.760273087124581 -1.760236910959269 -1.759889255596454 -1.76174363721536 -1.76037565866797 -1.760256607341588 
1.48071335735533 -1.481551891408621 -1.481623858328092 -1.481499492999097 -1.480567324399698 -1.481591238442755 -1.481591124774969 
3.437940632559332 -3.420337670304094 -3.420385067823194 -3.420303541226718 -3.420285204929032 -3.419480623248713 -3.420375033448769 
1.176896481418255 -1.177369755660513 -1.1774761220655 -1.177474034001741 -1.176752909229655 -1.177508659487934 -1.177586115466888 
0.3970472524560306 -0.400703065788136 -0.4001782163747178 -0.4009381044858885 -0.3990492982025664 -0.4000634716123524 -0.4008926098150177 
2.531168100511254 -2.52301823362682 -2.522854195532148 -2.52293050705955 -2.524622338809098 -2.521040146159068 -2.523717817476077 
1.969787459545775 -1.964924956692211 -1.964769972813207 -1.964506051429737 -1.967997426910679 -1.964814025533069 -1.965234499305518 
0.5610685834059451 -0.1175781143147206 -0.1055577961507864 -0.05193309946509071 -0.0589059447096081 -0.1237085091465126 -0.04707322302995815 
2.485394170896418 -2.477163926699511 -2.476983702374421 -2.477056237268471 -2.478995237187086 -2.475282449748572 -2.477895320947774 
1.04245837730378 -1.042497851109759 -1.042575306507508 -1.0425125003396 -1.042711525179737 -1.04266771676363 -1.042610997627241 
-1.805151155654314 -1.186299587762298 -1.118957550368401 2.135047468808679 2.670707168914731 -1.221247271710755 -0.687194726412261 
-1.232510852179196 0.2372500826522829 -0.6868755818490742 0.7737686568023622 0.1808861141310953 1.465812259649524 -0.3779409370783036 
-0.2487455729605793 -0.1175781143147206 -0.1055577961507864 -0.05193309946509071 -0.0589059447096081 0.743290897230242 -0.04707322302995815 
1.700439836927587 -1.699438630322707 -1.699433505536406 -1.699107327294656 -1.700279851444074 -1.699536821826229 -1.699381627876512 
0.3970472524560306 -0.400703065788136 -0.4001782163747178 -0.4009381044858885 -0.3990492982025664 -0.4000634716123524 -0.4008926098150177 
1.04245837730378 -1.042497851109759 -1.042575306507508 -1.0425125003396 -1.042711525179737 -1.04266771676363 -1.042610997627241 
1.176896481418255 -1.177369755660513 -1.1774761220655 -1.177474034001741 -1.176752909229655 -1.177508659487934 -1.177586115466888 
0.3435400309275141 -0.5561394637354764 -0.5136544266694212 0.4292979538155101 0.3761075119474613 0.5157514511323067 -0.2674705012871167 
3.177087617081413 -3.163651244850226 -3.163666385824553 -3.163629349931106 -3.163729379168434 -3.162279511013629 -3.163805991846936 
0.3970472524560306 -0.400703065788136 -0.4001782163747178 -0.4009381044858885 -0.3990492982025664 -0.4000634716123524 -0.4008926098150177 
0.3970472524560306 -0.400703065788136 -0.4001782163747178 -0.4009381044858885 -0.3990492982025664 -0.4000634716123524 -0.4008926098150177 
0.3970472524560306 -0.400703065788136 -0.4001782163747178 -0.4009381044858885 -0.3990492982025664 -0.4000634716123524 -0.4008926098150177 
1.969787459545775 -1.964924956692211 -1.964769972813207 -1.964506051429737 -1.967997426910679 -1.964814025533069 -1.965234499305518 
1.969787459545775 -1.964924956692211 -1.964769972813207 -1.964506051429737 -1.967997426910679 -1.964814025533069 -1.965234499305518 
0.3970472524560306 -0.400703065788136 -0.4001782163747178 -0.4009381044858885 -0.3990492982025664 -0.4000634716123524 -0.4008926098150177 
0.5610685834059451 -0.1175781143147206 -0.1055577961507864 -0.05193309946509071 -0.0589059447096081 -0.1237085091465126 -0.04707322302995815 
0.8796936567411455 -0.8797855498285025 -0.8797647753831462 -0.8796774778221096 -0.8806375264474322 -0.8798775678647451 -0.8797030468274296 
2.855969880122098 -2.848078785963593 -2.848022427153907 -2.848061297595413 -2.848575866512113 -2.846123761519712 -2.848472468280768 
0.2734422908645693 -0.2159886390535286 -0.1954433664070523 -0.09937215614106026 0.7443454950223872 -0.2266591720786642 -0.09040905109867531 
1.700439836927587 -1.699438630322707 -1.699433505536406 -1.699107327294656 -1.700279851444074 -1.699536821826229 -1.699381627876512 
1.969787459545775 -1.964924956692211 -1.964769972813207 -1.964506051429737 -1.967997426910679 -1.964814025533069 -1.965234499305518 
-0.8088495136278081 -0.4413448947212137 -0.4052589606457108 -0.2213894860282956 -0.2489389766903373 2.128233511670273 -0.2031587549438553 
0.6736598573919836 -0.6750332109174706 -0.6747929122936589 -0.6749362764683022 -0.6754077206749751 -0.6748329280968479 -0.6748622517473818 
1.56081132691815 -1.5612079392334 -1.561257490903336 -1.561048068366206 -1.560739005587037 -1.561262341074879 -1.561177303221005 
0.3970472524560306 -0.400703065788136 -0.4001782163747178 -0.4009381044858885 -0.3990492982025664 -0.4000634716123524 -0.4008926098150177 
2.615447675668621 -2.607506090051545 -2.607372519020787 -2.607447951573242 -2.608733249980832 -2.60542024634375 -2.60813302736402 
0.8796936567411455 -0.8797855498285025 -0.8797647753831462 -0.8796774778221096 -0.8806375264474322 -0.8798775678647451 -0.8797030468274296 
1.56081132691815 -1.5612079392334 -1.561257490903336 -1.561048068366206 -1.560739005587037 -1.561262341074879 -1.561177303221005 
2.096059748152452 -2.089585659014129 -2.089374931473365 -2.089228750985086 -2.092935860420521 -2.089117665066684 -2.090129700873308 
1.48071335735533 -1.481551891408621 -1.481623858328092 -1.481499492999097 -1.480567324399698 -1.481591238442755 -1.481591124774969 
0.3970472524560306 -0.400703065788136 -0.4001782163747178 -0.4009381044858885 -0.3990492982025664 -0.4000634716123524 -0.4008926098150177 
2.329385280419913 -2.321254657199045 -2.321030630355922 -2.321058889754345 -2.323899952732862 -2.3198727073424 -2.322024583370007 
1.217510775639541 -0.3006391005787983 -0.2736919045632006 -0.1430634534792437 -0.1615873564388844 -0.3148133424674683 -0.1305817412241119 
0.6736598573919836 -0.6750332109174706 -0.6747929122936589 -0.6749362764683022 -0.6754077206749751 -0.6748329280968479 -0.6748622517473818 
0.6736598573919836 -0.6750332109174706 -0.6747929122936589 -0.6749362764683022 -0.6754077206749751 -0.6748329280968479 -0.6748622517473818 
0.3970472524560306 -0.400703065788136 -0.4001782163747178 -0.4009381044858885 -0.3990492982025664 -0.4000634716123524 -0.4008926098150177 
1.48071335735533 -1.481551891408621 -1.481623858328092 -1.481499492999097 -1.480567324399698 -1.481591238442755 -1.481591124774969 
2.70965520615712 -2.701923092338085 -2.701822179038039 -2.701887795742021 -2.702804506153983 -2.69982119722239 -2.702458161293133 
2.269555186489535 -2.261665510243145 -2.261433633906148 -2.261429228093604 -2.264591375990754 -2.260520859508535 -2.262411906781612 
2.133992061267865 -2.127120116853461 -2.12689879225461 -2.126788157881459 -2.13044586486079 -2.126515883702711 -2.127723933570047 
0.3970472524560306 -0.400703065788136 -0.4001782163747178 -0.4009381044858885 -0.3990492982025664 -0.4000634716123524 -0.4008926098150177 
2.204725973902971 -2.197241431017996 -2.197009315345896 -2.196959154295344 -2.200410526772412 -2.196360762116263 -2.197934738090153 
1.04245837730378 -1.042497851109759 -1.042575306507508 -1.0425125003396 -1.042711525179737 -1.04266771676363 -1.042610997627241 
3.532622277910345 -3.523716635397586 -3.523767668458789 -3.52368204500215 -3.523648191089486 -3.523164450087799 -3.523727527540526 
-1.176916774371842 2.508259853446018 -0.6477465382108176 0.2857361585361817 -0.4232071868663722 -0.7234813145681552 -0.3522132886401951 
0.6736598573919836 -0.6750332109174706 -0.6747929122936589 -0.6749362764683022 -0.6754077206749751 -0.6748329280968479 -0.6748622517473818 
0.3970472524560306 -0.400703065788136 -0.4001782163747178 -0.4009381044858885 -0.3990492982025664 -0.4000634716123524 -0.4008926098150177 
2.691672187970783 -2.683909728991529 -2.683802787688228 -2.683870842431392 -2.684850807370598 -2.681803030067873 -2.684462661906202 
0.3970472524560306 -0.400703065788136 -0.4001782163747178 -0.4009381044858885 -0.3990492982025664 -0.4000634716123524 -0.4008926098150177 
0.3970472524560306 -0.400703065788136 -0.4001782163747178 -0.4009381044858885 -0.3990492982025664 -0.4000634716123524 -0.4008926098150177 
-0.4354423580028512 1.292640799370316 -0.1954433664070523 -0.09937215614106026 -0.1124836194302309 -0.2266591720786642 -0.09040905109867531 
-0.4354423580028512 0.5772287199939417 0.6080080628653646 -0.09937215614106026 -0.1124836194302309 -0.2266591720786642 -0.09040905109867531 
1.04245837730378 -1.042497851109759 -1.042575306507508 -1.0425125003396 -1.042711525179737 -1.04266771676363 -1.042610997627241 
0.3970472524560306 -0.400703065788136 -0.4001782163747178 -0.4009381044858885 -0.3990492982025664 -0.4000634716123524 -0.4008926098150177 
0.3970472524560306 -0.400703065788136 -0.4001782163747178 -0.4009381044858885 -0.3990492982025664 -0.4000634716123524 -0.4008926098150177 
0.8796936567411455 -0.8797855498285025 -0.8797647753831462 -0.8796774778221096 -0.8806375264474322 -0.8798775678647451 -0.8797030468274296 
0.3970472524560306 -0.400703065788136 -0.4001782163747178 -0.4009381044858885 -0.3990492982025664 -0.4000634716123524 -0.4008926098150177 
0.6736598573919836 -0.6750332109174706 -0.6747929122936589 -0.6749362764683022 -0.6754077206749751 -0.6748329280968479 -0.6748622517473818 
1.700439836927587 -1.699438630322707 -1.699433505536406 -1.699107327294656 -1.700279851444074 -1.699536821826229 -1.699381627876512 
3.246691257487808 -3.23115687536847 -3.231183159981743 -3.231131103757237 -3.2311873575408 -3.229910073434735 -3.231274068048249 
1.762090690476819 -1.760273087124581 -1.760236910959269 -1.759889255596454 -1.76174363721536 -1.76037565866797 -1.760256607341588 
0.3970472524560306 -0.400703065788136 -0.4001782163747178 -0.4009381044858885 -0.3990492982025664 -0.4000634716123524 -0.4008926098150177 
3.489577217938382 -1.585026617427482 -1.507848073875774 -1.051079948555511 -1.130349636133236 -1.624439094756828 -0.9965225662125067 
0.3970472524560306 -0.400703065788136 -0.4001782163747178 -0.4009381044858885 -0.3990492982025664 -0.4000634716123524 -0.4008926098150177 
0.6736598573919836 -0.6750332109174706 -0.6747929122936589 -0.6749362764683022 -0.6754077206749751 -0.6748329280968479 -0.6748622517473818 
0.3970472524560306 -0.400703065788136 -0.4001782163747178 -0.4009381044858885 -0.3990492982025664 -0.4000634716123524 -0.4008926098150177 
1.633652699803101 -1.633411019502013 -1.633434769129072 -1.633155123204988 -1.633583334916787 -1.633489606699102 -1.633347481484642 
0.6736598573919836 -0.6750332109174706 -0.6747929122936589 -0.6749362764683022 -0.6754077206749751 -0.6748329280968479 -0.6748622517473818 
0.6736598573919836 -0.6750332109174706 -0.6747929122936589 -0.6749362764683022 -0.6754077206749751 -0.6748329280968479 -0.6748622517473818 
0.8796936567411455 -0.8797855498285025 -0.8797647753831462 -0.8796774778221096 -0.8806375264474322 -0.8798775678647451 -0.8797030468274296 
0.3970472524560306 -0.400703065788136 -0.4001782163747178 -0.4009381044858885 -0.3990492982025664 -0.4000634716123524 -0.4008926098150177 
0.3970472524560306 -0.400703065788136 -0.4001782163747178 -0.4009381044858885 -0.3990492982025664 -0.4000634716123524 -0.4008926098150177 
3.563315471939232 -1.641645099909364 -1.563273592794683 -1.098223530803004 -1.179326450385727 -1.681498685678976 -1.042412047900602 
0.3970472524560306 -0.400703065788136 -0.4001782163747178 -0.4009381044858885 -0.3990492982025664 -0.4000634716123524 -0.4008926098150177 
0.6736598573919836 -0.6750332109174706 -0.6747929122936589 -0.6749362764683022 -0.6754077206749751 -0.6748329280968479 -0.6748622517473818 
2.854711396518647 -1.121630831781628 -1.056207178176379 -0.6820586810249829 -0.7447776129027642 -1.155665417114266 -0.6397386590428626 
1.969787459545775 -1.964924956692211 -1.964769972813207 -1.964506051429737 -1.967997426910679 -1.964814025533069 -1.965234499305518 
1.922743487939729 -1.918561452455514 -1.91843278637038 -1.918132545410595 -1.921382572496759 -1.918538544346157 -1.918781107053035 
1.819324907833602 -1.816683606782339 -1.816615534035811 -1.816268412444264 -1.818704054661419 -1.81676877349272 -1.816732796890079 
1.700439836927587 -1.699438630322707 -1.699433505536406 -1.699107327294656 -1.700279851444074 -1.699536821826229 -1.699381627876512 
3.239325183727136 -3.876725244934078 -3.876739149944205 -3.876725782371811 -3.235535719715192 -3.87922106055535 -3.876755403918502 
3.246691257487808 -3.23115687536847 -3.231183159981743 -3.231131103757237 -3.2311873575408 -3.229910073434735 -3.231274068048249 
0.3970472524560306 -0.400703065788136 -0.4001782163747178 -0.4009381044858885 -0.3990492982025664 -0.4000634716123524 -0.4008926098150177 
1.04245837730378 -1.042497851109759 -1.042575306507508 -1.0425125003396 -1.042711525179737 -1.04266771676363 -1.042610997627241 
1.872719075325303 -1.869281956689812 -1.869182608599661 -1.868853056224381 -1.871754026259356 -1.869325201851096 -1.869412623209753 
1.04245837730378 -1.042497851109759 -1.042575306507508 -1.0425125003396 -1.042711525179737 -1.04266771676363 -1.042610997627241 
0.3970472524560306 -0.400703065788136 -0.4001782163747178 -0.4009381044858885 -0.3990492982025664 -0.4000634716123524 -0.4008926098150177 
1.922743487939729 -1.918561452455514 -1.91843278637038 -1.918132545410595 -1.921382572496759 -1.918538544346157 -1.918781107053035 
0.6736598573919836 -0.6750332109174706 -0.6747929122936589 -0.6749362764683022 -0.6754077206749751 -0.6748329280968479 -0.6748622517473818 
2.727249941299791 -2.719540380934102 -2.719445254950679 -2.719508269247466 -2.720366240033776 -2.717446460394036 -2.720057961182337 
2.615447675668621 -2.607506090051545 -2.607372519020787 -2.607447951573242 -2.608733249980832 -2.60542024634375 -2.60813302736402 
0.8796936567411455 -0.8797855498285025 -0.8797647753831462 -0.8796774778221096 -0.8806375264474322 -0.8798775678647451 -0.8797030468274296 
0.6736598573919836 -0.6750332109174706 -0.6747929122936589 -0.6749362764683022 -0.6754077206749751 -0.6748329280968479 -0.6748622517473818 
0.3970472524560306 -0.400703065788136 -0.4001782163747178 -0.4009381044858885 -0.3990492982025664 -0.4000634716123524 -0.4008926098150177 
0.3970472524560306 -0.400703065788136 -0.4001782163747178 -0.4009381044858885 -0.3990492982025664 -0.4000634716123524 -0.4008926098150177 
1.872719075325303 -1.869281956689812 -1.869182608599661 -1.868853056224381 -1.871754026259356 -1.869325201851096 -1.869412623209753 
2.384934039328081 -2.376687723502474 -2.376476262585014 -2.376526636458901 -2.379046359532119 -2.37510267337773 -2.37745889463856 
0.6736598573919836 -0.6750332109174706 -0.6747929122936589 -0.6749362764683022 -0.6754077206749751 -0.6748329280968479 -0.6748622517473818 
0.3970472524560306 -0.400703065788136 -0.4001782163747178 -0.4009381044858885 -0.3990492982025664 -0.4000634716123524 -0.4008926098150177 
-0.2487455729605793 -0.1175781143147206 0.7732586258183188 -0.05193309946509071 -0.0589059447096081 -0.1237085091465126 -0.04707322302995815 
-0.5832471950778421 -0.3006391005787983 1.72282890692463 -0.1430634534792437 -0.1615873564388844 -0.3148133424674683 -0.1305817412241119 
0.6736598573919836 -0.6750332109174706 -0.6747929122936589 -0.6749362764683022 -0.6754077206749751 -0.6748329280968479 -0.6748622517473818 
-0.7977322166212739 -0.7381023725096564 -0.6868755818490742 0.7737686568023622 -0.4526622778348662 1.998678931916015 -0.3779409370783036 
-1.848079496251799 -1.470496529140142 -1.395865952985543 3.373595384581161 0.06147909035246066 -1.508858238394216 1.393150712953086 
0.5610685834059451 -0.1175781143147206 -0.1055577961507864 -0.05193309946509071 -0.0589059447096081 -0.1237085091465126 -0.04707322302995815 
-0.9740435069093543 2.607389772161205 -0.2769542221910113 -0.4825213374049309 -0.5332749067153252 -0.8772608238629358 -0.4490633308810972 
0.5610685834059451 -0.1175781143147206 -0.1055577961507864 -0.05193309946509071 -0.0589059447096081 -0.1237085091465126 -0.04707322302995815 
0.5610685834059451 -0.1175781143147206 -0.1055577961507864 -0.05193309946509071 -0.0589059447096081 -0.1237085091465126 -0.04707322302995815 
0.5610685834059451 -0.1175781143147206 -0.1055577961507864 -0.05193309946509071 -0.0589059447096081 -0.1237085091465126 -0.04707322302995815 
0.9444580269221521 -0.2159886390535286 -0.1954433664070523 -0.09937215614106026 -0.1124836194302309 -0.2266591720786642 -0.09040905109867531 
0.5610685834059451 -0.1175781143147206 -0.1055577961507864 -0.05193309946509071 -0.0589059447096081 -0.1237085091465126 -0.04707322302995815 
-1.051278757099194 1.930219122285853 0.5306848595895991 -0.3218190570814679 -0.3595355909890935 -0.6307312575628649 -0.2971110196577861 
-0.4354423580028512 -0.2159886390535286 1.33192764130348 -0.09937215614106026 -0.1124836194302309 -0.2266591720786642 -0.09040905109867531 
-2.052174702831274 -1.630666116356707 -1.552522566515693 -0.658325210812188 -0.4176006364796045 3.678629272132429 -1.033480904166553 
1.56081132691815 -1.5612079392334 -1.561257490903336 -1.561048068366206 -1.560739005587037 -1.561262341074879 -1.561177303221005 
1.176896481418255 -1.177369755660513 -1.1774761220655 -1.177474034001741 -1.176752909229655 -1.177508659487934 -1.177586115466888 
0.3970472524560306 -0.400703065788136 -0.4001782163747178 -0.4009381044858885 -0.3990492982025664 -0.4000634716123524 -0.4008926098150177 
0.8796936567411455 -0.8797855498285025 -0.8797647753831462 -0.8796774778221096 -0.8806375264474322 -0.8798775678647451 -0.8797030468274296 
1.176896481418255 -1.177369755660513 -1.1774761220655 -1.177474034001741 -1.176752909229655 -1.177508659487934 -1.177586115466888 
0.3970472524560306 -0.400703065788136 -0.4001782163747178 -0.4009381044858885 -0.3990492982025664 -0.4000634716123524 -0.4008926098150177 
1.04245837730378 -1.042497851109759 -1.042575306507508 -1.0425125003396 -1.042711525179737 -1.04266771676363 -1.042610997627241 
1.96183287906279 -0.6066186630409081 -0.5615544560508869 -0.3218190570814679 -0.3595355909890935 -0.6307312575628649 -0.2971110196577861 
1.04245837730378 -1.042497851109759 -1.042575306507508 -1.0425125003396 -1.042711525179737 -1.04266771676363 -1.042610997627241 
1.391732392057076 -1.392743608020399 -1.392834458869266 -1.392791144348604 -1.39149195215911 -1.39279053240503 -1.392873455620857 
1.391732392057076 -1.392743608020399 -1.392834458869266 -1.392791144348604 -1.39149195215911 -1.39279053240503 -1.392873455620857 
1.291581758819431 -1.292455377891405 -1.29255997311566 -1.292566028150667 -1.291307148554664 -1.292539146585766 -1.292661588670337 
-1.232510852179196 2.326545526485273 -0.6868755818490742 -0.4075289656220237 -0.4526622778348662 -0.7653747060287053 0.8298220548373052 
-0.8088495136278081 1.263084215535998 0.8329581535502847 -0.2213894860282956 -0.2489389766903373 -0.4605865703201679 -0.2031587549438553 
-1.332607561621475 2.037486505794045 0.8729993415562987 -0.4585370864950737 -0.5075743776061833 -0.8419978080632522 -0.4262801558869555 
1.04245837730378 -1.042497851109759 -1.042575306507508 -1.0425125003396 -1.042711525179737 -1.04266771676363 -1.042610997627241 
1.922743487939729 -1.918561452455514 -1.91843278637038 -1.918132545410595 -1.921382572496759 -1.918538544346157 -1.918781107053035 
2.436779605691543 -2.428509436258213 -2.428313079411049 -2.428377512652379 -2.430593574549556 -2.426758095159178 -2.429266022511201 
1.291581758819431 -1.292455377891405 -1.29255997311566 -1.292566028150667 -1.291307148554664 -1.292539146585766 -1.292661588670337 
0.8796936567411455 -0.8797855498285025 -0.8797647753831462 -0.8796774778221096 -0.8806375264474322 -0.8798775678647451 -0.8797030468274296 
0.3970472524560306 -0.400703065788136 -0.4001782163747178 -0.4009381044858885 -0.3990492982025664 -0.4000634716123524 -0.4008926098150177 
0.6736598573919836 -0.6750332109174706 -0.6747929122936589 -0.6749362764683022 -0.6754077206749751 -0.6748329280968479 -0.6748622517473818 
1.176896481418255 -1.177369755660513 -1.1774761220655 -1.177474034001741 -1.176752909229655 -1.177508659487934 -1.177586115466888 
0.3970472524560306 -0.400703065788136 -0.4001782163747178 -0.4009381044858885 -0.3990492982025664 -0.4000634716123524 -0.4008926098150177 
1.176896481418255 -1.177369755660513 -1.1774761220655 -1.177474034001741 -1.176752909229655 -1.177508659487934 -1.177586115466888 
1.04245837730378 -1.042497851109759 -1.042575306507508 -1.0425125003396 -1.042711525179737 -1.04266771676363 -1.042610997627241 
-0.5832471950778421 -0.3006391005787983 -0.2736919045632006 -0.1430634534792437 -0.1615873564388844 1.640605519933935 -0.1305817412241119 
0.08096619343376681 -0.5013390997732097 -0.4618089077140118 -0.2568424710348913 0.4353962735697796 -0.522475747217398 1.686692653921972 
0.8796936567411455 -0.8797855498285025 -0.8797647753831462 -0.8796774778221096 -0.8806375264474322 -0.8798775678647451 -0.8797030468274296 
0.3970472524560306 -0.400703065788136 -0.4001782163747178 -0.4009381044858885 -0.3990492982025664 -0.4000634716123524 -0.4008926098150177 
2.096059748152452 -2.089585659014129 -2.089374931473365 -2.089228750985086 -2.092935860420521 -2.089117665066684 -2.090129700873308 
1.391732392057076 -1.392743608020399 -1.392834458869266 -1.392791144348604 -1.39149195215911 -1.39279053240503 -1.392873455620857 
2.485394170896418 -2.477163926699511 -2.476983702374421 -2.477056237268471 -2.478995237187086 -2.475282449748572 -2.477895320947774 
1.176896481418255 -1.177369755660513 -1.1774761220655 -1.177474034001741 -1.176752909229655 -1.177508659487934 -1.177586115466888 
1.48071335735533 -1.481551891408621 -1.481623858328092 -1.481499492999097 -1.480567324399698 -1.481591238442755 -1.481591124774969 
1.176896481418255 -1.177369755660513 -1.1774761220655 -1.177474034001741 -1.176752909229655 -1.177508659487934 -1.177586115466888 
1.633652699803101 -1.633411019502013 -1.633434769129072 -1.633155123204988 -1.633583334916787 -1.633489606699102 -1.633347481484642 
0.6736598573919836 -0.6750332109174706 -0.6747929122936589 -0.6749362764683022 -0.6754077206749751 -0.6748329280968479 -0.6748622517473818 
1.391732392057076 -1.392743608020399 -1.392834458869266 -1.392791144348604 -1.39149195215911 -1.39279053240503 -1.392873455620857 
1.855119474760539 -0.5561394637354764 -0.5136544266694212 -0.2902382459632544 -0.3249323168798827 -0.5788785224753445 -0.2674705012871167 
2.220423206347716 -0.7381023725096564 -0.6868755818490742 -0.4075289656220237 -0.4526622778348662 -0.7653747060287053 -0.3779409370783036 
-0.4354423580028512 1.292640799370316 -0.1954433664070523 -0.09937215614106026 -0.1124836194302309 -0.2266591720786642 -0.09040905109867531 
-0.8991618833655362 -0.5013390997732097 2.418568396522829 -0.2568424710348913 -0.2881659107135465 -0.522475747217398 -0.2362201839480519 
-0.8088495136278081 0.7717381609850458 1.331366307574594 -0.2213894860282956 -0.2489389766903373 -0.4605865703201679 -0.2031587549438553 
-0.8796936567411455 -0.8797855498285025 -0.8797647753831462 0.8796774778221096 -0.8806375264474322 -0.8798775678647451 -0.8797030468274296 
-0.654339519968078 -0.6534431456111054 -0.6060970619803001 -0.3517861445519936 2.927923944685028 -0.6787470902465335 -0.3253108327682191 
-1.301198101996185 -1.264149946873273 -1.194643916329716 -0.7918930728937826 4.101238775418564 -1.300133172773392 -0.7454295594771809 
-0.8991618833655362 -0.5013390997732097 -0.4618089077140118 -0.2568424710348913 2.78915682304417 -0.522475747217398 -0.2362201839480519 
-1.363400741571167 -1.881527512872771 -1.798587881323505 -0.9107151160089201 -1.010146933811533 3.564626460857006 -1.24112837010561 
-1.753915129727302 -1.398022726671384 -0.9319382349685251 -0.898221442890183 -0.143741338367868 -1.435615122982273 4.273301270228907 
-1.144417360333917 -1.317358068344095 -1.246453502993426 0.6399983313095199 -0.4262747570330442 -0.6408200475739878 3.390898840258178 
-0.7051499201862237 1.946441894824979 -0.3430039660267485 -0.1835843552260654 -0.2068922413203756 -0.3919495257482262 -0.1680440982228788 
-1.051278757099194 1.595425031328384 0.9549331448560282 -0.3218190570814679 -0.3595355909890935 -0.6307312575628649 -0.2971110196577861 
0.4694625302868515 -0.912021405804241 -0.853710546640569 0.06763344355071615 0.4591567579565697 0.2555286132028539 1.008544359816573 
-0.8088495136278081 -0.4413448947212137 -0.4052589606457108 -0.2213894860282956 0.5004671316543829 0.1878273419740262 1.802700035600918 
1.291581758819431 -1.292455377891405 -1.29255997311566 -1.292566028150667 -1.291307148554664 -1.292539146585766 -1.292661588670337 
1.56081132691815 -1.5612079392334 -1.561257490903336 -1.561048068366206 -1.560739005587037 -1.561262341074879 -1.561177303221005 
1.48071335735533 -1.481551891408621 -1.481623858328092 -1.481499492999097 -1.480567324399698 -1.481591238442755 -1.481591124774969 
1.872719075325303 -1.869281956689812 -1.869182608599661 -1.868853056224381 -1.871754026259356 -1.869325201851096 -1.869412623209753 
1.96183287906279 -0.6066186630409081 -0.5615544560508869 -0.3218190570814679 -0.3595355909890935 -0.6307312575628649 -0.2971110196577861 
-2.313451219064296 3.84698003565591 -0.5582774177751654 -1.266967119867017 -1.354052298606315 -1.882018595403608 -1.207110692177001 
1.291581758819431 -1.292455377891405 -1.29255997311566 -1.292566028150667 -1.291307148554664 -1.292539146585766 -1.292661588670337 
1.48071335735533 -1.481551891408621 -1.481623858328092 -1.481499492999097 -1.480567324399698 -1.481591238442755 -1.481591124774969 
0.3970472524560306 -0.400703065788136 -0.4001782163747178 -0.4009381044858885 -0.3990492982025664 -0.4000634716123524 -0.4008926098150177 
1.96183287906279 -0.6066186630409081 -0.5615544560508869 -0.3218190570814679 -0.3595355909890935 -0.6307312575628649 -0.2971110196577861 
-0.7051499201862237 1.946441894824979 -0.3430039660267485 -0.1835843552260654 -0.2068922413203756 -0.3919495257482262 -0.1680440982228788 
-0.5832471950778421 0.4345966804382009 1.128912240651357 -0.1430634534792437 -0.1615873564388844 -0.3148133424674683 -0.1305817412241119 
0.4804836975448699 -0.7381023725096564 -0.6868755818490742 1.911426098915307 0.1808861141310952 -0.7653747060287053 -0.3779409370783036 
-1.749849767133445 -1.585026617427482 -1.507848073875774 1.232125617725673 3.572699762950837 -1.624439094756828 -0.9965225662125067 
1.391732392057076 -1.392743608020399 -1.392834458869266 -1.392791144348604 -1.39149195215911 -1.39279053240503 -1.392873455620857 
1.391732392057076 -1.392743608020399 -1.392834458869266 -1.392791144348604 -1.39149195215911 -1.39279053240503 -1.392873455620857 
3.543359228547004 -3.536568498060326 -3.536619531170876 -3.536534141732798 -3.536499508667591 -3.536062786606405 -3.536577030714378 
1.819324907833602 -1.816683606782339 -1.816615534035811 -1.816268412444264 -1.818704054661419 -1.81676877349272 -1.816732796890079 
3.860446470689309 -3.828866805432512 -3.828889813627409 -3.828858998310534 -3.828870403982227 -3.830589654023508 -3.828883738661757 
1.291581758819431 -1.292455377891405 -1.29255997311566 -1.292566028150667 -1.291307148554664 -1.292539146585766 -1.292661588670337 
-1.121064151120242 -1.143861775688314 -1.077765391130908 4.003272696996544 -0.7625319477224286 -1.178215738971267 -0.6559552590897606 
2.50861449690016 -2.500420677447323 -2.500248583592497 -2.500323462514048 -2.502135086092287 -2.498486918429207 -2.501136788650243 
0.3970472524560306 -0.400703065788136 -0.4001782163747178 -0.4009381044858885 -0.3990492982025664 -0.4000634716123524 -0.4008926098150177 
2.204725973902971 -2.197241431017996 -2.197009315345896 -2.196959154295344 -2.200410526772412 -2.196360762116263 -2.197934738090153 
1.872719075325303 -1.869281956689812 -1.869182608599661 -1.868853056224381 -1.871754026259356 -1.869325201851096 -1.869412623209753 
1.700439836927587 -1.699438630322707 -1.699433505536406 -1.699107327294656 -1.700279851444074 -1.699536821826229 -1.699381627876512 
1.291581758819431 -1.292455377891405 -1.29255997311566 -1.292566028150667 -1.291307148554664 -1.292539146585766 -1.292661588670337 
1.04245837730378 -1.042497851109759 -1.042575306507508 -1.0425125003396 -1.042711525179737 -1.04266771676363 -1.042610997627241 
1.922743487939729 -1.918561452455514 -1.91843278637038 -1.918132545410595 -1.921382572496759 -1.918538544346157 -1.918781107053035 
0.8796936567411455 -0.8797855498285025 -0.8797647753831462 -0.8796774778221096 -0.8806375264474322 -0.8798775678647451 -0.8797030468274296 
1.04245837730378 -1.042497851109759 -1.042575306507508 -1.0425125003396 -1.042711525179737 -1.04266771676363 -1.042610997627241 
3.527082718301216 -3.517214681659763 -3.517265675372344 -3.517179999314871 -3.517146634910224 -3.51663984649524 -3.517226848492528 
0.3970472524560306 -0.400703065788136 -0.4001782163747178 -0.4009381044858885 -0.3990492982025664 -0.4000634716123524 -0.4008926098150177 
0.9444580269221521 -0.2159886390535286 -0.1954433664070523 -0.09937215614106026 -0.1124836194302309 -0.2266591720786642 -0.09040905109867531 
-0.2558184395998087 -0.4413448947212137 0.8329581535502848 -0.2213894860282956 1.136118990010389 -0.4605865703201679 -0.2031587549438553 
0.3970472524560306 -0.400703065788136 -0.4001782163747178 -0.4009381044858885 -0.3990492982025664 -0.4000634716123524 -0.4008926098150177 
2.485394170896418 -2.477163926699511 -2.476983702374421 -2.477056237268471 -2.478995237187086 -2.475282449748572 -2.477895320947774 
3.00624193017416 -1.226304865408657 -1.157832229818747 -0.7623692953772261 -0.8290928993689759 -1.261793382484438 -0.7169736964077622 
2.35765587099707 -2.349453964192397 -2.349235783816015 -2.349276256149489 -2.351955300773009 -2.34796593199122 -2.350226868140837 
1.872719075325303 -1.869281956689812 -1.869182608599661 -1.868853056224381 -1.871754026259356 -1.869325201851096 -1.869412623209753 
-0.8991618833655362 -0.5013390997732097 -0.4618089077140118 2.912336594775176 -0.2881659107135465 -0.522475747217398 -0.2362201839480519 
0.05675495257083089 -0.3006391005787983 -0.2736919045632006 0.6898639803627478 0.653109902510862 -0.3148133424674683 -0.1305817412241119 
-0.8991618833655362 -0.5013390997732097 -0.4618089077140118 -0.2568424710348913 2.393038482514755 -0.522475747217398 0.51871665767676 
1.48071335735533 -1.481551891408621 -1.481623858328092 -1.481499492999097 -1.480567324399698 -1.481591238442755 -1.481591124774969 
0.3970472524560306 -0.400703065788136 -0.4001782163747178 -0.4009381044858885 -0.3990492982025664 -0.4000634716123524 -0.4008926098150177 
1.04245837730378 -1.042497851109759 -1.042575306507508 -1.0425125003396 -1.042711525179737 -1.04266771676363 -1.042610997627241 
0.3970472524560306 -0.400703065788136 -0.4001782163747178 -0.4009381044858885 -0.3990492982025664 -0.4000634716123524 -0.4008926098150177 
1.819324907833602 -1.816683606782339 -1.816615534035811 -1.816268412444264 -1.818704054661419 -1.81676877349272 -1.816732796890079 
1.04245837730378 -1.042497851109759 -1.042575306507508 -1.0425125003396 -1.042711525179737 -1.04266771676363 -1.042610997627241 
1.391732392057076 -1.392743608020399 -1.392834458869266 -1.392791144348604 -1.39149195215911 -1.39279053240503 -1.392873455620857 
0.8796936567411455 -0.8797855498285025 -0.8797647753831462 -0.8796774778221096 -0.8806375264474322 -0.8798775678647451 -0.8797030468274296 
2.485394170896418 -2.477163926699511 -2.476983702374421 -2.477056237268471 -2.478995237187086 -2.475282449748572 -2.477895320947774 
0.3970472524560306 -0.400703065788136 -0.4001782163747178 -0.4009381044858885 -0.3990492982025664 -0.4000634716123524 -0.4008926098150177 
0.8796936567411455 -0.8797855498285025 -0.8797647753831462 -0.8796774778221096 -0.8806375264474322 -0.8798775678647451 -0.8797030468274296 
2.744474461957978 -2.736778835607462 -2.736689264874482 -2.736749539712759 -2.737552952820399 -2.734695688946076 -2.737279337902602 
1.872719075325303 -1.869281956689812 -1.869182608599661 -1.868853056224381 -1.871754026259356 -1.869325201851096 -1.869412623209753 
1.176896481418255 -1.177369755660513 -1.1774761220655 -1.177474034001741 -1.176752909229655 -1.177508659487934 -1.177586115466888 
-1.604972725277101 -1.024792615098747 -0.9624745531923355 3.961348164069765 -0.1213260460664244 -1.057363903933917 -0.5703382355234705 
1.633652699803101 -1.633411019502013 -1.633434769129072 -1.633155123204988 -1.633583334916787 -1.633489606699102 -1.633347481484642 
0.6736598573919836 -0.6750332109174706 -0.6747929122936589 -0.6749362764683022 -0.6754077206749751 -0.6748329280968479 -0.6748622517473818 
1.04245837730378 -1.042497851109759 -1.042575306507508 -1.0425125003396 -1.042711525179737 -1.04266771676363 -1.042610997627241 
1.391732392057076 -1.392743608020399 -1.392834458869266 -1.392791144348604 -1.39149195215911 -1.39279053240503 -1.392873455620857 
1.819324907833602 -1.816683606782339 -1.816615534035811 -1.816268412444264 -1.818704054661419 -1.81676877349272 -1.816732796890079 
1.819324907833602 -1.816683606782339 -1.816615534035811 -1.816268412444264 -1.818704054661419 -1.81676877349272 -1.816732796890079 
1.48071335735533 -1.481551891408621 -1.481623858328092 -1.481499492999097 -1.480567324399698 -1.481591238442755 -1.481591124774969 
1.762090690476819 -1.760273087124581 -1.760236910959269 -1.759889255596454 -1.76174363721536 -1.76037565866797 -1.760256607341588 
2.300046510644109 -2.29201839608521 -2.291789690273101 -2.291803100849558 -2.294806329624759 -2.290751154498941 -2.292779787692801 
1.762090690476819 -1.760273087124581 -1.760236910959269 -1.759889255596454 -1.76174363721536 -1.76037565866797 -1.760256607341588 
1.291581758819431 -1.292455377891405 -1.29255997311566 -1.292566028150667 -1.291307148554664 -1.292539146585766 -1.292661588670337 
3.123691610814984 -3.111757293524707 -3.111762812858275 -3.111738184936371 -3.111879626286829 -3.110288119360346 -3.111944100135686 
1.633652699803101 -1.633411019502013 -1.633434769129072 -1.633155123204988 -1.633583334916787 -1.633489606699102 -1.633347481484642 
0.6736598573919836 -0.6750332109174706 -0.6747929122936589 -0.6749362764683022 -0.6754077206749751 -0.6748329280968479 -0.6748622517473818 
1.291581758819431 -1.292455377891405 -1.29255997311566 -1.292566028150667 -1.291307148554664 -1.292539146585766 -1.292661588670337 
0.3970472524560306 -0.400703065788136 -0.4001782163747178 -0.4009381044858885 -0.3990492982025664 -0.4000634716123524 -0.4008926098150177 
1.176896481418255 -1.177369755660513 -1.1774761220655 -1.177474034001741 -1.176752909229655 -1.177508659487934 -1.177586115466888 
2.436779605691543 -2.428509436258213 -2.428313079411049 -2.428377512652379 -2.430593574549556 -2.426758095159178 -2.429266022511201 
-0.5832471950778421 -0.3006391005787983 -0.2736919045632006 2.061656521275097 -0.1615873564388844 -0.3148133424674683 -0.1305817412241119 
0.6736598573919836 -0.6750332109174706 -0.6747929122936589 -0.6749362764683022 -0.6754077206749751 -0.6748329280968479 -0.6748622517473818 
0.8796936567411455 -0.8797855498285025 -0.8797647753831462 -0.8796774778221096 -0.8806375264474322 -0.8798775678647451 -0.8797030468274296 
1.04245837730378 -1.042497851109759 -1.042575306507508 -1.0425125003396 -1.042711525179737 -1.04266771676363 -1.042610997627241 
0.3970472524560306 -0.400703065788136 -0.4001782163747178 -0.4009381044858885 -0.3990492982025664 -0.4000634716123524 -0.4008926098150177 
1.969787459545775 -1.964924956692211 -1.964769972813207 -1.964506051429737 -1.967997426910679 -1.964814025533069 -1.965234499305518 
2.014177281448441 -2.008705347542547 -2.00852773356388 -2.008303331059432 -2.011941471433033 -2.008488114590225 -2.00910084821364 
0.6736598573919836 -0.6750332109174706 -0.6747929122936589 -0.6749362764683022 -0.6754077206749751 -0.6748329280968479 -0.6748622517473818 
0.3970472524560306 -0.400703065788136 -0.4001782163747178 -0.4009381044858885 -0.3990492982025664 -0.4000634716123524 -0.4008926098150177 
-1.571555447235944 3.165506666636603 -0.9368793078670765 -0.5901851642385711 -0.6478368936222109 -0.5747950262675727 -0.5517125975120339 
1.966087966408126 -0.912021405804241 0.0480856024593707 -0.5278510557042474 -0.5816589777327132 -0.9427129089317697 -0.492209759615974 
-1.051278757099194 1.248990451048236 1.332464867981674 -0.3218190570814679 -0.3595355909890935 -0.6307312575628649 -0.2971110196577861 
1.176896481418255 -1.177369755660513 -1.1774761220655 -1.177474034001741 -1.176752909229655 -1.177508659487934 -1.177586115466888 
0.6736598573919836 -0.6750332109174706 -0.6747929122936589 -0.6749362764683022 -0.6754077206749751 -0.6748329280968479 -0.6748622517473818 
1.391732392057076 -1.392743608020399 -1.392834458869266 -1.392791144348604 -1.39149195215911 -1.39279053240503 -1.392873455620857 
1.633652699803101 -1.633411019502013 -1.633434769129072 -1.633155123204988 -1.633583334916787 -1.633489606699102 -1.633347481484642 
1.04245837730378 -1.042497851109759 -1.042575306507508 -1.0425125003396 -1.042711525179737 -1.04266771676363 -1.042610997627241 
1.969787459545775 -1.964924956692211 -1.964769972813207 -1.964506051429737 -1.967997426910679 -1.964814025533069 -1.965234499305518 
0.3970472524560306 -0.400703065788136 -0.4001782163747178 -0.4009381044858885 -0.3990492982025664 -0.4000634716123524 -0.4008926098150177 
0.3970472524560306 -0.400703065788136 -0.4001782163747178 -0.4009381044858885 -0.3990492982025664 -0.4000634716123524 -0.4008926098150177 
0.6736598573919836 -0.6750332109174706 -0.6747929122936589 -0.6749362764683022 -0.6754077206749751 -0.6748329280968479 -0.6748622517473818 
-1.420911271628113 3.198030193019582 -0.8235315680417128 -0.505602624551501 -0.557941089098802 -0.9107751294615204 -0.471019167577606 
-0.8088495136278081 1.263084215535998 0.8329581535502847 -0.2213894860282956 -0.2489389766903373 -0.4605865703201679 -0.2031587549438553 
1.291581758819431 -1.292455377891405 -1.29255997311566 -1.292566028150667 -1.291307148554664 -1.292539146585766 -1.292661588670337 
0.6736598573919836 -0.6750332109174706 -0.6747929122936589 -0.6749362764683022 -0.6754077206749751 -0.6748329280968479 -0.6748622517473818 
1.391732392057076 -1.392743608020399 -1.392834458869266 -1.392791144348604 -1.39149195215911 -1.39279053240503 -1.392873455620857 
0.8796936567411455 -0.8797855498285025 -0.8797647753831462 -0.8796774778221096 -0.8806375264474322 -0.8798775678647451 -0.8797030468274296 
1.48071335735533 -1.481551891408621 -1.481623858328092 -1.481499492999097 -1.480567324399698 -1.481591238442755 -1.481591124774969 
0.3970472524560306 -0.400703065788136 -0.4001782163747178 -0.4009381044858885 -0.3990492982025664 -0.4000634716123524 -0.4008926098150177 
0.3970472524560306 -0.400703065788136 -0.4001782163747178 -0.4009381044858885 -0.3990492982025664 -0.4000634716123524 -0.4008926098150177 
0.3970472524560306 -0.400703065788136 -0.4001782163747178 -0.4009381044858885 -0.3990492982025664 -0.4000634716123524 -0.4008926098150177 
0.8796936567411455 -0.8797855498285025 -0.8797647753831462 -0.8796774778221096 -0.8806375264474322 -0.8798775678647451 -0.8797030468274296 
1.762090690476819 -1.760273087124581 -1.760236910959269 -1.759889255596454 -1.76174363721536 -1.76037565866797 -1.760256607341588 
0.3970472524560306 -0.400703065788136 -0.4001782163747178 -0.4009381044858885 -0.3990492982025664 -0.4000634716123524 -0.4008926098150177 
1.56081132691815 -1.5612079392334 -1.561257490903336 -1.561048068366206 -1.560739005587037 -1.561262341074879 -1.561177303221005 
1.04245837730378 -1.042497851109759 -1.042575306507508 -1.0425125003396 -1.042711525179737 -1.04266771676363 -1.042610997627241 
1.391732392057076 -1.392743608020399 -1.392834458869266 -1.392791144348604 -1.39149195215911 -1.39279053240503 -1.392873455620857 
1.176896481418255 -1.177369755660513 -1.1774761220655 -1.177474034001741 -1.176752909229655 -1.177508659487934 -1.177586115466888 
0.3970472524560306 -0.400703065788136 -0.4001782163747178 -0.4009381044858885 -0.3990492982025664 -0.4000634716123524 -0.4008926098150177 
1.391732392057076 -1.392743608020399 -1.392834458869266 -1.392791144348604 -1.39149195215911 -1.39279053240503 -1.392873455620857 
1.291581758819431 -1.292455377891405 -1.29255997311566 -1.292566028150667 -1.291307148554664 -1.292539146585766 -1.292661588670337 
1.391732392057076 -1.392743608020399 -1.392834458869266 -1.392791144348604 -1.39149195215911 -1.39279053240503 -1.392873455620857 
2.133992061267865 -2.127120116853461 -2.12689879225461 -2.126788157881459 -2.13044586486079 -2.126515883702711 -2.127723933570047 
1.700439836927587 -1.699438630322707 -1.699433505536406 -1.699107327294656 -1.700279851444074 -1.699536821826229 -1.699381627876512 
1.04245837730378 -1.042497851109759 -1.042575306507508 -1.0425125003396 -1.042711525179737 -1.04266771676363 -1.042610997627241 
0.6736598573919836 -0.6750332109174706 -0.6747929122936589 -0.6749362764683022 -0.6754077206749751 -0.6748329280968479 -0.6748622517473818 
0.3970472524560306 -0.400703065788136 -0.4001782163747178 -0.4009381044858885 -0.3990492982025664 -0.4000634716123524 -0.4008926098150177 
1.700439836927587 -1.699438630322707 -1.699433505536406 -1.699107327294656 -1.700279851444074 -1.699536821826229 -1.699381627876512 
0.8796936567411455 -0.8797855498285025 -0.8797647753831462 -0.8796774778221096 -0.8806375264474322 -0.8798775678647451 -0.8797030468274296 
3.06688158974265 -3.056320697166913 -3.056315001274018 -3.056304071338866 -3.056498669578933 -3.054745376382031 -3.056544864397422 
1.762090690476819 -1.760273087124581 -1.760236910959269 -1.759889255596454 -1.76174363721536 -1.76037565866797 -1.760256607341588 
0.5610685834059451 -0.1175781143147206 -0.1055577961507864 -0.05193309946509071 -0.0589059447096081 -0.1237085091465126 -0.04707322302995815 
-1.440873789642444 3.46710972357781 -1.098668898940162 -0.7153947311799322 -0.7798156069604149 -1.200061699866352 -0.6717669949927861 
-1.116790798727137 -0.08895604007587952 2.170750290443508 -0.3517861445519936 -0.3922241423377857 -0.1213601724032155 -0.3253108327682191 
-0.2487455729605793 -0.1175781143147206 0.7732586258183188 -0.05193309946509071 -0.0589059447096081 -0.1237085091465126 -0.04707322302995815 
-0.4354423580028512 1.292640799370316 -0.1954433664070523 -0.09937215614106026 -0.1124836194302309 -0.2266591720786642 -0.09040905109867531 
-0.8991618833655362 0.1256724260351433 2.015666298656417 -0.2568424710348913 -0.2881659107135465 -0.522475747217398 -0.2362201839480519 
-0.2487455729605793 -0.1175781143147206 0.7732586258183188 -0.05193309946509071 -0.0589059447096081 -0.1237085091465126 -0.04707322302995815 
-0.4354423580028512 1.292640799370316 -0.1954433664070523 -0.09937215614106026 -0.1124836194302309 -0.2266591720786642 -0.09040905109867531 
-0.2487455729605793 -0.1175781143147206 0.7732586258183188 -0.05193309946509071 -0.0589059447096081 -0.1237085091465126 -0.04707322302995815 
-1.66770913912781 3.544234545634188 -1.010946290265543 -0.6468887045872143 -0.7077396388402819 -1.108251997649638 -0.6059981651433953 
-0.2487455729605793 -0.1175781143147206 0.7732586258183188 -0.05193309946509071 -0.0589059447096081 -0.1237085091465126 -0.04707322302995815 
-0.5832471950778421 1.668235301305289 -0.2736919045632006 -0.1430634534792437 -0.1615873564388844 -0.3148133424674683 -0.1305817412241119 
-1.176916774371842 1.031893363840767 1.729574501680994 -0.3803084135964095 -0.4232071868663722 -0.7234813145681552 -0.3522132886401951 
1.733745748743568 -0.5013390997732097 -0.4618089077140118 -0.2568424710348913 -0.2881659107135465 -0.522475747217398 -0.2362201839480519 
1.176896481418255 -1.177369755660513 -1.1774761220655 -1.177474034001741 -1.176752909229655 -1.177508659487934 -1.177586115466888 
1.291581758819431 -1.292455377891405 -1.29255997311566 -1.292566028150667 -1.291307148554664 -1.292539146585766 -1.292661588670337 
0.3970472524560306 -0.400703065788136 -0.4001782163747178 -0.4009381044858885 -0.3990492982025664 -0.4000634716123524 -0.4008926098150177 
0.6736598573919836 -0.6750332109174706 -0.6747929122936589 -0.6749362764683022 -0.6754077206749751 -0.6748329280968479 -0.6748622517473818 
0.6736598573919836 -0.6750332109174706 -0.6747929122936589 -0.6749362764683022 -0.6754077206749751 -0.6748329280968479 -0.6748622517473818 
1.176896481418255 -1.177369755660513 -1.1774761220655 -1.177474034001741 -1.176752909229655 -1.177508659487934 -1.177586115466888 
1.291581758819431 -1.292455377891405 -1.29255997311566 -1.292566028150667 -1.291307148554664 -1.292539146585766 -1.292661588670337 
0.3970472524560306 -0.400703065788136 -0.4001782163747178 -0.4009381044858885 -0.3990492982025664 -0.4000634716123524 -0.4008926098150177 
