solver_type L2R_LR
nr_class 7
label 0 1 2 5 6 3 4
nr_feature 10691
bias -1
w
0.9251954330234046 -0.3553549866005966 -0.01738729831300467 -0.1669703214806745 -0.04828823420283676 -0.3263605191474366 -0.02449676935344424 
0.6293873949816398 -0.1451924809366288 -0.003500835460779735 -0.1214307818860456 -0.04905977839778891 -0.1741732302156211 -0.01079321062946991 
0.7905923250443776 -0.09346207143829137 -0.138351536897774 -0.008847912345312417 -0.1938097430559346 -0.003365338684783689 -0.08410626723318489 
1.78769297869735 -0.3042740109180984 -0.161236881406031 -0.4920520344762725 -0.2720009162166571 -0.6734578657357346 -0.1270552519562435 
0.4961553161791123 -0.2611702043903167 -0.4157155294083176 0.7724825906659877 -0.1290283942752225 -0.23165511634409 -0.1257313084902817 
3.647300093033345 -2.910914975652394 -0.09941886314540775 -1.723005718773321 -0.148272986261913 -1.954164421391541 -0.1525109055354569 
-0.1454736960763874 0.5509466949132551 -0.001394446747367487 -0.1059784684433236 -0.04898942299098731 -0.2252552463815182 -0.005099207826725768 
-0.1430130870968715 -0.01041361618162864 0.3837416585971892 -0.001946231414810428 -0.08614478493794167 -0.009116341025319623 -0.1216242405929105 
-2.923998727923474 -2.827145134707534 -0.1067658739070408 3.655487633824062 3.413400400624522 -1.995535523983111 -0.1530617944050676 
-1.799751275714674 -1.769011364711498 -2.423808527081655 -0.529204893998856 4.283375742917155 -0.3630465948278381 -1.474590590302215 
4.479826728426249 -0.5216171026200175 -3.265450865827554 -0.1390005415854156 -1.638993399628627 -0.4777464017597996 -1.889578407417492 
2.54076468263231 -3.451540810770627 -0.5090968484584953 -0.02621655790759201 -0.8235560641504798 -2.925046805739076 -0.6733876085736253 
0.0730613482509562 -0.02703437309624155 -0.02425030714194151 -0.0749317065936084 -0.04078348507186083 -0.05899852083517507 -0.03130159353969892 
0.0266619064222231 -0.003515258864007818 -0.002728510649336146 -0.02224489895169474 -0.019141142771054 -0.01929128456494679 -0.01094163518403523 
0.6065169526946432 -0.4284557990821884 -0.8946945984220009 -0.220235949647749 -0.6007199530230035 -0.1763834016867258 -0.5562933378548924 
0.06523996510789998 -0.06470752139279548 -0.02300629123661526 -0.04726550954123879 -0.05645968033147574 -0.02833105727595524 -0.02459014606346856 
0.003031413238944868 -0.00251819659905568 -0.001561212427072814 -0.001867650453951137 -0.003321856006563319 -0.002985546944941685 -0.003818733643340228 
1.321258809288774 -1.519675389455578 -1.162613778773715 -1.076955546813494 -1.379054695640112 -0.8721554933943805 -1.300044137679366 
0.01102646806084065 -0.0006680727803257582 -0.001516196823229627 -0.001643511149495289 -0.003134947528956759 -0.0110841750546485 -0.00429007345186005 
1.303790354966395 -1.691281400032164 -2.912937267768947 -1.506871804146746 -2.060723555265702 -0.8728761316853042 -2.197870150789853 
-0.6472911970790002 -1.449816891751451 -1.602262278712809 -0.9894833815290731 0.5842954370037453 -0.8284837666215036 -0.9317685471387978 
0.9858596308665049 -2.104680247459219 -0.7670314069762465 -1.549001825048344 -0.8091481525527602 -1.481956530316644 -0.9976491957766881 
0.03754188683707556 -0.01179668043617299 -0.001540318064366161 -0.0264033430462692 -0.01109967937486026 -0.01845609108983567 -0.002247976161857704 
-1.47960986037311 -0.7018728491346699 -1.059982974048209 -0.4339424775684707 0.5677580396813262 -0.2042317186205865 -0.08245918383695462 
0.01233134307225637 -0.006833157553816764 -0.005852837059883717 -0.003449938803881429 -0.010403661769549 -0.001558299850179026 -0.004768540363570176 
0.8820098562742444 -0.7628892804858566 -1.121944391655768 -0.5569443071278494 -0.9519158474780673 -0.4836211567073932 -0.8721615375115046 
0.4084964386678817 -0.5844393486594595 -0.2781385338444151 -0.3214362547076232 -0.35622558282863 -0.2694518681328669 -0.3062173598504458 
0.0761274659042184 -0.01088344970450215 -0.122878309780608 -0.006186445420144284 -0.04783760913681473 -0.01151162096563119 -0.0828975497880885 
0.1104442292720007 -0.0985760276033332 -0.1507092838719747 -0.09161738667788105 -0.1359905901789128 -0.09114965426135774 -0.1574486092598019 
0.5380588827148141 -0.4006742246770176 -0.07163155199863391 -0.3609171812627092 -0.4563489742955445 -0.4232721971762123 -0.2362321738888584 
0.02981284172876694 -0.01883125301626331 -0.005066782637655328 -0.01798221579148952 -0.01377761220128192 -0.01543019561875032 -0.0057276826706873 
0.6795490333210645 -0.7078308652977086 -0.544208630707181 -0.4425245847818129 -0.7183970473545228 -0.2984814521132608 -0.6356422469868666 
0.02403665222568985 -0.003535984235756603 -0.001257822739548233 -0.008219827351721779 -0.01111020206249681 -0.0245290695206482 -0.005657233011333506 
-0.7424118443649225 -0.6594165165839161 -2.080434752158359 -0.5804989851106597 -1.107817779612368 -1.034676631118955 0.7350858049574813 
0.911827202233702 -1.196415694688862 -0.8925167529926635 -1.050757293238071 -0.9185288650022723 -1.122171597602431 -0.9477078075593378 
0.06735040688231599 -0.02118075606912496 -0.01625664561688831 -0.0184471568640749 -0.01730509630732441 -0.03426281934327025 -0.01369915361282339 
1.528312971660077 -1.501667134971054 -1.058518575634419 -1.028410374043792 -1.457372207560966 -0.6297806499332451 -1.13652573769954 
0.01274242641959336 -0.00587329394457454 -0.000527747287875601 -0.006328187952309882 -0.008771123141748738 -0.01127650681133516 -0.003550046552968047 
0.1225744144416056 -0.1376365370217982 -0.1084172768719736 -0.1283798954821963 -0.1592648696857644 -0.1322463182920097 -0.1328553102348055 
0.7721411005570841 -0.8152956371998153 -0.3775627544243694 -0.6164806714711017 -0.6257723486121392 -0.3750144344315248 -0.463270978808306 
1.393276482189619 -1.308756146794271 -0.4537421966958538 -1.106813310378019 -1.183672576218672 -1.090186967786783 -0.8313354295724242 
0.009484034437215464 -0.0001497567492607055 -0.0008693876386660357 -0.004467177678492457 -0.001024329749571433 -0.00873649881667447 -0.000835105775344452 
0.8724667983129618 -2.399084460230049 -1.150871570705013 -1.171133502918673 0.06170498021986084 -1.26112154884517 -1.521613836509918 
-0.08939972284155262 0.1589680677448228 -0.008956870155811399 -0.1134334419598367 -0.02409953479582447 -0.05584088462069539 -0.01543807492946576 
-0.09891503027944346 -0.07258075121091891 0.3827350749959805 -0.002496831973322886 -0.1214133640967823 -0.001634708608861114 -0.06957225636627522 
1.793979325060992 -1.882114549395325 -1.667113306662254 -0.8405372190558782 -1.513657927724599 -0.6508257813827935 -1.539208263853876 
0.3085321207992182 -0.3370604080142822 -0.2948373009651352 -0.2085600662526233 -0.322094244563257 -0.1575115981453945 -0.3106570504811117 
0.01002819840873943 -0.0001988549735872529 -0.001466351949296119 -0.007018017767408084 -0.002482972762303874 -0.01207269972809333 -0.0007968923535621033 
0.5624027642259222 -0.3358620419197104 -0.6360673862495639 -0.1702995593421451 -0.6051650952482236 -0.1089106368025056 -0.5107908260138755 
0.009741731722032592 -0.004534102706887333 -0.003152531453175604 -0.003267318992113861 -0.007252636322288661 -0.005535996587547437 -0.003708458966084124 
0.003074700375983461 -0.00237623928935433 -0.0001599119026555484 -0.003309872587426001 -0.003340923624186288 -0.01061747193016902 -0.002323295204176474 
2.900731857825023 -1.993917097812111 -0.6889925481918577 -0.790767342771595 -0.2906014063259188 -1.311127391265006 -0.3563219548400749 
0.01810035557070873 -0.003605615541737221 -0.02321542311381664 -0.002632868188733992 -0.03073644942305661 -0.004467149244974176 -0.04135361533673788 
0.008243696430768754 -0.001587471199543564 -0.00148137104458748 -0.004356358229027747 -0.00675929977869851 -0.008958790788588539 -0.003979297320571413 
0.6023802705009257 -0.7425065106316627 -0.4246283674944848 -0.5277716862295049 -0.5380111067832251 -0.3125573295967302 -0.4636190497396541 
0.07056247906409269 -0.04768097838094165 -0.02698129023931594 -0.04112585727448873 -0.0543627176259424 -0.06313652421760918 -0.03901118493504728 
-2.277010604271487 -1.412590703472321 -0.7619080630666916 -1.11447532700615 1.962070718661383 -0.5847316193429384 1.176172050327486 
0.006085826281972127 -0.001013177928258126 -0.0001659937197559345 -0.00209146292495314 -0.004674213127601946 -0.005486011647909494 -0.001161299075909405 
0.02868145689815045 -0.006214225889074825 -0.0004647784592251483 -0.03832631038473952 -0.01211614479682366 -0.009105983544173158 -0.002906984374060727 
-0.7719853323083273 -1.57707568854657 -0.4772416945343447 0.2533996001296575 0.2490883592150977 1.848033554463151 -0.2316492696122358 
0.2216908166929353 -0.5740138935752394 -0.6689868837900785 -0.1517049887858127 0.2177949889965708 -0.1544485725769248 1.331338968134119 
-0.2386059055847782 -0.5611780624895151 -0.00869938107137825 -0.2082001252012006 -0.1264791567758929 1.058802069105027 -0.01401299336282876 
-0.1891340237487838 -0.02863017945191162 -0.6577052190492382 -0.004393072905139731 -0.1975555508011784 -0.01923283688759301 1.159595741846386 
0.2256831549471516 -0.2397059474335516 -0.05887738757061819 -0.1453654680426718 -0.07967099359206427 -0.1627757384696853 -0.07689659667128013 
0.2457660040669056 -0.1502999455994293 -0.1051869122148177 -0.1804889158426264 -0.2234329259315375 -0.1700814361393593 -0.1512978062160271 
0.4572370298730855 -0.2834666866620529 -0.489271061517129 -0.4057406422497691 -0.4162406104151739 -0.5494350296656491 -0.6859772991909491 
0.09122618531380969 -0.0156251290787418 -0.0006610873311626922 -0.03279134133263245 -0.05088898461020002 -0.03451167326898922 -0.008753940733553501 
1.389970889018515 -0.4040424420747302 -0.0683453101736519 -0.2471234502037467 -0.1230518081506722 -0.8123611336541752 -0.07020941727369373 
0.4692194652837062 -0.5490336702173332 -0.6191184493666188 -0.3913641200159393 -0.4989528644963765 -0.3217800066761792 -0.4085256523581768 
0.2146265897224415 -0.3559738819133332 -0.2086103318474714 -0.2245146133497956 -0.1756548313796993 -0.1389463102580673 -0.1617016858703153 
0.1186053275824035 -0.1226240727482941 -0.04497122338314157 -0.04870031375745303 -0.08694024169440497 -0.05963599347162642 -0.06498480054455964 
0.04815420954209899 -0.01775576355031062 -0.006931403044543294 -0.02606980458120306 -0.03190173110889239 -0.04203360440661917 -0.01528499720628069 
0.002669118050621092 -0.001266100664346225 -0.003349846053918707 -0.001375490683700056 -0.001790334977831189 -0.003720131702987937 -0.002346968988783163 
0.1383293495508645 -0.04871143096609699 -0.006140758416381252 -0.03094317529080923 -0.002858537257308599 -0.06246126579416962 -0.003773429230028074 
0.007272149735403396 -0.0007095392528971357 -0.00078506613809618 -0.01256041935635723 -0.00222086383303843 -0.003420982608631986 -0.001001400887994623 
0.3054013818580188 -0.377294452823714 -0.2774303432152345 -0.2119103903374511 -0.3556250023064025 -0.168268789691546 -0.3379016194574022 
0.002622144790352868 -0.00168529952922905 -0.001758401581244054 -0.002146474301596221 -0.003020129436413651 -0.002173278708800535 -0.00228601277288036 
0.1176991890264084 -0.137165815585305 -0.116958079619908 -0.07861547677091331 -0.1352043250985423 -0.04666865636994354 -0.116878029298749 
0.01966416502586004 -0.001187478852547256 -0.00143381513443906 -0.01303281564715339 -0.003095828234922905 -0.01127044732261529 -0.001159881788911523 
0.1513292673166153 -0.1371263460737448 -0.1614790760603306 -0.06721561538721242 -0.1608617938766777 -0.07302491893800306 -0.1597527371093056 
1.799104007082918 -0.2939462010851502 -0.2895348075994785 -0.1808851041491 -0.1484534195038461 -1.232415050167599 -0.2513596453092102 
0.2535384918915446 -0.03026336841881348 -0.138725151923415 -0.02600897480700118 -0.07445015095148109 -0.179464046928946 -0.1146458629129986 
0.2187850434697306 -0.04317545486861626 -0.07703588760401341 -0.05160231283258809 -0.07695459838985419 -0.1802986747172383 -0.06786418105093561 
2.590778675960062 -2.080641329843292 -0.258992268919804 -1.199569746759224 -0.249066349290456 -1.302727958693672 -0.2525503642030372 
0.2007091526969156 -0.00946683086966621 -0.330517566699785 -0.02884298275754382 -0.1984223411358846 -0.01913536709980528 -0.2839937735350426 
0.02427992195579399 -0.007499596210903545 -0.003253071330102096 -0.003957290163954771 -0.00345421705298593 -0.01293498584935819 -0.003313618843104129 
0.01771967025420774 -0.002585334252626293 -0.001928250085971551 -0.001511204830352871 -0.004436569236087458 -0.0129038715903836 -0.002799389374723479 
0.00686745653400625 -0.002334022809473094 -0.0002271812791201588 -0.002308382414790106 -0.00117857652808051 -0.004942185258171907 -0.000874221301400685 
0.01821335729253573 -0.006554388392089294 -0.0008996797352236264 -0.01207239818036016 -0.01616023179230269 -0.0161656562873356 -0.006807308549966204 
0.007645531202585577 -0.001523486961221253 -0.0007053958543300625 -0.009844327967857572 -0.005558459073926831 -0.00692127481804225 -0.003349890098673053 
0.0006423601530904432 -0.0009370234205379985 -0.001458206235324134 -0.001368973418634852 -0.001699831378133932 -0.001075467064166329 -0.001305190453738488 
0.02187347764685824 -0.005608913363757285 -0.002809836684448451 -0.03022166611117292 -0.009896661960547936 -0.02497295537007179 -0.004385879503784364 
0.3489332765285457 -0.2321813899598498 -0.2744316329936287 -0.2104079226538342 -0.2875977552103964 -0.3452422202922027 -0.3554233905231776 
0.07064761225431744 -0.01397495892241294 -0.004288205481357535 -0.02048144697437286 -0.02855690384581545 -0.05728678913539129 -0.01199217359193921 
0.03269035134522522 -0.00349127282610586 -0.0006976037317632415 -0.005015720287643539 -0.01088595182190701 -0.03039855133979718 -0.004486668560384897 
0.002978861087420693 -0.0001413739847778567 -4.556526658538212e-05 -0.007220816603229952 -0.001323166018864693 -0.001852457865533096 -0.0004316865203943141 
0.06141673585627986 -0.021655565903486 -0.00900822917258687 -0.02704766905964758 -0.0460387878402673 -0.04939102919410809 -0.02081274886064113 
-0.6631091444166889 -0.9373547402549608 -0.6392462859155335 -0.6204534316101503 0.6794279598951082 -0.3716999051647609 -0.7092574475823974 
0.01570760221414879 -0.01495011762749738 -0.003686013045282333 -0.00860172927326794 -0.01392253871409662 -0.008802710551009771 -0.007666425688271275 
0.0746916271236267 -0.01463145962704012 -0.006390305136925308 -0.08800277228901797 -0.02861917030613659 -0.04638584978198231 -0.01467832371945553 
0.004590206225871356 -0.0009172671534442066 -0.001885473666228503 -0.003637099591376441 -0.01054942445592744 -0.002548431012168326 -0.007635164774139492 
2.570761209811086 -1.832125763400982 -0.1391569488831353 -1.091075396504931 -0.2345120354469621 -1.528977345379009 -0.2034979167614392 
0.003575253244088672 -4.294813259315408e-05 -0.0002506034461024127 -0.006736881143287438 -0.001525546213236308 -0.002905325820756355 -0.0004776145605797088 
0.0343235692896619 -0.001206812710409289 -0.06869386042523437 -0.002291250381312944 -0.01991472274293713 -0.003224094603191641 -0.03722884745853561 
0.01140675143791826 -0.01684654447741942 -0.001027232309455944 -0.01176783369689503 -0.006200976726280002 -0.003085109274966665 -0.001016230461747094 
-0.1896184948300751 0.6960578732569332 -0.003500835460779735 -0.1214307818860456 -0.04905977839778891 -0.1741732302156211 -0.01079321062946991 
-0.428332584837842 0.5137907512791323 0.4548866138896697 -0.03313295982930385 -0.1607617459807631 -0.07263509388954432 -0.1053543862638015 
0.0171280971412038 -0.005669145897367733 -0.02762957741950093 -0.001577964514769028 -0.03121813163071693 -0.000190673997328595 -0.02983308711212907 
0.008549832010246424 -0.0009799181946643441 -0.001094156422310403 -0.01484489161749708 -0.003638046007811533 -0.007987411605063711 -0.001559591246399712 
0.5882814727476967 -0.5350930585106254 -0.1572708401859286 -0.4110800226015695 -0.4737943690208611 -0.3817930374195827 -0.3077574505001431 
0.02773255161285149 -0.01840672350720299 -0.006086997608660575 -0.0220754465847279 -0.01833860405437213 -0.02041743844332668 -0.007288978975236311 
0.1675378741366728 -0.05107967221475425 -0.09240491652789329 -0.1296921869234421 -0.09139642082738347 -0.07332752943039117 -0.07236456476404857 
0.03393118610641162 -0.01449520253387888 -0.005188882965620746 -0.02777125519851227 -0.01198413411616841 -0.01101675439211129 -0.00420780840417797 
0.01284814317281958 -0.01802259549456235 -0.005879854335767115 -0.01220938273293352 -0.009630668544689166 -0.006701049512913181 -0.01406053914442153 
0.2601081491639901 -0.1975422640960393 -0.3518739765920318 -0.1441798273760056 -0.2835984520482857 -0.1345079818295503 -0.3428249398257809 
0.04878407577148059 -0.006953979119900697 -0.004199017050820071 -0.07193075527044543 -0.03555713702140238 -0.03155171719144461 -0.01580375587703706 
0.001765897871076671 -0.001490514676302563 -0.0008670921148506543 -0.001117151935442148 -0.002697448806429648 -0.0003696833719982876 -0.0008580992416084779 
0.02163342372048697 -0.003980069101003374 -0.0034970168335171 -0.02061298790306872 -0.01050895710567104 -0.01796291430974107 -0.008470169827117097 
0.01449592592693286 -0.003541989608191941 -0.00510646104585427 -0.004617514354359099 -0.0136847951274123 -0.008955337047568387 -0.01492143029500402 
0.02011178209684528 -0.01432173312365245 -0.005993826032157032 -0.01477907856983132 -0.01334559939334419 -0.01797880058111123 -0.01315224509169535 
0.6895757493681872 -0.7727478404262649 -0.4105412736674882 -0.4895070994141955 -0.6147134204221174 -0.3233946860166095 -0.471332561792747 
0.01586441399681924 -0.01127270238320763 -0.01110159567409657 -0.01069448170276739 -0.01508584459961934 -0.01726344493452519 -0.01523124349124992 
0.08480957966103472 -0.04952386943657489 -0.02043140211082 -0.07004224430843563 -0.05505628581005719 -0.06409601534746219 -0.03900096535140519 
-0.5427386807119285 -0.8577273373304917 -0.75972685299403 -0.6328394731881771 0.4463411620997699 -0.3828605803430268 -0.7744960113467513 
0.265736605658368 -0.1618982635318732 -0.03275266556360239 -0.2443276197132215 -0.1772794302160346 -0.2145925018413047 -0.1253912686522006 
0.01581534134853228 -0.004712969865097869 -0.01205623322644987 -0.01471013841826053 -0.01433860297336004 -0.02133931023838465 -0.01465831569265545 
0.01673649190273069 -0.00701935826565799 -0.007987892842112229 -0.0131631513702584 -0.02436474919244671 -0.01724441852106216 -0.01417406741595075 
0.02430628286095321 -0.01195019312715042 -0.001583176416184987 -0.01548360725065535 -0.01148617034416374 -0.008966361896698406 -0.00263082543746134 
-1.300343572784877 -0.6105156505111125 -0.09557131018340423 -0.3517580898830336 -0.215562231906422 2.202140943353258 -0.0944249521546532 
-0.813687655459964 -0.01088976591445274 -0.08470669831335287 -0.0244841921348701 0.8375690167508765 -0.01388241712044883 -0.04033723268212067 
0.005041229350442161 -0.007218377508752333 -0.004707363622046603 -0.008558942157704764 -0.006485658461427126 -0.004889151053178308 -0.005826812554423923 
0.006574578614517246 -0.0004887194180299027 -0.0005774234302162035 -0.01467459083571699 -0.002955600784906838 -0.007494310873183787 -0.001020959050041908 
-0.2947343997045163 0.4653275153446997 -0.006707427597594316 -0.06237476243464712 -0.02949361489938195 -0.03332461622175132 -0.003858216328537596 
-0.3475323217241331 0.6020556627790656 0.596004449169703 -0.0795703617695369 -0.1321356188615757 -0.2486577653705419 -0.1084108465476165 
0.90401010144238 -0.9013099831173872 -0.7520586118074941 -0.570420867545457 -0.824749361865273 -0.4410344760679283 -0.7107406553116227 
0.006861505428165405 -0.004049483880862517 -0.0006627914281007315 -0.003643314877484328 -0.004561990165297613 -0.004551233164336499 -0.001880728448734223 
0.07454586669533694 -0.05073067935134143 -0.02122136911736013 -0.08949951999401565 -0.06366639206679174 -0.04750323728481958 -0.05497908626530203 
0.004116510681152811 -0.0003659003379820065 -0.0004620394562346751 -0.00248346578499007 -0.004647705530843282 -0.003715456487668134 -0.002490926968421748 
0.004662804284805365 -0.002131709920559866 -0.0001498848030356476 -0.003437337479409345 -0.001468632132856562 -0.004176271329130245 -0.000797450620849482 
0.2017901016000792 -0.04180027031297411 -0.1624829225617468 -0.1692620314377195 -0.1440849402620232 -0.1341637417171292 -0.1246188305224587 
0.001614395990499962 -0.003098756998792566 -0.0002891563345234572 -0.001192856682197898 -0.002411527299326109 -7.789489027361206e-05 -0.000777113285086019 
1.378342143558167 -0.3500588883557241 -0.07927126800423924 -0.2983950110380323 -0.1280204741315694 -0.6650383823992416 -0.07610577188940232 
0.1473960389021285 -0.1503289519668474 -0.04411703611796254 -0.07088340931065129 -0.07199711530751572 -0.05774782867656221 -0.05369324507579377 
0.1695263517633027 -0.07485128075100589 -0.09637984726731769 -0.1143094132428152 -0.1068808304142445 -0.102219276542638 -0.06973330611470765 
0.001765897871076671 -0.001490514676302563 -0.0008670921148506543 -0.001117151935442148 -0.002697448806429648 -0.0003696833719982876 -0.0008580992416084779 
0.01867766185897581 -0.01720359221487699 -0.007174943392173477 -0.01737525838902199 -0.01107853764734519 -0.009988912933546593 -0.00840347759675868 
0.2542981391092477 -0.04997400255584664 -0.001997842564191458 -0.02938770943747033 -0.001028025438329683 -0.1032549281155334 -0.002315788226913766 
0.03463414197602756 -0.01069416467707969 -0.008190319759524833 -0.009305625492423702 -0.008722423472124683 -0.017387835569488 -0.006895185268422809 
2.104509703529875 -1.08297388696811 -0.2705303665927081 -0.4167482672577741 -0.386743263175399 -0.5308508224100984 -0.1774655388735186 
1.061115242805227 -0.2039568872050068 -0.0136635591857094 -0.09805124609823671 -0.04560629379862204 -0.5625073710210432 -0.01793927440633009 
0.2151578082659333 -0.0856993722143473 -0.02885223521373133 -0.306224027605887 -0.1584937052923305 -0.1448640232098698 -0.09683725368240782 
0.004116510681152811 -0.0003659003379820065 -0.0004620394562346751 -0.00248346578499007 -0.004647705530843282 -0.003715456487668134 -0.002490926968421748 
0.02081050467547951 -0.01088956199368319 -7.951158931395063e-05 -0.007027735527122251 -0.008512928183935916 -0.006077872688238131 -0.000897919796465583 
-0.2947343997045163 0.4653275153446997 -0.006707427597594316 -0.06237476243464712 -0.02949361489938195 -0.03332461622175132 -0.003858216328537596 
-0.2872909775154329 -0.02738666852293249 0.833815433645847 -0.004371835441617826 -0.1971295376138634 -0.01221827299791653 -0.2415921254597975 
0.002472651874598624 -0.001506459464187178 -9.198347302696504e-05 -0.001802455453062441 -0.0001565280663627691 -0.001900810106466812 -0.0003352717715307532 
0.2329812635151988 -0.04566045530067758 -0.1072812713986711 -0.2118944625094858 -0.165303213951819 -0.1539610083632121 -0.1479389738524179 
0.01384160531802593 -0.003167685774980433 -0.0003234569946498658 -0.003639696497676982 -0.01016769003947846 -0.01477125979924152 -0.003892817520889579 
0.002139748768256566 -0.0006911346041873067 -0.0004934457420071598 -0.00246715027141562 -0.001204608867874596 -0.003444684592191436 -0.001898943971439161 
0.026773304802369 -0.004589058578067601 -0.004518130285377355 -0.04141534253312068 -0.0234294922941007 -0.02240333707471456 -0.01240823384641223 
0.05837980473646602 -0.009630645094473853 -0.004641261439926688 -0.025258099718449 -0.03932077624356999 -0.05416949981191341 -0.01822798979291206 
0.07452085673869374 -0.06472735797795065 -0.04330072220731759 -0.05587156574780085 -0.05485770160381759 -0.08615319014099869 -0.04697191256678069 
0.002978861087420693 -0.0001413739847778567 -4.556526658538212e-05 -0.007220816603229952 -0.001323166018864693 -0.001852457865533096 -0.0004316865203943141 
0.1535309840855161 -0.04388937437576679 -0.02278642361419648 -0.09225292594886142 -0.08913750744198816 -0.1334784213450681 -0.04471493049233008 
1.208386528030834 -0.5647657103847363 -0.02730031270787266 -0.3045084796831508 -0.01513937530226038 -0.6442600938008194 -0.03263026374254877 
0.3373165300574668 -0.1941130685287668 -0.07343279657192692 -0.223644100646223 -0.205514861327402 -0.2277929431366887 -0.1296548182827403 
0.2383359692107291 -0.1559300945423826 -0.02865524832467563 -0.1399534199589197 -0.1839757520457331 -0.1729123544098256 -0.08731628199253356 
0.03384497752275739 -0.006293430217591803 -0.01864515466966018 -0.007626657430505331 -0.01472230002231466 -0.04025244293779544 -0.01584814257794533 
0.3633239812332849 -0.005842125046848622 -0.00384897785120183 -0.1022303593999729 -0.009569585776253341 -0.1333960913594683 -0.00276156684332317 
0.6174152236584939 -0.1705691662865643 -0.1545282624312243 -0.05874661655728824 -0.0447584884325242 -0.1894684563529438 -0.05153672856555166 
1.157050749200269 -0.1017266310682509 -0.1478884351429835 -0.07954269866717403 -0.1985668015275591 -0.2882867521664695 -0.08818824364230343 
0.006264937246264531 -0.01906927757349299 -0.00163593735571401 -0.003336133637957805 -0.001830071295917929 -0.001265592766336493 -0.005181647150604791 
0.818160255251853 -0.6468937161086995 -0.4188627027236059 -0.3952354071568597 -0.5167732188437214 -0.4798857922433079 -0.3502802572037261 
1.282290650807883 -0.3580773453664918 -0.164159192307134 -0.1831358455440258 -0.2463784166787956 -0.4085248586062972 -0.1369644433199313 
0.0645530262822098 -0.03577580090417993 -0.02771868681695467 -0.02929588733551915 -0.0460432805687133 -0.02713642449066093 -0.04072441834236667 
0.009923692403822827 -0.01288987745399669 -0.001653500555114277 -0.007244476365640596 -0.009293067903903463 -0.004459349767165492 -0.005107911747145033 
0.1569432141008699 -0.2801072989766599 -0.1083820479254278 -0.1326748185267215 -0.168209191366829 -0.07622514167669045 -0.1283871618238841 
0.02254522723686101 -0.002516331854904817 -0.0003673582318747672 -0.01718605955749176 -0.008801866697504407 -0.01660157579334629 -0.003266074525440752 
0.6175695928106918 -0.5706174516714508 -0.3986173660032636 -0.2994350464357621 -0.3130305072563832 -0.3611433365290206 -0.2682407303390982 
0.9901557797663144 -1.02737750031873 -0.4481008034488211 -0.3673882612785336 -0.5036812483378122 -0.3893499690501035 -0.3333619284473256 
0.05104230402506057 -0.0178325954077429 -0.004678223116315033 -0.0120820602141346 -0.009422608860926201 -0.03290339847458364 -0.01107020343888683 
0.009293677705903005 -0.001572237504036659 -0.006679735647526852 -0.003582557676104002 -0.006535214500635727 -0.01554686660614827 -0.007046674711339317 
0.03302874441934467 -0.4278255068031739 -0.002696883066825554 -0.1399616651225494 -0.01455159421911679 0.5106259293247498 -0.005614802499097442 
0.3134400932655802 -0.2981604150819978 -0.1280971671501803 -0.1903909717934961 -0.3212941415585073 -0.108834935501921 -0.2256827531528667 
0.3728693724348834 -0.04905972195570178 -0.09153973334396143 -0.2986258363807154 -0.1809467912814501 -0.3119815906579256 -0.140719319991831 
0.004229510313165945 -0.004774397552576095 -0.002047076549520377 -0.003334568927842201 -0.005418114124749362 -0.00225155137449507 -0.003059901571519232 
0.008415354496079193 -0.008617947206334024 -0.0002746886575915271 -0.003786888252180946 -0.005129895290745451 -0.004371347791329132 -0.001995944603326108 
0.02571435581031924 -0.0200426028460952 -0.001594738589208921 -0.007805256714811142 -0.01375052568240145 -0.01373987348511077 -0.00392399084684494 
-0.2947343997045163 0.4653275153446997 -0.006707427597594316 -0.06237476243464712 -0.02949361489938195 -0.03332461622175132 -0.003858216328537596 
-0.462589138605063 0.6354153048965325 0.4590116773887275 -0.06383565464804893 -0.1224990070600798 -0.1375962660985885 -0.1090066465371532 
0.005057851347534972 -0.003630427289326034 -0.005761747033443539 -0.007360818261048999 -0.01106165770835954 -0.005703923100953304 -0.01281962185002681 
0.08416885754711188 -0.02126151398890561 -0.01263178320799167 -0.01285593352184634 -0.01148381029813057 -0.03998832769584322 -0.01404108365778454 
0.339496820184415 -0.1083853505601904 -0.006918773002256942 -0.05888715902338837 -0.02741985752120871 -0.2816596346856582 -0.01777180923798494 
0.8602053300759868 -0.8292155976426256 -0.3623441281637548 -0.3716463070663643 -0.3965999345658291 -0.3419958779158406 -0.2340723894242519 
0.08937781257464268 -0.07108140983918322 -0.0437195123787973 -0.06565815636390333 -0.07785001810406281 -0.05587712478299491 -0.06433680742739728 
0.004138722929508815 -0.0001801787657290863 -0.0002457394723525611 -0.005854839704755794 -0.001723172121737825 -0.00395991854784531 -0.0008104021918728969 
0.002839704096394017 -0.0006287436705001339 -0.001102759440502561 -0.0007178532503992912 -0.0008435768241769346 -0.007545929768155726 -0.002306236530080804 
0.1748564474808804 -0.0537628912782222 -0.01440193046797371 -0.1594094881502809 -0.1116980508842386 -0.1189703634982477 -0.06918192676874756 
0.01428508543266169 -0.006169209516051042 -0.008472584033106877 -0.007781553165813047 -0.04940271634990891 -0.00486449038797022 -0.01412655667011401 
0.03604271472623163 -0.0003659512934256589 -0.05128499662387336 -0.006875485833510138 -0.02593250780324783 -0.003007401356498326 -0.03804900024080347 
0.03548577194829725 -0.02416210652111025 -0.02377400536798214 -0.007856552243761682 -0.02641977312771881 -0.005424857154548425 -0.02238101698858758 
0.01880701461909985 -0.0002994313004570749 -0.001736977705430115 -0.008895432413470343 -0.002046763339685105 -0.01732545610070057 -0.001668816996158219 
0.007878091140666371 -0.003578414013841187 -0.0002176815861558574 -0.002009439419674861 -0.00137440560483836 -0.006693705010621184 -0.001469325908361208 
-0.7936065125223891 -0.02380314110415479 -0.002868392206214866 1.325964718573654 -0.01701609582623596 -0.1799890845885607 -0.005075814181273785 
0.004116510681152811 -0.0003659003379820065 -0.0004620394562346751 -0.00248346578499007 -0.004647705530843282 -0.003715456487668134 -0.002490926968421748 
0.1350570471147551 -0.03012728238838824 -0.1439757635327001 -0.02669104554381135 -0.09576039295436214 -0.07500777013820711 -0.1230277016761293 
0.2635271114656328 -0.1723658559223779 -0.1468316297832823 -0.2302307193893685 -0.2482885759140378 -0.1131865434072947 -0.1714318754037106 
1.096140739222829 -0.1372302173638933 -0.4800392334711494 -0.0660100615332945 -0.1433784667287994 -0.3623032474206567 -0.1089744552082389 
-0.4677061216302771 -0.01202101936114112 -0.0014358935472518 -0.1083983329058305 -0.008572676768221786 0.7685245014764623 -0.002544109487748087 
0.004687088286485982 -0.0001057886738138579 -0.01456422642311127 -9.146070432833233e-05 -0.007356018355383015 8.63728507600576e-05 -0.009211096411573532 
0.00746274921356358 -0.01643964448575628 -0.0004528834385010857 -0.003797870153034954 -0.004976363600734732 -0.0003938731954511774 -0.0006675618445777632 
1.462493238603243 -0.859576498547909 -0.01862638404693789 -0.3428338229876913 -0.08994327177249621 -0.4551526694590481 -0.02066739302092162 
-0.08086853632335246 0.7773752571656118 -0.138351536897774 -0.008847912345312417 -0.1938097430559346 -0.003365338684783689 -0.08410626723318489 
0.02874005578572534 -0.01342459572476281 -0.0001777450722072183 -0.01192708962298399 -0.01522626867791927 -0.01308522398330774 -0.003446926078659085 
0.009147801591511946 -0.004252339206636454 -0.00414545838319751 -0.004105415646463847 -0.006678314331795733 -0.00403791633997367 -0.004393552659467757 
0.001927248797308637 -0.001416144938155069 -0.001376356871416 -0.005681666309298194 -0.002785133268972271 -0.001562872066226201 -0.004989778448193709 
0.01678483379524026 -0.00594801739776593 -0.005158217812020013 -0.01226925874398616 -0.0152254250460951 -0.02535026878891984 -0.01340977096365021 
0.08555334232651057 -0.1087004663244408 -0.09403708382391118 -0.07760526619301727 -0.09869882063457847 -0.03491105248031784 -0.08947388079238965 
0.03668826955617086 -0.005260240371872857 -0.005602953427551273 -0.01166195270011786 -0.02673400062679335 -0.02694967056950547 -0.02119298194082702 
1.596108107005707 -1.014432475143089 -0.0478025043594027 -0.450628937169023 -0.06411096131225369 -0.7669447268204767 -0.04631204253305971 
0.02814689022020797 -0.0146810657769655 -0.01359420250054511 -0.01740860825129538 -0.03626106794791178 -0.01109519184694887 -0.02731680761400428 
0.001765897871076671 -0.001490514676302563 -0.0008670921148506543 -0.001117151935442148 -0.002697448806429648 -0.0003696833719982876 -0.0008580992416084779 
-0.2118864373092856 -0.05864527200754122 -0.002064704870068871 0.5697700467633634 -0.01742356626062507 -0.1438465255114226 -0.002150672768290846 
0.270611848812443 -0.1117473761571169 -0.4648688259874568 -0.01401687557472119 0.9660822612120679 -0.00942754875651718 -0.2546331727193041 
0.319754015922188 -0.9794740762562746 -0.07365483175823578 1.45692549244855 -0.1418844153810644 -0.7681600977311802 -0.05820574265635374 
0.0666908829177483 -0.02875732024989678 -0.01725506375834132 -0.06502959888994 -0.04178976793522088 -0.03537603988250467 -0.01954522284671741 
-0.2230994277430184 -0.1146330344100955 -0.0197007858012295 -0.04015780571539637 -0.02741709988360462 0.7435538858545143 -0.008681325920950564 
0.04097354022180625 -0.009591461300309951 -0.007218067231737409 -0.06304745008972883 -0.01690080110853903 -0.0243887240510588 -0.006426752520550096 
0.006085826281972127 -0.001013177928258126 -0.0001659937197559345 -0.00209146292495314 -0.004674213127601946 -0.005486011647909494 -0.001161299075909405 
0.04773143859024438 -0.03759213622878566 -0.01416482196966897 -0.03553994094308698 -0.04177457332796464 -0.03489140254835595 -0.0329719622756134 
0.03463414197602756 -0.01069416467707969 -0.008190319759524833 -0.009305625492423702 -0.008722423472124683 -0.017387835569488 -0.006895185268422809 
0.504879273510907 -0.03100786573274215 -0.008197603033336515 -0.1930922317149624 -0.009669141640532102 -0.1600911488177871 -0.002933725598489886 
0.01007336262439947 -0.01920499080679703 -0.001763860478672942 -0.00993424486614723 -0.008734265957040008 -0.002607323390604171 -0.005046928689096461 
0.001336593601296318 -0.001970381844910648 -0.001134137866403095 -0.002296075497447361 -0.002260036181052358 -0.0009435523290125388 -0.002012497808815373 
0.01212709863226148 -0.002738586045809602 -0.002266451625968511 -0.01025332227810044 -0.01274104029395345 -0.003317697181265497 -0.002264750241231673 
0.07001161603390434 -0.06082188002411442 -0.03617142483868371 -0.04406885874673819 -0.1039015366960788 -0.0491608632676115 -0.08001048991440093 
-0.5127055367861942 -0.1471786856626255 -0.02629805467333367 -0.1670010346053583 0.5948627399234688 -0.1726765330577135 -0.0966951921123175 
0.007123700553648074 -0.005856206175007642 -0.003803487910677502 -0.01446224018993483 -0.01133806299409355 -0.007987545524837537 -0.01310732244273921 
0.01838631179997951 -0.009550651437153237 -0.009721929701363725 -0.006718375063782592 -0.01377488209686217 -0.007090789908035119 -0.01080840144363697 
0.08934914651267874 -0.05083009223315266 -0.02689247680088961 -0.03212938677733522 -0.01878403070595322 -0.04323833483851901 -0.01667447008029538 
0.778927071486799 -0.7425177648255868 -0.8510094883819772 -0.5889127884332398 -0.862149330462098 -0.4517173395605319 -0.8032223576748818 
0.1099547241662234 -0.03909452667859479 -0.02817839356636791 -0.06230326894357371 -0.1102506255533073 -0.05477964206531562 -0.06218182356501824 
-0.1853772336903198 0.3311368413633833 -0.004571853481763225 -0.07736022967196757 -0.01191562535013141 -0.08505340048613964 -0.004367773754002747 
-0.1032886024992808 -0.01692064639362591 0.379324433904402 -0.001744996713322811 -0.0885973051402402 -0.009212079374199047 -0.1597650890336275 
0.08533993123355869 -0.03472562587731167 -0.03513921796756572 -0.03351315096854274 -0.07451213831056427 -0.05255595611289143 -0.05086447497618205 
0.009855402271751445 -0.0001478061987913198 -0.0006099547656243571 -0.006738777358666334 -0.001616544165262804 -0.009641770450742037 -0.0008738167207409742 
2.146942527581583 -1.357891785855009 -0.2063694707544111 -0.6645796088254924 -0.2662112015865499 -0.9331751972724603 -0.1634901373376489 
0.0442198986013719 -0.01393691035450011 -0.01158291171042922 -0.03313176748821247 -0.0208300907821351 -0.04120560684632135 -0.01657670125321987 
0.08265061149502125 -0.04031456182954867 -0.0440469149697538 -0.06798390522939975 -0.06289321743537281 -0.06287736770041748 -0.07834217104121853 
0.00558104390137586 -0.003204295360388367 -0.0002618218053520855 -0.002449216607214827 -0.005943235344211183 -0.002731610305576824 -0.001511974505237808 
0.02565975525437139 -0.005521119805729233 -0.001529665199043532 -0.009416555114779233 -0.02107786677574522 -0.02194849837026684 -0.005480367473337358 
0.07241697836805945 -0.09713789487408506 -0.0538522332116782 -0.06782076325213182 -0.07057904545548076 -0.03813355521286723 -0.05994072893195049 
0.003177805123271167 -0.0007951244644559734 -5.406848282236477e-05 -0.002202099587262162 -0.003510062116199736 -0.003138574860768855 -0.0008894680255807402 
0.01589187884877438 -0.01021057364340383 -0.007584245153740506 -0.003859981210842614 -0.007476831925680369 -0.003249527838886658 -0.003872546593910212 
0.05069137505764922 -0.01276996555711823 -0.03726243425333852 -0.0185083835515772 -0.02724358494591903 -0.0497830067701218 -0.03357686924872387 
0.09978716077645157 -0.07902507312802398 -0.002731739447054289 -0.05052233901622792 -0.02608970079839153 -0.05952017419806511 -0.01832556511681183 
0.2206138505093269 -0.17304760239616 -0.1516531069627947 -0.1056372915838805 -0.1419923444318709 -0.1132227149523827 -0.09817452630431736 
0.07198168554412912 -0.05484932530016921 -0.04874460245716742 -0.04725699607631551 -0.08587984603785823 -0.03376375670279689 -0.07262431805682514 
0.1035390404388987 -0.1090080040228533 -0.03446040605466606 -0.04137513588173732 -0.04346622413271135 -0.0530517848094589 -0.03972052425763044 
-2.1142548998763 -1.213326780789297 -0.1383062116718324 -1.739999277542339 -0.5399778856219517 3.711800286381192 -0.238990065901391 
-1.027428084392349 -0.7281374199169097 -2.065525059348852 -0.3405643129584601 -0.03503536454722659 -0.5352139308496084 2.934078278350261 
0.05448356250941967 -0.008587249931192956 -0.005835206743002716 -0.08269032613885585 -0.02127816259060511 -0.03712154152010388 -0.007448121522358094 
1.302843277270759 -0.7502310568967088 -0.1634486276203521 -0.3492393248312359 -0.1262424390384841 -0.5808922575291302 -0.0941734592812792 
0.2124290790479151 -0.0287331558143018 -0.08152832936384466 -0.1837413378876979 -0.09356077111304595 -0.1552413869037282 -0.08182418976722222 
3.422480353952667 -2.314359400119859 -0.9077996767929074 -1.21751210437437 -0.8560456979328841 -1.855277576126409 -0.6965225960850511 
0.019260623446168 -0.01767013850060398 -0.01884942307390989 -0.01702112940021394 -0.02264306962794654 -0.02431039463782595 -0.02588921120324721 
0.6101564646090175 -0.1240026792874923 -0.01456337766346974 0.1527614123426518 -0.04843917149932797 -0.4287497875824747 -0.02506566960253083 
1.587012812705672 -1.084943847433758 -0.4441776419535399 -0.3117921728599102 0.5710304345821692 -0.5864859542665581 -0.1031458944100155 
0.2313186709414047 -0.1565125294441002 -0.01349050868434805 -0.05461844596871322 -0.0248228715974502 -0.06000500478347436 -0.01214656477176613 
0.03388020628618022 -0.009797848943678531 -0.01385700085282039 -0.005931821775847505 -0.008794019817489427 -0.03382667691930175 -0.01421611177097277 
0.7952735827502609 -0.4006561217195801 -0.03076287103267697 -0.09770112772073912 -0.06040734252609108 -0.08869551968252842 -0.01361402911254683 
0.6903645264985134 -0.2540965106750506 -0.001394446747367487 -0.1059784684433236 -0.04898942299098731 -0.2252552463815182 -0.005099207826725768 
-3.281541617317642 -2.042517012348047 -0.6221311386666101 0.240798980283471 0.09048151889864876 3.45032425113447 -0.6226458623166149 
0.6937791292067188 -0.01041361618162864 -0.4149754992020479 -0.001946231414810428 -0.08614478493794167 -0.009116341025319623 -0.1216242405929105 
-0.3656301128365761 -0.07529713391447446 -0.006377371182889658 -0.0197479838613393 -0.0006981421254723708 0.5716866792488903 -0.003998001842286823 
-1.364369451407605 -0.695366949082414 -0.06697844351241883 -0.4275538552690691 -0.1657094682690469 2.227509548174297 -0.1901134931694257 
1.007910098052891 -0.1906819688645848 -0.5163652165400272 -0.1050054570624566 -1.030356032924302 -0.02488962683865871 -0.6188343987785595 
-2.112000620429041 -1.874555660214431 -1.684222706828974 3.200345521836603 -1.015648389650218 -1.741201513456311 -1.148008077248903 
0.7765427539574161 -0.08285499715494013 -1.30025709592759 -0.04896092568700165 -0.6846134546707725 -0.05775091391605068 -0.853950358613531 
0.04754857648482978 -0.07890789880663139 -0.02005306351203487 -0.01989923461428603 -0.02677556035630065 -0.01222677420489017 -0.04159441462769008 
0.2576981069501619 -0.08378258047265127 -0.1782328597114013 -0.1022999026034237 -0.2181685275147072 -0.1755581039404247 -0.2092127742034055 
0.259896738131849 -0.1383111485986125 -0.124492241442818 -0.1940164292109824 -0.1955520035438925 -0.2468887860176466 -0.1591726016702858 
0.00558104390137586 -0.003204295360388367 -0.0002618218053520855 -0.002449216607214827 -0.005943235344211183 -0.002731610305576824 -0.001511974505237808 
0.02081050467547951 -0.01088956199368319 -7.951158931395063e-05 -0.007027735527122251 -0.008512928183935916 -0.006077872688238131 -0.000897919796465583 
0.03131801312470396 -0.0004124008132518944 -0.06864277174115532 -8.946784283603583e-05 -0.01650732658407323 -8.595163049539646e-05 -0.03639849374595164 
0.08002384985684785 -0.01037814001510127 -0.02538723053499328 -0.09599096762483007 -0.08357261834602026 -0.04333259817545565 -0.06043614898456399 
0.07672903427225052 -0.05930034730218298 -0.01772217678978011 -0.05517509832049289 -0.03643291875682343 -0.04663649486474679 -0.0212695730485243 
0.1863776494608558 -0.05887829005903198 -0.1639702978693559 -0.06758853978483256 -0.17544259406447 -0.04519558939466231 -0.1589436440642951 
0.03017051139907731 -0.01157497523750543 -0.0114078831090732 -0.01885103316257684 -0.0191233072632071 -0.0284042373260149 -0.01385060866107682 
0.4286593496979132 -0.4630101625881322 -0.6090909549701843 -0.3404913130014214 -0.5149744711831399 -0.2699221962169366 -0.4594970101822857 
0.03727521742234628 -0.0124441561274902 -0.06861514433012306 -0.001861679013397824 -0.02462940815414796 -0.00126105725899994 -0.01440736816845 
0.003309252245921452 -0.002413044195697555 -0.002446805028092774 -0.003226789220773723 -0.006040737404429136 -0.00216831276143295 -0.00359829481239393 
0.07628153879906184 -0.13647245728025 -0.04891292021587117 -0.08996115646691963 -0.07299705962292485 -0.04344678178875178 -0.05517364173837568 
0.2843030604904217 -0.1332729095697459 -0.008688006299513702 -0.1613674853422011 -0.1526359286512652 -0.1146760613823385 -0.03771304223655519 
0.1512313465247209 -0.1836434625878554 -0.0746627982568116 -0.08118651205808677 -0.09244086796197502 -0.09068679896457818 -0.04325139024223253 
0.01971842594698328 -0.01132126525540709 -0.00633828148557874 -0.008122337720578661 -0.01036013570530238 -0.009430765575907265 -0.007286395724096878 
-0.9725345074433457 -0.3368843253187555 -0.06198937568290186 -0.2391469559844785 -0.1055361165921695 1.722281448627715 -0.05643936228590301 
0.1301006548769155 -0.0960346047772596 -0.06307205110421642 -0.04800838949682514 -0.08420295774652516 -0.03119079378123076 -0.07791860011470829 
0.004326004699423009 -0.004527842916114847 -0.002819343857760078 -0.00388875697347227 -0.003125760839592537 -0.002714446257557412 -0.002801353973325979 
0.002978861087420693 -0.0001413739847778567 -4.556526658538212e-05 -0.007220816603229952 -0.001323166018864693 -0.001852457865533096 -0.0004316865203943141 
0.005569944563894536 -0.001896577044039292 -0.002043506053397209 -0.001131646706937082 -0.002793177361251721 -0.001519418525863537 -0.001570848665357069 
0.9467037489249268 -0.4877094092878292 -0.01625173105855415 -0.1063168298873214 -0.004068482445491037 -0.2914000268503371 -0.007449548657114858 
-0.32628616902668 -0.03926647663194895 -0.002583501716269558 -0.03621626886218831 -0.02792887335284287 0.6021232823891025 -0.006571438873528962 
-0.4805341280802355 -0.140273416466216 -0.005071493716053217 -0.08456833957929433 -0.06023201652491929 0.9457884654952002 -0.01937574289794298 
0.09027192533958842 -0.004128492801353523 -0.1203248666741565 -0.0192946825410357 -0.08613978498073808 -0.0114564008432821 -0.07989677516591441 
0.1114154685672686 -0.04051086045513117 -0.01322681154140462 -0.06614970900734585 -0.07604966651943508 -0.08520082037415559 -0.05293395999063123 
0.29609766046719 -0.2980876538759784 -0.08690213700783893 -0.1221019625415464 -0.1471990528645481 -0.1297065960232928 -0.08402302909891475 
3.146048355856779 -1.694831067501485 -0.64303214061128 -0.8500172756354194 -0.6502808201686625 -1.693304641327689 -0.5048198067945677 
0.005945547721203352 -0.01584067876908728 -0.01075971157514241 -0.01356298301139404 -0.009339959687011736 -0.008529239108270227 -0.01026913513955635 
0.01872936269474101 -0.004247003432558231 -0.007571598668473498 -0.02262162695097367 -0.01735132370027409 -0.01963234523386872 -0.01284152776302845 
0.1196746641086777 -0.1033366636299128 -0.06805911520151542 -0.05211436276966729 -0.1108847211429701 -0.03037629310734488 -0.07490625035080062 
0.03615462470864253 -0.006383653731985431 -0.003770838881847604 -0.008643125682448226 -0.0139924298150206 -0.0463914282437467 -0.0138879319218814 
0.003696752519813771 -0.0007058867115356175 -0.0006070237470686724 -0.005755759312472181 -0.003656774550222491 -0.004508660999814449 -0.003764932436443149 
0.009855402271751445 -0.0001478061987913198 -0.0006099547656243571 -0.006738777358666334 -0.001616544165262804 -0.009641770450742037 -0.0008738167207409742 
-0.4677061216302771 -0.01202101936114112 -0.0014358935472518 0.7721681419960315 -0.008572676768221786 -0.09635485646753018 -0.002544109487748087 
0.04912963265569144 -0.004079505379870786 -0.003559628158426972 -0.02736275272569979 -0.01200528683913419 -0.03249589659709529 -0.005789152854658298 
0.02047659559974824 -0.01445912151622244 -0.009997959723670189 -0.01472762868514872 -0.01889106140885579 -0.01019270025718542 -0.01345551251807717 
-0.6687381974948755 -0.1048350639968507 -0.004951697760945719 -0.0853318839646376 -0.04664017810222476 1.182296753279048 -0.01747653672206684 
0.01254167241193126 -0.0002278454195190224 -0.02366057805787632 -0.0001312998732194615 -0.02427155774067397 2.275816896091349e-05 -0.02172993590292447 
-0.4578826165508095 -0.1416916184060371 -0.009727618094997044 -0.07519078183255166 -0.0614779495681269 0.9303125038152232 -0.01996512364829944 
0.06589095650278998 -0.02255098006029975 -0.01359219931581459 -0.05874798786506914 -0.04153733577424665 -0.04476524150657091 -0.01979752739903442 
0.03983358955496259 -0.05254699845415176 -0.03902861235790227 -0.0313798607699968 -0.04571242212283733 -0.02418155622059865 -0.05021576053752142 
0.003177805123271167 -0.0007951244644559734 -5.406848282236477e-05 -0.002202099587262162 -0.003510062116199736 -0.003138574860768855 -0.0008894680255807402 
0.005955585747709933 -0.00487821235137531 -0.001033390827188541 -0.01037751227830705 -0.004858106628203759 -0.003511295234571696 -0.003077110328411727 
0.04212837440420038 -0.006982930127037969 -0.005665874105355075 -0.03484414449504106 -0.01210211043433957 -0.03081294465024228 -0.009262565957484856 
0.01127095360148858 -0.009526719869839505 -0.002332843016072191 -0.00389273761418388 -0.00393415073314022 -0.009299993565588822 -0.002550449287090907 
-0.2979491887449547 -0.05772560482188559 -0.008019302298190749 -0.0390005898198562 -0.03832896461963613 0.6399955181659817 -0.009080210457376656 
0.0182811327516322 -0.03549000827971811 -0.0009352921583979452 -0.006301893353291727 -0.003028586142318988 -0.002967192821795506 -0.001762226990273778 
0.04080729568682827 -0.02359526127904133 -0.007843138343330107 -0.0331909332918861 -0.03616319139726418 -0.03752607081993647 -0.01782012241432749 
0.08969631909257252 -0.04108381771707244 -0.02097138237372436 -0.03192785552958677 -0.04902137674934697 -0.05691935097207199 -0.03092955029306151 
0.001832643344354471 9.905947411387899e-05 -6.570134453702123e-05 -0.007077032883819405 -0.001087857432409453 -0.001620264337802088 -0.0003527981209744963 
0.01875389314219673 -0.003828142788507574 -0.001239922991151775 -0.03948098321745617 -0.01444095807400551 -0.01256710893340009 -0.005945936290855487 
0.03886621928679519 -0.00524129910748262 -0.005319331760973493 -0.04465060666411622 -0.03125376412453172 -0.03165393877459397 -0.0141481236143591 
0.06050023548906757 -0.006694095970549951 -0.07431094128558209 -0.008952637773467029 -0.03943921969895058 -0.02588555749284824 -0.02589300718182384 
0.05519961211804197 -0.02698737577723856 -0.01399458093353218 -0.03557131466354028 -0.02950230467484777 -0.05998739444938012 -0.02393039646936689 
0.02129208381649137 -0.003664760904910619 -0.001274964032353995 -0.005877332448680038 -0.009842763821305552 -0.01635957652224335 -0.004193343970278113 
0.02545142500365869 -0.005633864097573748 -0.003379744957599701 -0.004893496075546979 -0.01358986146228874 -0.01749844698732484 -0.005261527184370641 
0.006160848562448604 -0.000661077002585161 -0.0001116974140104742 -0.00991995757515785 -0.003934531469297671 -0.005382346042632775 -0.001908295648992318 
0.02274964334668984 -0.02766011616959185 -0.008869013971459857 -0.006823280042318153 -0.01527412754239015 -0.005611060896035924 -0.005921658887427616 
0.4801615311018945 -0.2984511922670298 -0.001078612863918391 -0.08805535224204411 -0.001907120721054104 -0.1119099140617773 -0.001796607609552875 
0.7600668438442985 -0.01325623849582355 -0.509257023357591 -0.002772436995250343 -0.1708116331393721 -0.01292386508073416 -0.1503524490373142 
-1.62344897075276 4.392095868585185 -1.245207091211168 -0.9266292166887771 -0.9717528444543764 -1.249031869520029 -0.8408649125424412 
0.9293113446741461 -0.1060074674430104 -0.1739424887603653 -0.03791555676092877 -0.19921917136114 -0.1906085340945178 -0.09459398389197289 
0.2623251481193482 -1.184918905193743 -0.2119032315773978 0.2552354177295783 0.1990743911422622 0.8251398049927875 -0.1584235740521063 
0.6040322406984177 -0.0107855314302127 -0.2174402669136026 -0.002635701432551962 -0.123323175334661 -0.003059539237294171 -0.1042913417540626 
0.6903645264985134 -0.2540965106750506 -0.001394446747367487 -0.1059784684433236 -0.04898942299098731 -0.2252552463815182 -0.005099207826725768 
0.6937791292067188 -0.01041361618162864 -0.4149754992020479 -0.001946231414810428 -0.08614478493794167 -0.009116341025319623 -0.1216242405929105 
-0.640011916203005 1.105175414023067 1.211465406788926 -0.3405925368919862 -0.4298422011590386 -0.591627867726378 -0.1702681862790034 
-0.2169643301936 -0.246785233927329 1.576396056066556 -0.02609583317598687 -0.4698160015100792 -0.01003024323041018 -0.2227218781797195 
-0.3616910414755415 -0.03066281984454635 0.848085900188007 -0.005815983765631368 -0.2294394066823806 -0.02690194549006238 -0.3094714237833315 
3.58417779960824 -2.208297501965939 -0.5172955635298848 -1.246724044455352 -0.8200647535850467 -1.615529305579143 -0.3946192713804394 
0.01749249606642926 -0.02189360373075178 -0.02793012908424237 -0.01687519619887949 -0.02861441141479499 -0.01005131908802812 -0.02696046285966095 
0.09851956456886563 -0.03789062850538717 -0.01759749977683226 -0.1303218571268396 -0.08107154068193495 -0.07585655921748653 -0.04593418852003939 
0.02081750093211494 -0.006249483016140709 -0.003043560055259842 -0.01948054663024209 -0.01838768681004588 -0.01818186903142908 -0.01116615267945827 
0.005807821086698269 -0.002686119181775563 -0.001442337302663943 -0.0110078753713232 -0.007138793035708329 -0.005035277520301033 -0.00413047194180122 
0.03172411456099655 -0.01987167975695523 -0.0391479353017519 -0.04018957111950618 -0.05575617797920172 -0.03781362215105041 -0.04838783733408224 
0.06392883055068641 -0.03680906584642609 -0.01385540231397281 -0.09186308410938174 -0.05878205113842046 -0.05606635845476993 -0.03930093037100097 
0.008250570951702695 -0.002956127972184474 -0.001822233110215801 -0.005255237376276044 -0.008209608543539521 -0.007257406945474318 -0.006053357920149965 
0.00144073506522817 -0.0008940458679985455 -0.0005936928398441387 -0.001498871266346987 -0.0005947965571768838 -0.002221709118764517 -0.0006059371784171185 
0.1296268466315665 -0.07493428879625358 -0.03151028142226803 -0.091607295773596 -0.09993025309764696 -0.1103385512897512 -0.06663281512031914 
0.2756196853447753 -0.02421994810646637 -0.3146563263520714 -0.1494874206495587 -0.2467528048641652 -0.08636704324858363 -0.2744105098031195 
0.105635442831754 -0.0395805692222358 -0.04079484137445177 -0.1396209746204426 -0.1011010075245484 -0.07690716660437545 -0.06961782272753812 
0.01487073227387912 -0.008854708779949752 -0.01104489132820595 -0.02927417641697552 -0.01832875382834495 -0.01684532432928353 -0.02988266220554332 
0.01292924914040922 -0.002409661896378553 -0.009727869897647422 -0.00484164139216166 -0.008945765415885256 -0.01777384884604246 -0.00925599986102874 
0.081518061815105 -0.008073806888303905 -0.001778287120255966 -0.03764587857583731 -0.05725356741734528 -0.02246361320693493 -0.008686187608493578 
0.0117006917101953 -0.0009489797757625031 -0.0007277755335267801 -0.003461788650636697 -0.006189163004536851 -0.008827846279156152 -0.005120523968823571 
0.3506034520597224 -0.2933396870861817 -0.2277365255990044 -0.1812480662849306 -0.3261251514377974 -0.1831458840661388 -0.2538333044226062 
-2.189612948800435 -0.9048795267905194 -0.2530231973830959 -0.4661320214949076 0.2738681977327732 2.757853065677002 0.1306133218470782 
0.03266139289302505 -0.00032296701106909 -0.05105570388755925 -0.00014034313172312 -0.02447312363795263 -0.0001024330128182622 -0.03760352054407591 
0.006667601891481586 -0.0001544659218498778 -0.01157962937848318 -0.000142919575001425 -0.01849819866145276 6.818176900845178e-05 -0.01689967567285197 
0.01085154390862932 -0.005637238320527118 -0.009263172431198594 -0.004769902733201103 -0.003902820929627931 -0.007699397818858159 -0.008018218402443626 
0.00563623825785093 -0.0001853207330791989 -0.0004457900870318676 -0.009314535272467891 -0.004970778557489717 -0.004907812906353925 -0.002390273912317841 
0.0006423601530904432 -0.0009370234205379985 -0.001458206235324134 -0.001368973418634852 -0.001699831378133932 -0.001075467064166329 -0.001305190453738488 
0.07057861703964757 -0.05042980043230369 -0.01777554921080763 -0.02514545662510154 -0.03172724754940607 -0.02792378349503302 -0.01529279463960683 
0.01087673461122141 -0.002491591044541947 -0.005336487818416702 -0.00711363504171809 -0.009311904922078623 -0.008871974844212326 -0.01051825389387068 
0.04613939728273421 -0.06758623639642299 -0.03642055758272169 -0.03515768352072977 -0.0449746866915058 -0.01458746536616593 -0.0348138031127859 
0.03598534426661908 -0.02633480203883611 -0.004510261022340221 -0.01889526778504974 -0.02171857249681711 -0.02202075892800694 -0.01220248639040045 
0.3948435568768039 -0.3578794865939687 -0.3855939881240044 -0.1726803411926742 -0.3725380823388661 -0.09497855199283783 -0.3434668388566302 
0.002978861087420693 -0.0001413739847778567 -4.556526658538212e-05 -0.007220816603229952 -0.001323166018864693 -0.001852457865533096 -0.0004316865203943141 
0.08170459289021502 -0.02643113165646579 -0.02092029181468362 -0.03597868363093099 -0.05761257443503148 -0.04561243100659713 -0.05039393175361559 
1.339221962552574 -0.9413989467248691 -0.4269336744793122 -0.4734223528994163 -0.3067591178467556 -0.7237601094352019 -0.3438011449065337 
0.21909730393383 -0.5709695890661332 -0.1337762251379466 0.1130901641112709 -0.1114949527399287 -0.03384264208545094 0.8192014184633188 
1.493494751848356 -1.072782938218508 -0.4013120720644822 0.3449577069058122 -0.5938640798318229 -1.301464016929998 -0.4236181874603664 
0.09033342087961124 -0.02385927705118057 -0.08010474694347192 -0.02909867966773682 -0.05620990819262167 -0.05147823996595647 -0.06746826607140605 
0.005587225936651193 -0.000294740305506919 -0.0006150863253869801 -0.01635672551464968 -0.002736692017898645 -0.006349043568702077 -0.001185849366443767 
-1.256452481907728 -1.097189155033637 -1.458354932298996 -0.1342722765105508 0.08710851147488602 1.771051034188446 2.054352228941213 
0.5219065870891877 -0.4712696944590096 -0.4260081061947522 -0.3442467329284037 -0.5200681558766524 -0.2552538322382216 -0.4767822730315253 
0.003991018395264823 -0.0004687839604503497 -0.0008664186698930907 -0.01354633361627751 -0.001644677309435463 -0.00640948732542063 -0.0008305510663550413 
0.1503260763284506 -0.03784832841552459 -0.03741676844937449 -0.1697023224488418 -0.09841242195124705 -0.09063022161581617 -0.06091820775208706 
0.009652515678985882 -0.01813782127014315 -0.00208132132959614 -0.009102327563937047 -0.006545473137898976 -0.002447227941529118 -0.002564406580510078 
0.009484034437215464 -0.0001497567492607055 -0.0008693876386660357 -0.004467177678492457 -0.001024329749571433 -0.00873649881667447 -0.000835105775344452 
0.008344342757348492 -0.0007187693311300099 -0.0006738226798458627 -0.008867610600857488 -0.006636016155568997 -0.007913045259242385 -0.004630835322131216 
0.02133810791816464 -0.01006254203840083 -0.002743457738932902 -0.01387311020384614 -0.02098552267068307 -0.02625252186821248 -0.008278974639607787 
0.03090616423027163 -0.01027133970258704 -0.008047200796908844 -0.01528516760613453 -0.02254728147326774 -0.02572254175228583 -0.0271807490925949 
0.1173230849877783 -0.02210063240748545 -0.08236952570977765 -0.03051504785268744 -0.05550422963958369 -0.08294798249532322 -0.06025111303037553 
1.36651964465396 -0.7462308832446386 -0.1172339821953263 -0.2780162134047196 -0.06954131403690672 -0.6094726578243406 -0.0670413417349715 
0.1637890172586094 -0.2290191443742332 -0.09113082843836387 -0.1541739094549564 -0.1376929444826354 -0.09804091427485911 -0.1140807359231445 
0.01066030706127284 -0.0001285907757356341 -0.00075139619180006 -0.01995058063525674 -0.004563930814928212 -0.008667206515613439 -0.001431537765406507 
5.737310080955493e-05 -0.001136353208020462 -0.0005530433834765854 -0.001111644042220844 -0.002627885064917151 -0.0003282889392857411 -0.002292538490641046 
0.001818940591233305 -0.005041761010428074 -0.001254510573614637 -0.004897571097053258 -0.002301858942309205 -0.004435094676023584 -0.003809341077430863 
0.1738922275638063 -0.05247431454323625 -0.2947617764094105 -0.0532794280319878 -0.1999926618634921 -0.05738708468333307 -0.2234155333889239 
-2.237998103985247 -1.441247536252393 -0.7481746832642725 4.859470627316831 -0.03230332139078886 -1.785013321917076 -0.3557264254119176 
0.03746325247815341 -0.009416797673953141 -0.00588095546097373 -0.03102657660684492 -0.01473921563849033 -0.0144032678608993 -0.005612783101113093 
0.07416296323756033 -0.01177692862349077 -0.01709616193478607 -0.0794417555925928 -0.05973229825079682 -0.0528285198164585 -0.04086112043151192 
0.04598045227065772 -0.02274194068919408 -0.01945850446984338 -0.01282725987753695 -0.03592467412619133 -0.02524634334264499 -0.03032690566136734 
0.04856459363331748 -0.02046204022959875 -0.01031458688278456 -0.02078404605834946 -0.02646878369754863 -0.03471439858089596 -0.01716511991406345 
0.02570427240171269 -0.004370651509362358 -0.01273894059138616 -0.02683933890479198 -0.01930070464803884 -0.03172019388818849 -0.01687296060773879 
0.004116510681152811 -0.0003659003379820065 -0.0004620394562346751 -0.00248346578499007 -0.004647705530843282 -0.003715456487668134 -0.002490926968421748 
0.1604030728055167 -0.007700351631285535 -0.3024439694357964 -0.017473416467816 -0.1214988678351664 -0.01275895145992887 -0.1858148382217835 
0.1071096956398961 -0.02895882571777141 -0.1013687910733182 -0.02099742284762414 -0.1457220285956432 -0.006948162488666892 -0.0538943154314418 
0.4301089772064403 -0.3590849522168937 -0.6429126723570788 -0.2297495866217599 -0.4818431029476352 -0.1568894233583923 -0.464417822852813 
0.005784377120662338 -0.01601332244689571 -0.00402114864993779 -0.009773232960290696 -0.004785333254055342 -0.003854312183394187 -0.00546718239698539 
0.002200840696862346 -0.0006276258897121385 -5.793863535663385e-05 -0.00164042336439226 -0.001312414260860025 -0.002285875099591062 -0.0004624489947212749 
0.1176181998922081 -0.03014862492956399 -0.005485894906334821 -0.1486974058734639 -0.08032969378823732 -0.08394894987758912 -0.03406188379127742 
0.1327903224771667 -0.01685729347914647 -0.1176875562602588 -0.03936827630933745 -0.09578345848653111 -0.07408661640173048 -0.08960672896453459 
0.4333868260326852 -0.2488676736857656 -0.00621761400543641 -0.02784998077865486 -0.001014088739997887 -0.06873154885385598 -0.001429010813159521 
0.2165346461899338 -0.1283322113563289 -0.2676319619025723 -0.08070548143654503 -0.1895431560101108 -0.06303563319987007 -0.2205940145507663 
0.008212267924094492 -0.007477294115170389 -0.01173793164958927 -0.008207160376057794 -0.007586759664897161 -0.01065757617365977 -0.01015642095746669 
-1.978842189787996 -0.4175704943391367 -1.518094049147712 2.799648473600555 2.743512403992231 -0.8504813816942127 -0.9433178099302598 
-1.190099831435975 -0.4084964385978726 -0.04893735116252323 0.5244926781168164 0.6173062332083465 1.028419339260586 -0.06023082677373875 
-0.1454736960763874 -0.2540965106750506 -0.001394446747367487 -0.1059784684433236 -0.04898942299098731 0.5841790023245654 -0.005099207826725768 
0.1692818036632528 -0.04272242597970538 -0.27862247544462 -0.01306550490625559 -0.1160095771840582 -0.01843316339949152 -0.1817822435920944 
0.001017620378781753 -0.002185972553552744 -0.0003121700544481796 -0.00114532590929726 -0.0002158410592064031 -0.0003298526755180488 -0.0003859829695955029 
0.02888596616150493 -0.03811507469579858 -0.0232599517622814 -0.05150414841123387 -0.03531783738250295 -0.05438507262934643 -0.05656076219103948 
0.02965827843887476 -0.008949629703230677 -0.005113946364079897 -0.0210249835981862 -0.01348880187686659 -0.02219455906365506 -0.008123079342631989 
0.5369419383094481 -0.6273890114256681 -0.1490543789773444 0.09014213713631181 0.3782226558143383 0.2547103990040874 -0.1164954123231863 
0.35042325201135 -0.2715471948570201 -0.05035618926337115 -0.2601978161210514 -0.2953354708200391 -0.3255373642942272 -0.1636949542521449 
0.0003983009622461868 -0.0004721678313616342 -0.001983572511634048 -0.0003463116472972896 -0.0009941222713806745 -0.001023624937714415 -0.002127634719334443 
0.005738373949688531 -0.00473359610329617 -6.572728963539643e-05 -0.002467608488781547 -0.001014459239151907 -0.003159330313318126 -0.000807227310592561 
0.002096202300554634 -0.0009970235772043283 -0.0004137882511855909 -0.003915111740151994 -0.003328386183684113 -0.007288089045102452 -0.004943019585783277 
0.1410778779345675 -0.03364572624211306 -0.2328657739802805 -0.04328760560662943 -0.119852040095531 -0.03235162783333415 -0.1217341376098907 
0.07091501246591379 -0.03799169127857571 -0.01143602940169808 -0.03451716492583122 -0.05288903403752166 -0.04334558814482264 -0.02415124635368165 
0.01259367778405333 -0.001501398502429701 -0.000126858104296932 -0.02208198173996392 -0.002853402146901319 -0.003215806971495511 -0.0003712211570892859 
0.2805316210418754 -0.01000718084817289 -0.003033669391194463 -0.05402198170539482 -0.01586085168609176 -0.122075837393533 -0.01747870737477004 
0.03775340901342905 -0.00148190499599765 -0.05200298274922089 -0.01117486551373508 -0.03145445391193765 -0.005228322182194187 -0.04283446565098533 
0.2707658202549112 -0.1651772571132022 -0.06157252303086624 -0.1696802209093961 -0.1760553562176797 -0.1610003618105524 -0.1117717606951768 
0.2780809295698003 -0.03744973804186409 -0.03193418427782757 -0.09705986381671275 0.907568978875555 -0.5339134129317719 -0.02805033856783474 
0.05559476149601972 -0.03461294949584709 -0.02580852926214919 -0.04781691002180855 -0.03881737796340937 -0.03866087366541313 -0.03163381553377981 
0.06445203944145161 -0.01830285328373319 -0.0120434316359868 -0.03754490553478369 -0.06795113702219713 -0.04830559835393961 -0.03440367247014511 
-0.7476325653773565 -0.3944681746992281 -0.04550760613942095 -0.171479212977543 -0.06651352456675046 1.353568788130894 -0.05111513276553387 
0.005942312153358346 -0.0002825761853124145 -9.102980073687195e-05 -0.0143411820213438 -0.002643436231096709 -0.003698491728456529 -0.000863049969974128 
0.03353263891168305 -0.01132633638484713 -0.002877484692509045 -0.03313824641801723 -0.02418496669229325 -0.02381671873424767 -0.01398651225248209 
0.001765897871076671 -0.001490514676302563 -0.0008670921148506543 -0.001117151935442148 -0.002697448806429648 -0.0003696833719982876 -0.0008580992416084779 
0.112507150342883 -0.1576227472616858 -0.07796048133096119 -0.0820714874738096 -0.08157285795508795 -0.03332159999069991 -0.060802530962189 
0.01752855292157122 -0.003751145089916288 -0.007013724689891068 -0.009543395229835244 -0.02161234662071573 -0.01773753229064219 -0.02222844589021861 
0.07322463683512817 -0.05645875707363866 -0.03484970354889468 -0.04573091122788753 -0.06928374411261609 -0.02196592423364848 -0.0397119186310695 
0.09481534220494019 -0.007849059018365637 -0.007064090030991967 -0.1274487771651988 -0.02774519078524828 -0.0725917704474035 -0.01482366463955168 
0.03117949443731723 -0.01641021852298995 -0.003645679413804504 -0.05308287165377278 -0.03601588226513279 -0.0172827589577658 -0.01912861037594359 
0.003532364348440818 -0.007186573057094166 -0.002982391810907546 -0.00660624447902291 -0.008297714591676201 -0.003999447368244414 -0.007318140943145205 
0.1526551641169994 -0.02264211565699253 -0.01974152417813025 -0.2416544000150962 -0.04752845084469663 -0.08360244573841961 -0.01910905401221438 
0.8353715764148081 -0.1825099901495406 -0.01462092069011646 -0.06617894058602311 -0.002419353805142077 -0.472800291398486 -0.01024344893836827 
0.0249437382901269 -0.005662902710878825 -0.02265951658795591 -0.001081181543063113 -0.02696951489957094 -0.004345534192661153 -0.03693450392060774 
0.01340342466379623 -0.0006183775629162941 -0.0017339856579378 -0.01789625663370914 -0.002665667744483413 -0.0150360861327489 -0.001664218484582832 
0.003597861586659264 -0.001234907037332685 -9.713407965195435e-05 -0.003010553393198129 -0.0006307406878535664 -0.003078684567897156 -0.001112646397835834 
0.03325464174224337 -0.0247264842368231 -0.0232462904778141 -0.02643005214105226 -0.03427152127632097 -0.02696891168877479 -0.04160088037270557 
0.2408108802694037 -0.2060506336512274 -0.07685076198027711 -0.1128050647892363 -0.1103743838475725 -0.1636538752143068 -0.1052659987545318 
0.06581240989065822 -0.08585013528687579 -0.03890290045150284 -0.05768053794945859 -0.04951129837037271 -0.05461312114274861 -0.04589200329562106 
0.0617486909563169 -0.05595241296174651 -0.03583160610250675 -0.0499760027282545 -0.0575121199646161 -0.05282089861596466 -0.05246771159772422 
0.001832643344354471 9.905947411387899e-05 -6.570134453702123e-05 -0.007077032883819405 -0.001087857432409453 -0.001620264337802088 -0.0003527981209744963 
0.0655692160402316 -0.05708417739706414 -0.01736660942017359 -0.06080396334205644 -0.05054443756473644 -0.05083454764742981 -0.03830372240255139 
0.02183210198061509 -0.01787351777335462 -0.005751275573467493 -0.007484817186460171 -0.01523120101230125 -0.00533985048708841 -0.007582039538429658 
0.3888991777820041 -0.3670762489432212 -0.467835913406798 -0.3292725052259496 -0.475106698480071 -0.295758870203494 -0.4046339350315725 
-1.001039098238323 1.973817774224765 -0.3724772606751147 0.1099764434103737 -0.5737808697626205 -0.6626334853076329 -0.2509805055241406 
0.02122874869370007 -0.003145905368095521 -0.002160672170993565 -0.006541990343451431 -0.01661836247170425 -0.01547615236140449 -0.01000617679002056 
0.006085826281972127 -0.001013177928258126 -0.0001659937197559345 -0.00209146292495314 -0.004674213127601946 -0.005486011647909494 -0.001161299075909405 
0.09213140067067847 -0.1651877448587415 -0.04273210519057966 -0.09224021346401133 -0.08761815216987982 -0.03997987764577532 -0.04992184023935738 
7.054359584363198e-06 -0.0001620579743630661 -0.0003002773708026572 -0.0006835964564475449 -0.0008303552330578805 -0.0001968773377107205 -0.00156102514471249 
0.009277140083664722 -0.002482077476298315 -0.001008178327312498 -0.005708242784593378 -0.004687001313631628 -0.004897828865371486 -0.002595953003499763 
-0.2041113974322625 0.5616999226415607 -0.01324685659825779 -0.2085412846832024 -0.08801726303147374 -0.2372125479697497 -0.02228731613817716 
-0.2690007050196181 0.722539156626649 0.4592415013778847 -0.05464312653784439 -0.1513070009072993 -0.3590013011924572 -0.118149484066102 
0.0362027847698027 -0.005419427592647219 -0.004411051822283231 -0.01342910181185474 -0.0158990965070803 -0.03057876542708405 -0.01381079487757435 
0.006085826281972127 -0.001013177928258126 -0.0001659937197559345 -0.00209146292495314 -0.004674213127601946 -0.005486011647909494 -0.001161299075909405 
0.002978861087420693 -0.0001413739847778567 -4.556526658538212e-05 -0.007220816603229952 -0.001323166018864693 -0.001852457865533096 -0.0004316865203943141 
0.01070023413701034 -0.007929608871372959 -0.003220118916671506 -0.01269694214930396 -0.009719076105951061 -0.01058544281057345 -0.006107689187940186 
0.002978861087420693 -0.0001413739847778567 -4.556526658538212e-05 -0.007220816603229952 -0.001323166018864693 -0.001852457865533096 -0.0004316865203943141 
0.001603946809192041 -0.005840420714553792 -0.002067892766493575 -0.003945495995882881 -0.003234015637914586 -0.003206260765105755 -0.004347878956314261 
0.04490432820303889 -0.02942480366994818 -0.0216511782610334 -0.03085188132045551 -0.05663877029721961 -0.03666756649027277 -0.03779003102967442 
0.2665246349674312 -0.2413904950524447 -0.1118207986307236 -0.1927737833275048 -0.1762490853229569 -0.1962118571364384 -0.1632304815405334 
0.03636714753249221 -0.01427404063843885 -0.002932049674603928 -0.04403202129583397 -0.02048593271812947 -0.02694422130764907 -0.0136234188481709 
0.01141121503496891 -0.0005455941594000467 -0.001080805222310808 -0.002486879778922374 -0.0047678090937233 -0.01223036821315039 -0.004447390837110061 
2.750985924435531 -1.790628767684583 -0.604903155284419 -0.843936429926806 -0.3316051961518138 -1.411551840504789 -0.3144142279595165 
0.002978861087420693 -0.0001413739847778567 -4.556526658538212e-05 -0.007220816603229952 -0.001323166018864693 -0.001852457865533096 -0.0004316865203943141 
0.0101258615739497 -0.005957045677105897 -0.001017540229022319 -0.002986091936560669 -0.004353666788101984 -0.007221076234317833 -0.0029185132945299 
0.00144073506522817 -0.0008940458679985455 -0.0005936928398441387 -0.001498871266346987 -0.0005947965571768838 -0.002221709118764517 -0.0006059371784171185 
0.04367861781292597 -0.00929374534892637 -0.008403081557673766 -0.0399143374200738 -0.03073658368386177 -0.03726345175606464 -0.019984684519489 
0.0101594846571163 -0.001378481305574884 -0.000627888819711535 -0.004565025740581695 -0.009283494656078223 -0.009161797880534298 -0.003646708702229942 
0.01008203881692508 -0.007795288773555949 -0.001187225280277675 -0.008118232096071374 -0.006520414523415388 -0.01327063005682023 -0.003248015171451117 
0.01551264475223201 -0.003298924564093812 -0.003265838841988535 -0.00771988820957975 -0.01560783754561232 -0.01558572882043243 -0.006256401372997223 
0.001818940591233305 -0.005041761010428074 -0.001254510573614637 -0.004897571097053258 -0.002301858942309205 -0.004435094676023584 -0.003809341077430863 
0.02081050467547951 -0.01088956199368319 -7.951158931395063e-05 -0.007027735527122251 -0.008512928183935916 -0.006077872688238131 -0.000897919796465583 
3.402984385936338 -1.665574004454017 -0.7446363060760969 -0.8906858964513299 -0.6132017887275819 -2.013759891461588 -0.3837452957723186 
0.0004397655096804228 -0.0007620480200811598 -0.001280425691107025 -0.001799124699180252 -0.001107837453930853 -0.0007888726224831503 -0.001209326953628729 
0.01840746712407762 -0.004044106536694235 -0.007673351846836259 -0.00924960034847762 -0.01116307456371817 -0.02029370644140834 -0.009605974976184551 
2.084996028142003 -1.473868152678278 -0.1652605568489903 -0.4284059273647752 -0.06762438835678475 -0.7782691329285172 -0.08291196030316909 
0.09377937988373962 -0.147214061086406 -0.08326943187548751 -0.052927372249473 -0.0756425144671358 -0.04196220547537509 -0.05004654957768859 
0.04071719747829534 -0.06268752454897697 -0.04042087244877156 -0.06037048259550441 -0.04964303389609716 -0.03834822781881889 -0.04888458599445183 
0.04718935930707286 -0.02623123311201611 -0.003217185849546385 -0.03081463519524568 -0.04016379126826586 -0.03427492930485521 -0.01797688487724456 
0.06200510996208373 -0.01256757670635454 -0.0595543489800291 -0.02939282821190748 -0.07702229745087337 -0.06074219294506869 -0.05480025513351811 
-0.4401598362338751 -0.1541676202978075 -1.352395064890164 -0.1741861597594471 0.5881960259161249 -0.4149814874904122 -0.9689078081315206 
0.527697368747052 -0.5087912454352587 -0.2210027400807091 -0.2361632720517423 -0.3254583650357316 -0.2519561398440496 -0.2709864288518665 
0.01172804508881476 -0.001469041444704208 -0.006004344915921351 -0.002411225656432508 -0.007160012801798362 -0.007655803839636525 -0.01304799833808532 
0.01203527105081007 -0.002374574953432951 -0.02742847870881754 -0.007512313064258772 -0.02297421069185267 -0.01637079586360288 -0.05010126065415274 
0.05711916801959369 -0.0224472435601358 -0.01729023863208387 -0.04897985410868542 -0.0591551309924286 -0.03011441531931082 -0.04238995897864108 
0.03151893884231455 -0.003362467488385822 -0.004160114112821895 -0.01021415899866464 -0.0141399683000302 -0.03010037055355449 -0.01380332640653295 
0.002096202300554634 -0.0009970235772043283 -0.0004137882511855909 -0.003915111740151994 -0.003328386183684113 -0.007288089045102452 -0.004943019585783277 
0.08862538849797572 -0.05002236693720916 -0.06594240353448437 -0.04446424177416418 -0.09074939042182241 -0.08659417335147115 -0.07711981525337851 
0.009794072949524087 -0.00393515586127553 -0.00269986827170431 -0.005247110307081849 -0.01042103757602296 -0.006849175937306883 -0.004443354872898794 
0.09537365146730083 -0.1878758480101352 -0.0673248373573765 -0.1053393205725391 -0.1253578623729561 -0.07285797123941914 -0.118008017547984 
0.1078574134778794 -0.1033011740819914 -0.04622857010188952 -0.1179224336046893 -0.07975478272504252 -0.08530694613062123 -0.07411502939575886 
0.01541015628605463 -0.009272558144721953 -0.003609179044688111 -0.008565458496466394 -0.01053686388768671 -0.01018423281528826 -0.007505168320020519 
0.006441900997008565 -0.002424942723515289 -0.001445826686654165 -0.01028659287613233 -0.004430621167577388 -0.00408797520835843 -0.002342140582542919 
0.002096202300554634 -0.0009970235772043283 -0.0004137882511855909 -0.003915111740151994 -0.003328386183684113 -0.007288089045102452 -0.004943019585783277 
0.002978861087420693 -0.0001413739847778567 -4.556526658538212e-05 -0.007220816603229952 -0.001323166018864693 -0.001852457865533096 -0.0004316865203943141 
0.0640227609721464 -0.02856138987039862 -0.02215684080421188 -0.02866481858224219 -0.04189577257209715 -0.07328930491823528 -0.03675062477078622 
0.1747376334944701 -0.1939240390002654 -0.1278976030975714 -0.1845654310302545 -0.1795178874060877 -0.2201787693622819 -0.1792958887830323 
0.003244167997153317 -0.005938378897022608 -0.007236383490127558 -0.008289008448654493 -0.007258015527361816 -0.004352912241184301 -0.006540662306254137 
0.009293677705903005 -0.001572237504036659 -0.006679735647526852 -0.003582557676104002 -0.006535214500635727 -0.01554686660614827 -0.007046674711339317 
-0.08086853632335246 -0.09346207143829137 0.7176964306230723 -0.008847912345312417 -0.1938097430559346 -0.003365338684783689 -0.08410626723318489 
-0.2785655666359632 -0.06445849201405472 0.8964785763393226 -0.009023629807023852 -0.2931955014702949 -0.02252334032908472 -0.3543711203361927 
0.005467597313496613 -0.0008090825932617924 -0.01491755416526193 -0.001558429799719741 -0.008828709379750454 8.195872618271035e-05 -0.01028499004813357 
-0.5575983097946287 -0.8826346854983218 -0.4309124367123283 -0.1538938306290702 -0.2642399350357463 1.964189414340361 -0.1816801243400502 
-2.408689577283414 -0.9432352257963401 -1.401619426661748 3.656069095635833 0.1487669716959598 -1.49735634914282 1.728113913578862 
0.2542981391092477 -0.04997400255584664 -0.001997842564191458 -0.02938770943747033 -0.001028025438329683 -0.1032549281155334 -0.002315788226913766 
-1.107783986785482 2.657897080242194 -0.07230234827695944 -0.4467248002620083 -0.3576680299462036 -0.9078160778661787 -0.2758985462546035 
0.5619572722236461 -0.02116402068555887 -0.1267802166313199 -0.002809589587395329 -0.1141069713797489 -0.001879508129262476 -0.09871944833043807 
0.6148638171381103 -0.03212649000210518 -0.341299577660143 -0.003167558567699482 -0.1009527342064009 -0.002835869735239412 -0.07885122688182461 
0.2692621581123728 -0.05830157067324555 -0.01234085645634059 -0.02011945576722475 -0.01647647384312647 -0.03048919677924883 -0.004942500820321412 
1.017341933850775 -0.5065941243828611 -0.008081925128044102 -0.1583022179863723 -0.07622966209081027 -0.2482357771926226 -0.008917828202375412 
0.4969460269202159 -0.01723142429458811 -0.01951479911817199 -0.03162309284710729 -0.01833095640708565 -0.3340751187678713 -0.01670505787427693 
-0.6642953896960382 1.431413554307656 1.204856545484354 -0.4693134544024565 -0.5016359929070301 -0.8386201007878546 -0.1801355166646033 
-0.261328837414061 -0.02063212525987733 0.6491018384341398 -0.003884870741726351 -0.1619202654402663 -0.01808194838856245 -0.2227877048508624 
-2.257081795576918 -1.499253409599743 -1.044822538608158 -0.7582644740749251 -0.02320111147529226 3.848841569273863 -0.6718295367332394 
0.06628841180793693 -0.0317761766997342 -0.1165588578573841 -0.02519543202782046 -0.09028930193404826 -0.01319831185011648 -0.09680108650028231 
0.03450824426727379 -0.04344504688291217 -0.0333924949798566 -0.01805141801637074 -0.04033544733846527 -0.01675521814519335 -0.04592570964836153 
0.0146682045680593 -0.03242492119164522 -0.0003269641260238637 -0.004868246240148709 -0.00197399592726383 -0.001549820927867284 -0.0007707752670542767 
0.00987276456822592 -0.005927266030658124 -0.002406032630513949 -0.009130955674405949 -0.01843911755918756 -0.004677305737748959 -0.0139351987052208 
0.0256566382996434 -0.02257937171618605 -0.01289453167591782 -0.01065923420152711 -0.02202513275933814 -0.01308118259692013 -0.01723813454719747 
0.00144073506522817 -0.0008940458679985455 -0.0005936928398441387 -0.001498871266346987 -0.0005947965571768838 -0.002221709118764517 -0.0006059371784171185 
0.020332160754567 -0.00234745708211506 -0.001181007954354333 -0.03712702145190789 -0.007757059457251681 -0.01015677477372931 -0.005081681031473614 
1.391592547431665 -0.176870957092416 -0.02665124371993762 -0.4303437202549 -0.1042701717293401 -0.720393016535086 -0.05406122286349618 
0.0376058800348518 -0.002353675341929709 -0.0480233784740226 -0.01007681208618515 -0.0400332789105832 -0.009841656729424091 -0.0254814102640755 
0.02567301948041804 -0.01743102603381881 -0.01085157669714827 -0.0194371360051537 -0.02045582112074922 -0.01838697313909623 -0.01674013476869367 
0.03336155835482494 -0.006778111400928109 -0.02839646312028276 -0.02380233498491351 -0.03472137773802522 -0.01366519415225324 -0.02668753220050225 
0.0731955984095692 -0.00439610433433253 -0.0761237558894084 -0.03243269667126149 -0.05746633063379631 -0.02139126732773802 -0.06427668169368089 
-0.9273876721070679 2.512559297300462 -0.9817933171937027 -0.268274010712763 -0.8016466908698774 -0.3138500630540396 0.5472761403355501 
-0.4890781142638294 1.194435674831946 0.8061483075689443 -0.09318873030979338 -0.5860844302414056 -0.045784179372208 -0.283685787820696 
-1.23856086992712 2.053116793900323 0.8950511589157543 -0.286415569310409 -0.3249331548965861 -0.9364342663832568 -0.4989157839250529 
0.04988875153600093 -0.01121356305123641 -0.0133708472884036 -0.005621379265303091 -0.0293775907240242 -0.03135751559490949 -0.02475505354924247 
0.04490943108577864 -0.01126577359473597 -0.001783772665761124 -0.06613972791702234 -0.03453371735972141 -0.03445533462240528 -0.02168845274031298 
0.2062039713485146 -0.05229879177659243 -0.1764565840388724 -0.1123840107524438 -0.2175719710741687 -0.1018801999907523 -0.1834672029955652 
0.02878842794737604 -0.01001010525808712 -0.00517785759165469 -0.01611977733498331 -0.02005917217671815 -0.01644040046875857 -0.007911804295888836 
0.03271614627963921 -0.01127404692947638 -0.004685802973324505 -0.0124681327944047 -0.02160975856938948 -0.03285668428536472 -0.01475803328328224 
0.001017620378781753 -0.002185972553552744 -0.0003121700544481796 -0.00114532590929726 -0.0002158410592064031 -0.0003298526755180488 -0.0003859829695955029 
0.01753968075512079 -0.004917098006870477 -0.0002918783328453919 -0.0154083872509165 -0.009806737673258433 -0.005933952220032808 -0.002359682001422285 
0.01791106010155423 -0.007734149322797328 -0.01668815800788946 -0.007558545842756084 -0.01858723777109763 -0.01099330300829274 -0.01578767620302878 
0.006964547980301094 -0.001586533418976756 -0.0001617661087234553 -0.001823171202025271 -0.005106958788669647 -0.007441557370368254 -0.001950144055467257 
0.01194904604198437 -0.00652639975044411 -0.002246918359489491 -0.009897525689744932 -0.006817512259256088 -0.01381387658396615 -0.006278226021591453 
0.05361662485370897 -0.002903484606627055 -0.05388940957327197 -0.0120883359404285 -0.02939612735977499 -0.01959342777973301 -0.04092941638033978 
-0.4173820916114275 -0.4758229023676022 -0.004836756646876409 -0.3889780224555259 -0.1092456247939939 1.367795833804657 -0.01225674851086647 
0.251645622364294 -0.07394441173409033 -1.021467070820929 -0.01494604959685682 0.2630069594098669 -0.03228733461345742 1.035203382197072 
0.04773340747029767 -0.002831672586562272 -0.07387318061078969 -0.003379453819376665 -0.05055672056218453 -0.002323336871489564 -0.05958730803290439 
0.03131801312470396 -0.0004124008132518944 -0.06864277174115532 -8.946784283603583e-05 -0.01650732658407323 -8.595163049539646e-05 -0.03639849374595164 
0.07017148378728078 -0.02843433569830625 -0.007180154384188216 -0.09145606857129691 -0.04637663715230061 -0.04304938536772701 -0.03076181929477474 
0.03521383432886747 -0.00842874800565627 -0.005615881566004914 -0.02392999196842642 -0.02178133766469771 -0.03218203363399293 -0.01332640286583103 
0.1170916750537781 -0.1683082073106762 -0.04217769367467474 -0.06684030320290628 -0.05593133706307653 -0.07253024741587445 -0.06402551207545941 
0.03684648608356753 -0.01274808179922378 -0.001592117951894882 -0.01076529318440455 -0.02409264458288831 -0.0230225173521869 -0.009346557642814297 
0.07674110882163142 -0.007672315558649815 -0.04398323953913126 -0.0349826763652818 -0.05037237030636181 -0.06385983629969091 -0.05172939816034099 
0.04963542632393811 -0.002388603902626971 -0.06856301019802005 -0.02516726965468637 -0.02854955019932435 -0.014926877284087 -0.01574732336933352 
0.04055692674216759 -0.02457380846354304 -0.01417583434731211 -0.02730510374539635 -0.03986947734373388 -0.03824929654747937 -0.03491916150844177 
0.007544529036574077 -0.001058762379205517 -0.001931280753430906 -0.01080658962588103 -0.01184873398357718 -0.004391631100066258 -0.008061172171317056 
0.05783221907438572 -0.04199325489273789 -0.02914812768315719 -0.03907721253617424 -0.04571603407630259 -0.06674322100868646 -0.03604365318634563 
0.9734853624073914 -0.3708675141648325 -0.01310922928473319 -0.1840158074740671 -0.00699594306657357 -0.5222014352466219 -0.01609949493850297 
2.982581956007519 -1.046905591259601 -0.6412341403836425 -0.423755587970507 -0.8610139300385553 -0.5135644135644242 -0.4436205866196042 
-0.2818853846312462 1.05799747048701 -0.1576142628926448 -0.1404311828539159 -0.2453976776442263 -0.2465664528218592 -0.1063611701266491 
-0.377358152711564 -0.4228294247273277 2.213897620232292 -0.05092649821455205 -0.7437631690947758 -0.01986771922082306 -0.3838333834069411 
-0.8457335650944968 1.343795445536665 1.097469952497732 -0.04621931586143752 -0.352812605354799 -0.4239634369950382 -0.3106543115280945 
-2.531349942923597 -0.004491643558376165 -0.0003804490287472715 2.395763928269806 -0.00851484132549186 -0.009585273142937155 -0.001112859407334107 
-0.3309338017607966 -0.7575630335859365 -0.6780989363539143 -0.1378592392876178 2.427569774137608 -0.1380441389584565 -0.4465621009303514 
-0.8558819732462821 -0.7428003962819265 -2.060787984890599 -0.1700579682412985 3.593014054433365 -0.2128659137672395 -1.232796015877804 
-1.08100280893464 -0.2453279812743878 -0.0193778577357906 -0.1810934695673493 3.327389079826269 -0.8803199627323391 -0.04224183037691409 
-1.171816420753916 -2.617497299007185 -0.2058901481164874 -1.666711627976282 -0.7082422600218329 3.226114255033643 -0.3634403687814459 
-1.166252677798115 -0.914270514233847 -1.690597674670018 -0.2106716030221622 -0.9558761518955529 -0.4477489436047536 3.541531135702685 
-1.038430742213516 -0.7916723985785337 -2.031946543230689 0.8920194732219567 -0.7473710899316441 0.3043129334003287 3.108984549708501 
-0.5788196345001733 1.830281621453303 -0.2488786840087603 -0.1734904418656499 -0.3419840593188324 -0.2229708903032263 -0.1783977217172628 
-1.049890068364659 2.151588762635666 1.079836488311354 -0.1896221597357296 -0.3952456486932271 -0.8505948599597306 -0.3091230405390145 
0.4528143422892739 -0.7801759679641458 -0.7264544953521217 0.1121183266851467 0.112147867794683 0.7900670154867631 1.033948690770965 
-0.7927799314078613 -0.5883408038157825 -0.02295593345333152 -0.2305407486914622 0.6854521581536881 -0.2847741574386009 2.554677001236414 
0.04420093603197923 -0.02223058782097959 -0.04042468243644609 -0.02107325406056272 -0.06400311299582323 -0.0194008475067644 -0.06791842720080818 
0.05240940844063514 -0.007536758821330001 -0.002935528933530955 -0.02314722985627967 -0.03585512528864541 -0.04731058406640078 -0.01390394496705211 
0.1031668369767886 -0.01955907396376107 -0.008357421394806452 -0.01452678522841132 -0.02985328614735545 -0.09233139131121816 -0.01684348782783871 
0.03899465077543596 -0.02393923017511366 -0.01485180794825899 -0.03336934090026213 -0.03412580916169049 -0.01136351860033907 -0.01843715312476057 
2.41901038179464 -1.071601439561196 -0.1479562842602409 -0.5113252565392495 -0.3975609234417762 -0.8583744515110869 -0.1129125939966039 
-2.545626072564274 4.972491151275753 -0.8833316231031237 -1.308808380117997 -1.286873177966189 -1.879286880483473 -1.182686024207267 
0.04038965542660885 -0.01177376466842451 -0.02124863219466528 -0.02021788668756607 -0.0542843850852019 -0.01667734123835683 -0.04394505606533771 
0.06782823014352816 -0.01184189965192395 -0.07255395512416925 -0.02088928479275329 -0.04233193855351258 -0.01961569909340346 -0.02480354157289606 
0.006085826281972127 -0.001013177928258126 -0.0001659937197559345 -0.00209146292495314 -0.004674213127601946 -0.005486011647909494 -0.001161299075909405 
2.495655267005328 -0.9825880975567907 -0.3600104285108431 -0.3998174655409415 -0.545375194998619 -0.6771474235549337 -0.2405333128736785 
-0.3244379794175388 1.918965280073197 -0.3489939818955877 -0.1276035285809106 -0.4936971085087495 -0.2322492841739826 -0.2261364929378483 
-0.3504625202781039 0.6435993495356098 0.7374347303428216 -0.0813153916119026 -0.2466623368647372 -0.2606941136987591 -0.2981736015122612 
0.6560685313433009 -1.255803584402928 -0.1617305698350557 1.326230920949797 0.4580614137170902 -0.8913944109029558 -0.1127134410883966 
-1.887200171867405 -0.7631287245876428 -2.276012567430359 2.341522437653352 3.592730153506777 -0.8548569013176883 -1.439600181840299 
0.1075416955741862 -0.00738774194751172 -0.2044531639501603 -0.01621147353350315 -0.07807659433722183 -0.005242699447838815 -0.1046406670422281 
0.04158014583394085 -0.005281647235516568 -0.008316195914259961 -0.04246480368728379 -0.02808804901197808 -0.03594845598165661 -0.01872744010856265 
0.7609316843918317 -0.6941653125034716 -0.07959113057054322 -0.3149205055142166 -0.2013089565069328 -0.371397435378485 -0.111751935176412 
0.05085051639365367 -0.06846051009096253 -0.04416744576732271 -0.0357202681102619 -0.06498699337062325 -0.03097973660266866 -0.06587740764657259 
0.5237915720241667 -0.5945061657598395 -0.6173643969537825 -0.4781859813719862 -0.4822404735744951 -0.4659202349014104 -0.4230793419529689 
0.01887939469033849 -0.01140307349166872 -0.03458616911490557 -0.008553579981283638 -0.02912807000259328 -0.005692824021379322 -0.03682931230468143 
-1.64116394857584 -0.9997621653362602 -0.1292944000238433 3.554527536597197 -0.4149871730849368 -1.375416142974738 -0.1250064032682213 
0.08596699047822258 -0.07538085357989154 -0.1016301230615804 -0.06967475693894258 -0.08905222438805518 -0.05381816289243396 -0.08651419877743749 
0.01226500708030872 -0.00115321025992265 -0.004313670297850957 -0.003644211651076085 -0.01075760577326341 -0.008429829825883131 -0.01350664088522795 
0.1838505294041433 -0.05885267162284191 -0.04789786740433551 -0.200925262491923 -0.07079926031173119 -0.08630275309240371 -0.03687472375162553 
0.05622307585605656 -0.05281796274523835 -0.009859668178415746 -0.06661754032247785 -0.04952688891734287 -0.02890347705991017 -0.03604971828157411 
0.04100973077059327 -0.006941164531478073 -0.01300914981492445 -0.05065052164501086 -0.04251538305892408 -0.01922530643340097 -0.03047929814933061 
0.03379710870288802 -0.009944624911865003 -0.004193865835333733 -0.02488575438870299 -0.02628064701989618 -0.01757702273927661 -0.01085973227979892 
0.02205813611690513 -0.02156947433875036 -0.004098670711736446 -0.01313361331559914 -0.01280052634999639 -0.005794448563295863 -0.004505872283706746 
0.1011324868712466 -0.04428535052546068 -0.07152805480667024 -0.06543005844769621 -0.0626059878186597 -0.05116200611886714 -0.05135728873445131 
0.005324049013408388 -0.00630064065451412 -0.0007883738171778163 -0.005611392823248161 -0.007379599501352171 -0.002466885227299023 -0.004704130958238656 
0.01775147043343253 -0.004346479836311815 -0.006542230846946055 -0.02008358483884829 -0.01054591389263089 -0.01502820669273881 -0.008268267656395585 
0.4478615251021971 -0.4614585531183559 -0.4789019933122857 -0.2655427873961549 -0.5856441600783395 -0.2228987848256668 -0.5679695377502374 
0.01284814317281958 -0.01802259549456235 -0.005879854335767115 -0.01220938273293352 -0.009630668544689166 -0.006701049512913181 -0.01406053914442153 
1.083398277295153 -0.4888638068370065 -0.04009053347586648 -0.2480616380474639 -0.1114856367413568 -0.5502365755096748 -0.04671420871014526 
-0.1724426809389788 -0.3760317409014505 0.5288874072708348 -0.1979003699501358 0.8273483448297337 -0.1990617987336136 -0.3194313695702437 
0.01034987347188047 -0.0004849658611973551 -0.01161027525620217 -0.0001370870249708234 -0.02213896367689691 8.981102419492988e-05 -0.02039856081153207 
0.1910497759265408 -0.1034664096869774 -0.08802766587956892 -0.1406573598293948 -0.1744709028160404 -0.1427454211989805 -0.1538956712986194 
2.690017503216415 -0.6567023403347231 -1.151157422998171 -0.4677644951213458 -0.5675298986431775 -1.460036990516484 -0.6725652731654135 
0.1916105048144857 -0.02958902316336193 -0.1575824011724529 -0.07821754949157524 -0.1527591822125996 -0.1110438706702333 -0.1687753582832964 
0.0811032517952886 -0.03736362556094869 -0.0153939340596621 -0.05089257247945539 -0.04533200806629602 -0.0796478133809187 -0.03082352731386524 
-1.173919695573775 -0.6683804067635061 -0.02653533251359602 2.744309244015653 -0.1314775905381363 -0.7225014251034081 -0.05036965902471235 
0.5242118244022597 -0.1874766021308832 -0.5744607396071311 0.9454197381874986 0.2993043900199565 -0.01580256471128741 -0.2842854162729487 
-0.5744518903853597 -0.1450698555279962 -1.020904926064655 -0.02085238447018968 1.868827491996304 -0.03798279237081294 0.06895454327207963 
0.07190898163885859 -0.04083161957833775 -0.03240609740333539 -0.02671847674587344 -0.05593096952557139 -0.03576201421575435 -0.04259449171816555 
0.0167759698163336 -0.002233427369442968 -0.000276308439475244 -0.002925939415479654 -0.006185767791235466 -0.01299481917016789 -0.002406672328973693 
0.0334605950489973 -0.005257772063779011 -0.001527571348528927 -0.007804691453267984 -0.01881269350382974 -0.03091320701157857 -0.005930515622343701 
0.0115940930750874 -0.003463037513236108 -0.001468186613261057 -0.002351539631104466 -0.004568137445029651 -0.002088440601060054 -0.001544181073683633 
0.05104741959533975 -0.04168558482744598 -0.01903327906961209 -0.02747870482942974 -0.04501982777470791 -0.03998159409938182 -0.04846701978090517 
0.004900027828869984 -0.006126187992232838 -0.001809289786144136 -0.0052668204095299 -0.001619324842027346 -0.005085038024503945 -0.001981063753513514 
0.01794041543543989 -0.009992591155046311 -0.003253897110567505 -0.03349327284186126 -0.01714373580115367 -0.0149057649269145 -0.01082946870698026 
0.01272963666650344 -0.001647725719686468 -0.00280566117273001 -0.008557043248488447 -0.01963185766746178 -0.009915343571404417 -0.01253305724749154 
0.261180930141497 -0.04071064972185841 -0.132948280939304 -0.1589473694343374 -0.1425771973160558 -0.1296839254755379 -0.124753711179743 
0.003704196535265325 -0.00325944189214339 -0.0006087657947420591 -0.001447381374600639 -0.001059050349458111 -0.001421519655797399 -0.0009929885733248646 
0.009815401503064036 -0.005672286367523769 -0.0003872762449054148 -0.006147632201689911 -0.009197203759060612 -0.007171839970656375 -0.003326895480597416 
0.1377146542544306 -0.1385624709538326 -0.1602435762285432 -0.1023781220903773 -0.1975516788916214 -0.09278269268248454 -0.181524558066177 
0.1006521483424004 -0.03211327986011277 -0.01692115013238812 -0.03472435617463621 -0.08360102420347375 -0.04278083409696633 -0.04025760534059402 
0.03929697406339721 -0.01074288419924477 -0.005080374556548184 -0.0114028069894574 -0.0192995585000129 -0.01128003091266526 -0.008088342552915476 
-1.467884388033185 -1.07389245752764 -0.2851036559349908 3.221233257829568 0.06089879472297996 -1.051627026674496 -0.2015310992784613 
0.1075399386096322 -0.07690624926148401 -0.08797296695617811 -0.02655054306215163 -0.120293101613759 -0.009366074201641799 -0.1004990049248154 
0.00738534039703514 -0.006498350447196497 -0.001216751401164179 -0.002890671559322345 -0.002115734054052185 -0.002839296238364141 -0.001984010991452567 
0.0173647488554938 -0.02495937356145311 -0.009640351651154847 -0.0212607006938054 -0.01633671739878479 -0.02243351892676983 -0.01723541382000525 
0.02366084152950322 -0.01814604235638298 -0.006201301584016101 -0.02200303087075919 -0.01704924589258471 -0.02661294255973699 -0.01087384210995315 
0.06059988487079809 -0.03054019563063323 -0.01857235298943315 -0.06205135291468453 -0.04886838047076144 -0.04622901576238983 -0.03750046199014612 
0.0468161779067123 -0.01456452012739109 -0.05222447291654674 -0.0228500825786634 -0.07647361999080264 -0.0162989656226433 -0.074488742517586 
0.05844561626414548 -0.02422664622945073 -0.0005826027494540196 -0.04657110039494163 -0.02855981401399295 -0.02493570840538347 -0.00771876996232145 
0.1021854174352464 -0.00510877609762618 -0.04171852484846969 -0.06555845079823644 -0.05625604157569931 -0.05429169522940733 -0.05475645066712286 
0.1398571434542265 -0.04074587364386753 -0.03457600512711931 -0.1014927794585989 -0.08121062721274162 -0.1029323443953541 -0.07286814974950358 
0.04114630773374116 -0.04197812696283688 -0.05152325813321759 -0.02875377810927083 -0.06062646472838364 -0.01363957372484287 -0.05400563613591099 
0.03069388153383094 -0.008818422032154322 -0.006736083919575977 -0.0118971027046934 -0.0139621055788547 -0.03174342991748202 -0.0088088762239736 
0.1257945867383177 -0.1772027207897674 -0.07844066483037761 -0.1321373183209922 -0.1268893720444684 -0.06331130579506339 -0.09234376865073154 
0.04535811858949663 -0.0590878992990105 -0.02011627343552154 -0.03243473051414096 -0.03948490323214569 -0.02582999377238547 -0.02659099109852195 
0.00676459253306552 -0.01306390507594594 -0.000485056780713678 -0.003102369927528714 -0.001838172380521002 -0.001600065935042575 -0.001836735620396085 
0.0495972161004149 -0.003424878032599246 -0.07302216850958027 -0.01122089575083384 -0.09723568965161697 -0.007540933191466916 -0.08277328761025764 
0.03266139289302505 -0.00032296701106909 -0.05105570388755925 -0.00014034313172312 -0.02447312363795263 -0.0001024330128182622 -0.03760352054407591 
0.07119756476203934 -0.0142343460914762 -0.002903890971384508 -0.01398895778749219 -0.005022386887805498 -0.0592050889994823 -0.006527712830483044 
0.2614979716677356 -0.1178397206007768 -0.02357362377041564 -0.2455735852355092 -0.1631784230149964 -0.0945070873630711 -0.05889941939995336 
-0.4785891588342803 -0.3031742181008287 -0.009012051746653572 1.510811366514087 -0.1093278872636929 -0.4076899487667171 -0.02343262549907628 
0.007128603972933838 -8.581177538267515e-05 -0.0005010687974697371 -0.01338627166240607 -0.003046848413081202 -0.005794331402498585 -0.0009547935226930414 
0.04598477554727267 -0.005004490401340499 -0.001814542454070864 -0.004145103322728385 -0.009355774033413543 -0.04718506886424301 -0.00601417162387874 
0.06071576153459433 -0.01449485036537038 -0.004664316541086158 -0.04610778731715358 -0.05450963051604726 -0.0226449424902479 -0.008496266847902306 
0.004116510681152811 -0.0003659003379820065 -0.0004620394562346751 -0.00248346578499007 -0.004647705530843282 -0.003715456487668134 -0.002490926968421748 
0.1417415797238615 -0.05670132887746197 -0.01284364748986051 -0.05370266882118872 -0.05520956390549722 -0.05773140318576322 -0.0246349781884555 
0.08016295465429772 -0.06300488332147104 -0.05840257446876383 -0.07417843335731303 -0.08180457664682994 -0.06383456296907908 -0.07684029537026607 
0.02785772621332427 -0.002776236454484024 -0.001356450740904053 -0.005398411507252864 -0.01090038685552534 -0.02491930987033908 -0.006832978028541483 
0.006964547980301094 -0.001586533418976756 -0.0001617661087234553 -0.001823171202025271 -0.005106958788669647 -0.007441557370368254 -0.001950144055467257 
-1.372733034570103 2.95254401100786 -1.107098508734516 -0.525418840695183 -1.108379415157088 -0.106543468374511 -0.7150398894620974 
1.755176055944129 -0.7288137413460346 1.088793605157591 -0.6247639590984819 -0.4755098289236568 -0.9547924513813496 -0.2141572838394105 
-0.9857284786922778 1.488255024337881 1.154558255536762 -0.1238334591306069 -0.4154372786389605 -0.5770524076861574 -0.4187363535237216 
0.05569322947077908 -0.005980489978556145 -0.001666615355029133 -0.009807955793759017 -0.02052184592110353 -0.05803243638384899 -0.008191734790087236 
0.008196306680588889 -0.002201788700966097 -0.001168949741491206 -0.003830583300050813 -0.007146056218875688 -0.00949634474195255 -0.004960690326608728 
0.02183818651434215 -0.01547342329194652 -0.004992539012081581 -0.01590852848451481 -0.0220684262291687 -0.02327843234703118 -0.01110620863466666 
0.1353484042486449 -0.0109985882338027 -0.03935446086529362 -0.02579978653576664 -0.05860591838901162 -0.110997024679459 -0.05666504783099637 
0.01063974199870485 -0.01027819602473308 -0.008927417413383506 -0.009968671968916343 -0.01057897775285568 -0.009753608122383023 -0.01014697382215282 
0.07140373559063327 -0.04103951923379511 -0.02275845353973661 -0.06402702881428857 -0.05588426778136792 -0.04387877950598216 -0.03879680904234659 
0.01254167241193126 -0.0002278454195190224 -0.02366057805787632 -0.0001312998732194615 -0.02427155774067397 2.275816896091349e-05 -0.02172993590292447 
0.004116510681152811 -0.0003659003379820065 -0.0004620394562346751 -0.00248346578499007 -0.004647705530843282 -0.003715456487668134 -0.002490926968421748 
0.04029206448973306 -0.0005620687214330758 -0.06940120464964965 -0.004556003713027859 -0.01750164277098117 -0.008821719802026881 -0.03717719542510382 
