solver_type L2R_LR
nr_class 7
label 0 1 2 5 6 3 4
nr_feature 93
bias -1
w
2.467890666601727 -4.472060682209875 -4.513116389836521 -2.994958710246189 -2.833305559891957 -2.120957455354746 -3.041010698117091 
3.564346146834469 -4.521120451097836 -4.438429733794886 -3.540237166611167 -3.038527213671749 -3.772692425305288 -3.314119777818825 
1.353201299326495 -4.538501958054542 -0.8203500879305018 -5.770903992512549 -0.8658628507868782 -7.001215729585024 -0.7938808929381798 
1.584052372086368 -1.731411854783844 -3.867992510924138 -2.183404071683236 -2.131969882775529 -3.125903404602612 -3.644271768316878 
3.729214849561391 -3.725223502239724 -5.748013975816099 -3.167627130222288 -5.665726349220992 -3.514405720984744 -5.269720382089993 
0 0 0 0 0 0 0 
0 0 0 0 0 0 0 
2.859916734373524 -4.197563621829817 -2.749029315357272 -3.832223531201336 -3.57460181263347 -2.370977785870722 -3.222695488374377 
0 0 0 0 0 0 0 
0 0 0 0 0 0 0 
-5.291702874227901 4.386688425785154 3.035836815106107 3.505712386485061 2.214862300486351 4.637215724110231 2.391043111877128 
2.26169585890194 -3.630309856005544 -5.5056942545877 -3.214060895723495 -2.983093326342234 -2.031929860563791 -3.966728055132422 
2.759540062838424 -3.809418751000401 -3.514152198819698 -3.041715115084798 -2.419474517611457 -3.290052169184996 -3.190724218977475 
2.430246197003662 -5.324546617946116 -5.120313524095481 -1.644881690573598 -3.772245886297748 -2.510164417371297 -4.717883887907412 
3.866022663752485 -4.43434062983645 -4.098880199361866 -3.612930719729838 -3.888892646479757 -4.313420091034772 -4.167997747406937 
3.178726871852237 -2.944696693745286 -3.983664616219743 -3.838485368539478 -3.040237497029689 -4.771639514827887 -3.979205719333903 
3.047385996672882 -3.263657556151499 -4.28225641637691 -3.295745395423543 -2.584529201171647 -3.767603017668992 -3.145277960069075 
2.917945802525666 -2.506993918895697 -2.80063499792753 -2.973966685681326 -3.340717421658264 -3.553355919988233 -3.091429463160623 
1.851667229959918 -2.536295497768582 -2.810169994906634 -2.267773606092192 -2.448915047390597 -2.95713316287241 -2.827302159037715 
3.453052903091276 -3.204389654068604 -3.208247552357668 -3.208817589182885 -3.286804740783316 -3.346481291781086 -3.305490709670352 
2.846864327141383 -2.562482395864068 -2.686567060324029 -3.295739934129981 -3.247338922815293 -3.667652199647993 -3.792187007378027 
2.328384768248184 -3.357576036214156 -3.681423309607023 -3.037531563252757 -3.793887318221517 -1.948450621735176 -3.540373399856906 
2.649446303218599 -3.467662204462717 -3.894471126379448 -3.165101469286899 -2.489965765903418 -2.94555973366491 -2.30306007018763 
1.945413451899885 -2.684255883486731 -5.183651260631364 -3.147696245765535 -4.226768394066414 -2.142877330324363 -4.35115868339444 
1.808179693538472 -3.347239099648668 -2.268539462522192 -3.863859285297566 -3.185991509074739 -2.204549699681408 -2.619078402217436 
2.033584594608032 -3.068617076203412 -4.254288250789187 -3.133136903768231 -2.478136197314189 -2.300505573836272 -3.592709421535407 
1.742994321496514 -3.122933686487876 -3.127041660416984 -2.877475918157713 -2.66790169610208 -2.288611230572524 -2.292827570076065 
2.499130008815409 -3.719128312757233 -3.149364506110131 -2.547375717133969 -1.758062456672394 -3.126625127951249 -1.949205666811988 
1.737754256413468 -1.792313582882477 -2.754272590544536 -2.323836200428003 -2.821199092403463 -3.10181124702221 -3.08398134612855 
2.731057634215058 -2.247996325940565 -4.298270666359992 -3.577680959088121 -4.529905542731896 -3.599718625266505 -4.152134507821542 
1.892286248686963 -1.649398619319794 -2.307619408812106 -3.28066944265958 -2.70436273835606 -3.970093457720021 -3.713970952585311 
3.678951717170559 -3.823031632986044 -3.281176552209475 -3.241160834125171 -2.925770151730092 -3.26517167916484 -2.930764667591534 
2.602078361707642 -2.501186387063138 -3.199016268119894 -2.770981479448348 -3.19730936651702 -3.258982213605972 -2.961747947684726 
2.733948672479152 -2.853960601624192 -3.325206097151435 -2.732100039784983 -3.375270337652004 -2.927520544671891 -3.385584068847455 
3.302666804233386 -2.719179241739429 -3.683739865234197 -3.338138394503801 -3.240704977021698 -3.561230061627357 -3.401978085109926 
2.883015425931375 -3.42893637632936 -2.517898029624993 -2.618547440415123 -2.483396842555044 -2.146089494763413 -2.565935823956174 
2.789867862562869 -2.517587373003244 -2.411199188391342 -2.335430760602344 -2.24529102726792 -2.706885887704677 -2.463486117399749 
0.1811575170649463 -0.1591493576463206 -0.2210023496876216 -0.2052209789371292 -0.1809816609740241 -0.3242790238972076 -0.2195515440507161 
2.026447669455631 -4.003182222652911 -2.767627837472108 -3.383857424874651 -2.670365638929528 -2.137278874045331 -2.514272120126214 
6.205518656996764 -5.280269116840659 -4.408186620445778 -4.951507029854149 -4.301148216883635 -5.432382780537842 -4.184465210836231 
2.952594124083797 -2.673290283265843 -2.453227832138006 -2.993508146686866 -2.946100113195226 -2.85995150217666 -2.912172783349341 
4.075243708022169 -3.561105506981368 -3.571567992407468 -3.786463558558189 -3.537650612490524 -4.213440688548381 -3.628582416894749 
3.181892365746146 -4.734618523570238 -4.333615734361577 -2.746044916031366 -2.999383579959146 -3.457672078025621 -2.899418384932769 
3.461172209348648 -2.772764382418745 -2.607852944251861 -2.614718798189533 -2.85475016133336 -3.498299097638285 -2.693683211538733 
3.65757565802801 -3.65442994562574 -3.461344634666937 -3.302788174598002 -2.573161162838603 -4.094291924235083 -2.449717708814232 
1.820140018127726 -1.418740532934486 -3.578070004638293 -3.395435137425999 -3.71438570648711 -4.390576383327189 -3.081845710642959 
3.966522310927066 -3.528863634964643 -3.914325571206864 -3.227872921693952 -3.499367991257464 -3.060870641855551 -3.190148656270488 
2.878981916868028 -3.200045614082052 -2.528714020696419 -3.174389279789126 -2.595113051529666 -2.047556413899482 -2.466853446855244 
1.977292695811504 -3.860842723208183 -1.863990181050098 -3.516306891171114 -2.621054615329935 -2.037619460334905 -2.693467570351093 
4.015827910081699 -3.438815668891203 -2.941553367202489 -3.05144630118447 -2.996978892301319 -3.309402105052915 -2.908967888029087 
4.057448164756253 -3.575015677918096 -3.272387049361141 -3.12594239527461 -3.250563125516582 -3.464391335757856 -3.022841858731028 
2.816736202089758 -2.795452468949615 -2.206029467888043 -2.273212138387986 -2.250168725775902 -2.438212972532638 -1.935197482738314 
2.31066194926979 -2.161451069382535 -2.706889122096233 -2.014541767587079 -1.991992138939784 -2.732120743446277 -1.58900105268302 
1.151456207165511 -0.9055361734685792 -0.7153748204642689 -0.8382839034145684 -1.023217942406299 -0.8893907727229966 -1.005212496747262 
1.488149516691905 -1.050688140050815 -1.235147606293753 -1.143920219366274 -1.240745043588947 -1.281692749088658 -1.198154205611778 
3.734436907981129 -4.567602869316202 -3.621596333900941 -2.804035680228759 -3.803455358650679 -3.271263237670584 -3.429728190206399 
3.739273420839311 -4.905034119083435 -3.695141610457616 -4.61289364389602 -4.034177336627992 -3.409834926590976 -2.556304084612976 
1.818840976130706 -3.358617327148501 -2.523272809049374 -2.896164244771477 -0.2080319035402402 -3.671487999390727 -1.465604824990847 
-0.09905087362954428 -3.426851714366098 -3.112222684261871 -2.02332381032194 -0.7433757796014788 -1.920498371349426 -2.678796454690925 
0.7335081159610652 -0.5867488345350591 -0.4125994081023274 -0.7188627796115075 -0.8210287690665881 -0.5711529702729536 -0.6759000689751933 
1.43665821884913 -1.109027538450545 -0.6033735798978037 -1.050886267019328 -0.6483637394307575 -1.394715324173063 -0.6471195712218079 
2.36524874222704 -2.198457327948491 -1.857914763409502 -2.292294109649004 -2.348953513426345 -2.437360098203905 -2.17271447682307 
2.526898138904865 -2.456836273260131 -2.640052861615309 -2.493614869551344 -2.645252385212581 -3.659325229721834 -2.384288900125543 
2.539956299827479 -2.549975037951623 -3.011391549099828 -2.51944003790124 -3.061038380281406 -2.931427263703365 -3.050303751632321 
3.026010003130587 -2.813035970722681 -3.465436314739051 -3.407283884973054 -2.985906034561382 -2.81849666516333 -3.327604389801393 
2.312243958592513 -1.733585757770056 -2.149068871361999 -2.499828579481933 -2.231464010489118 -2.748462997822294 -1.969924049108398 
2.978843051017792 -2.3128324366117 -2.792004934557377 -2.382692267769793 -2.788006833724757 -2.447336942216511 -2.550913403989099 
-1.777080372448655 -1.306531344836547 1.673645202418344 -0.9594152868951797 -0.1936376837938572 -1.847392682646106 -0.3159327961758974 
0.02032272542825115 -0.07229869754576046 -1.209861584423126 -1.203759054448609 -1.790212020898679 -1.369320208726773 -1.785323475201531 
0.7616682423167391 -1.024669728766151 -0.612265998577587 -0.7530539196010487 -0.8219896970236121 -0.3004816517700856 -0.7220719343301756 
1.009272188845081 -0.3387657732210474 -1.236473072644268 -0.3279901106791999 -1.25197970625189 -0.3726155513544156 -1.235217853336732 
1.713284882576665 -2.676758824534532 -3.976334440993491 -1.690228206967961 -2.568144347212871 -3.596962475896322 -2.602484816892148 
0.4048935175910394 -3.056451495702501 -3.238369382791449 -2.851495370730909 -3.14645276483846 -0.8425637786546865 -0.8514669519999359 
0.8629976220057112 -0.7141504438848837 -0.8450142666934053 -0.9817480453881521 -0.9769812803289526 -1.108693109397188 -0.8178324371340815 
1.201635872937472 -4.266503272651396 -1.68912558924723 0.0440557211165193 -3.117297777647765 -3.778175947439454 -3.028430230595288 
1.306082172570837 -1.203836668037435 -0.440914989661697 -0.892782429428024 -0.6832709510818543 -1.011395858392145 -0.40692590477824 
0.1613069827577391 -0.1034424859199938 -0.06948992318242878 -0.104744707135189 -0.1517993323294414 -0.1917793295863925 -0.09660720860142993 
0.5264043119813951 -0.4596872751525636 -0.349506686964331 -0.5447118704526676 -0.6370804993989063 -0.4011856576301279 -0.499653656611134 
1.065122575714653 -0.8607342267908198 -0.5283104900468064 -0.7287475703473771 -0.6761100191654085 -0.9311159430969379 -0.5615136220114224 
1.558164263888755 -3.107820961778394 -1.969332236691433 -2.118211111202273 -2.257756835499221 -1.321299439766593 -1.717227561143334 
2.738132661725911 -2.198915414086986 -1.589410191410658 -2.119084465649629 -1.707408780296929 -2.403318305336228 -1.647500543035191 
0.7119136684775405 -0.6381084557558255 -0.608708251773266 -0.6705481621467659 -0.7023606176645529 -0.5695550729639868 -0.6264648014157476 
1.251195050703217 -0.9175270839984858 -0.874318503362134 -0.8029738871780916 -0.9115942490005835 -0.983437134742849 -0.8634810976562042 
2.673025227764515 -2.545491375974896 -1.96144726461863 -2.34355561844907 -1.942633455475384 -1.943255856011858 -1.89079804449251 
2.851273317720588 -2.399131480370865 -1.523593491448136 -1.957953364050686 -1.609274003123701 -2.718215996117467 -1.52944990433179 
1.637001919695533 -1.920870555880378 -2.305090109956861 -1.959357875359614 -2.182760535166644 -2.069522936978887 -1.882306169674991 
1.98945350426648 -1.795513034096887 -2.120045862948087 -2.027544330983793 -2.346432754287191 -1.399845922879188 -2.230434863648997 
1.327736551542783 -1.273856344731849 -0.6877107489438465 -1.079905252350006 -1.049979382605737 -1.009903303130438 -0.7783721122330094 
1.036319538957339 -0.8474955595544491 -0.5965201531965839 -0.8023736014112859 -0.6829533501060467 -1.05213883372571 -0.6252015136578977 
0 0 0 0 0 0 0 
0.1391300222136069 -0.009606918900076353 -0.2429326886934933 -0.0028370003354161 -0.2149171706513293 -0.000826138492902428 -0.1987597327544902 
0.7129416624508009 -0.737991817495032 -0.258385989484222 -0.5727842008805994 -0.41094861860942 -0.6026816330518558 -0.1669551627652688 
0.749726463271274 -0.360688233502599 -0.7579596879380661 -0.1003484695298857 -0.5838788179557477 -0.1415257449123143 -0.536461454971574 
